<?xml version="1.0"?>
<opencv_storage>
<opencv_ml_svm>
  <format>3</format>
  <svmType>C_SVC</svmType>
  <kernel>
    <type>RBF</type>
    <gamma>5.0625000000000009e-01</gamma></kernel>
  <C>6.2500000000000000e+01</C>
  <term_criteria><iterations>100</iterations></term_criteria>
  <var_count>200</var_count>
  <class_count>5</class_count>
  <class_labels type_id="opencv-matrix">
    <rows>5</rows>
    <cols>1</cols>
    <dt>i</dt>
    <data>
      0 1 2 3 4</data></class_labels>
  <sv_total>195</sv_total>
  <support_vectors>
    <_>
      7.04225339e-03 6.03621732e-03 7.04225339e-03 1.00603618e-03
      1.30784707e-02 0. 2.01207232e-02 2.01207236e-03 1.20724346e-02
      2.51509044e-02 3.01810866e-03 0. 6.03621732e-03 4.02414473e-03 0.
      0. 6.03621732e-03 0. 8.04828946e-03 3.01810866e-03 3.01810866e-03
      5.03018079e-03 3.01810866e-03 4.02414473e-03 3.01810866e-03
      4.02414473e-03 3.01810866e-03 5.03018079e-03 1.00603618e-03
      2.11267602e-02 1.00603618e-03 1.91146880e-02 4.02414473e-03
      1.00603618e-03 2.01207236e-03 1.00603618e-03 1.00603618e-03
      7.04225339e-03 2.01207236e-03 1.00603618e-03 2.01207236e-03
      1.00603618e-03 4.02414473e-03 2.01207236e-03 1.00603618e-03 0.
      1.50905428e-02 8.04828946e-03 1.00603618e-03 2.01207236e-03
      1.00603618e-03 2.01207236e-03 2.01207236e-03 9.05432552e-03
      1.00603618e-03 2.01207236e-03 3.01810866e-03 8.04828946e-03
      7.04225339e-03 5.03018079e-03 2.01207236e-03 2.01207236e-03
      3.01810866e-03 4.02414473e-03 8.04828946e-03 1.00603618e-03
      8.04828946e-03 5.03018079e-03 3.01810866e-03 9.05432552e-03
      2.01207236e-03 6.03621732e-03 1.00603618e-03 3.01810866e-03
      1.00603618e-03 0. 3.01810866e-03 1.20724346e-02 0. 2.91750487e-02
      0. 0. 1.00603618e-03 2.01207236e-03 5.03018079e-03 5.03018079e-03
      5.03018079e-03 3.01810866e-03 7.04225339e-03 4.02414473e-03
      1.71026159e-02 2.01207236e-03 1.00603618e-03 6.03621732e-03
      3.01810866e-03 0. 3.01810866e-03 1.00603618e-03 1.00603618e-03
      5.03018079e-03 1.00603618e-03 0. 7.04225339e-03 1.00603618e-03
      1.10663977e-02 6.03621732e-03 1.00603618e-03 6.03621732e-03 0.
      3.01810866e-03 3.01810866e-03 2.01207236e-03 1.00603618e-03
      4.02414473e-03 1.10663977e-02 5.03018079e-03 6.03621732e-03
      1.20724346e-02 1.00603618e-03 1.91146880e-02 5.03018079e-03
      4.02414473e-03 3.01810857e-02 2.21327953e-02 3.01810866e-03
      3.01810866e-03 0. 3.01810866e-03 3.01810866e-03 3.01810866e-03
      1.00603616e-02 1.00603618e-03 1.00603618e-03 3.01810866e-03
      2.61569414e-02 3.01810866e-03 8.04828946e-03 6.03621732e-03
      2.01207236e-03 4.02414473e-03 9.05432552e-03 7.04225339e-03
      5.03018079e-03 9.05432552e-03 3.01810866e-03 7.04225339e-03
      1.00603618e-03 8.04828946e-03 0. 5.03018079e-03 2.01207236e-03
      6.03621732e-03 4.02414473e-03 2.01207236e-03 2.01207236e-03
      1.20724346e-02 2.01207236e-03 6.03621732e-03 1.40845068e-02
      5.03018079e-03 4.02414473e-03 2.01207236e-03 1.10663977e-02
      4.02414473e-03 4.02414473e-03 3.31991948e-02 2.01207236e-03
      5.03018079e-03 8.04828946e-03 1.00603618e-03 2.01207236e-03
      2.01207236e-03 3.01810866e-03 7.04225339e-03 9.05432552e-03
      1.00603618e-03 4.02414473e-03 0. 2.01207236e-03 7.04225339e-03 0.
      0. 1.00603618e-03 9.05432552e-03 1.00603618e-03 2.01207236e-03
      1.00603618e-03 2.01207236e-03 2.01207236e-03 2.01207236e-03
      3.01810866e-03 5.03018079e-03 5.03018079e-03 2.41448693e-02
      2.01207236e-03 2.01207236e-03 2.01207236e-03 4.02414473e-03
      1.00603618e-03 3.01810866e-03</_>
    <_>
      5.06756781e-03 3.37837846e-03 6.75675692e-03 8.44594650e-03
      6.75675692e-03 1.68918923e-03 5.06756781e-03 3.37837846e-03
      3.37837846e-03 1.52027030e-02 1.18243247e-02 6.75675692e-03
      1.68918930e-02 6.75675692e-03 0. 6.75675692e-03 1.68918923e-03 0.
      8.44594650e-03 1.18243247e-02 1.68918923e-03 6.75675692e-03
      6.75675692e-03 5.06756781e-03 3.37837846e-03 6.75675692e-03
      3.37837846e-03 5.06756781e-03 1.01351356e-02 5.06756781e-03
      3.37837846e-03 1.18243247e-02 1.68918923e-03 1.68918923e-03
      1.68918923e-03 1.18243247e-02 1.68918930e-02 0. 1.68918923e-03
      1.68918923e-03 1.01351356e-02 0. 1.01351356e-02 3.37837846e-03
      8.44594650e-03 3.37837846e-03 5.06756781e-03 2.53378376e-02
      1.18243247e-02 6.75675692e-03 6.75675692e-03 1.68918923e-03
      3.37837846e-03 1.01351356e-02 0. 1.68918923e-03 1.68918923e-03
      1.68918923e-03 3.37837846e-03 8.44594650e-03 0. 5.06756781e-03
      1.68918923e-03 6.75675692e-03 3.37837846e-03 3.37837846e-03
      5.06756781e-03 0. 8.44594650e-03 3.37837846e-03 1.68918923e-03
      5.06756781e-03 5.06756781e-03 5.06756781e-03 1.68918923e-03 0.
      8.44594650e-03 0. 1.68918923e-03 2.19594594e-02 1.68918923e-03
      1.01351356e-02 0. 8.44594650e-03 1.01351356e-02 0. 0.
      1.18243247e-02 8.44594650e-03 6.75675692e-03 1.68918923e-03
      3.37837846e-03 3.37837846e-03 3.37837846e-03 5.06756781e-03
      3.37837846e-03 3.37837846e-03 5.06756781e-03 0. 5.06756781e-03 0.
      3.37837846e-03 6.75675692e-03 1.52027030e-02 3.37837846e-03
      1.68918923e-03 5.06756781e-03 5.06756781e-03 5.06756781e-03 0.
      2.36486495e-02 0. 5.06756781e-03 1.68918923e-03 3.37837846e-03
      6.75675692e-03 1.68918923e-03 0. 1.68918923e-03 1.01351356e-02
      5.06756781e-03 5.06756781e-03 3.37837846e-03 4.56081107e-02
      1.68918923e-03 6.75675692e-03 6.75675692e-03 6.75675692e-03 0. 0.
      8.44594650e-03 1.68918923e-03 1.68918923e-03 0. 1.68918923e-03
      3.37837846e-03 0. 1.68918923e-03 6.75675692e-03 1.68918923e-03
      8.44594650e-03 3.37837846e-03 5.06756781e-03 0. 3.37837846e-03
      3.37837846e-03 0. 8.44594650e-03 1.68918923e-03 1.18243247e-02
      1.52027030e-02 8.44594650e-03 0. 1.68918923e-03 0. 8.44594650e-03
      5.06756781e-03 1.68918923e-03 0. 8.44594650e-03 5.06756781e-03
      5.06756781e-03 5.06756781e-03 3.37837846e-03 3.37837846e-03
      5.06756781e-03 6.75675692e-03 5.06756781e-03 1.68918923e-03
      6.75675692e-03 5.06756781e-03 1.68918923e-03 3.37837846e-03
      1.68918923e-03 3.37837846e-03 1.68918923e-03 6.75675692e-03
      1.68918923e-03 5.06756781e-03 8.44594650e-03 3.37837846e-03
      3.37837846e-03 3.37837846e-03 8.44594650e-03 3.37837846e-03
      5.06756781e-03 1.68918923e-03 5.06756781e-03 1.68918930e-02 0.
      3.37837846e-03 0. 1.68918923e-03 3.37837846e-03 1.68918923e-03
      5.06756781e-03 0. 1.68918923e-03 3.37837846e-03 1.68918923e-03</_>
    <_>
      1.02669410e-02 8.21355265e-03 4.10677632e-03 0. 0. 4.10677632e-03
      1.43737169e-02 1.43737169e-02 0. 2.05338816e-03 2.05338816e-03
      6.16016425e-03 1.02669410e-02 4.10677632e-03 1.23203285e-02 0.
      4.10677632e-03 2.05338816e-03 2.05338816e-03 6.16016425e-03
      4.10677632e-03 2.05338821e-02 6.16016425e-03 0. 4.10677632e-03
      4.10677632e-03 1.23203285e-02 4.10677632e-03 0. 1.02669410e-02
      2.05338816e-03 2.05338816e-03 6.16016425e-03 2.05338816e-03 0. 0.
      2.05338816e-03 4.10677632e-03 0. 0. 4.10677632e-03 0.
      2.66940463e-02 0. 0. 2.05338816e-03 1.02669410e-02 1.64271053e-02
      0. 0. 0. 2.05338816e-03 2.05338816e-03 2.05338821e-02
      4.10677632e-03 0. 0. 8.21355265e-03 2.05338816e-03 0.
      2.05338816e-03 0. 4.10677632e-03 0. 1.02669410e-02 2.05338816e-03
      1.02669410e-02 4.10677642e-02 0. 1.64271053e-02 4.10677632e-03
      2.05338816e-03 2.05338816e-03 2.05338816e-03 4.10677632e-03
      1.64271053e-02 2.05338816e-03 2.66940463e-02 2.05338816e-03
      2.05338816e-03 2.05338816e-03 0. 4.10677632e-03 0. 4.10677632e-03
      6.16016425e-03 2.05338816e-03 0. 0. 2.05338816e-03 2.66940463e-02
      0. 2.05338816e-03 2.05338816e-03 2.05338816e-03 1.02669410e-02
      2.05338816e-03 6.16016425e-03 4.10677632e-03 0. 2.05338816e-03
      8.21355265e-03 8.21355265e-03 0. 4.10677632e-03 2.05338816e-03
      6.16016425e-03 8.21355265e-03 0. 2.05338816e-03 4.10677632e-03
      2.05338816e-03 0. 4.10677632e-03 6.16016425e-03 2.05338816e-03 0.
      8.21355265e-03 0. 4.10677632e-03 4.10677632e-03 4.10677632e-03
      1.23203285e-02 2.05338816e-03 2.05338816e-03 1.23203285e-02 0.
      2.05338816e-03 0. 6.16016425e-03 0. 0. 2.05338816e-03
      4.10677632e-03 8.21355265e-03 0. 0. 1.23203285e-02 2.05338816e-03
      1.43737169e-02 2.05338821e-02 0. 4.10677632e-03 6.16016425e-03
      6.16016425e-03 8.21355265e-03 2.05338816e-03 0. 8.21355265e-03
      6.16016425e-03 8.21355265e-03 4.10677632e-03 6.16016425e-03
      2.05338816e-03 8.21355265e-03 4.10677632e-03 6.16016425e-03 0.
      6.16016425e-03 2.05338816e-03 2.05338816e-03 0. 1.43737169e-02 0.
      8.21355265e-03 3.28542106e-02 0. 0. 6.16016425e-03 0.
      2.05338816e-03 6.16016425e-03 2.05338816e-03 6.16016425e-03
      1.23203285e-02 6.16016425e-03 2.05338816e-03 4.10677632e-03
      2.05338816e-03 0. 2.05338816e-03 1.43737169e-02 0. 2.05338816e-03
      1.64271053e-02 6.16016425e-03 4.10677632e-03 4.10677632e-03 0.
      2.05338816e-03 0. 6.16016425e-03 1.43737169e-02 1.23203285e-02
      6.16016425e-03 4.10677632e-03 2.05338816e-03 2.05338816e-03
      4.10677632e-03 6.16016425e-03</_>
    <_>
      4.32900432e-03 1.08225108e-03 1.08225108e-03 1.08225108e-03
      2.16450216e-03 1.08225108e-03 5.41125517e-03 0. 6.49350649e-03
      2.16450216e-03 4.32900432e-03 2.16450216e-03 8.65800865e-03
      2.16450216e-03 1.08225108e-03 0. 3.24675324e-03 3.24675324e-03
      2.16450216e-03 3.24675324e-03 0. 5.41125517e-03 2.16450216e-03
      2.16450216e-03 0. 0. 0. 2.16450216e-03 0. 1.08225103e-02
      7.57575780e-03 9.74025950e-03 8.65800865e-03 1.08225108e-03
      3.24675324e-03 6.06060624e-02 2.16450216e-03 8.65800865e-03
      3.24675324e-03 7.57575780e-03 2.16450216e-03 2.16450216e-03
      1.29870130e-02 2.16450216e-03 1.08225108e-03 0. 2.48917751e-02
      1.08225103e-02 1.08225108e-03 0. 9.41558406e-02 1.08225108e-03
      3.24675324e-03 1.08225103e-02 1.08225108e-03 0. 8.65800865e-03
      3.24675324e-03 1.08225108e-03 1.08225108e-03 3.24675324e-03
      1.00649349e-01 2.16450216e-03 0. 1.08225103e-02 0. 3.24675324e-03
      0. 5.41125517e-03 7.57575780e-03 1.08225108e-03 2.16450216e-03
      2.16450216e-03 1.08225108e-03 3.24675324e-03 0. 2.16450216e-03
      1.08225108e-03 3.24675324e-03 9.74025950e-03 1.08225108e-03 0. 0.
      8.65800865e-03 2.16450216e-03 4.32900432e-03 0. 0. 3.24675324e-03
      3.24675324e-03 7.57575780e-03 3.24675324e-03 1.08225108e-03 0.
      6.49350649e-03 2.16450216e-03 0. 0. 1.08225108e-03 2.16450216e-03
      4.32900432e-03 0. 1.19047621e-02 1.08225108e-03 5.41125517e-03
      1.19047621e-02 5.41125517e-03 1.83982681e-02 0. 0. 1.08225108e-03
      1.08225108e-03 3.24675324e-03 3.24675324e-03 0. 1.08225108e-03
      3.24675324e-03 2.16450216e-03 1.08225108e-03 6.49350649e-03
      4.32900432e-03 2.16450216e-03 1.51515156e-02 3.24675324e-03
      5.41125517e-03 1.08225108e-03 2.16450216e-03 2.16450216e-03
      6.49350649e-03 2.16450216e-03 1.08225108e-03 6.49350649e-03
      1.29870130e-02 2.16450216e-03 1.29870130e-02 1.08225108e-03 0.
      8.65800865e-03 1.08225108e-03 4.32900432e-03 3.24675324e-03
      3.57142873e-02 1.08225108e-03 3.24675324e-03 1.08225108e-03
      3.24675324e-03 1.08225108e-03 2.16450216e-03 2.16450216e-03
      4.32900432e-03 5.41125517e-03 0. 5.41125517e-03 0. 0.
      1.40692638e-02 4.32900432e-03 8.65800865e-03 2.16450216e-03
      7.57575780e-03 2.16450216e-03 5.41125517e-03 1.94805190e-02
      9.74025950e-03 3.24675324e-03 2.16450216e-03 1.08225108e-03
      2.16450216e-03 1.08225108e-03 1.08225108e-03 1.08225108e-03 0.
      1.08225103e-02 1.19047621e-02 2.16450216e-03 0. 3.24675324e-03 0.
      4.32900432e-03 1.08225108e-03 0. 9.74025950e-03 1.08225108e-03
      3.24675324e-03 1.08225108e-03 1.08225108e-03 1.08225108e-03 0. 0.
      2.16450216e-03 4.32900432e-03 1.08225108e-03 4.32900432e-03
      1.62337665e-02 1.08225108e-03 2.16450216e-03 0. 3.24675324e-03
      2.16450216e-03 4.32900432e-03</_>
    <_>
      0. 2.61096610e-03 5.22193220e-03 7.83289783e-03 5.22193220e-03
      2.61096610e-03 2.61096610e-03 0. 0. 0. 0. 5.22193220e-03
      7.83289783e-03 5.22193220e-03 0. 1.56657957e-02 2.61096610e-03
      2.61096610e-03 2.61096610e-03 2.61096610e-03 0. 7.83289783e-03 0.
      1.82767622e-02 0. 2.61096610e-03 1.04438644e-02 2.61096610e-03
      1.56657957e-02 0. 7.83289783e-03 5.22193220e-03 0. 0.
      1.30548310e-02 0. 2.61096610e-03 0. 2.61096610e-03 0.
      7.83289783e-03 0. 2.08877288e-02 0. 1.30548310e-02 1.30548310e-02
      1.82767622e-02 7.83289783e-03 7.83289783e-03 2.61096619e-02
      2.61096610e-03 5.22193220e-03 2.61096610e-03 2.61096610e-03 0.
      5.22193220e-03 1.82767622e-02 7.83289783e-03 2.61096610e-03 0. 0.
      0. 0. 2.08877288e-02 2.61096610e-03 2.61096610e-03 1.82767622e-02
      2.61096610e-03 2.61096610e-03 2.08877288e-02 0. 7.83289783e-03 0.
      1.04438644e-02 0. 0. 2.61096610e-03 1.04438644e-02 2.61096610e-03
      2.61096610e-03 2.61096610e-03 0. 2.61096610e-03 1.04438644e-02
      1.30548310e-02 0. 2.61096610e-03 5.22193220e-03 0. 7.83289783e-03
      5.22193220e-03 5.22193220e-03 0. 0. 2.61096610e-03 5.22193220e-03
      5.22193220e-03 2.61096610e-03 5.22193220e-03 0. 2.08877288e-02 0.
      0. 5.22193220e-03 2.61096610e-03 2.61096610e-03 2.61096610e-03 0.
      0. 7.83289783e-03 2.61096610e-03 0. 2.61096610e-03 7.83289783e-03
      0. 0. 2.61096610e-03 2.61096610e-03 0. 7.83289783e-03
      5.22193220e-03 0. 0. 2.61096610e-03 2.61096610e-03 2.61096610e-03
      0. 5.22193220e-03 0. 3.65535244e-02 7.83289783e-03 2.61096610e-03
      0. 0. 0. 0. 2.08877288e-02 5.22193220e-03 0. 2.61096610e-03
      1.82767622e-02 2.61096610e-03 0. 1.56657957e-02 0. 0.
      2.61096610e-03 2.61096610e-03 2.61096610e-03 0. 0. 5.22193220e-03
      5.22193220e-03 2.61096610e-03 0. 0. 0. 0. 5.74412532e-02
      2.61096610e-03 1.04438644e-02 0. 6.78851157e-02 5.22193220e-03 0.
      0. 0. 2.61096610e-03 2.61096610e-03 5.22193220e-03 2.61096610e-03
      7.83289783e-03 7.83289783e-03 1.30548310e-02 0. 0. 0.
      2.61096610e-03 2.61096610e-03 2.61096610e-03 2.61096610e-03
      2.61096610e-03 7.83289783e-03 2.61096610e-03 5.22193220e-03
      5.22193220e-03 0. 0. 0. 0. 7.83289783e-03 7.83289783e-03
      2.61096610e-03 2.08877288e-02 2.61096610e-03 5.22193220e-03 0. 0.
      0. 1.04438644e-02</_>
    <_>
      2.69541773e-03 1.34770889e-02 8.08625296e-03 8.08625296e-03 0.
      8.08625296e-03 2.69541773e-03 2.69541773e-03 0. 0. 5.39083546e-03
      2.69541773e-03 1.61725059e-02 8.08625296e-03 5.39083546e-03
      2.69541773e-03 2.69541773e-03 0. 8.08625296e-03 8.08625296e-03
      8.08625296e-03 5.39083546e-03 5.39083546e-03 1.07816709e-02
      1.07816709e-02 0. 2.69541773e-03 8.08625296e-03 2.69541773e-03
      2.69541773e-03 2.15633418e-02 2.69541773e-03 1.07816709e-02
      2.69541773e-03 1.88679248e-02 2.69541773e-03 1.61725059e-02
      5.39083546e-03 0. 1.34770889e-02 5.39083546e-03 8.08625296e-03
      2.69541773e-03 0. 2.69541773e-03 1.34770889e-02 0. 3.23450118e-02
      5.39083546e-03 2.96495948e-02 0. 5.39083546e-03 1.34770889e-02
      2.69541773e-03 0. 2.69541773e-03 1.88679248e-02 0. 2.69541773e-03
      2.69541773e-03 0. 0. 5.39083546e-03 2.69541773e-03 5.39083546e-03
      0. 0. 0. 0. 2.69541773e-03 0. 5.39083546e-03 2.69541773e-03 0.
      2.69541773e-03 0. 2.69541773e-03 0. 0. 2.69541773e-03
      2.69541773e-03 5.12129366e-02 0. 0. 2.69541773e-03 0.
      2.69541773e-03 4.04312648e-02 0. 5.39083546e-03 2.69541773e-03 0.
      0. 2.69541773e-03 0. 2.69541773e-03 0. 0. 0. 2.69541773e-03
      2.69541773e-03 5.39083546e-03 2.69541773e-03 2.42587589e-02
      2.69541773e-03 5.39083546e-03 0. 8.08625296e-03 0. 2.69541773e-03
      0. 2.69541773e-03 0. 0. 0. 0. 5.39083546e-03 8.08625296e-03
      5.39083546e-03 2.69541773e-03 5.39083546e-03 8.08625296e-03
      2.69541773e-03 5.39083546e-03 0. 2.69541773e-03 2.69541773e-03
      5.39083546e-03 0. 5.92991896e-02 0. 8.08625296e-03 2.69541773e-03
      2.69541773e-03 2.69541773e-03 2.69541773e-03 1.88679248e-02 0.
      2.69541773e-03 0. 8.08625296e-03 0. 0. 0. 1.34770889e-02
      1.07816709e-02 2.69541773e-03 2.69541773e-03 8.08625296e-03
      8.08625296e-03 1.34770889e-02 2.69541773e-03 5.39083546e-03
      2.69541773e-03 5.39083546e-03 2.69541773e-03 0. 5.39083546e-03
      1.07816709e-02 5.39083546e-03 2.69541773e-03 2.69541773e-03
      1.07816709e-02 0. 0. 0. 0. 2.69541773e-03 2.69541773e-03 0. 0. 0.
      5.39083546e-03 2.69541773e-03 0. 0. 2.69541773e-03 8.08625296e-03
      1.88679248e-02 8.08625296e-03 2.69541773e-03 2.69541773e-03
      8.08625296e-03 2.69541773e-03 8.08625296e-03 0. 0. 0.
      1.88679248e-02 2.69541773e-03 0. 2.69541773e-03 0. 0.
      5.39083546e-03 0. 5.39083546e-03 0. 0. 2.69541773e-03</_>
    <_>
      3.56718199e-03 8.32342450e-03 4.75624250e-03 1.18906063e-03
      8.32342450e-03 4.75624250e-03 2.37812125e-03 2.37812125e-03
      2.37812125e-03 1.07015455e-02 3.56718199e-03 7.13436399e-03 0.
      1.07015455e-02 0. 1.18906060e-02 7.13436399e-03 2.37812125e-03
      2.37812125e-03 3.56718199e-03 0. 4.75624250e-03 1.18906063e-03
      4.75624250e-03 2.37812125e-03 7.13436399e-03 2.37812125e-03
      4.75624250e-03 4.75624250e-03 7.13436399e-03 7.13436399e-03
      9.51248500e-03 3.56718199e-03 2.37812125e-03 0. 3.56718199e-03
      3.56718199e-03 2.37812125e-03 0. 2.37812125e-03 4.75624250e-03
      2.37812125e-03 5.94530301e-03 5.94530301e-03 7.13436399e-03
      2.37812125e-03 0. 7.13436399e-03 7.13436399e-03 5.94530301e-03
      1.66468490e-02 0. 3.56718199e-03 8.32342450e-03 5.94530301e-03
      7.13436399e-03 1.66468490e-02 1.18906063e-03 1.54577885e-02
      1.07015455e-02 5.94530301e-03 9.51248500e-03 5.94530301e-03
      4.75624250e-03 0. 3.56718199e-03 1.18906063e-03 0. 3.56718199e-03
      4.75624250e-03 5.94530301e-03 5.94530301e-03 0. 1.18906060e-02
      2.37812125e-03 0. 8.32342450e-03 1.18906063e-03 2.37812125e-03
      5.94530301e-03 0. 7.13436399e-03 1.18906063e-03 7.13436399e-03
      1.18906063e-03 7.13436399e-03 0. 2.61593331e-02 8.32342450e-03
      3.56718199e-03 1.18906063e-03 4.75624250e-03 0. 5.94530301e-03
      1.18906060e-02 8.32342450e-03 7.13436399e-03 2.25921515e-02
      2.37812125e-03 2.37812125e-03 2.02140305e-02 2.37812125e-03
      1.18906063e-03 1.30796665e-02 1.18906063e-03 8.32342450e-03
      7.13436399e-03 0. 2.37812125e-03 3.56718199e-03 7.13436399e-03
      7.13436399e-03 2.37812125e-03 0. 3.56718199e-03 3.56718199e-03
      4.75624250e-03 0. 1.18906063e-03 0. 2.37812125e-03 3.56718199e-03
      1.18906063e-03 1.66468490e-02 3.56718199e-03 5.94530301e-03
      5.94530301e-03 3.56718199e-03 0. 5.94530301e-03 8.32342450e-03
      7.13436399e-03 3.56718199e-03 5.94530301e-03 0. 1.07015455e-02
      4.75624250e-03 3.56718199e-03 1.18906063e-03 3.56718199e-03
      2.37812125e-03 8.32342450e-03 7.13436399e-03 0. 1.18906063e-03
      9.51248500e-03 3.56718199e-03 1.18906063e-03 1.07015455e-02
      1.18906063e-03 3.56718199e-03 0. 1.18906063e-03 7.13436399e-03
      1.18906063e-03 8.32342450e-03 4.75624250e-03 5.94530301e-03
      1.66468490e-02 7.13436399e-03 0. 1.18906063e-03 2.37812125e-03
      3.56718199e-03 1.18906063e-03 1.07015455e-02 7.13436399e-03
      8.32342450e-03 3.56718199e-03 1.07015455e-02 5.94530301e-03
      3.56718199e-03 2.37812125e-03 1.18906063e-03 4.75624250e-03
      1.18906063e-03 4.75624250e-03 2.37812125e-03 2.37812125e-03
      9.51248500e-03 5.94530301e-03 2.37812125e-03 8.32342450e-03
      5.94530301e-03 5.94530301e-03 1.18906060e-02 1.18906063e-03
      2.37812125e-03 4.75624250e-03 1.18906060e-02 4.75624250e-03
      4.75624250e-03 2.37812125e-03 0. 4.75624250e-03 1.18906063e-03
      1.07015455e-02 7.13436399e-03 1.07015455e-02 1.18906063e-03</_>
    <_>
      3.69458133e-03 9.85221658e-03 1.23152705e-02 8.62068962e-03
      1.23152707e-03 3.69458133e-03 3.69458133e-03 1.23152707e-03
      1.23152707e-03 0. 1.23152707e-03 1.23152707e-03 1.23152705e-02
      6.15763525e-03 2.46305414e-03 4.92610829e-03 6.15763525e-03
      4.92610829e-03 2.46305414e-03 3.69458133e-03 2.46305414e-03
      1.23152707e-03 6.15763525e-03 1.23152707e-03 8.62068962e-03
      2.46305414e-03 3.69458133e-03 1.23152705e-02 3.69458133e-03
      1.23152707e-03 2.46305414e-03 3.69458133e-03 4.92610829e-03
      2.46305414e-03 1.23152707e-03 5.04926108e-02 9.85221658e-03
      1.72413792e-02 2.46305414e-03 3.69458133e-03 4.92610829e-03
      4.92610829e-03 1.72413792e-02 6.15763525e-03 4.92610829e-03
      3.69458133e-03 9.85221658e-03 1.84729062e-02 7.38916267e-03
      1.23152707e-03 1.47783253e-02 4.92610829e-03 1.23152707e-03
      1.23152707e-03 3.69458133e-03 2.46305414e-03 6.15763525e-03
      2.46305414e-03 4.92610829e-03 2.46305414e-03 7.38916267e-03
      2.83251218e-02 7.38916267e-03 6.15763525e-03 2.46305414e-03
      2.46305414e-03 1.72413792e-02 7.38916267e-03 4.92610829e-03
      3.69458133e-03 0. 2.46305414e-03 1.23152707e-03 4.92610829e-03
      7.38916267e-03 0. 3.69458133e-03 7.38916267e-03 2.46305414e-03
      4.92610829e-03 2.46305414e-03 0. 1.23152707e-03 0. 1.60098523e-02
      1.23152707e-03 1.23152707e-03 6.15763525e-03 4.92610829e-03
      4.92610829e-03 3.69458133e-03 3.69458133e-03 3.69458133e-03
      3.69458133e-03 7.38916267e-03 6.15763525e-03 2.46305414e-03 0.
      2.46305414e-03 6.15763525e-03 2.46305414e-03 4.92610829e-03 0.
      1.10837435e-02 4.92610829e-03 1.60098523e-02 8.62068962e-03
      6.15763525e-03 2.46305414e-03 1.23152707e-03 3.69458133e-03
      4.92610829e-03 6.15763525e-03 1.23152707e-03 2.46305414e-03
      3.69458133e-03 7.38916267e-03 1.47783253e-02 0. 1.23152707e-03
      2.46305414e-03 9.85221658e-03 1.10837435e-02 7.38916267e-03
      3.69458133e-03 2.46305414e-03 4.92610829e-03 1.23152707e-03 0.
      8.62068962e-03 0. 3.69458133e-03 3.69458133e-03 2.46305414e-03
      6.15763525e-03 3.69458133e-03 1.23152707e-03 6.15763525e-03
      6.15763525e-03 3.69458133e-03 1.10837435e-02 1.10837435e-02
      3.69458133e-03 6.15763525e-03 4.92610829e-03 6.15763525e-03
      2.46305414e-03 4.92610829e-03 4.92610829e-03 4.92610829e-03
      1.23152707e-03 6.15763525e-03 4.92610829e-03 2.46305414e-03
      2.46305414e-03 1.60098523e-02 1.23152707e-03 2.46305414e-03
      7.38916267e-03 2.46305414e-03 3.69458133e-03 4.92610829e-03
      3.69458133e-03 9.85221658e-03 2.46305414e-03 6.15763525e-03
      9.85221658e-03 4.92610829e-03 2.46305414e-03 1.23152707e-03
      3.69458133e-03 2.46305414e-03 1.23152707e-03 0. 4.92610829e-03
      1.23152707e-03 3.69458133e-03 1.23152707e-03 3.69458133e-03
      6.15763525e-03 3.69458133e-03 2.46305414e-03 1.23152707e-03
      2.46305414e-03 4.92610829e-03 2.46305414e-03 1.23152707e-03
      1.10837435e-02 0. 1.23152707e-03 1.23152707e-03 8.62068962e-03 0.
      9.85221658e-03 3.69458133e-03 3.69458133e-03 2.46305414e-03 0.
      2.46305414e-03 4.92610829e-03</_>
    <_>
      5.01672225e-03 5.01672225e-03 6.68896316e-03 0. 0. 1.67224079e-03
      6.68896316e-03 3.34448158e-03 3.34448158e-03 3.34448158e-03
      3.34448158e-03 1.67224079e-03 3.34448158e-03 1.67224079e-03
      5.01672225e-03 1.67224079e-03 6.68896316e-03 1.17056854e-02 0.
      3.34448158e-03 0. 3.34448158e-03 3.34448158e-03 8.36120360e-03
      1.67224079e-03 1.67224079e-03 6.68896316e-03 6.68896316e-03
      1.67224079e-03 6.68896316e-03 1.67224079e-03 1.67224079e-03
      8.36120360e-03 5.01672225e-03 8.36120360e-03 8.36120360e-03 0.
      1.33779263e-02 3.34448158e-03 3.34448158e-03 1.67224079e-03
      6.68896316e-03 1.00334445e-02 3.34448158e-03 3.34448158e-03
      3.34448158e-03 0. 1.67224072e-02 6.68896316e-03 0. 0.
      1.67224079e-03 0. 0. 1.67224079e-03 6.68896316e-03 8.36120360e-03
      6.68896316e-03 5.01672225e-03 1.00334445e-02 0. 1.67224079e-03
      6.68896316e-03 5.01672225e-03 5.01672225e-03 1.17056854e-02
      3.34448158e-03 0. 6.68896316e-03 1.67224072e-02 5.01672225e-03
      8.36120360e-03 6.68896316e-03 1.67224079e-03 1.17056854e-02
      3.34448158e-03 1.67224079e-03 6.68896316e-03 1.00334445e-02
      1.67224079e-03 0. 0. 1.67224079e-03 5.01672225e-03 0.
      6.68896316e-03 3.34448158e-03 5.01672225e-03 8.36120360e-03
      1.67224079e-03 5.01672225e-03 3.34448158e-03 5.01672225e-03
      6.68896316e-03 3.34448158e-03 6.68896316e-03 5.01672225e-03
      8.36120360e-03 1.00334445e-02 1.67224079e-03 5.01672225e-03
      3.34448158e-03 1.00334445e-02 5.01672225e-03 1.17056854e-02
      3.34448158e-03 6.68896316e-03 3.34448158e-03 1.67224079e-03 0.
      1.50501672e-02 1.17056854e-02 1.67224079e-03 1.67224079e-03
      5.01672225e-03 1.67224079e-03 3.34448158e-03 1.00334445e-02
      1.67224079e-03 5.01672225e-03 6.68896316e-03 1.67224072e-02 0.
      1.33779263e-02 5.01672225e-03 5.01672225e-03 3.34448158e-03
      1.17056854e-02 1.67224079e-03 1.17056854e-02 1.67224079e-03
      1.33779263e-02 8.36120360e-03 6.68896316e-03 0. 3.34448158e-03 0.
      5.01672225e-03 3.34448158e-03 3.34448158e-03 1.67224072e-02
      3.34448158e-03 1.67224079e-03 3.34448158e-03 1.67224079e-03
      5.01672225e-03 5.01672225e-03 5.01672225e-03 3.34448158e-03
      3.34448158e-03 8.36120360e-03 3.34448158e-03 5.01672225e-03
      5.01672225e-03 1.67224079e-03 1.67224079e-03 1.67224079e-03
      1.67224079e-03 2.00668890e-02 8.36120360e-03 3.34448158e-03
      3.34448158e-03 2.00668890e-02 5.01672225e-03 1.00334445e-02
      5.01672225e-03 1.67224079e-03 5.01672225e-03 8.36120360e-03 0.
      1.67224079e-03 1.17056854e-02 1.67224079e-03 6.68896316e-03
      1.00334445e-02 8.36120360e-03 1.67224079e-03 5.01672225e-03
      5.01672225e-03 6.68896316e-03 0. 6.68896316e-03 5.01672225e-03
      3.34448158e-03 0. 0. 5.01672225e-03 6.68896316e-03 0.
      8.36120360e-03 3.34448158e-03 1.67224072e-02 3.34448158e-03 0.
      6.68896316e-03 1.00334445e-02 3.34448158e-03 1.67224079e-03
      6.68896316e-03 0.</_>
    <_>
      6.66032359e-03 9.51474765e-04 5.70884859e-03 2.85442430e-03
      9.51474765e-04 4.75737359e-03 5.70884859e-03 1.90294953e-03
      2.85442430e-03 6.66032359e-03 3.80589906e-03 9.51474765e-04
      1.71265453e-02 1.90294953e-03 4.75737359e-03 7.61179812e-03
      3.80589906e-03 2.85442430e-03 1.42721217e-02 9.51474765e-04
      1.90294953e-03 4.75737359e-03 2.85442430e-03 2.85442430e-03
      2.85442430e-03 7.61179812e-03 9.51474765e-04 5.70884859e-03
      1.90294953e-03 7.61179812e-03 2.85442430e-03 0. 6.66032359e-03
      1.90294953e-03 1.90294953e-03 0. 2.85442430e-03 4.75737359e-03
      3.80589906e-03 1.90294953e-03 2.85442430e-03 4.75737359e-03
      1.90294953e-03 4.75737359e-03 0. 2.85442430e-03 1.90294953e-03
      8.56327266e-03 9.51474719e-03 2.85442430e-03 9.51474765e-04
      1.90294953e-03 3.80589906e-03 1.90294953e-03 2.85442430e-03
      3.80589906e-03 1.14176972e-02 2.85442430e-03 9.51474765e-04
      5.70884859e-03 2.85442430e-03 0. 1.90294953e-03 3.80589906e-03
      1.42721217e-02 3.80589906e-03 0. 0. 2.85442430e-03 4.75737359e-03
      4.75737359e-03 5.70884859e-03 1.90294953e-03 1.04662227e-02
      5.70884859e-03 1.90294953e-03 0. 5.70884859e-03 2.85442430e-03
      5.70884859e-03 9.51474765e-04 9.51474765e-04 5.70884859e-03
      2.85442430e-03 1.90294953e-03 4.75737359e-03 9.51474765e-04
      1.90294953e-03 2.85442430e-03 6.66032359e-03 2.47383434e-02
      1.90294953e-03 9.51474765e-04 5.70884859e-03 6.66032359e-03
      1.90294953e-03 5.70884859e-03 2.85442430e-03 4.75737359e-03
      5.70884859e-03 9.51474719e-03 2.85442430e-03 6.66032359e-03
      6.66032359e-03 2.85442430e-03 7.61179812e-03 3.80589906e-03
      1.37963846e-01 2.85442430e-03 2.85442430e-03 9.51474765e-04
      2.85442430e-03 9.51474765e-04 9.51474765e-04 0. 1.90294953e-03
      3.80589906e-03 5.70884859e-03 0. 2.85442430e-03 1.90294953e-03
      6.66032359e-03 9.51474765e-04 7.80209303e-02 2.85442430e-03 0.
      1.90294953e-03 1.90294953e-03 2.85442430e-03 0. 2.85442430e-03
      2.85442430e-03 6.66032359e-03 3.80589906e-03 9.51474765e-04
      3.80589906e-03 2.85442430e-03 3.80589906e-03 9.51474765e-04
      2.85442430e-03 5.70884859e-03 0. 1.90294953e-03 9.51474765e-04
      2.85442430e-03 2.85442430e-03 4.75737359e-03 3.80589906e-03
      6.66032359e-03 0. 4.75737359e-03 4.75737359e-03 3.80589906e-03
      1.90294953e-03 2.85442430e-03 6.66032359e-03 5.70884859e-03
      1.90294953e-03 9.51474765e-04 5.70884859e-03 0. 1.90294953e-03
      2.85442430e-03 3.80589906e-03 0. 7.61179775e-02 4.75737359e-03
      4.75737359e-03 1.90294953e-03 7.61179812e-03 5.70884859e-03
      3.80589906e-03 2.85442430e-03 2.85442430e-03 1.90294953e-03
      3.80589906e-03 2.85442430e-03 0. 1.90294953e-03 3.80589906e-03
      1.90294953e-03 7.61179812e-03 2.85442430e-03 3.80589906e-03 0.
      5.70884859e-03 2.85442430e-03 4.75737359e-03 0. 0. 3.80589906e-03
      1.14176972e-02 1.90294953e-03 9.51474765e-04 2.85442430e-03
      5.70884859e-03 9.51474765e-04 0. 9.51474765e-04 0.</_>
    <_>
      8.92857183e-03 5.35714300e-03 7.14285718e-03 5.35714300e-03
      1.78571430e-03 0. 3.57142859e-03 5.35714300e-03 0. 3.57142859e-03
      1.78571430e-03 3.57142859e-03 8.92857183e-03 3.57142859e-03 0.
      1.07142860e-02 8.92857183e-03 1.78571430e-03 3.57142859e-03 0.
      5.35714300e-03 0. 7.14285718e-03 1.78571430e-03 3.57142859e-03
      1.78571430e-03 1.25000002e-02 1.78571430e-03 1.07142860e-02
      5.35714300e-03 7.14285718e-03 5.35714300e-03 3.57142859e-03
      1.78571430e-03 1.78571430e-03 0. 5.35714300e-03 5.35714300e-03 0.
      1.78571430e-03 1.78571430e-03 1.78571430e-03 2.14285720e-02
      1.07142860e-02 3.57142859e-03 1.78571430e-03 1.96428578e-02
      1.78571430e-03 1.07142860e-02 3.57142859e-03 0. 7.14285718e-03
      1.78571430e-03 3.57142859e-03 1.78571430e-03 3.57142859e-03
      3.57142859e-03 1.25000002e-02 1.78571430e-03 7.14285718e-03
      7.14285718e-03 0. 3.57142859e-03 1.78571430e-03 0. 3.57142859e-03
      2.50000004e-02 1.78571430e-03 1.25000002e-02 5.35714300e-03
      3.57142859e-03 5.35714300e-03 0. 7.14285718e-03 1.78571430e-03
      5.35714300e-03 1.78571430e-03 1.78571430e-03 7.14285718e-03
      3.57142859e-03 5.35714300e-03 0. 0. 5.35714300e-03 7.14285718e-03
      1.07142860e-02 5.35714300e-03 3.57142859e-03 3.57142859e-03 0.
      1.07142860e-02 3.57142859e-03 3.57142859e-03 5.35714300e-03
      7.14285718e-03 3.57142859e-03 3.57142859e-03 3.57142859e-03
      7.14285718e-03 3.57142859e-03 1.42857144e-02 1.78571430e-03
      5.35714300e-03 3.57142859e-03 1.07142860e-02 1.78571430e-03
      1.78571430e-03 1.78571430e-03 0. 1.07142860e-02 3.57142859e-03
      5.35714300e-03 5.35714300e-03 1.78571430e-03 7.14285718e-03
      3.57142859e-03 7.14285718e-03 5.35714300e-03 1.78571430e-03
      1.78571430e-03 1.78571430e-03 1.25000002e-02 1.78571430e-03
      7.14285718e-03 7.14285718e-03 3.57142859e-03 7.14285718e-03
      3.57142859e-03 3.57142859e-03 8.92857183e-03 8.92857183e-03
      7.14285718e-03 0. 5.35714300e-03 0. 1.78571430e-03 5.35714300e-03
      1.07142860e-02 3.57142859e-03 5.35714300e-03 5.35714300e-03
      1.07142860e-02 3.57142859e-03 1.42857144e-02 5.35714300e-03
      3.57142859e-03 1.78571430e-03 7.14285718e-03 1.42857144e-02 0.
      1.78571430e-03 8.92857183e-03 3.57142859e-03 5.35714300e-03
      1.78571430e-03 1.78571430e-03 1.78571430e-03 5.35714300e-03
      5.35714300e-03 1.07142860e-02 5.35714300e-03 1.78571430e-03
      3.57142859e-03 7.14285718e-03 7.14285718e-03 1.78571430e-03
      3.57142859e-03 0. 8.92857183e-03 5.35714300e-03 5.35714300e-03
      8.92857183e-03 7.14285718e-03 5.35714300e-03 5.35714300e-03
      3.57142859e-03 1.78571430e-03 1.78571430e-03 1.78571430e-03 0.
      3.57142859e-03 7.14285718e-03 5.35714300e-03 1.42857144e-02
      5.35714300e-03 1.42857144e-02 3.57142859e-03 1.78571430e-03
      1.78571430e-03 5.35714300e-03 3.57142859e-03 5.35714300e-03
      1.78571430e-03 2.50000004e-02 1.07142860e-02 7.14285718e-03
      1.78571430e-03 1.78571430e-03 0. 5.35714300e-03</_>
    <_>
      3.71057517e-03 1.94805190e-02 1.85528758e-03 1.20593691e-02
      1.02040814e-02 2.78293132e-03 4.63821879e-03 1.85528758e-03
      5.56586264e-03 3.71057517e-03 0. 9.27643792e-04 7.42115034e-03
      1.85528758e-03 2.78293132e-03 1.39146568e-02 2.78293132e-03
      3.71057517e-03 1.85528758e-03 6.49350649e-03 0. 3.71057517e-03 0.
      3.71057517e-03 0. 4.63821879e-03 1.76252313e-02 4.63821879e-03
      1.11317253e-02 2.78293132e-03 4.63821879e-03 6.49350649e-03
      1.29870130e-02 0. 7.42115034e-03 2.04081628e-02 1.39146568e-02
      1.85528758e-03 1.85528758e-03 5.56586264e-03 1.20593691e-02
      9.27643792e-04 2.78293132e-03 2.78293132e-03 0. 0. 1.02040814e-02
      2.78293132e-03 2.78293132e-03 9.27643792e-04 4.91651222e-02 0.
      1.39146568e-02 2.78293132e-03 3.71057517e-03 9.27643792e-04
      6.49350649e-03 2.22634505e-02 3.71057517e-03 4.63821879e-03
      1.85528758e-03 2.41187382e-02 5.56586264e-03 5.56586264e-03 0.
      3.71057517e-03 7.42115034e-03 0. 9.27643792e-04 3.71057517e-03
      2.78293132e-03 9.27643792e-04 3.71057517e-03 4.63821879e-03
      1.85528758e-03 3.71057517e-03 1.85528758e-03 1.85528758e-03
      2.78293132e-03 6.49350649e-03 0. 9.27643792e-04 5.56586264e-03
      1.11317253e-02 3.71057517e-03 1.29870130e-02 9.27643792e-04
      1.02040814e-02 2.13358067e-02 4.63821879e-03 3.71057517e-03
      3.24675329e-02 0. 9.27643792e-04 9.27643792e-04 1.85528758e-03
      2.78293132e-03 7.42115034e-03 4.63821879e-03 3.71057517e-03
      2.78293132e-03 2.78293132e-03 1.20593691e-02 8.34879372e-03
      3.71057517e-03 7.42115034e-03 5.56586264e-03 2.78293132e-03
      9.27643792e-04 9.27643792e-04 5.56586264e-03 4.63821879e-03
      9.27643792e-04 3.71057517e-03 1.85528758e-03 4.63821879e-03
      4.63821879e-03 0. 0. 7.42115034e-03 0. 9.27643792e-04
      9.27643792e-04 7.42115034e-03 9.27643792e-04 1.85528751e-02
      4.63821879e-03 9.27643792e-04 0. 8.34879372e-03 1.85528751e-02
      9.27643792e-04 9.27643757e-03 9.27643757e-03 0. 8.34879372e-03 0.
      5.56586264e-03 9.27643792e-04 4.63821879e-03 5.56586264e-03
      1.39146568e-02 4.63821879e-03 5.56586264e-03 0. 7.42115034e-03
      1.85528758e-03 1.85528758e-03 1.85528758e-03 2.78293132e-03
      6.49350649e-03 4.63821879e-03 3.71057517e-03 2.78293132e-03
      2.78293132e-03 7.42115034e-03 1.85528758e-03 4.63821879e-03
      7.42115034e-03 2.78293132e-03 9.27643792e-04 2.78293132e-03
      1.11317253e-02 2.78293132e-03 9.27643792e-04 1.85528758e-03
      4.63821879e-03 3.71057517e-03 3.71057517e-03 0. 9.27643792e-04
      1.85528758e-03 3.71057517e-03 9.27643792e-04 1.85528758e-03 0.
      4.63821879e-03 9.27643792e-04 1.85528758e-03 9.27643792e-04
      2.78293132e-03 6.49350649e-03 3.71057517e-03 5.56586264e-03
      1.76252313e-02 0. 2.78293132e-03 0. 2.78293132e-03 2.78293132e-03
      1.85528758e-03 6.49350649e-03 9.27643792e-04 1.02040814e-02
      4.63821879e-03 4.63821879e-03 0. 6.49350649e-03 1.85528758e-03
      1.02040814e-02</_>
    <_>
      2.04498973e-03 4.08997945e-03 1.02249486e-02 4.08997945e-03
      2.04498973e-03 4.08997945e-03 3.27198356e-02 6.13496918e-03
      2.04498973e-03 2.04498973e-03 4.08997945e-03 4.08997945e-03
      1.02249486e-02 1.84049085e-02 0. 8.17995891e-03 0. 4.08997945e-03
      4.08997945e-03 6.13496918e-03 4.08997945e-03 8.17995891e-03 0.
      2.04498973e-03 2.04498973e-03 0. 4.08997945e-03 1.43149281e-02
      2.04498973e-03 2.04498973e-03 0. 0. 2.24948861e-02 2.04498973e-03
      4.08997945e-03 4.08997945e-03 4.08997945e-03 2.04498973e-02
      4.08997945e-03 1.22699384e-02 6.13496918e-03 2.04498973e-03 0.
      4.08997945e-03 6.13496918e-03 0. 6.13496918e-03 1.84049085e-02
      6.13496918e-03 6.13496918e-03 0. 2.04498973e-03 0. 0. 0.
      2.04498973e-03 4.08997945e-03 4.08997945e-03 0. 0. 0. 0.
      2.04498973e-03 2.04498973e-03 1.84049085e-02 2.04498973e-03
      1.02249486e-02 8.17995891e-03 8.17995891e-03 2.45398767e-02
      4.08997945e-03 6.13496918e-03 0. 0. 1.22699384e-02 2.04498973e-03
      2.04498973e-03 8.17995891e-03 8.17995891e-03 0. 0. 2.04498973e-03
      8.17995891e-03 2.04498973e-03 4.08997945e-03 2.04498973e-03 0.
      4.08997945e-03 2.04498973e-03 2.04498973e-03 6.13496918e-03
      8.17995891e-03 1.22699384e-02 2.04498973e-03 0. 6.13496918e-03 0.
      0. 6.13496918e-03 0. 0. 6.13496918e-03 4.08997945e-03
      1.22699384e-02 2.04498973e-03 1.22699384e-02 2.04498973e-03
      6.13496918e-03 0. 4.08997945e-03 2.04498973e-03 4.08997945e-03
      2.04498973e-03 2.04498973e-03 6.13496918e-03 2.04498973e-03 0.
      2.04498973e-03 6.13496918e-03 2.04498973e-03 4.08997945e-03
      1.43149281e-02 0. 0. 8.17995891e-03 4.08997945e-03 0.
      2.04498973e-03 4.08997945e-03 0. 1.02249486e-02 4.08997945e-03
      4.08997945e-03 6.13496918e-03 2.04498973e-03 4.08997945e-03
      4.08997945e-03 2.04498973e-03 2.04498973e-03 4.08997945e-03
      3.27198356e-02 1.22699384e-02 4.08997945e-03 8.17995891e-03
      6.13496918e-03 0. 6.13496918e-03 8.17995891e-03 0. 4.08997945e-03
      1.22699384e-02 6.13496918e-03 1.84049085e-02 1.02249486e-02
      6.13496918e-03 2.04498973e-03 0. 0. 0. 4.08997945e-03 0.
      1.63599178e-02 4.90797535e-02 6.13496918e-03 2.04498973e-03 0.
      2.04498973e-03 0. 4.08997945e-03 2.04498973e-03 2.04498973e-03 0.
      4.08997945e-03 8.17995891e-03 4.08997945e-03 0. 4.08997945e-03
      6.13496918e-03 0. 2.04498973e-03 2.04498973e-03 8.17995891e-03
      2.04498973e-03 4.08997945e-03 1.22699384e-02 4.08997945e-03
      8.17995891e-03 2.04498973e-03 0. 6.13496918e-03 2.04498973e-03
      4.08997945e-03 0. 6.13496918e-03 8.17995891e-03 2.04498973e-03
      4.08997945e-03 8.17995891e-03 8.17995891e-03 2.04498973e-03</_>
    <_>
      5.36193047e-03 4.02144808e-03 1.34048262e-03 1.20643433e-02
      5.36193047e-03 0. 5.36193047e-03 0. 2.68096523e-03 8.04289617e-03
      8.04289617e-03 6.70241285e-03 1.34048257e-02 9.38337855e-03 0.
      1.20643433e-02 8.04289617e-03 0. 6.70241285e-03 1.60857923e-02
      4.02144808e-03 4.02144808e-03 2.68096523e-03 0. 1.34048262e-03
      2.68096523e-03 2.68096523e-03 1.34048262e-03 5.36193047e-03
      8.04289617e-03 1.47453090e-02 1.47453090e-02 1.74262747e-02
      1.34048262e-03 4.02144808e-03 0. 4.02144808e-03 1.07238609e-02 0.
      1.34048257e-02 4.02144808e-03 1.34048262e-03 4.02144808e-03
      4.02144808e-03 0. 4.02144808e-03 0. 9.38337855e-03 4.02144808e-03
      5.36193047e-03 0. 1.34048262e-03 2.68096523e-03 8.04289617e-03
      5.36193047e-03 4.02144808e-03 1.60857923e-02 5.36193047e-03
      4.02144808e-03 1.34048262e-03 0. 1.20643433e-02 9.38337855e-03
      4.02144808e-03 6.70241285e-03 9.38337855e-03 1.47453090e-02
      1.34048262e-03 1.07238609e-02 5.36193047e-03 0. 2.68096523e-03
      1.07238609e-02 8.04289617e-03 1.34048262e-03 2.68096523e-03
      4.02144808e-03 8.04289617e-03 1.34048262e-03 1.20643433e-02 0.
      4.02144808e-03 2.68096523e-03 1.07238609e-02 1.20643433e-02
      1.20643433e-02 0. 6.70241285e-03 1.20643433e-02 2.68096523e-03
      4.02144808e-03 6.70241285e-03 4.02144808e-03 6.70241285e-03
      4.02144808e-03 4.02144808e-03 4.02144808e-03 4.02144808e-03
      2.68096523e-03 5.36193047e-03 1.34048262e-03 2.68096523e-03
      9.38337855e-03 1.07238609e-02 1.34048262e-03 8.04289617e-03
      2.68096523e-03 1.34048257e-02 0. 0. 1.34048262e-03 5.36193047e-03
      5.36193047e-03 1.34048262e-03 0. 2.68096523e-03 5.36193047e-03 0.
      2.68096523e-03 4.02144808e-03 2.68096523e-03 2.68096523e-03
      6.70241285e-03 8.04289617e-03 4.02144808e-03 4.02144808e-03
      1.34048262e-03 5.36193047e-03 1.34048262e-03 1.07238609e-02 0.
      1.34048257e-02 0. 8.04289617e-03 2.68096523e-03 1.07238609e-02
      1.07238609e-02 4.02144808e-03 9.38337855e-03 5.36193047e-03
      4.02144808e-03 0. 6.70241285e-03 5.36193047e-03 2.68096523e-03
      8.04289617e-03 2.68096523e-03 9.38337855e-03 5.36193047e-03
      8.04289617e-03 1.34048262e-03 4.02144808e-03 8.04289617e-03 0.
      2.68096523e-03 8.04289617e-03 8.04289617e-03 5.36193047e-03
      9.38337855e-03 1.34048262e-03 2.68096523e-03 8.04289617e-03
      5.36193047e-03 5.36193047e-03 1.34048262e-03 1.20643433e-02
      1.34048262e-03 5.36193047e-03 1.34048262e-03 4.02144808e-03
      1.34048262e-03 0. 1.34048262e-03 8.04289617e-03 1.34048262e-03 0.
      2.68096523e-03 1.34048262e-03 1.34048257e-02 6.70241285e-03
      4.02144808e-03 4.02144808e-03 2.01072395e-02 6.70241285e-03 0.
      1.34048262e-03 1.34048262e-03 1.34048262e-03 4.02144808e-03
      1.34048262e-03 4.02144808e-03 8.04289617e-03 1.34048262e-03
      1.34048262e-03 1.34048262e-03 2.68096523e-03 2.68096523e-03
      1.34048262e-03 1.34048262e-03 4.02144808e-03</_>
    <_>
      1.77165344e-02 1.96850393e-03 7.87401572e-03 1.96850393e-03
      7.87401572e-03 7.87401572e-03 5.90551179e-03 0. 3.93700786e-03
      2.75590550e-02 9.84251965e-03 0. 2.36220472e-02 0. 5.90551179e-03
      9.84251965e-03 0. 1.96850393e-03 5.90551179e-03 0. 0.
      7.87401572e-03 1.96850393e-03 1.96850393e-03 1.96850393e-03
      1.96850393e-03 7.87401572e-03 1.96850393e-03 7.87401572e-03
      1.77165344e-02 5.90551179e-03 3.93700786e-03 1.96850393e-03
      5.90551179e-03 0. 0. 1.96850393e-03 1.96850393e-03 7.87401572e-03
      1.96850393e-03 0. 5.90551179e-03 7.87401572e-03 1.96850393e-03 0.
      1.96850393e-03 7.87401572e-03 2.36220472e-02 1.37795275e-02
      1.96850393e-03 0. 9.84251965e-03 0. 5.90551179e-03 7.87401572e-03
      0. 5.90551179e-03 0. 1.96850393e-03 5.90551179e-03 3.93700786e-03
      1.96850393e-03 3.93700786e-03 1.96850393e-03 3.93700786e-03 0.
      5.90551179e-03 5.90551179e-03 1.96850393e-03 1.57480314e-02
      3.93700786e-03 3.93700786e-03 0. 0. 1.96850393e-03 0.
      5.90551179e-03 1.37795275e-02 0. 2.16535442e-02 1.96850393e-03 0.
      1.96850393e-03 5.90551179e-03 5.90551179e-03 9.84251965e-03
      1.96850393e-03 3.93700786e-03 7.87401572e-03 5.90551179e-03
      5.90551179e-03 7.87401572e-03 5.90551179e-03 5.90551179e-03
      3.93700786e-03 5.90551179e-03 0. 0. 3.93700786e-03 0.
      1.96850393e-03 5.90551179e-03 7.87401572e-03 1.96850393e-03
      1.96850393e-03 1.96850393e-02 1.96850393e-03 7.87401572e-03 0.
      3.93700786e-03 0. 1.96850393e-03 7.87401572e-03 3.93700786e-03
      3.93700786e-03 1.96850393e-03 5.90551179e-03 3.93700786e-03
      3.93700786e-03 3.93700786e-03 3.93700786e-03 7.87401572e-03
      3.93700786e-03 3.74015756e-02 0. 1.96850393e-03 7.87401572e-03
      3.93700786e-03 9.84251965e-03 1.96850393e-03 5.90551179e-03
      3.93700786e-03 1.96850393e-03 3.93700786e-03 0. 7.87401572e-03 0.
      3.93700786e-03 3.93700786e-03 7.87401572e-03 9.84251965e-03 0.
      5.90551179e-03 9.84251965e-03 1.96850393e-03 5.90551179e-03
      1.96850393e-03 7.87401572e-03 3.93700786e-03 3.93700786e-03
      5.90551179e-03 1.77165344e-02 1.96850393e-03 1.96850393e-03 0.
      1.18110236e-02 3.93700786e-03 1.96850393e-03 9.84251965e-03
      1.18110236e-02 5.90551179e-03 0. 9.84251965e-03 0. 0.
      1.77165344e-02 1.96850393e-03 9.84251965e-03 5.90551179e-03
      1.96850393e-03 0. 5.90551179e-03 5.90551179e-03 5.90551179e-03
      3.93700786e-03 5.90551179e-03 1.18110236e-02 3.93700786e-03 0.
      7.87401572e-03 0. 0. 1.96850393e-03 5.90551179e-03 5.90551179e-03
      0. 3.93700786e-03 1.96850393e-03 1.96850393e-03 0. 3.93700786e-03
      1.37795275e-02 0. 1.37795275e-02 0. 3.93700786e-03 1.96850393e-03
      1.96850393e-03 1.96850393e-03 0.</_>
    <_>
      0. 5.21512376e-03 3.91134294e-03 1.30378094e-03 2.60756188e-03
      5.21512376e-03 3.91134294e-03 5.21512376e-03 1.30378094e-03
      2.60756188e-03 1.04302475e-02 6.51890459e-03 1.30378092e-02
      9.12646670e-03 6.51890459e-03 3.91134294e-03 5.21512376e-03
      9.12646670e-03 3.91134294e-03 7.82268587e-03 2.60756188e-03
      5.21512376e-03 2.60756188e-03 3.91134294e-03 0. 2.60756188e-03
      2.60756188e-03 7.82268587e-03 6.51890459e-03 5.21512376e-03
      9.12646670e-03 2.60756188e-03 7.82268587e-03 1.30378094e-03
      9.12646670e-03 2.60756188e-03 1.17340283e-02 6.51890459e-03 0.
      1.30378094e-03 3.91134294e-03 0. 9.12646670e-03 1.30378094e-03
      3.91134294e-03 0. 1.82529334e-02 1.17340283e-02 9.12646670e-03
      1.30378094e-03 0. 0. 3.91134294e-03 0. 5.21512376e-03
      1.30378094e-03 1.56453717e-02 1.04302475e-02 1.30378094e-03
      7.82268587e-03 1.30378092e-02 0. 7.82268587e-03 2.60756188e-03
      1.30378094e-03 5.21512376e-03 1.04302475e-02 0. 5.21512376e-03
      9.12646670e-03 1.30378094e-03 3.91134294e-03 2.60756188e-03
      3.91134294e-03 2.60756188e-03 2.60756188e-03 1.17340283e-02
      3.91134294e-03 1.30378094e-03 6.51890459e-03 2.60756188e-03 0.
      1.30378094e-03 3.91134294e-03 1.17340283e-02 0. 1.30378094e-03
      2.60756188e-03 3.91134294e-03 1.17340283e-02 5.21512376e-03
      1.30378094e-03 2.60756188e-03 1.30378094e-03 2.60756188e-03 0.
      3.91134294e-03 3.91134294e-03 6.51890459e-03 5.21512376e-03 0.
      1.30378094e-03 3.91134294e-03 1.30378094e-03 5.21512376e-03
      1.95567142e-02 6.51890459e-03 9.12646670e-03 0. 2.60756188e-03
      1.04302475e-02 2.60756188e-03 9.12646670e-03 2.60756188e-03
      5.21512376e-03 0. 1.82529334e-02 2.60756188e-03 1.30378094e-03
      2.60756188e-03 0. 3.91134294e-03 9.12646670e-03 1.95567142e-02
      2.60756188e-03 2.60756188e-03 1.30378094e-03 2.60756188e-03 0.
      1.82529334e-02 5.21512376e-03 1.04302475e-02 5.21512376e-03
      3.91134294e-03 7.82268587e-03 2.60756188e-03 0. 1.30378094e-03
      9.12646670e-03 0. 6.51890459e-03 1.30378094e-03 1.30378094e-03
      9.12646670e-03 1.30378094e-03 9.12646670e-03 2.60756188e-03
      3.91134294e-03 1.17340283e-02 5.21512376e-03 1.17340283e-02 0.
      5.21512376e-03 7.82268587e-03 1.30378094e-03 1.43415900e-02
      1.30378094e-03 2.60756188e-03 1.82529334e-02 6.51890459e-03
      3.91134294e-03 3.91134294e-03 5.21512376e-03 0. 6.51890459e-03
      2.86831800e-02 3.91134294e-03 3.91134294e-03 2.60756188e-03
      3.91134294e-03 7.82268587e-03 5.21512376e-03 6.51890459e-03
      5.21512376e-03 6.51890459e-03 0. 5.21512376e-03 1.30378094e-03
      9.12646670e-03 2.60756188e-03 2.60756188e-03 9.12646670e-03
      3.91134294e-03 3.91134294e-03 2.60756188e-03 7.82268587e-03
      2.60756188e-03 3.91134294e-03 0. 6.51890459e-03 1.30378094e-03
      1.04302475e-02 7.82268587e-03 1.30378092e-02 1.30378094e-03 0.
      2.60756188e-03 0. 3.91134294e-03 3.91134294e-03</_>
    <_>
      9.29751992e-03 5.16528916e-03 7.23140454e-03 4.13223123e-03
      2.27272715e-02 5.16528916e-03 1.03305781e-03 0. 3.09917331e-03
      4.23553698e-02 3.09917331e-03 1.03305781e-03 8.26446246e-03
      3.09917331e-03 2.06611562e-03 6.19834661e-03 2.06611562e-03
      5.16528916e-03 1.34297516e-02 1.44628091e-02 5.16528916e-03
      2.06611562e-03 4.13223123e-03 2.06611562e-03 1.03305781e-03
      2.06611562e-03 3.09917331e-03 1.54958675e-02 4.13223123e-03
      3.40909064e-02 4.13223123e-03 1.23966932e-02 3.09917331e-03
      2.06611562e-03 4.13223123e-03 0. 1.13636358e-02 2.06611562e-03
      1.03305781e-03 3.09917331e-03 5.16528916e-03 1.03305781e-03
      6.19834661e-03 4.13223123e-03 1.03305783e-02 1.03305781e-03
      1.03305781e-03 2.06611562e-03 3.09917331e-03 1.44628091e-02 0.
      2.06611562e-03 0. 2.06611566e-02 2.06611562e-03 0. 7.23140454e-03
      8.26446246e-03 4.13223123e-03 1.13636358e-02 7.23140454e-03 0.
      7.23140454e-03 9.29751992e-03 0. 1.23966932e-02 0. 0.
      3.09917331e-03 5.16528916e-03 8.26446246e-03 5.16528916e-03
      3.09917331e-03 7.23140454e-03 6.19834661e-03 0. 2.06611562e-03
      2.06611562e-03 4.13223123e-03 4.64875996e-02 1.03305781e-03 0.
      2.06611562e-03 6.19834661e-03 2.06611562e-03 3.09917331e-03
      2.06611562e-03 1.03305783e-02 7.23140454e-03 3.09917331e-03 0.
      4.13223123e-03 1.03305781e-03 9.29751992e-03 2.06611562e-03
      2.06611562e-03 1.03305781e-03 2.06611562e-03 4.13223123e-03
      4.13223123e-03 9.29751992e-03 3.09917331e-03 5.16528916e-03
      3.09917331e-03 1.03305781e-03 2.06611562e-03 3.09917331e-03
      4.13223123e-03 0. 3.09917331e-03 5.16528916e-03 4.13223123e-03
      3.09917331e-03 5.16528916e-03 3.09917331e-03 3.09917331e-03
      4.13223123e-03 1.03305781e-03 2.06611562e-03 1.03305783e-02
      1.23966932e-02 5.16528916e-03 2.06611562e-03 1.03305781e-03
      6.19834661e-03 2.06611562e-03 3.09917331e-03 0. 0. 1.65289249e-02
      7.23140454e-03 3.09917331e-03 8.26446246e-03 6.19834661e-03
      1.03305781e-03 2.06611562e-03 1.03305781e-03 5.16528916e-03
      4.13223123e-03 5.16528916e-03 2.06611562e-03 5.16528916e-03 0. 0.
      0. 3.09917331e-03 5.16528916e-03 5.16528916e-03 3.09917331e-03
      1.03305781e-03 6.19834661e-03 1.03305783e-02 8.26446246e-03
      3.09917331e-03 5.16528916e-03 4.13223123e-03 5.16528916e-03 0.
      9.29751992e-03 3.09917331e-03 7.23140454e-03 6.19834661e-03 0.
      1.54958675e-02 2.06611562e-03 2.06611562e-03 9.29751992e-03
      2.06611562e-03 1.03305781e-03 5.16528916e-03 7.23140454e-03
      6.19834661e-03 4.13223123e-03 3.09917331e-03 6.19834661e-03
      1.03305781e-03 1.03305781e-03 0. 6.19834661e-03 7.23140454e-03
      6.19834661e-03 1.23966932e-02 6.19834661e-03 6.19834661e-03
      1.03305781e-03 3.09917331e-03 0. 1.03305781e-03 1.03305781e-03
      3.09917331e-03 1.23966932e-02 2.06611562e-03 6.19834661e-03
      1.03305781e-03 2.06611562e-03 5.16528916e-03 6.19834661e-03
      2.06611562e-03 5.16528916e-03 1.03305781e-03</_>
    <_>
      8.45070370e-03 1.40845065e-03 5.63380262e-03 0. 8.45070370e-03
      2.81690131e-03 1.54929571e-02 2.81690131e-03 2.81690131e-03
      8.45070370e-03 2.81690131e-03 0. 9.85915493e-03 4.22535185e-03 0.
      1.40845065e-03 2.81690131e-03 7.04225339e-03 7.04225339e-03
      4.22535185e-03 4.22535185e-03 1.83098577e-02 5.63380262e-03
      5.63380262e-03 5.63380262e-03 1.40845065e-03 0. 4.22535185e-03
      5.63380262e-03 7.04225339e-03 9.85915493e-03 4.22535185e-03
      1.26760555e-02 8.45070370e-03 7.04225339e-03 1.40845065e-03
      1.40845065e-03 1.83098577e-02 1.40845065e-03 2.81690131e-03
      1.40845065e-03 0. 1.54929571e-02 8.45070370e-03 5.63380262e-03
      2.81690131e-03 3.52112651e-02 2.11267602e-02 2.81690131e-03
      4.22535185e-03 0. 5.63380262e-03 5.63380262e-03 7.04225339e-03
      1.40845065e-03 4.22535185e-03 1.26760555e-02 4.22535185e-03
      2.81690131e-03 0. 1.40845065e-03 0. 2.81690131e-03 1.40845065e-03
      4.22535185e-03 2.81690131e-03 1.40845065e-03 4.22535185e-03
      1.40845065e-03 9.85915493e-03 5.63380262e-03 2.81690131e-03
      7.04225339e-03 0. 2.81690131e-03 1.40845065e-03 1.54929571e-02
      2.81690131e-03 5.63380262e-03 5.63380262e-03 0. 0. 0.
      2.81690131e-03 1.40845065e-03 2.81690131e-03 0. 0. 1.40845065e-03
      1.40845065e-03 2.95774639e-02 4.22535185e-03 2.81690131e-03
      1.40845065e-03 8.45070370e-03 4.22535185e-03 4.22535185e-03
      1.40845065e-03 5.63380262e-03 1.40845065e-03 4.22535185e-03
      4.22535185e-03 4.22535185e-03 4.22535185e-03 5.63380262e-03
      1.40845065e-03 8.45070370e-03 8.45070370e-03 2.81690131e-03
      4.22535185e-03 7.04225339e-03 1.40845065e-03 0. 0. 9.85915493e-03
      1.40845065e-03 7.04225339e-03 9.85915493e-03 1.40845065e-03 0.
      5.63380262e-03 8.45070370e-03 1.69014074e-02 2.67605633e-02 0.
      1.40845065e-03 1.40845065e-03 0. 0. 9.85915493e-03 1.40845065e-03
      2.81690131e-03 4.22535185e-03 5.63380262e-03 1.97183099e-02
      1.40845065e-03 2.81690131e-03 4.22535185e-03 2.81690131e-03
      1.40845065e-03 1.26760555e-02 5.63380262e-03 2.81690131e-03
      1.40845065e-03 2.81690131e-03 2.81690131e-03 4.22535185e-03
      1.40845065e-03 1.40845065e-03 5.63380262e-03 2.81690131e-03
      9.85915493e-03 2.81690131e-03 2.81690131e-03 0. 0. 2.81690131e-03
      0. 4.22535185e-03 1.40845065e-03 1.40845065e-03 1.40845065e-03
      1.26760555e-02 8.45070370e-03 1.40845068e-02 1.12676052e-02 0.
      1.40845065e-03 7.04225339e-03 1.40845065e-03 1.40845065e-03
      2.81690131e-03 4.22535185e-03 8.45070370e-03 9.85915493e-03
      4.22535185e-03 1.40845065e-03 1.40845065e-03 0. 2.81690131e-03
      4.22535185e-03 9.85915493e-03 2.81690131e-03 5.63380262e-03 0.
      2.81690131e-03 0. 9.85915493e-03 0. 1.40845065e-03 5.63380262e-03
      1.40845068e-02 7.04225339e-03 3.52112651e-02 5.63380262e-03
      8.45070370e-03 0. 5.63380262e-03 1.40845065e-03 0.</_>
    <_>
      0. 5.61797759e-03 3.74531839e-03 9.36329551e-03 3.74531839e-03
      3.74531839e-03 1.87265920e-03 3.74531839e-03 1.87265920e-03
      7.49063678e-03 3.74531839e-03 0. 1.49812736e-02 0. 1.87265920e-03
      1.68539323e-02 5.61797759e-03 1.87265920e-03 9.36329551e-03
      3.74531839e-03 1.87265920e-03 0. 1.87265920e-03 1.87265920e-03 0.
      3.74531839e-03 1.87265920e-03 1.87265920e-03 1.12359552e-02
      1.68539323e-02 1.87265920e-03 7.49063678e-03 0. 1.87265920e-03
      3.74531839e-03 1.68539323e-02 9.36329551e-03 5.61797759e-03 0. 0.
      1.87265920e-03 0. 0. 0. 3.74531839e-03 3.74531839e-03
      1.87265920e-03 1.68539323e-02 1.87265920e-03 1.49812736e-02
      1.31086148e-02 0. 3.74531839e-03 9.36329551e-03 7.49063678e-03 0.
      9.36329551e-03 1.31086148e-02 0. 0. 0. 1.87265920e-03
      1.87265920e-03 9.36329551e-03 2.05992516e-02 3.74531839e-03
      2.24719103e-02 3.74531839e-03 7.49063678e-03 3.74531839e-03 0. 0.
      3.74531839e-03 7.49063678e-03 0. 3.74531839e-03 1.87265920e-03 0.
      0. 9.36329551e-03 1.87265920e-03 3.18352059e-02 3.74531839e-03
      5.61797759e-03 9.36329551e-03 3.74531839e-03 5.61797759e-03
      2.05992516e-02 3.74531839e-03 9.36329551e-03 0. 1.87265920e-03
      1.87265920e-03 0. 5.61797759e-03 0. 0. 1.87265920e-03 0.
      1.87265920e-03 1.87265920e-03 3.74531839e-03 7.49063678e-03
      1.49812736e-02 3.74531839e-03 2.24719103e-02 0. 2.05992516e-02
      1.87265920e-03 0. 3.74531839e-03 0. 0. 3.74531839e-03
      3.74531839e-03 0. 1.87265920e-03 0. 0. 0. 2.24719103e-02
      5.61797759e-03 0. 7.49063678e-03 5.61797759e-03 1.87265920e-03
      1.87265920e-03 3.74531839e-03 0. 3.74531839e-03 1.68539323e-02
      5.61797759e-03 3.74531839e-03 0. 3.74531839e-03 0. 2.80898884e-02
      0. 1.87265920e-03 2.05992516e-02 3.74531839e-03 0. 1.87265920e-03
      9.36329551e-03 1.87265920e-03 3.74531839e-03 1.87265920e-03
      2.05992516e-02 1.87265920e-03 0. 9.36329551e-03 3.74531839e-03
      1.49812736e-02 0. 1.87265920e-03 1.87265910e-02 1.87265920e-03
      3.74531839e-03 1.87265920e-03 0. 1.87265920e-03 5.61797759e-03
      1.12359552e-02 3.74531839e-03 0. 2.43445691e-02 3.74531839e-03
      7.49063678e-03 0. 1.87265920e-03 1.87265920e-03 0. 7.49063678e-03
      1.12359552e-02 0. 0. 7.49063678e-03 0. 1.49812736e-02 0.
      1.87265920e-03 1.87265920e-03 5.61797759e-03 3.74531839e-03
      1.87265920e-03 0. 0. 0. 2.62172297e-02 1.87265920e-03
      1.31086148e-02 0. 1.87265920e-03 1.87265920e-03 7.49063678e-03
      1.87265920e-03 3.74531839e-03 0. 0. 1.87265920e-03</_>
    <_>
      0. 1.32890362e-02 6.64451811e-03 6.64451811e-03 0. 0.
      6.64451811e-03 0. 1.66112948e-02 3.32225906e-03 6.64451811e-03 0.
      0. 0. 6.64451811e-03 9.96677764e-03 6.64451811e-03 9.96677764e-03
      1.32890362e-02 3.32225906e-03 0. 6.64451811e-03 1.32890362e-02 0.
      3.32225906e-03 6.64451811e-03 9.96677764e-03 6.64451811e-03
      6.64451811e-03 0. 3.32225906e-03 3.32225906e-03 3.32225906e-03 0.
      0. 2.65780725e-02 9.96677764e-03 0. 9.96677764e-03 0.
      3.32225906e-03 0. 1.99335553e-02 3.32225906e-03 6.64451811e-03 0.
      3.32225906e-03 6.64451811e-03 3.32225906e-03 3.32225906e-03 0.
      3.32225906e-03 1.32890362e-02 0. 3.32225906e-03 0. 0. 0. 0.
      6.64451811e-03 1.99335553e-02 0. 0. 3.32225906e-03 0. 0.
      1.99335553e-02 3.32225906e-03 6.64451811e-03 1.32890362e-02 0. 0.
      0. 3.32225906e-03 1.32890362e-02 0. 3.32225906e-03 0.
      6.64451811e-03 9.96677764e-03 0. 0. 3.32225906e-03 9.96677764e-03
      6.64451811e-03 0. 0. 0. 0. 9.96677764e-03 6.64451811e-03
      1.32890362e-02 0. 3.32225906e-03 0. 0. 3.32225906e-03
      6.64451811e-03 6.64451811e-03 0. 1.66112948e-02 0. 0.
      9.96677764e-03 0. 9.96677764e-03 2.32558139e-02 0. 0.
      1.66112948e-02 6.64451811e-03 0. 3.32225906e-03 0. 0.
      3.32225906e-03 9.96677764e-03 0. 0. 0. 0. 0. 0. 6.64451811e-03
      3.32225906e-03 6.64451811e-03 1.32890362e-02 0. 9.96677764e-03
      3.32225906e-03 3.32225906e-03 3.32225906e-03 6.64451811e-03
      1.32890362e-02 0. 9.96677764e-03 0. 2.99003311e-02 6.64451811e-03
      0. 1.99335553e-02 3.98671106e-02 3.32225906e-03 3.32225906e-03 0.
      0. 0. 0. 3.32225906e-03 0. 3.32225906e-03 6.64451811e-03 0.
      9.96677764e-03 0. 9.96677764e-03 0. 0. 0. 3.32225906e-03 0.
      3.32225906e-03 6.64451811e-03 0. 6.64451811e-03 0. 0. 0. 0.
      3.65448482e-02 6.64451811e-03 6.64451811e-03 9.96677764e-03
      6.64451811e-03 6.64451811e-03 3.32225906e-03 3.32225906e-03 0.
      3.32225906e-03 6.64451811e-03 3.32225906e-03 6.64451811e-03
      6.64451811e-03 3.32225906e-03 9.96677764e-03 1.66112948e-02 0.
      9.96677764e-03 0. 0. 6.64451811e-03 3.32225906e-03 0.
      3.32225906e-03 1.32890362e-02 0. 6.64451811e-03 6.64451811e-03
      3.32225906e-03 6.64451811e-03</_>
    <_>
      4.04858310e-03 1.82186235e-02 4.04858310e-03 0. 8.09716620e-03
      1.01214573e-02 4.04858310e-03 0. 0. 2.02429155e-03 1.01214573e-02
      8.09716620e-03 2.02429155e-03 6.07287465e-03 0. 1.01214573e-02
      6.07287465e-03 1.41700413e-02 1.01214573e-02 2.02429155e-03
      4.04858310e-03 1.21457493e-02 6.07287465e-03 2.02429155e-03
      6.07287465e-03 0. 4.04858310e-03 2.02429155e-03 4.04858310e-03
      2.02429155e-03 2.02429155e-03 2.02429155e-03 2.02429155e-03
      4.04858310e-03 2.02429155e-03 0. 4.04858310e-03 6.07287465e-03
      4.04858310e-03 4.04858310e-03 0. 0. 2.02429155e-03 4.04858310e-03
      4.04858310e-03 6.07287465e-03 1.21457493e-02 1.01214573e-02
      1.21457493e-02 4.04858310e-03 0. 2.02429155e-03 6.07287465e-03 0.
      0. 2.02429155e-03 6.07287465e-03 6.07287465e-03 0. 6.07287465e-03
      1.21457493e-02 0. 4.04858310e-03 2.02429155e-03 1.61943324e-02
      8.09716620e-03 1.21457493e-02 0. 4.04858310e-03 1.61943324e-02 0.
      4.04858310e-03 0. 1.21457493e-02 4.04858310e-03 0. 2.02429155e-03
      4.04858310e-03 4.04858310e-03 6.07287465e-03 0. 0. 4.04858310e-03
      6.07287465e-03 4.04858310e-03 2.02429155e-03 0. 1.01214573e-02
      4.04858310e-03 4.04858310e-03 1.82186235e-02 1.01214573e-02 0. 0.
      6.07287465e-03 8.09716620e-03 4.04858310e-03 1.01214573e-02
      2.02429155e-03 2.02429155e-03 0. 2.02429155e-03 6.07287465e-03
      4.04858310e-03 2.02429155e-03 1.21457493e-02 8.09716620e-03
      1.41700413e-02 0. 2.02429155e-03 1.21457493e-02 0. 6.07287465e-03
      2.02429155e-03 2.02429155e-03 2.02429155e-03 8.09716620e-03
      6.07287465e-03 0. 2.02429155e-03 1.21457493e-02 8.09716620e-03
      2.02429155e-03 1.82186235e-02 4.04858310e-03 4.04858310e-03
      6.07287465e-03 6.07287465e-03 4.04858310e-03 2.02429155e-03
      4.04858310e-03 8.09716620e-03 6.07287465e-03 2.02429155e-03 0.
      6.07287465e-03 4.04858310e-03 4.04858310e-03 2.02429155e-03
      4.04858310e-03 1.41700413e-02 0. 2.02429155e-03 2.02429155e-03
      2.02429155e-03 0. 4.04858310e-03 2.02429155e-03 1.21457493e-02
      1.41700413e-02 2.02429155e-03 2.02429155e-03 4.04858310e-03
      4.04858310e-03 0. 1.01214573e-02 0. 2.02429155e-03 4.04858310e-03
      8.09716620e-03 6.07287465e-03 2.02429155e-03 2.02429146e-02
      4.04858310e-03 8.09716620e-03 2.02429155e-03 6.07287465e-03
      2.02429155e-03 0. 6.07287465e-03 1.01214573e-02 1.01214573e-02 0.
      0. 1.61943324e-02 6.07287465e-03 4.04858310e-03 0. 4.04858310e-03
      4.04858310e-03 8.09716620e-03 4.04858310e-03 6.07287465e-03
      4.04858310e-03 4.04858310e-03 6.07287465e-03 0. 8.09716620e-03 0.
      4.04858310e-03 8.09716620e-03 3.03643737e-02 2.02429155e-03
      1.41700413e-02 2.02429155e-03 8.09716620e-03 0. 0. 2.02429155e-03
      8.09716620e-03</_>
    <_>
      1.65016507e-03 8.25082511e-03 6.60066027e-03 8.25082511e-03
      1.98019817e-02 3.30033014e-03 3.30033014e-03 0. 1.65016507e-03
      1.65016502e-02 0. 4.95049544e-03 0. 3.30033014e-03 1.65016507e-03
      1.15511557e-02 6.60066027e-03 4.95049544e-03 1.65016507e-03
      4.95049544e-03 3.30033014e-03 8.25082511e-03 3.30033014e-03
      1.65016507e-03 3.30033014e-03 3.30033014e-03 6.60066027e-03
      4.95049544e-03 4.95049544e-03 4.95049544e-03 0. 1.65016507e-03 0.
      3.30033014e-03 9.90099087e-03 1.65016507e-03 4.95049544e-03 0. 0.
      4.95049544e-03 8.25082511e-03 4.95049544e-03 4.95049544e-03
      4.95049544e-03 1.15511557e-02 0. 2.31023114e-02 1.65016507e-03
      6.60066027e-03 4.95049544e-03 3.30033014e-03 6.60066027e-03
      3.30033014e-03 4.95049544e-03 9.90099087e-03 3.30033014e-03 0.
      1.65016507e-03 0. 6.60066027e-03 1.15511557e-02 6.60066027e-03
      3.30033014e-03 1.15511557e-02 1.65016507e-03 1.65016507e-03
      1.81518160e-02 0. 3.30033014e-03 1.32013205e-02 0. 3.30033014e-03
      4.95049544e-03 6.60066027e-03 0. 0. 0. 0. 3.30033014e-03
      1.32013205e-02 1.65016507e-03 0. 0. 8.25082511e-03 4.95049544e-03
      6.60066027e-03 4.95049544e-03 1.65016507e-03 3.30033014e-03
      8.25082511e-03 4.95049544e-03 4.95049544e-03 3.30033014e-03 0.
      8.25082511e-03 3.30033014e-03 4.95049544e-03 8.25082511e-03
      3.30033014e-03 1.65016507e-03 1.65016507e-03 3.30033014e-03
      4.95049544e-03 0. 6.60066027e-03 3.30033014e-03 4.95049544e-03
      4.95049544e-03 3.30033014e-03 3.30033014e-03 8.25082511e-03
      6.60066027e-03 4.95049544e-03 3.30033014e-03 6.60066027e-03
      6.60066027e-03 1.65016507e-03 1.65016507e-03 0. 6.60066027e-03
      4.95049544e-03 4.95049544e-03 0. 0. 6.60066027e-03 8.25082511e-03
      2.31023114e-02 9.90099087e-03 0. 1.98019817e-02 8.25082511e-03
      4.95049544e-03 3.30033014e-03 1.65016507e-03 0. 1.65016507e-03
      9.90099087e-03 1.65016507e-03 3.30033014e-03 4.95049544e-03
      1.81518160e-02 4.95049544e-03 3.30033014e-03 9.90099087e-03 0.
      1.32013205e-02 0. 4.95049544e-03 3.30033014e-03 1.65016507e-03
      3.30033014e-03 1.65016507e-03 0. 1.65016507e-03 1.65016507e-03 0.
      1.65016507e-03 3.30033014e-03 1.65016507e-03 8.25082511e-03 0. 0.
      2.80528069e-02 9.90099087e-03 1.65016507e-03 1.65016507e-03
      6.60066027e-03 1.15511557e-02 1.65016507e-03 8.25082511e-03
      4.95049544e-03 6.60066027e-03 4.95049544e-03 1.65016507e-03
      3.30033014e-03 3.30033014e-03 9.90099087e-03 0. 0. 4.95049544e-03
      6.60066027e-03 2.80528069e-02 8.25082511e-03 3.30033014e-03
      3.30033014e-03 9.90099087e-03 3.30033014e-03 3.30033014e-03 0. 0.
      9.90099087e-03 9.90099087e-03 4.95049544e-03 1.48514854e-02
      6.60066027e-03 1.98019817e-02 0. 1.65016507e-03 0. 0.</_>
    <_>
      1.22549022e-02 1.71568636e-02 2.45098048e-03 1.22549022e-02
      2.45098043e-02 0. 1.96078438e-02 2.45098048e-03 2.45098048e-03
      4.16666679e-02 0. 0. 2.45098048e-03 4.90196096e-03 4.90196096e-03
      9.80392192e-03 2.45098048e-03 1.22549022e-02 9.80392192e-03
      1.47058833e-02 7.35294167e-03 0. 0. 2.45098048e-03 7.35294167e-03
      2.45098048e-03 4.90196096e-03 0. 1.71568636e-02 1.96078438e-02
      2.45098048e-03 2.45098048e-03 0. 2.45098048e-03 4.90196096e-03
      1.71568636e-02 1.71568636e-02 2.45098048e-03 2.45098048e-03 0. 0.
      0. 1.96078438e-02 2.45098048e-03 2.45098048e-03 0. 1.71568636e-02
      4.90196096e-03 4.90196096e-03 0. 4.90196096e-03 0. 4.90196096e-03
      2.45098048e-03 2.45098048e-03 0. 7.35294167e-03 7.35294167e-03
      4.90196096e-03 1.47058833e-02 4.90196096e-03 0. 4.90196096e-03
      4.90196096e-03 0. 7.35294167e-03 0. 2.45098048e-03 2.45098048e-03
      2.69607846e-02 0. 2.45098048e-03 2.45098048e-03 0. 4.90196096e-03
      4.90196096e-03 2.45098048e-03 2.45098048e-03 7.35294167e-03
      4.41176482e-02 2.45098048e-03 2.69607846e-02 0. 2.45098048e-03 0.
      4.90196096e-03 0. 7.35294167e-03 7.35294167e-03 2.45098048e-03 0.
      9.80392192e-03 2.45098048e-03 2.45098048e-03 0. 4.90196096e-03
      4.90196096e-03 4.90196096e-03 2.45098048e-03 2.45098048e-03
      7.35294167e-03 2.45098048e-03 0. 1.71568636e-02 7.35294167e-03
      2.45098048e-03 1.47058833e-02 0. 2.45098048e-03 1.22549022e-02
      2.45098048e-03 0. 7.35294167e-03 0. 0. 0. 4.90196096e-03
      4.90196096e-03 0. 0. 4.90196096e-03 4.90196096e-03 7.35294167e-03
      2.45098048e-03 4.90196096e-03 0. 0. 4.90196096e-03 0.
      2.45098048e-03 4.90196096e-03 0. 2.45098048e-03 0. 4.90196096e-03
      0. 2.45098048e-03 2.45098048e-03 0. 7.35294167e-03 7.35294167e-03
      2.45098048e-03 0. 0. 0. 2.45098048e-03 0. 2.45098048e-03
      4.90196096e-03 1.47058833e-02 0. 1.22549022e-02 2.45098048e-03
      4.90196096e-03 0. 2.45098048e-03 0. 2.45098048e-03 2.45098048e-03
      4.90196096e-03 0. 0. 9.80392192e-03 7.35294167e-03 1.47058833e-02
      9.80392192e-03 0. 1.47058833e-02 0. 9.80392192e-03 4.90196096e-03
      0. 4.90196096e-03 4.90196096e-03 2.45098048e-03 2.45098048e-03
      7.35294167e-03 0. 7.35294167e-03 2.45098048e-03 4.90196096e-03 0.
      7.35294167e-03 7.35294167e-03 0. 2.45098048e-03 0. 0.
      1.71568636e-02 0. 7.35294167e-03 4.90196096e-03 2.45098048e-03
      9.80392192e-03 0. 2.45098048e-03 0. 0. 0. 0.</_>
    <_>
      0. 1.04166670e-02 2.97619053e-03 1.48809527e-03 2.08333340e-02 0.
      4.46428591e-03 2.97619053e-03 4.46428591e-03 2.97619049e-02
      1.48809527e-03 5.95238106e-03 5.95238106e-03 0. 0. 8.92857183e-03
      1.48809527e-03 1.48809527e-03 0. 4.46428591e-03 2.97619053e-03
      1.48809527e-03 8.92857183e-03 0. 2.97619053e-03 1.19047621e-02
      1.48809527e-03 5.95238106e-03 1.04166670e-02 5.50595261e-02
      7.44047621e-03 2.52976194e-02 0. 8.92857183e-03 2.97619053e-03 0.
      8.92857183e-03 2.97619053e-03 0. 2.97619053e-03 4.46428591e-03
      1.48809527e-03 5.95238106e-03 1.48809527e-03 2.97619053e-03 0.
      7.44047621e-03 2.97619053e-03 1.93452388e-02 8.92857183e-03 0. 0.
      4.46428591e-03 4.01785709e-02 5.95238106e-03 1.48809527e-03
      2.97619053e-03 0. 4.46428591e-03 4.46428591e-03 7.44047621e-03 0.
      2.97619053e-03 5.95238106e-03 0. 1.48809527e-03 1.63690485e-02 0.
      0. 7.44047621e-03 4.46428591e-03 2.97619053e-03 0. 1.19047621e-02
      8.92857183e-03 0. 4.46428591e-03 1.48809527e-03 8.92857183e-03
      3.27380970e-02 0. 0. 1.48809527e-03 2.97619053e-03 1.63690485e-02
      1.48809527e-03 2.97619053e-03 1.04166670e-02 1.48809527e-03
      2.38095243e-02 2.97619053e-03 2.97619053e-03 0. 0. 1.48809527e-03
      1.48809527e-03 1.48809527e-03 7.44047621e-03 1.48809527e-03
      4.46428591e-03 8.92857183e-03 0. 0. 2.97619053e-03 2.97619053e-03
      1.04166670e-02 2.97619053e-03 1.48809527e-03 1.48809527e-03
      2.97619053e-03 8.92857183e-03 2.97619053e-03 2.97619053e-03 0.
      2.97619053e-03 2.97619053e-03 7.44047621e-03 1.48809527e-03 0.
      1.48809527e-03 0. 0. 0. 1.48809527e-03 0. 2.97619053e-03
      2.97619053e-03 1.48809527e-03 0. 1.78571437e-02 4.46428591e-03
      1.04166670e-02 8.92857183e-03 1.04166670e-02 1.48809527e-03
      1.33928573e-02 4.46428591e-03 1.48809527e-03 1.04166670e-02
      1.48809527e-03 1.78571437e-02 5.95238106e-03 7.44047621e-03
      1.48809527e-03 0. 2.97619053e-03 2.97619053e-03 0. 7.44047621e-03
      1.33928573e-02 1.48809527e-03 2.97619053e-03 0. 1.48809527e-03
      1.48809527e-03 4.46428591e-03 1.48809527e-03 1.48809527e-03 0.
      4.46428591e-03 1.48809527e-03 0. 5.95238106e-03 0. 4.46428591e-03
      5.95238106e-03 2.97619053e-03 2.97619053e-03 1.48809527e-03
      2.97619053e-03 7.44047621e-03 5.95238106e-03 8.92857183e-03 0.
      7.44047621e-03 4.46428591e-03 1.48809527e-03 0. 2.97619053e-03
      4.46428591e-03 5.95238106e-03 4.46428591e-03 1.04166670e-02
      4.46428591e-03 2.97619053e-03 1.04166670e-02 4.46428591e-03
      5.95238106e-03 0. 4.46428591e-03 1.93452388e-02 1.48809527e-03
      1.48809527e-03 7.44047621e-03 2.97619053e-03 2.97619053e-03
      2.97619053e-03 0. 4.46428591e-03 4.46428591e-03</_>
    <_>
      0. 2.74725282e-03 1.09890113e-02 1.09890113e-02 8.24175868e-03
      4.12087934e-03 2.74725282e-03 9.61538497e-03 1.37362641e-03
      1.51098901e-02 0. 4.12087934e-03 0. 6.86813192e-03 1.23626376e-02
      8.24175868e-03 2.74725282e-03 1.23626376e-02 1.37362641e-03
      2.74725282e-03 0. 2.74725282e-03 1.37362641e-03 2.74725282e-03
      5.49450563e-03 4.12087934e-03 1.37362641e-03 5.49450563e-03
      8.24175868e-03 8.24175868e-03 1.37362641e-03 6.86813192e-03 0. 0.
      6.86813192e-03 0. 1.51098901e-02 5.49450563e-03 1.37362641e-03
      4.12087934e-03 1.37362641e-03 0. 8.24175868e-03 2.74725282e-03
      6.86813192e-03 1.37362641e-03 1.09890113e-02 4.12087934e-03
      9.61538497e-03 8.24175868e-03 0. 0. 5.49450563e-03 2.74725282e-03
      1.37362641e-03 0. 5.49450563e-03 0. 1.37362641e-03 9.61538497e-03
      9.61538497e-03 0. 2.74725282e-03 1.64835174e-02 0. 2.74725282e-03
      1.64835174e-02 0. 1.37362641e-03 6.86813192e-03 2.74725282e-03
      1.37362641e-03 0. 1.09890113e-02 5.49450563e-03 5.49450563e-03
      2.74725282e-03 0. 6.86813192e-03 1.64835174e-02 0. 1.37362641e-03
      0. 9.61538497e-03 1.23626376e-02 4.12087934e-03 0. 8.24175868e-03
      0. 8.24175868e-03 2.74725282e-03 1.37362641e-03 2.74725282e-03 0.
      2.74725282e-03 4.12087934e-03 1.37362638e-02 8.24175868e-03
      1.37362641e-03 4.12087934e-03 2.33516488e-02 0. 2.74725282e-03
      5.49450563e-03 1.37362641e-03 1.23626376e-02 8.24175868e-03 0. 0.
      4.12087934e-03 2.74725282e-03 4.12087934e-03 1.51098901e-02
      4.12087934e-03 1.37362641e-03 0. 4.12087934e-03 0. 0.
      1.37362641e-03 0. 5.49450563e-03 6.86813192e-03 2.74725282e-03
      9.61538497e-03 2.74725282e-03 1.23626376e-02 4.12087934e-03 0.
      1.37362638e-02 2.74725282e-03 5.49450563e-03 6.86813192e-03
      5.49450563e-03 4.12087934e-03 1.37362641e-03 1.64835174e-02
      5.49450563e-03 1.09890113e-02 5.49450563e-03 6.86813192e-03
      5.49450563e-03 4.12087934e-03 4.12087934e-03 2.74725282e-03
      1.37362638e-02 2.74725282e-03 0. 2.06043962e-02 2.74725282e-03
      1.37362641e-03 2.74725282e-03 0. 1.37362641e-03 0. 1.23626376e-02
      6.86813192e-03 5.49450563e-03 2.06043962e-02 2.74725282e-03 0. 0.
      4.12087934e-03 5.49450563e-03 1.37362641e-03 9.61538497e-03
      8.24175868e-03 6.86813192e-03 1.37362641e-03 4.12087934e-03
      9.61538497e-03 1.51098901e-02 1.23626376e-02 1.37362641e-03
      6.86813192e-03 6.86813192e-03 2.74725282e-03 0. 4.12087934e-03
      4.12087934e-03 6.86813192e-03 2.06043962e-02 4.12087934e-03 0. 0.
      9.61538497e-03 2.74725282e-03 6.86813192e-03 0. 0. 4.12087934e-03
      6.86813192e-03 0. 8.24175868e-03 5.49450563e-03 1.51098901e-02 0.
      1.37362641e-03 1.37362641e-03 1.37362641e-03</_>
    <_>
      0. 2.07039341e-03 0. 2.07039341e-03 1.03519671e-02 2.07039341e-03
      2.07039341e-03 2.07039341e-03 8.28157365e-03 0. 2.07039341e-03 0.
      6.21118024e-03 2.07039341e-03 2.07039341e-03 0. 2.07039341e-03
      2.07039341e-03 2.07039341e-03 8.28157365e-03 2.07039341e-03 0.
      6.21118024e-03 4.14078683e-03 2.07039341e-03 4.14078683e-03
      2.07039341e-03 4.14078683e-03 4.14078683e-03 0. 1.65631473e-02
      4.14078683e-03 6.21118024e-03 6.21118024e-03 1.24223605e-02
      2.07039341e-03 0. 2.07039341e-03 0. 4.14078683e-03 2.07039341e-03
      0. 2.07039341e-03 2.07039341e-03 1.86335407e-02 2.07039341e-03 0.
      8.28157365e-03 6.21118024e-03 6.21118024e-03 8.28157365e-03
      4.14078683e-03 4.14078683e-03 2.07039341e-03 0. 4.14078683e-03
      2.27743275e-02 0. 2.07039341e-03 4.14078683e-03 2.07039341e-03 0.
      4.14078683e-03 4.14078683e-03 0. 4.14078683e-03 1.03519671e-02 0.
      8.28157365e-03 1.03519671e-02 2.07039341e-03 8.28157365e-03
      6.21118024e-03 2.48447210e-02 6.21118024e-03 4.14078683e-03
      6.21118024e-03 4.14078683e-03 4.14078683e-03 0. 2.07039341e-03 0.
      2.07039341e-03 1.24223605e-02 2.07039341e-03 2.07039341e-03
      2.07039341e-03 1.44927539e-02 0. 8.28157365e-03 1.03519671e-02
      8.28157365e-03 2.07039341e-03 4.14078683e-03 1.44927539e-02
      4.14078683e-03 4.14078683e-03 8.28157365e-03 4.14078683e-03
      2.07039341e-03 2.07039341e-02 2.07039341e-03 0. 0. 4.14078683e-03
      6.21118024e-03 4.14078683e-03 0. 8.28157365e-03 6.21118024e-03
      2.07039341e-03 4.14078683e-03 6.21118024e-03 4.14078683e-03 0.
      2.07039341e-03 1.03519671e-02 0. 4.14078683e-03 0. 0. 0. 0.
      1.86335407e-02 8.28157365e-03 2.07039341e-03 1.44927539e-02
      4.14078683e-03 0. 2.07039341e-02 4.14078683e-03 1.03519671e-02
      1.03519671e-02 0. 0. 2.07039341e-03 8.28157365e-03 0.
      6.21118024e-03 0. 8.28157365e-03 0. 2.07039341e-03 1.65631473e-02
      4.14078683e-03 8.28157365e-03 4.14078683e-03 4.14078683e-03
      1.24223605e-02 1.65631473e-02 0. 2.07039341e-03 0. 0. 0.
      4.14078683e-03 6.21118024e-03 8.28157365e-03 2.89855078e-02
      4.14078683e-03 2.07039341e-03 0. 4.14078683e-03 8.28157365e-03 0.
      4.14078683e-02 1.03519671e-02 2.07039341e-03 0. 1.03519671e-02
      8.28157365e-03 4.14078683e-03 1.44927539e-02 4.14078683e-03
      6.21118024e-03 4.14078683e-03 0. 2.07039341e-03 1.24223605e-02 0.
      4.14078683e-03 8.28157365e-03 2.07039341e-03 1.24223605e-02 0.
      6.21118024e-03 0. 2.07039341e-03 2.07039341e-03 4.14078683e-03
      8.28157365e-03 1.03519671e-02 0. 0. 6.21118024e-03 6.21118024e-03
      4.14078683e-03 0. 4.14078683e-03 4.14078683e-03</_>
    <_>
      4.65657748e-03 6.98486622e-03 3.49243311e-03 3.49243311e-03
      1.16414437e-03 3.49243311e-03 3.49243311e-03 3.49243311e-03
      8.14901106e-03 3.49243311e-03 3.49243311e-03 5.82072185e-03
      4.65657748e-03 0. 5.82072185e-03 1.04772989e-02 1.16414437e-03
      3.49243311e-03 8.14901106e-03 4.65657748e-03 1.16414437e-03
      3.49243311e-03 8.14901106e-03 5.82072185e-03 1.16414437e-03
      4.65657748e-03 3.49243311e-03 3.49243311e-03 5.82072185e-03 0.
      1.28055885e-02 1.16414437e-03 1.16414437e-03 0. 1.16414437e-02
      2.32828874e-03 5.82072185e-03 3.49243311e-03 0. 4.65657748e-03 0.
      2.32828874e-03 1.39697324e-02 5.82072185e-03 4.65657748e-03
      3.49243311e-03 1.51338764e-02 5.82072185e-03 1.16414437e-03
      3.49243311e-03 4.65657748e-03 1.04772989e-02 3.49243311e-03
      3.49243311e-03 2.32828874e-03 5.82072185e-03 1.97904538e-02
      1.04772989e-02 3.49243311e-03 8.14901106e-03 4.65657748e-03
      1.16414437e-03 2.32828874e-03 3.49243311e-03 4.65657748e-03
      9.31315497e-03 8.14901106e-03 0. 5.82072185e-03 8.14901106e-03
      2.32828874e-03 0. 3.49243311e-03 1.04772989e-02 1.04772989e-02
      2.32828874e-03 4.65657748e-03 1.16414437e-03 3.49243311e-03
      9.31315497e-03 2.32828874e-03 0. 3.49243311e-03 4.65657748e-03
      5.82072185e-03 9.31315497e-03 1.16414437e-03 3.49243311e-03
      3.49243311e-03 1.16414437e-03 6.98486622e-03 1.16414437e-02
      3.49243311e-03 3.49243311e-03 9.31315497e-03 5.82072185e-03
      1.04772989e-02 8.14901106e-03 2.32828874e-03 4.65657748e-03
      3.49243311e-03 2.32828874e-03 5.82072185e-03 4.65657748e-03
      2.32828874e-03 1.16414437e-02 4.65657748e-03 2.32828874e-03
      3.49243311e-03 1.16414437e-02 6.98486622e-03 2.32828874e-03
      3.49243311e-03 2.32828874e-03 4.65657748e-03 0. 1.39697324e-02
      4.65657748e-03 0. 2.32828874e-03 2.32828874e-03 3.49243311e-03
      8.14901106e-03 5.47147840e-02 5.82072185e-03 4.65657748e-03
      5.82072185e-03 0. 1.16414437e-03 1.16414437e-03 4.65657748e-03
      4.65657748e-03 3.49243311e-03 9.31315497e-03 8.14901106e-03
      9.31315497e-03 4.65657748e-03 1.16414437e-03 8.14901106e-03
      2.32828874e-03 2.32828874e-03 1.16414437e-03 2.32828874e-03
      5.82072185e-03 0. 1.16414437e-03 6.98486622e-03 8.14901106e-03
      6.98486622e-03 0. 3.49243311e-03 6.98486622e-03 4.65657748e-03
      2.32828874e-03 1.16414437e-03 1.62980221e-02 3.49243311e-03
      4.65657748e-03 0. 4.65657748e-03 4.65657748e-03 3.49243311e-03
      2.32828874e-03 3.49243311e-03 3.49243311e-03 3.14318985e-02
      8.14901106e-03 3.49243311e-03 1.16414437e-03 8.14901106e-03
      2.32828874e-03 6.98486622e-03 8.14901106e-03 0. 2.32828874e-03
      4.65657748e-03 5.82072185e-03 1.16414437e-03 3.49243311e-03
      4.65657748e-03 1.16414437e-03 3.49243311e-03 2.32828874e-03
      4.65657748e-03 4.65657748e-03 6.98486622e-03 0. 3.49243311e-03 0.
      1.16414437e-02 4.65657748e-03 3.49243311e-03 1.16414437e-03
      1.16414437e-02 2.32828874e-03 2.32828874e-03 2.32828874e-03
      1.16414437e-03 2.32828874e-03 6.98486622e-03</_>
    <_>
      2.43902439e-03 2.43902439e-03 4.87804879e-03 9.75609757e-03
      1.21951215e-02 0. 0. 2.43902439e-03 1.70731712e-02 7.31707318e-03
      2.43902439e-03 7.31707318e-03 2.43902439e-03 0. 4.87804879e-03
      2.43902439e-03 4.87804879e-03 2.43902439e-03 2.43902439e-03
      1.95121951e-02 0. 9.75609757e-03 7.31707318e-03 1.70731712e-02 0.
      0. 2.43902439e-03 2.43902439e-03 1.21951215e-02 1.70731712e-02
      4.87804879e-03 9.75609757e-03 2.43902439e-03 4.87804879e-03
      4.87804879e-03 0. 9.75609757e-03 2.43902439e-03 0. 2.43902439e-03
      0. 2.43902439e-03 0. 1.70731712e-02 2.19512191e-02 4.87804879e-03
      9.75609757e-03 0. 1.46341464e-02 7.31707318e-03 0. 2.43902439e-03
      0. 9.75609757e-03 4.87804879e-03 2.43902439e-03 2.43902439e-03
      2.43902439e-03 4.87804879e-03 7.31707318e-03 1.46341464e-02 0.
      2.43902439e-03 7.31707318e-03 4.87804879e-03 0. 0. 0.
      2.43902439e-03 0. 2.43902439e-03 7.31707318e-03 0. 4.87804879e-03
      0. 0. 0. 4.87804879e-03 0. 7.31707318e-03 0. 0. 0. 1.46341464e-02
      7.31707318e-03 4.87804879e-03 2.43902439e-03 2.68292688e-02 0.
      1.21951215e-02 2.43902439e-03 0. 0. 4.87804879e-03 7.31707318e-03
      2.43902439e-03 0. 7.31707318e-03 0. 1.21951215e-02 0. 0.
      2.43902439e-03 4.87804879e-03 0. 2.43902439e-03 0. 4.87804879e-03
      2.43902439e-03 4.87804879e-03 1.21951215e-02 4.87804879e-03
      9.75609757e-03 0. 0. 0. 2.43902439e-03 2.43902439e-03
      4.87804879e-03 4.87804879e-03 2.43902439e-03 7.31707318e-03
      9.75609757e-03 2.92682927e-02 9.75609757e-03 2.43902439e-03
      2.43902439e-03 7.31707318e-03 0. 4.87804879e-03 4.87804879e-03
      2.43902439e-03 2.43902439e-03 1.95121951e-02 9.75609757e-03
      1.95121951e-02 1.70731712e-02 9.75609757e-03 0. 7.31707318e-03
      7.31707318e-03 0. 2.43902439e-03 0. 0. 2.43902439e-03
      2.43902439e-03 9.75609757e-03 0. 2.43902439e-03 2.43902439e-03 0.
      0. 4.87804879e-03 4.87804879e-03 4.87804879e-03 4.87804879e-03 0.
      7.31707318e-03 9.75609757e-03 2.43902439e-03 0. 2.68292688e-02
      4.87804879e-03 2.43902439e-03 2.43902439e-03 9.75609757e-03
      7.31707318e-03 0. 9.75609757e-03 9.75609757e-03 4.87804879e-03
      1.21951215e-02 0. 2.43902439e-03 4.87804879e-03 2.43902439e-03
      9.75609757e-03 0. 2.43902439e-03 7.31707318e-03 2.43902439e-03
      9.75609757e-03 2.43902439e-03 2.43902439e-03 1.21951215e-02 0. 0.
      2.43902439e-03 0. 0. 7.31707318e-03 2.43902439e-03 1.70731712e-02
      7.31707318e-03 4.87804879e-03 9.75609757e-03 0. 2.43902439e-03
      2.43902439e-03</_>
    <_>
      4.95049497e-03 9.90098994e-03 9.90098994e-03 4.95049497e-03 0. 0.
      9.90098994e-03 0. 4.95049497e-03 4.95049497e-03 0. 9.90098994e-03
      0. 0. 4.95049497e-03 4.95049497e-03 4.95049497e-03 4.95049497e-03
      4.95049497e-03 4.95049497e-03 9.90098994e-03 9.90098994e-03
      4.95049497e-03 0. 0. 0. 0. 9.90098994e-03 1.48514844e-02
      9.90098994e-03 0. 0. 0. 0. 0. 0. 9.90098994e-03 9.90098994e-03 0.
      0. 0. 0. 4.95049497e-03 1.48514844e-02 0. 0. 0. 4.95049497e-03
      2.47524753e-02 4.95049497e-03 0. 4.95049497e-03 9.90098994e-03
      4.95049497e-03 0. 0. 0. 0. 4.95049497e-03 1.48514844e-02
      4.95049497e-03 0. 0. 4.95049497e-03 0. 1.98019799e-02 0. 0. 0.
      4.95049506e-02 4.95049497e-03 0. 4.95049497e-03 9.90098994e-03
      9.90098994e-03 0. 1.48514844e-02 0. 4.95049497e-03 0. 0. 0. 0. 0.
      9.90098994e-03 1.48514844e-02 0. 4.95049497e-03 4.95049497e-03 0.
      0. 0. 0. 0. 4.95049497e-03 1.48514844e-02 9.90098994e-03
      9.90098994e-03 9.90098994e-03 0. 4.95049497e-03 9.90098994e-03 0.
      1.48514844e-02 0. 4.95049497e-03 1.48514844e-02 0. 0.
      4.95049497e-03 4.95049497e-03 0. 1.98019799e-02 0. 0. 0.
      9.90098994e-03 4.95049497e-03 4.95049497e-03 4.95049497e-03
      9.90098994e-03 9.90098994e-03 0. 0. 9.90098994e-03 0.
      4.95049497e-03 4.95049497e-03 0. 0. 0. 4.95049497e-03 0.
      4.95049497e-03 0. 9.90098994e-03 0. 9.90098994e-03 0. 0.
      3.46534662e-02 4.95049497e-03 1.48514844e-02 0. 0. 1.48514844e-02
      9.90098994e-03 0. 1.98019799e-02 0. 0. 4.95049497e-03 0.
      1.48514844e-02 4.95049497e-03 9.90098994e-03 4.95049497e-03
      4.95049497e-03 0. 0. 0. 0. 2.97029689e-02 9.90098994e-03 0. 0. 0.
      4.95049497e-03 4.95049497e-03 0. 0. 1.98019799e-02 0. 0.
      2.47524753e-02 0. 9.90098994e-03 4.95049497e-03 0. 0.
      4.95049497e-03 0. 1.98019799e-02 0. 1.48514844e-02 4.95049497e-03
      4.95049497e-03 4.95049497e-03 0. 2.47524753e-02 4.95049497e-03 0.
      0. 0. 4.95049497e-03 0. 0. 0. 4.95049497e-03 4.95049497e-03</_>
    <_>
      0. 0. 0. 0. 0. 6.80272095e-03 0. 6.80272095e-03 1.36054419e-02 0.
      0. 6.80272095e-03 0. 0. 0. 6.80272095e-03 6.80272095e-03 0. 0.
      6.80272095e-03 0. 2.72108838e-02 0. 1.36054419e-02 6.80272095e-03
      6.80272095e-03 0. 0. 0. 0. 0. 0. 6.80272095e-03 0. 1.36054419e-02
      0. 0. 0. 0. 0. 6.80272095e-03 0. 6.80272095e-03 1.36054419e-02
      6.80272095e-03 0. 0. 0. 4.76190448e-02 6.80272095e-03 0.
      6.80272095e-03 6.80272095e-03 0. 0. 1.36054419e-02 6.80272095e-03
      0. 0. 0. 6.80272095e-03 0. 0. 6.80272095e-03 0. 0. 0. 0.
      2.72108838e-02 6.80272095e-03 0. 0. 0. 6.80272095e-03 0.
      6.80272095e-03 1.36054419e-02 0. 0. 0. 0. 0. 0. 2.04081628e-02 0.
      0. 0. 0. 0. 6.80272095e-03 0. 0. 0. 0. 0. 3.40136066e-02
      2.72108838e-02 1.36054419e-02 0. 0. 2.72108838e-02 0. 0. 0. 0. 0.
      1.36054419e-02 0. 6.80272095e-03 2.04081628e-02 6.80272095e-03 0.
      2.04081628e-02 0. 0. 0. 4.08163257e-02 0. 0. 0. 0. 6.80272095e-03
      0. 0. 1.36054419e-02 6.80272095e-03 0. 6.80272095e-03 0. 0. 0. 0.
      0. 6.80272095e-03 0. 6.80272095e-03 0. 0. 0. 0. 0. 0. 0. 0. 0.
      6.12244904e-02 6.80272095e-03 0. 2.04081628e-02 0. 1.36054419e-02
      0. 0. 6.80272095e-03 0. 6.80272095e-03 0. 6.80272095e-03
      2.04081628e-02 6.80272095e-03 0. 0. 0. 0. 6.80272095e-03 0.
      6.80272095e-03 6.80272095e-03 6.80272095e-03 1.36054419e-02
      6.80272095e-03 2.72108838e-02 6.80272095e-03 0. 0. 2.04081628e-02
      1.36054419e-02 0. 6.80272095e-03 0. 6.80272095e-03 1.36054419e-02
      6.80272095e-03 0. 0. 2.04081628e-02 0. 6.80272095e-03 0.
      6.80272095e-03 0. 2.72108838e-02 0. 0. 1.36054419e-02
      6.80272095e-03 0. 0. 6.80272095e-03 0.</_>
    <_>
      0. 4.14937781e-03 0. 0. 4.14937781e-03 0. 2.48962678e-02 0.
      8.29875562e-03 0. 8.29875562e-03 4.14937781e-03 4.14937781e-03 0.
      0. 4.14937781e-03 0. 0. 3.73443998e-02 0. 4.14937781e-03 0. 0. 0.
      0. 4.14937781e-03 1.24481339e-02 4.14937781e-03 0. 2.48962678e-02
      0. 4.14937781e-03 0. 0. 0. 2.07468886e-02 4.14937781e-03 0.
      1.65975112e-02 4.14937781e-03 0. 8.29875562e-03 0. 0. 0.
      1.24481339e-02 0. 4.14937781e-03 0. 0. 4.14937781e-03
      4.14937781e-03 0. 1.65975112e-02 4.14937781e-03 0. 4.14937781e-03
      1.24481339e-02 0. 8.29875562e-03 0. 0. 0. 4.14937781e-03
      4.14937781e-03 0. 0. 4.97925356e-02 8.29875562e-03 1.24481339e-02
      0. 0. 4.14937781e-03 0. 0. 0. 0. 4.14937781e-03 0. 0.
      8.29875562e-03 0. 2.90456451e-02 0. 0. 2.48962678e-02 0.
      4.14937781e-03 2.07468886e-02 4.14937781e-03 8.29875562e-03 0.
      4.14937781e-03 4.14937781e-03 0. 4.14937781e-03 0. 0. 0.
      4.14937781e-03 0. 8.29875562e-03 0. 0. 1.24481339e-02
      4.14937781e-03 0. 8.29875562e-03 0. 0. 0. 4.14937781e-03 0.
      2.07468886e-02 1.65975112e-02 2.07468886e-02 0. 4.14937781e-03
      4.14937781e-03 0. 2.48962678e-02 4.14937781e-03 8.29875562e-03 0.
      0. 1.24481339e-02 4.14937781e-03 0. 8.29875562e-03 0.
      4.14937781e-03 4.14937781e-03 0. 0. 8.29875562e-03 4.14937781e-03
      0. 2.07468886e-02 4.14937781e-03 1.65975112e-02 8.29875562e-03
      4.14937781e-03 4.14937781e-03 0. 0. 0. 4.14937781e-03
      8.29875562e-03 0. 4.14937781e-03 1.24481339e-02 1.65975112e-02
      1.24481339e-02 0. 0. 0. 1.65975112e-02 4.14937781e-03 0. 0.
      1.65975112e-02 8.29875562e-03 1.24481339e-02 4.14937781e-03 0.
      4.14937781e-03 0. 0. 1.24481339e-02 0. 0. 0. 0. 4.14937781e-03
      8.29875562e-03 0. 8.29875562e-03 4.14937781e-03 4.14937781e-03 0.
      0. 1.24481339e-02 0. 0. 4.14937781e-03 0. 8.29875562e-03
      4.14937781e-03 0. 4.14937781e-03 4.14937781e-03 0. 1.65975112e-02
      0. 0. 4.14937781e-03 0. 4.97925356e-02 0. 0.</_>
    <_>
      1.48514844e-02 0. 2.47524753e-02 0. 0. 4.95049497e-03 0.
      4.95049497e-03 1.48514844e-02 4.95049497e-03 0. 4.95049497e-03 0.
      9.90098994e-03 9.90098994e-03 0. 0. 0. 0. 4.95049497e-03
      9.90098994e-03 0. 0. 0. 0. 0. 0. 2.47524753e-02 4.95049497e-03
      4.95049497e-03 0. 4.95049497e-03 0. 0. 9.90098994e-03
      4.95049497e-03 0. 9.90098994e-03 4.95049497e-03 4.95049497e-03
      4.95049497e-03 4.95049497e-03 4.45544533e-02 4.95049497e-03 0. 0.
      4.95049497e-03 0. 0. 0. 0. 9.90098994e-03 0. 9.90098994e-03 0.
      4.95049497e-03 0. 4.95049497e-03 4.95049497e-03 9.90098994e-03
      4.95049497e-03 0. 4.95049497e-03 9.90098994e-03 4.95049497e-03 0.
      0. 1.98019799e-02 9.90098994e-03 4.95049497e-03 0. 4.95049497e-03
      0. 4.95049497e-03 4.95049497e-03 4.95049497e-03 0. 1.48514844e-02
      0. 0. 4.95049497e-03 0. 0. 0. 0. 4.95049497e-03 0. 0.
      1.48514844e-02 0. 1.48514844e-02 1.48514844e-02 0. 0. 0. 0.
      4.95049497e-03 4.95049497e-03 4.95049497e-03 9.90098994e-03 0.
      1.48514844e-02 1.48514844e-02 9.90098994e-03 0. 4.95049497e-03
      9.90098994e-03 4.95049497e-03 1.48514844e-02 0. 2.97029689e-02 0.
      0. 9.90098994e-03 1.48514844e-02 4.95049497e-03 9.90098994e-03
      2.97029689e-02 0. 0. 0. 9.90098994e-03 4.95049497e-03 0. 0. 0.
      4.95049497e-03 4.95049497e-03 0. 9.90098994e-03 4.95049497e-03
      9.90098994e-03 9.90098994e-03 0. 0. 9.90098994e-03 0.
      5.44554442e-02 0. 0. 9.90098994e-03 2.47524753e-02 0. 0.
      9.90098994e-03 4.95049497e-03 0. 1.48514844e-02 0. 4.95049497e-03
      0. 4.95049497e-03 0. 4.95049497e-03 9.90098994e-03 0. 0.
      4.95049497e-03 0. 0. 0. 0. 0. 4.95049497e-03 0. 0. 4.95049497e-03
      0. 9.90098994e-03 0. 0. 4.95049497e-03 9.90098994e-03
      1.48514844e-02 4.95049497e-03 0. 0. 9.90098994e-03 0. 0. 0.
      9.90098994e-03 4.95049497e-03 4.95049497e-03 4.95049497e-03 0. 0.
      4.95049497e-03 0. 0. 0. 0. 4.95049497e-03 9.90098994e-03
      4.95049497e-03 1.48514844e-02 4.95049497e-03 4.95049497e-03
      4.95049497e-03 0.</_>
    <_>
      3.71747208e-03 3.71747208e-03 1.48698883e-02 7.43494416e-03
      3.71747208e-03 3.71747208e-03 7.43494416e-03 0. 7.43494416e-03 0.
      0. 7.43494416e-03 7.43494416e-03 0. 7.43494416e-03 0. 0.
      1.11524165e-02 7.43494416e-03 7.43494416e-03 1.85873602e-02 0.
      1.48698883e-02 3.71747208e-03 7.43494416e-03 0. 0. 0.
      3.71747208e-03 3.71747208e-03 3.71747208e-03 3.71747208e-03 0. 0.
      7.43494416e-03 0. 7.43494416e-03 0. 7.43494416e-03 3.71747208e-03
      1.11524165e-02 0. 7.43494416e-03 7.43494416e-03 3.71747208e-03
      7.43494416e-03 0. 1.11524165e-02 0. 0. 3.71747208e-03
      2.97397766e-02 0. 0. 1.48698883e-02 3.71747208e-03 0.
      3.71747208e-03 3.71747208e-03 3.71747208e-03 7.43494416e-03 0.
      3.71747208e-03 0. 3.71747208e-03 0. 0. 7.43494416e-03
      7.43494416e-03 1.11524165e-02 1.48698883e-02 1.48698883e-02
      7.43494416e-03 7.43494416e-03 1.11524165e-02 0. 0. 0.
      1.11524165e-02 0. 3.71747208e-03 0. 3.71747208e-03 7.43494416e-03
      0. 3.71747208e-03 0. 3.71747208e-03 1.11524165e-02 7.43494416e-03
      0. 1.11524165e-02 1.11524165e-02 0. 3.71747208e-03 0.
      7.43494416e-03 7.43494416e-03 3.71747208e-03 3.71747208e-03
      7.43494416e-03 3.71747208e-03 0. 7.43494416e-03 0. 0.
      7.43494416e-03 7.43494416e-03 0. 0. 3.71747208e-03 7.43494416e-03
      3.71747208e-03 1.48698883e-02 7.43494416e-03 7.43494416e-03
      7.43494416e-03 2.23048329e-02 0. 3.71747208e-03 0. 0.
      3.71747208e-03 0. 0. 7.43494416e-03 3.71747208e-03 3.71747208e-03
      3.71747208e-03 1.85873602e-02 3.71747208e-03 0. 3.71747208e-03
      1.11524165e-02 0. 1.48698883e-02 0. 0. 1.11524165e-02
      1.48698883e-02 0. 3.71747208e-03 1.85873602e-02 0. 0.
      2.60223038e-02 1.11524165e-02 7.43494416e-03 1.48698883e-02
      3.71747208e-03 7.43494416e-03 3.71747208e-03 3.71747208e-03
      3.71747208e-03 1.48698883e-02 0. 0. 0. 7.43494416e-03
      3.71747208e-03 3.71747208e-03 0. 1.11524165e-02 3.71747208e-03
      1.48698883e-02 0. 0. 3.71747208e-03 3.71747208e-03 0.
      1.48698883e-02 0. 0. 1.11524165e-02 3.71747208e-03 3.71747208e-03
      7.43494416e-03 3.71747208e-03 3.71747208e-03 3.71747208e-03
      7.43494416e-03 0. 3.71747208e-03 1.11524165e-02 3.71747208e-03 0.
      7.43494416e-03 0. 0. 3.71747208e-03 7.43494416e-03 3.71747208e-03
      3.71747208e-03 0. 0. 0. 1.48698883e-02 0. 3.71747208e-03 0.</_>
    <_>
      2.65957434e-02 5.31914877e-03 0. 0. 0. 0. 0. 5.31914877e-03 0. 0.
      0. 5.31914877e-03 5.31914877e-03 1.06382975e-02 1.59574468e-02
      5.31914877e-03 0. 0. 0. 0. 2.65957434e-02 5.31914877e-03 0. 0. 0.
      5.31914877e-03 0. 5.31914877e-03 1.59574468e-02 1.06382975e-02 0.
      0. 1.06382975e-02 1.06382975e-02 5.31914877e-03 0. 0. 0.
      5.31914877e-03 5.31914877e-03 0. 0. 5.31914877e-03 0. 0.
      5.31914877e-03 0. 1.06382975e-02 5.31914877e-03 5.31914877e-03 0.
      1.06382975e-02 5.31914877e-03 5.31914877e-03 1.06382975e-02
      1.06382975e-02 0. 5.31914877e-03 5.31914877e-03 0. 1.06382975e-02
      0. 1.59574468e-02 0. 5.31914877e-03 1.06382975e-02 0.
      5.31914877e-03 0. 2.65957434e-02 5.31914877e-03 1.06382975e-02 0.
      5.31914877e-03 0. 5.31914877e-03 0. 0. 0. 1.06382975e-02
      5.31914877e-03 0. 0. 0. 0. 1.06382975e-02 0. 0. 0. 5.31914877e-03
      5.31914877e-03 5.31914877e-03 0. 5.31914877e-03 5.31914877e-03
      5.31914877e-03 5.31914877e-03 1.06382975e-02 0. 5.31914877e-03 0.
      1.06382975e-02 0. 5.31914877e-03 1.59574468e-02 0. 0. 0.
      1.06382975e-02 0. 0. 0. 5.31914877e-03 0. 5.31914877e-03
      5.31914877e-03 5.31914877e-03 5.31914877e-03 2.12765951e-02
      1.59574468e-02 1.06382975e-02 0. 0. 0. 0. 0. 5.31914877e-03 0. 0.
      5.31914877e-03 0. 5.31914877e-03 0. 1.59574468e-02 0.
      1.06382975e-02 0. 5.31914877e-03 5.31914877e-03 5.31914877e-03
      1.59574468e-02 0. 0. 5.31914877e-03 1.06382975e-02 5.31914877e-03
      5.31914877e-03 1.59574468e-02 5.31914877e-03 5.31914877e-03 0.
      1.06382975e-02 0. 0. 5.31914877e-03 0. 0. 1.59574468e-02 0. 0. 0.
      1.06382975e-02 2.12765951e-02 5.31914877e-03 1.59574468e-02
      1.06382975e-02 5.31914877e-03 1.06382975e-02 1.06382975e-02
      5.31914877e-03 5.31914877e-03 0. 0. 5.31914877e-03 1.06382975e-02
      2.12765951e-02 5.31914877e-03 1.06382975e-02 0. 1.59574468e-02
      5.31914877e-03 5.31914877e-03 5.31914877e-03 1.06382975e-02 0. 0.
      5.31914877e-03 1.06382975e-02 0. 1.59574468e-02 0. 1.59574468e-02
      0. 0. 5.31914877e-03 5.31914877e-03 1.06382975e-02 5.31914877e-03
      0. 0.</_>
    <_>
      1.69491526e-02 1.12994350e-02 1.69491526e-02 5.64971752e-03 0. 0.
      2.25988701e-02 5.64971752e-03 5.64971752e-03 0. 0. 5.64971752e-03
      0. 0. 5.64971752e-03 0. 1.12994350e-02 5.64971752e-03 0.
      5.64971752e-03 0. 1.69491526e-02 5.64971752e-03 0. 2.25988701e-02
      1.12994350e-02 0. 5.64971752e-03 0. 0. 0. 0. 0. 5.64971752e-03
      5.64971752e-03 0. 0. 5.64971752e-03 0. 5.64971752e-03 0.
      5.64971752e-03 5.64971752e-03 5.64971752e-03 2.25988701e-02
      1.12994350e-02 0. 0. 1.69491526e-02 5.64971752e-03 0.
      1.12994350e-02 1.12994350e-02 0. 0. 0. 0. 0. 0. 0. 2.25988701e-02
      0. 0. 2.82485876e-02 0. 0. 0. 0. 0. 3.95480245e-02 1.12994350e-02
      0. 1.12994350e-02 5.64971752e-03 0. 1.12994350e-02 5.64971752e-03
      0. 1.12994350e-02 0. 0. 0. 0. 2.82485876e-02 0. 0. 0. 0. 0.
      5.64971752e-03 0. 0. 5.64971752e-03 0. 0. 0. 0. 5.64971752e-03 0.
      5.64971752e-03 1.12994350e-02 2.25988701e-02 0. 0. 0.
      2.82485876e-02 5.64971752e-03 0. 5.64971752e-03 1.12994350e-02 0.
      5.64971752e-03 5.64971752e-03 5.64971752e-03 5.64971752e-03 0.
      5.64971752e-03 5.64971752e-03 0. 0. 0. 5.64971752e-03 0.
      1.12994350e-02 0. 0. 5.64971752e-03 5.64971752e-03 0.
      2.25988701e-02 0. 5.64971752e-03 5.64971752e-03 0. 0.
      5.64971752e-03 0. 0. 0. 5.64971752e-03 2.25988701e-02 0. 0. 0.
      5.64971752e-03 5.64971752e-03 1.12994350e-02 0. 1.69491526e-02 0.
      0. 0. 0. 0. 0. 1.69491526e-02 1.12994350e-02 5.64971752e-03
      2.82485876e-02 5.64971752e-03 0. 5.64971752e-03 5.64971752e-03 0.
      2.82485876e-02 0. 1.12994350e-02 0. 5.64971752e-03 2.25988701e-02
      1.69491526e-02 5.64971752e-03 0. 0. 1.69491526e-02 5.64971752e-03
      0. 0. 1.12994350e-02 0. 1.12994350e-02 0. 5.64971752e-03 0.
      5.64971752e-03 0. 0. 0. 0. 5.64971752e-03 0. 0. 0. 0.
      5.64971752e-03 0. 0. 0. 1.12994350e-02 0.</_>
    <_>
      2.69541773e-03 2.69541773e-03 5.39083546e-03 0. 0. 0.
      1.07816709e-02 2.69541773e-03 2.69541773e-03 2.69541773e-03
      8.08625296e-03 2.69541773e-03 0. 1.34770889e-02 5.39083546e-03
      5.39083546e-03 0. 1.07816709e-02 1.34770889e-02 5.39083546e-03
      2.69541773e-03 2.69541773e-03 2.69541773e-03 2.69541773e-03
      5.39083546e-03 0. 0. 5.39083546e-03 0. 0. 5.39083546e-03 0.
      4.31266837e-02 2.69541773e-03 2.69541773e-03 0. 5.39083546e-03
      1.34770889e-02 0. 2.69541773e-03 0. 5.39083546e-03 1.07816709e-02
      1.34770889e-02 0. 2.69541773e-03 2.69541773e-03 8.08625296e-03
      1.34770889e-02 0. 0. 0. 2.69541773e-03 0. 2.69541773e-03
      5.39083546e-03 3.50404307e-02 5.39083546e-03 2.69541773e-03 0.
      8.08625296e-03 0. 8.08625296e-03 5.39083546e-03 2.69541773e-03
      2.69541773e-03 2.69541773e-03 2.69541773e-03 5.39083546e-03
      3.77358496e-02 0. 5.39083546e-03 2.69541773e-03 1.07816709e-02
      5.39083546e-03 0. 8.08625296e-03 2.69541773e-03 5.39083546e-03
      8.08625296e-03 0. 0. 0. 8.08625296e-03 0. 0. 2.69541773e-03 0.
      2.69541773e-03 0. 0. 0. 2.69541773e-03 2.69541773e-03
      8.08625296e-03 2.69541773e-03 2.69541773e-03 5.39083546e-03
      2.69541773e-03 1.07816709e-02 1.07816709e-02 5.39083546e-03
      2.69541773e-03 5.39083546e-03 0. 1.61725059e-02 0. 0.
      2.69541773e-03 2.69541773e-03 5.39083546e-03 2.69541773e-03
      8.08625296e-03 2.69541773e-03 2.69541773e-03 2.69541773e-03
      1.07816709e-02 1.88679248e-02 0. 2.69541773e-03 8.08625296e-03
      8.08625296e-03 2.69541773e-03 0. 0. 2.69541773e-03 0.
      2.69541773e-03 0. 2.69541773e-03 2.69541773e-03 5.39083546e-03
      5.39083546e-03 5.39083546e-03 2.69541773e-03 2.69541773e-03 0.
      2.69541773e-03 5.39083546e-03 5.39083546e-03 2.96495948e-02 0.
      2.69541773e-03 0. 8.08625296e-03 2.69541773e-03 8.08625296e-03
      1.34770889e-02 5.39083546e-03 2.69541773e-03 5.39083546e-03
      8.08625296e-03 0. 0. 0. 1.07816709e-02 2.69541773e-03 0.
      5.39083546e-03 0. 5.39083546e-03 1.34770889e-02 2.42587589e-02
      5.39083546e-03 1.88679248e-02 0. 1.61725059e-02 2.69541773e-03
      2.69541773e-03 8.08625296e-03 8.08625296e-03 0. 0. 8.08625296e-03
      2.69541778e-02 2.69541773e-03 2.69541773e-03 2.69541773e-03
      2.69541773e-03 2.69541773e-03 8.08625296e-03 1.07816709e-02
      8.08625296e-03 5.39083546e-03 2.69541773e-03 2.69541773e-03
      8.08625296e-03 1.88679248e-02 0. 0. 2.69541773e-03 1.34770889e-02
      0. 0. 2.69541773e-03 5.39083546e-03 2.69541773e-03 5.39083546e-03
      0. 0.</_>
    <_>
      8.26446246e-03 0. 0. 0. 0. 0. 7.43801594e-02 0. 0. 0.
      8.26446246e-03 0. 8.26446246e-03 0. 8.26446246e-03 0. 0. 0. 0. 0.
      8.26446246e-03 8.26446246e-03 0. 0. 8.26446246e-03 0. 0.
      8.26446246e-03 0. 0. 0. 0. 0. 0. 0. 0. 0. 0. 8.26446246e-03
      8.26446246e-03 0. 0. 1.65289249e-02 0. 0. 5.78512363e-02 0.
      8.26446246e-03 0. 0. 0. 2.47933865e-02 0. 0. 8.26446246e-03 0. 0.
      0. 8.26446246e-03 0. 0. 0. 0. 0. 1.65289249e-02 0. 0.
      8.26446246e-03 0. 4.95867729e-02 8.26446246e-03 0. 0. 0. 0. 0. 0.
      7.43801594e-02 0. 0. 8.26446246e-03 0. 0. 0. 0. 0. 8.26446246e-03
      0. 0. 0. 0. 0. 2.47933865e-02 0. 0. 8.26446246e-03 0. 0. 0. 0. 0.
      0. 0. 0. 8.26446246e-03 0. 8.26446246e-03 1.65289249e-02 0. 0. 0.
      0. 0. 0. 8.26446246e-03 0. 0. 1.65289249e-02 8.26446246e-03
      8.26446246e-03 8.26446246e-03 8.26446246e-03 0. 0. 8.26446246e-03
      0. 0. 8.26446246e-03 8.26446246e-03 1.65289249e-02 0. 0.
      8.26446246e-03 8.26446246e-03 0. 0. 0. 0. 0. 8.26446246e-03
      6.61156997e-02 0. 1.65289249e-02 0. 8.26446246e-03 8.26446246e-03
      0. 0. 8.26446246e-03 0. 0. 0. 0. 0. 8.26446246e-03 0. 0. 0. 0. 0.
      1.65289249e-02 8.26446246e-03 4.13223132e-02 0. 1.65289249e-02 0.
      0. 0. 0. 0. 0. 8.26446246e-03 0. 2.47933865e-02 0. 0.
      1.65289249e-02 8.26446246e-03 0. 0. 0. 1.65289249e-02
      8.26446246e-03 2.47933865e-02 0. 0. 2.47933865e-02 0. 0.
      8.26446246e-03 0. 1.65289249e-02 0. 0. 0. 0. 0. 0. 0. 0.</_>
    <_>
      7.09219836e-03 1.41843967e-02 1.18203312e-02 7.09219836e-03 0. 0.
      2.36406620e-03 2.36406620e-03 2.36406620e-03 4.72813239e-03
      7.09219836e-03 2.36406620e-03 2.36406620e-03 4.72813239e-03
      2.36406620e-03 2.36406620e-03 2.36406620e-03 0. 9.45626479e-03
      7.09219836e-03 4.72813239e-03 2.36406620e-03 7.09219836e-03
      4.72813239e-03 4.72813239e-03 7.09219836e-03 0. 0. 1.65484641e-02
      7.09219836e-03 0. 4.72813239e-03 0. 0. 0. 0. 7.09219836e-03
      7.09219836e-03 0. 1.41843967e-02 2.36406620e-03 0. 1.18203312e-02
      1.41843967e-02 7.09219836e-03 1.41843967e-02 2.36406620e-03
      2.36406620e-03 2.60047279e-02 2.36406620e-03 0. 9.45626479e-03
      7.09219836e-03 2.36406620e-03 2.36406620e-03 4.72813239e-03 0.
      4.72813239e-03 4.72813239e-03 4.72813239e-03 1.41843967e-02 0.
      7.09219836e-03 4.72813239e-03 0. 7.09219836e-03 0. 2.36406620e-03
      1.89125296e-02 7.09219836e-03 2.36406620e-03 4.72813239e-03
      2.36406620e-03 4.72813239e-03 2.36406620e-03 0. 0. 0.
      4.72813239e-03 2.36406620e-03 4.72813239e-03 2.36406620e-03 0. 0.
      0. 7.09219836e-03 0. 7.09219836e-03 0. 2.36406620e-03 0.
      2.36406620e-03 2.36406620e-03 2.36406620e-03 7.09219836e-03
      2.36406620e-03 4.72813239e-03 1.18203312e-02 2.36406620e-03 0.
      1.65484641e-02 0. 2.36406620e-03 0. 1.41843967e-02 0.
      9.45626479e-03 0. 4.72813239e-03 1.18203312e-02 4.72813239e-03 0.
      2.12765951e-02 0. 9.45626479e-03 2.36406620e-03 1.18203312e-02
      7.09219836e-03 0. 4.72813239e-03 2.36406620e-03 4.72813239e-03 0.
      0. 4.72813239e-03 0. 1.18203312e-02 2.36406620e-03 0.
      2.36406620e-03 7.09219836e-03 4.72813239e-03 4.72813239e-03
      2.36406620e-03 0. 2.36406620e-03 1.18203312e-02 2.36406620e-03
      1.41843967e-02 2.36406620e-03 2.36406620e-03 0. 2.36406620e-03 0.
      0. 2.36406620e-03 2.36406620e-03 9.45626479e-03 9.45626479e-03
      4.72813239e-03 4.72813239e-03 7.09219836e-03 0. 4.72813239e-03
      2.36406620e-03 0. 2.36406620e-03 7.09219836e-03 1.65484641e-02
      4.72813239e-03 2.36406620e-03 0. 1.41843967e-02 4.72813239e-03
      9.45626479e-03 0. 4.72813239e-03 7.09219836e-03 0. 2.60047279e-02
      4.72813239e-03 9.45626479e-03 9.45626479e-03 4.72813239e-03
      7.09219836e-03 2.36406620e-03 1.18203312e-02 0. 9.45626479e-03
      1.18203312e-02 1.18203312e-02 0. 9.45626479e-03 1.65484641e-02 0.
      2.60047279e-02 2.36406620e-03 2.36406620e-03 0. 2.36406620e-03
      9.45626479e-03 1.89125296e-02 4.72813239e-03 2.36406620e-03
      4.72813239e-03 1.18203312e-02 2.36406620e-03 0. 2.36406620e-03
      2.36406620e-03</_>
    <_>
      0. 8.33333377e-03 0. 0. 0. 8.33333377e-03 5.00000045e-02 0. 0. 0.
