<?xml version="1.0"?>
<opencv_storage>
<opencv_ml_svm>
  <format>3</format>
  <svmType>C_SVC</svmType>
  <kernel>
    <type>RBF</type>
    <gamma>5.0625000000000009e-01</gamma></kernel>
  <C>6.2500000000000000e+01</C>
  <term_criteria><iterations>100</iterations></term_criteria>
  <var_count>150</var_count>
  <class_count>5</class_count>
  <class_labels type_id="opencv-matrix">
    <rows>5</rows>
    <cols>1</cols>
    <dt>i</dt>
    <data>
      0 1 2 3 4</data></class_labels>
  <sv_total>185</sv_total>
  <support_vectors>
    <_>
      0. 7.04225339e-03 3.01810866e-03 1.00603616e-02 1.00603618e-03
      5.03018079e-03 3.01810866e-03 3.01810866e-03 4.02414473e-03
      1.40845068e-02 8.04828946e-03 2.01207236e-03 7.04225339e-03
      7.04225339e-03 1.10663977e-02 4.02414473e-03 2.01207232e-02
      2.01207236e-03 2.01207236e-03 9.05432552e-03 7.04225339e-03
      1.00603618e-03 2.01207236e-03 2.01207236e-03 4.02414473e-03
      3.01810866e-03 1.00603618e-03 1.00603618e-03 6.03621732e-03
      1.00603618e-03 0. 3.72233391e-02 5.03018079e-03 1.00603618e-03
      9.05432552e-03 3.01810866e-03 1.00603618e-03 4.02414473e-03
      8.04828946e-03 5.03018079e-03 2.01207236e-03 0. 3.31991948e-02
      1.71026159e-02 1.00603618e-03 9.05432552e-03 6.03621732e-03
      1.71026159e-02 8.04828946e-03 5.03018079e-03 1.00603618e-03
      1.00603618e-03 4.02414473e-03 1.30784707e-02 2.01207236e-03
      6.03621732e-03 5.03018079e-03 6.03621732e-03 2.81690136e-02
      3.01810866e-03 2.01207236e-03 1.00603618e-03 2.31388323e-02
      2.01207236e-03 4.02414473e-03 1.00603616e-02 5.03018079e-03
      2.41448693e-02 1.40845068e-02 7.04225339e-03 0. 4.02414473e-03
      7.04225339e-03 3.01810866e-03 1.00603618e-03 1.30784707e-02
      3.01810866e-03 3.01810866e-03 3.01810866e-03 5.03018079e-03
      5.03018079e-03 4.02414473e-03 1.60965789e-02 1.00603618e-03
      2.81690136e-02 3.01810866e-03 3.01810866e-03 5.03018079e-03
      4.02414473e-03 5.03018079e-03 5.03018079e-03 1.00603618e-03
      1.00603618e-03 7.04225339e-03 8.04828946e-03 1.60965789e-02
      4.02414473e-03 2.61569414e-02 1.81086510e-02 1.00603616e-02
      4.02414473e-03 4.02414473e-03 3.01810866e-03 6.03621732e-03 0.
      2.01207236e-03 5.03018079e-03 3.01810866e-03 1.10663977e-02
      3.01810866e-03 9.05432552e-03 5.03018079e-03 3.72233391e-02
      3.01810866e-03 1.30784707e-02 6.03621732e-03 4.02414473e-03
      1.00603618e-03 1.20724346e-02 2.01207236e-03 1.00603618e-03
      1.30784707e-02 4.02414473e-03 5.03018079e-03 5.03018079e-03
      3.01810866e-03 5.03018079e-03 1.40845068e-02 5.03018079e-03
      5.03018079e-03 7.04225339e-03 5.03018079e-03 3.01810866e-03
      6.03621732e-03 7.04225339e-03 7.04225339e-03 8.04828946e-03
      7.04225339e-03 1.00603618e-03 6.03621732e-03 2.01207236e-03
      2.01207236e-03 2.01207236e-03 3.01810866e-03 3.01810866e-03
      1.81086510e-02 2.01207236e-03 1.30784707e-02 1.00603618e-03
      4.02414473e-03</_>
    <_>
      0. 6.75675692e-03 5.06756781e-03 8.44594650e-03 6.75675692e-03
      1.52027030e-02 3.37837846e-03 1.68918923e-03 2.53378376e-02
      8.44594650e-03 8.44594650e-03 5.06756781e-03 3.37837846e-03
      1.68918930e-02 2.87162177e-02 1.68918923e-03 8.44594650e-03
      1.68918923e-03 8.44594650e-03 5.06756781e-03 1.68918930e-02
      5.06756781e-03 1.68918923e-03 8.44594650e-03 5.06756781e-03
      3.37837846e-03 0. 1.68918923e-03 5.06756781e-03 1.68918923e-03
      5.06756781e-03 6.75675692e-03 5.06756781e-03 5.06756781e-03
      1.68918923e-03 1.68918923e-03 3.37837846e-03 5.06756781e-03
      8.44594650e-03 0. 6.75675692e-03 1.68918923e-03 6.75675692e-03 0.
      1.68918923e-03 5.06756781e-03 3.37837846e-03 3.37837846e-03
      5.06756781e-03 5.06756781e-03 6.75675692e-03 1.68918923e-03
      8.44594650e-03 8.44594650e-03 3.37837846e-03 6.75675692e-03
      1.68918930e-02 8.44594650e-03 1.18243247e-02 1.01351356e-02
      3.37837846e-03 0. 1.52027030e-02 0. 1.01351356e-02 1.68918923e-03
      1.68918923e-03 5.06756781e-03 8.44594650e-03 3.37837846e-03
      1.68918923e-03 6.75675692e-03 6.75675692e-03 5.06756781e-03
      8.44594650e-03 1.68918923e-03 6.75675692e-03 1.01351356e-02
      5.06756781e-03 3.37837846e-03 6.75675692e-03 1.35135138e-02
      1.35135138e-02 1.68918923e-03 1.68918923e-03 5.06756781e-03
      1.18243247e-02 6.75675692e-03 8.44594650e-03 8.44594650e-03
      1.35135138e-02 6.75675692e-03 1.68918923e-03 1.18243247e-02
      1.68918923e-03 0. 3.37837846e-03 4.72972989e-02 3.37837846e-03
      3.37837846e-03 3.37837846e-03 1.68918923e-03 0. 5.06756781e-03
      1.68918923e-03 1.68918923e-03 5.06756781e-03 1.68918923e-03
      5.06756781e-03 1.18243247e-02 5.06756781e-03 1.52027030e-02
      3.37837846e-03 1.68918923e-03 1.68918923e-03 3.37837846e-03
      1.18243247e-02 5.06756781e-03 1.18243247e-02 1.68918923e-03
      6.75675692e-03 1.18243247e-02 8.44594650e-03 1.85810812e-02
      1.18243247e-02 1.68918923e-03 3.37837846e-03 1.35135138e-02
      8.44594650e-03 5.06756781e-03 5.06756781e-03 1.68918930e-02
      3.37837846e-03 1.01351356e-02 8.44594650e-03 3.37837846e-03
      1.68918923e-03 8.44594650e-03 1.18243247e-02 1.68918930e-02 0.
      5.06756781e-03 6.75675692e-03 5.06756781e-03 0. 1.68918930e-02
      1.85810812e-02 3.37837846e-03 1.01351356e-02 3.37837846e-03</_>
    <_>
      6.16016425e-03 8.21355265e-03 2.05338816e-03 1.23203285e-02
      2.05338816e-03 6.16016425e-03 6.16016425e-03 4.10677632e-03
      4.10677632e-03 4.10677632e-03 2.05338816e-03 1.23203285e-02
      8.21355265e-03 4.10677632e-03 1.64271053e-02 1.02669410e-02
      6.16016425e-03 8.21355265e-03 8.21355265e-03 4.10677632e-03
      8.21355265e-03 2.05338816e-03 8.21355265e-03 1.23203285e-02
      2.05338816e-03 6.16016425e-03 2.05338816e-03 2.05338816e-03
      2.05338816e-03 4.10677632e-03 4.10677632e-03 3.28542106e-02
      4.10677632e-03 6.16016425e-03 1.23203285e-02 2.05338816e-03
      4.10677632e-03 2.05338816e-03 2.05338816e-03 4.10677632e-03 0. 0.
      1.43737169e-02 1.02669410e-02 4.10677632e-03 1.02669410e-02 0.
      8.21355265e-03 1.02669410e-02 1.23203285e-02 0. 4.10677632e-03 0.
      8.21355265e-03 2.05338816e-03 0. 1.43737169e-02 3.28542106e-02 0.
      2.05338816e-03 2.05338816e-03 6.16016425e-03 2.05338816e-03
      2.05338816e-03 2.05338816e-03 8.21355265e-03 2.05338816e-03
      1.23203285e-02 4.10677632e-03 8.21355265e-03 2.05338816e-03
      4.10677632e-03 1.23203285e-02 0. 6.16016425e-03 1.02669410e-02
      6.16016425e-03 4.10677632e-03 0. 4.10677632e-03 2.05338821e-02
      2.05338816e-03 3.28542106e-02 2.05338816e-03 1.43737169e-02
      6.16016425e-03 0. 2.05338816e-03 1.02669410e-02 0. 6.16016425e-03
      4.10677632e-03 2.05338816e-03 2.05338821e-02 4.10677632e-03
      1.23203285e-02 0. 2.05338816e-03 2.66940463e-02 4.10677632e-03
      2.05338816e-03 1.02669410e-02 2.05338816e-03 6.16016425e-03
      1.43737169e-02 4.10677632e-03 6.16016425e-03 1.43737169e-02
      2.66940463e-02 8.21355265e-03 0. 2.05338816e-03 1.43737169e-02 0.
      1.23203285e-02 1.43737169e-02 0. 6.16016425e-03 0. 4.10677632e-03
      6.16016425e-03 0. 2.05338816e-03 6.16016425e-03 1.43737169e-02
      6.16016425e-03 4.10677632e-03 2.66940463e-02 6.16016425e-03 0.
      4.10677632e-03 0. 2.05338816e-03 2.05338816e-03 4.10677632e-03
      2.05338816e-03 4.31211516e-02 2.05338816e-03 1.23203285e-02
      2.05338816e-03 4.10677632e-03 0. 0. 0. 6.16016425e-03
      2.05338816e-03 0. 2.87474338e-02 0. 2.05338816e-03</_>
    <_>
      0. 5.22193220e-03 2.61096610e-03 0. 2.61096610e-03 5.22193220e-03
      2.61096610e-03 2.61096610e-03 2.61096610e-03 2.61096610e-03
      5.22193220e-03 0. 5.22193220e-03 2.61096610e-03 7.83289783e-03
      3.65535244e-02 2.61096610e-03 7.83289783e-03 5.22193220e-03
      5.22193220e-03 2.34986953e-02 5.22193220e-03 0. 5.22193220e-03
      5.22193220e-03 5.22193220e-03 2.87206266e-02 0. 7.83289783e-03
      2.61096610e-03 2.61096610e-03 0. 0. 2.61096610e-03 5.22193220e-03
      2.61096610e-03 0. 5.22193220e-03 5.22193220e-03 7.83289783e-03
      5.22193220e-03 1.30548310e-02 5.22193220e-03 1.82767622e-02
      5.22193220e-03 2.61096610e-03 0. 0. 0. 0. 5.22193220e-03
      5.22193220e-03 2.34986953e-02 2.34986953e-02 0. 2.61096610e-03
      7.83289783e-03 3.39425579e-02 2.61096610e-03 2.08877288e-02
      2.61096610e-03 0. 0. 0. 1.04438644e-02 0. 7.83289783e-03
      2.08877288e-02 2.61096610e-03 2.61096610e-03 2.61096610e-03
      2.61096610e-03 2.08877288e-02 2.61096610e-03 1.04438644e-02
      2.61096610e-03 2.61096610e-03 1.30548310e-02 2.61096610e-03 0.
      1.04438644e-02 5.22193220e-03 7.57180154e-02 7.83289783e-03 0.
      2.61096610e-03 1.04438644e-02 1.82767622e-02 2.61096610e-03
      5.22193220e-03 0. 0. 5.22193220e-03 1.04438644e-02 0.
      6.52741492e-02 5.22193220e-03 2.61096610e-03 1.04438644e-02
      1.82767622e-02 7.83289783e-03 0. 2.61096610e-03 7.83289783e-03 0.
      0. 2.61096610e-03 1.30548310e-02 2.08877288e-02 2.61096610e-03
      7.83289783e-03 1.30548310e-02 2.61096610e-03 1.82767622e-02
      2.61096610e-03 5.22193220e-03 5.22193220e-03 0. 2.87206266e-02 0.
      0. 1.56657957e-02 0. 0. 2.61096610e-03 0. 2.61096610e-03
      2.61096610e-03 7.83289783e-03 1.04438644e-02 2.61096610e-03 0.
      7.83289783e-03 2.61096610e-03 5.22193220e-03 0. 2.61096610e-03 0.
      7.83289783e-03 7.83289783e-03 2.61096610e-03 0. 5.22193220e-03
      2.61096610e-03 0. 2.61096610e-03 0. 7.83289783e-03 0.
      2.61096610e-03</_>
    <_>
      8.08625296e-03 5.39083546e-03 5.39083546e-03 2.69541773e-03
      2.15633418e-02 5.39083546e-03 8.08625296e-03 0. 4.04312648e-02
      2.69541773e-03 8.08625296e-03 2.69541773e-03 8.08625296e-03 0.
      2.96495948e-02 6.73854426e-02 0. 1.34770889e-02 0. 2.69541773e-03
      2.69541778e-02 0. 0. 2.69541773e-03 1.34770889e-02 2.69541773e-03
      5.39083546e-03 5.39083546e-03 5.39083546e-03 2.69541773e-03
      2.69541773e-03 5.39083546e-03 2.69541773e-03 0. 8.08625296e-03
      5.39083546e-03 2.69541773e-03 0. 8.08625296e-03 2.69541773e-03
      5.39083546e-03 5.39083546e-03 0. 0. 0. 2.69541773e-03 0. 0.
      1.07816709e-02 5.39083546e-03 0. 2.69541773e-03 1.61725059e-02 0.
      0. 2.69541773e-03 2.69541773e-03 2.69541773e-03 0. 8.08625296e-03
      1.07816709e-02 1.07816709e-02 2.69541773e-03 5.39083546e-03 0. 0.
      5.39083546e-03 0. 2.69541773e-03 1.61725059e-02 0. 8.08625296e-03
      2.69541773e-03 0. 5.39083546e-03 1.07816709e-02 5.39083546e-03
      5.39083546e-03 0. 5.39083546e-03 2.69541773e-03 8.08625296e-03
      1.34770889e-02 8.08625296e-03 2.69541773e-03 2.69541773e-03 0.
      1.88679248e-02 1.34770889e-02 8.08625296e-03 2.69541773e-03
      8.08625296e-03 5.39083546e-03 5.39083546e-03 2.69541773e-03
      1.88679248e-02 0. 5.39083546e-03 2.69541773e-03 0. 8.08625296e-03
      0. 0. 8.08625296e-03 5.39083546e-03 0. 1.07816709e-02 0.
      2.69541773e-03 2.69541773e-03 5.39083546e-03 5.39083546e-03
      5.39083546e-03 2.42587589e-02 1.07816709e-02 0. 5.39083546e-03
      5.39083546e-03 8.08625296e-03 5.39083546e-03 0. 0. 1.34770889e-02
      1.34770889e-02 2.69541773e-03 1.34770889e-02 2.69541773e-03
      8.08625296e-03 8.08625296e-03 5.39083546e-03 2.69541773e-03 0.
      2.15633418e-02 5.39083546e-03 5.39083546e-03 5.39083546e-03 0.
      2.69541773e-03 2.69541773e-03 4.04312648e-02 0. 1.61725059e-02 0.
      1.07816709e-02 0. 2.69541773e-03 2.69541778e-02 0. 4.04312648e-02
      1.07816709e-02</_>
    <_>
      3.56718199e-03 7.13436399e-03 5.94530301e-03 7.13436399e-03
      3.56718199e-03 9.51248500e-03 2.37812125e-03 1.07015455e-02
      1.90249700e-02 9.51248500e-03 7.13436399e-03 1.07015455e-02 0. 0.
      7.13436399e-03 1.30796665e-02 3.56718199e-03 3.56718199e-03
      7.13436399e-03 3.56718199e-03 0. 8.32342450e-03 9.51248500e-03
      7.13436399e-03 7.13436399e-03 3.56718199e-03 1.90249700e-02
      4.75624250e-03 8.32342450e-03 2.37812125e-03 5.94530301e-03
      1.07015455e-02 7.13436399e-03 7.13436399e-03 0. 2.37812125e-03
      1.90249700e-02 7.13436399e-03 2.37812125e-03 4.75624250e-03
      7.13436399e-03 5.94530301e-03 1.07015455e-02 0. 3.56718199e-03
      3.56718199e-03 1.18906063e-03 7.13436399e-03 0. 1.18906063e-03
      7.13436399e-03 2.37812125e-03 1.30796665e-02 2.37812125e-03 0.
      1.30796665e-02 8.32342450e-03 5.94530301e-03 1.30796665e-02
      5.94530301e-03 1.07015455e-02 8.32342450e-03 3.56718199e-03
      1.42687280e-02 1.18906060e-02 3.56718199e-03 1.18906063e-03 0.
      2.37812125e-03 5.94530301e-03 3.56718199e-03 7.13436399e-03
      3.56718199e-03 1.90249700e-02 7.13436399e-03 2.37812125e-03
      5.94530301e-03 1.07015455e-02 2.02140305e-02 1.18906063e-03
      2.37812125e-03 9.51248500e-03 4.75624250e-03 1.18906063e-03 0.
      7.13436399e-03 9.51248500e-03 1.90249700e-02 1.66468490e-02
      9.51248500e-03 0. 2.37812125e-03 2.37812125e-03 4.75624250e-03
      1.07015455e-02 2.14030910e-02 2.37812125e-03 2.02140305e-02
      1.18906063e-03 8.32342450e-03 8.32342450e-03 3.56718199e-03 0.
      1.18906063e-03 0. 5.94530301e-03 3.56718199e-03 3.56718199e-03
      4.75624250e-03 5.94530301e-03 1.18906060e-02 7.13436399e-03
      2.37812125e-03 9.51248500e-03 2.37812125e-03 3.56718199e-03
      1.42687280e-02 3.56718199e-03 3.56718199e-03 4.75624250e-03
      2.02140305e-02 5.94530301e-03 7.13436399e-03 5.94530301e-03
      7.13436399e-03 3.56718199e-03 9.51248500e-03 1.07015455e-02
      1.30796665e-02 7.13436399e-03 7.13436399e-03 1.18906060e-02
      7.13436399e-03 2.85374559e-02 5.94530301e-03 7.13436399e-03 0.
      5.94530301e-03 7.13436399e-03 9.51248500e-03 5.94530301e-03 0.
      7.13436399e-03 7.13436399e-03 1.18906063e-03 0. 4.75624250e-03
      1.18906063e-03 8.32342450e-03 4.75624250e-03</_>
    <_>
      2.46305414e-03 2.46305414e-03 9.85221658e-03 6.15763525e-03
      3.69458133e-03 6.15763525e-03 9.85221658e-03 8.62068962e-03
      9.85221658e-03 1.72413792e-02 7.38916267e-03 3.69458133e-03
      2.46305414e-03 6.15763525e-03 1.97044332e-02 1.47783253e-02
      6.15763525e-03 2.46305414e-03 6.15763525e-03 3.69458133e-03
      1.10837435e-02 4.92610829e-03 0. 1.10837435e-02 1.72413792e-02
      6.15763525e-03 2.46305414e-03 8.62068962e-03 7.38916267e-03
      3.69458133e-03 6.15763525e-03 6.15763525e-03 4.92610829e-03
      9.85221658e-03 6.15763525e-03 2.46305414e-03 3.69458133e-03
      3.69458133e-03 1.23152707e-03 2.46305414e-03 7.38916267e-03
      4.92610829e-03 2.46305414e-03 1.10837435e-02 3.69458133e-03
      2.46305414e-03 2.46305414e-03 3.69458133e-03 3.69458133e-03
      3.69458133e-03 8.62068962e-03 3.69458133e-03 6.15763525e-03
      1.84729062e-02 7.38916267e-03 6.15763525e-03 3.69458133e-03
      1.97044332e-02 1.23152707e-03 9.85221658e-03 3.69458133e-03
      3.69458133e-03 4.92610829e-03 2.46305414e-03 6.15763525e-03
      4.92610829e-03 8.62068962e-03 9.85221658e-03 7.38916267e-03
      2.09359601e-02 6.15763525e-03 6.15763525e-03 1.97044332e-02
      1.97044332e-02 0. 1.47783253e-02 7.38916267e-03 4.92610829e-03
      7.38916267e-03 1.23152707e-03 4.92610829e-03 6.15763525e-03
      1.35467974e-02 2.46305414e-03 8.62068962e-03 4.92610829e-03
      2.46305414e-03 6.15763525e-03 1.35467974e-02 2.46305414e-03
      7.38916267e-03 9.85221658e-03 1.23152707e-03 3.69458133e-03
      2.46305414e-03 1.10837435e-02 8.62068962e-03 7.38916267e-03
      3.69458133e-03 3.69458133e-03 4.92610829e-03 7.38916267e-03 0.
      2.46305414e-03 1.23152707e-03 3.69458133e-03 9.85221658e-03
      4.92610829e-03 3.69458133e-03 1.10837435e-02 4.92610829e-03
      6.15763525e-03 1.10837435e-02 3.69458133e-03 2.46305414e-03
      6.15763525e-03 3.69458133e-03 2.46305414e-03 2.46305414e-03
      6.15763525e-03 3.69458133e-03 0. 4.92610829e-03 2.46305414e-03
      3.69458133e-03 3.69458133e-03 2.46305414e-03 1.23152707e-03
      7.38916267e-03 3.69458133e-03 9.85221658e-03 7.26600960e-02
      3.69458133e-03 6.15763525e-03 7.38916267e-03 1.47783253e-02
      8.62068962e-03 4.92610829e-03 6.15763525e-03 8.62068962e-03
      3.69458133e-03 0. 1.23152705e-02 6.15763525e-03 0. 0. 0.
      9.85221658e-03 0. 9.85221658e-03</_>
    <_>
      1.67224079e-03 1.00334445e-02 6.68896316e-03 1.00334445e-02
      3.34448158e-03 1.67224079e-03 1.67224079e-03 0. 1.00334445e-02
      3.34448158e-03 1.33779263e-02 6.68896316e-03 1.00334445e-02
      3.34448158e-03 2.17391308e-02 1.50501672e-02 1.17056854e-02
      1.67224079e-03 8.36120360e-03 8.36120360e-03 1.00334445e-02
      3.34448158e-03 3.34448158e-03 6.68896316e-03 1.17056854e-02
      1.83946490e-02 6.68896316e-03 1.33779263e-02 6.68896316e-03
      1.33779263e-02 3.34448158e-03 6.68896316e-03 5.01672225e-03
      5.01672225e-03 3.34448158e-03 1.67224079e-03 1.17056854e-02
      5.01672225e-03 1.67224079e-03 1.67224079e-03 6.68896316e-03
      6.68896316e-03 5.01672225e-03 1.67224079e-03 1.67224079e-03
      5.01672225e-03 5.01672225e-03 1.17056854e-02 3.34448158e-03
      6.68896316e-03 5.01672225e-03 1.17056854e-02 3.34448158e-03
      1.67224079e-03 5.01672225e-03 1.00334445e-02 1.00334445e-02
      1.17056854e-02 5.01672225e-03 1.67224079e-03 5.01672225e-03
      1.67224079e-03 0. 8.36120360e-03 1.67224079e-03 8.36120360e-03
      3.34448158e-03 0. 1.00334445e-02 2.00668890e-02 1.17056854e-02
      3.34448158e-03 5.01672225e-03 0. 3.34448158e-03 1.00334445e-02
      5.01672225e-03 3.34448158e-03 5.01672225e-03 0. 8.36120360e-03
      1.00334445e-02 2.50836127e-02 3.34448158e-03 3.34448158e-03
      3.34448158e-03 1.67224079e-03 1.67224072e-02 6.68896316e-03
      8.36120360e-03 3.34448158e-03 1.33779263e-02 5.01672225e-03
      1.00334445e-02 8.36120360e-03 2.84280926e-02 1.67224079e-03
      1.67224072e-02 6.68896316e-03 6.68896316e-03 1.33779263e-02
      1.17056854e-02 1.67224079e-03 1.00334445e-02 5.01672225e-03
      1.33779263e-02 5.01672225e-03 5.01672225e-03 2.34113708e-02
      1.00334445e-02 6.68896316e-03 3.34448158e-03 1.67224079e-03
      1.00334445e-02 1.67224079e-03 3.34448158e-03 1.00334445e-02
      1.67224079e-03 3.34448158e-03 1.17056854e-02 1.33779263e-02
      6.68896316e-03 1.67224079e-03 6.68896316e-03 3.34448158e-03
      8.36120360e-03 3.34448158e-03 1.67224079e-03 5.01672225e-03
      1.67224079e-03 1.67224079e-03 1.33779263e-02 8.36120360e-03
      1.00334445e-02 6.68896316e-03 3.34448158e-03 3.34448158e-03
      1.67224079e-03 0. 3.34448158e-03 1.00334445e-02 1.67224079e-03
      1.67224079e-03 6.68896316e-03 1.67224079e-03 8.36120360e-03
      1.67224079e-03 6.68896316e-03 0. 6.68896316e-03</_>
    <_>
      9.51474765e-04 6.66032359e-03 1.90294953e-03 2.85442430e-03
      2.85442430e-03 6.66032359e-03 1.90294953e-03 4.75737359e-03
      6.66032359e-03 4.75737359e-03 4.75737359e-03 2.85442430e-03
      2.85442430e-03 7.61179812e-03 1.14176972e-02 1.90294953e-03
      5.70884859e-03 1.90294953e-03 3.80589906e-03 6.66032359e-03
      1.42721217e-02 1.90294953e-03 4.75737359e-03 1.61750708e-02
      6.66032359e-03 3.80589906e-03 1.14176972e-02 1.14176972e-02
      3.80589906e-03 2.85442430e-03 3.80589906e-03 8.18268284e-02
      9.51474765e-04 5.70884859e-03 1.61750708e-02 2.85442430e-03
      2.85442430e-03 6.66032359e-03 1.52235962e-02 4.75737359e-03
      6.66032359e-03 4.75737359e-03 2.85442430e-03 9.51474765e-04
      4.75737359e-03 8.56327266e-03 0. 9.51474765e-04 1.40818268e-01
      3.80589906e-03 1.90294953e-03 4.75737359e-03 3.80589906e-03
      1.90294953e-03 0. 8.56327266e-03 4.75737359e-03 2.85442430e-03
      4.75737359e-03 6.66032359e-03 1.90294953e-03 3.80589906e-03
      4.75737359e-03 9.51474765e-04 9.51474719e-03 9.51474765e-04
      1.90294953e-03 9.51474765e-04 2.85442430e-03 3.80589906e-03
      3.80589906e-03 1.90294953e-03 2.85442430e-03 1.90294953e-03
      2.85442430e-03 7.61179812e-03 4.75737359e-03 6.66032359e-03
      7.61179812e-03 3.80589906e-03 1.90294953e-03 1.90294953e-03
      8.56327266e-03 2.85442430e-03 1.90294953e-03 8.56327266e-03
      8.56327266e-03 1.23691717e-02 5.70884859e-03 4.75737359e-03
      1.90294953e-03 7.61179812e-03 0. 5.70884859e-03 5.70884859e-03
      8.56327266e-03 3.80589906e-03 7.89724067e-02 2.47383434e-02
      4.75737359e-03 8.56327266e-03 4.75737359e-03 3.80589906e-03
      9.51474765e-04 5.70884859e-03 7.61179812e-03 3.80589906e-03
      7.61179812e-03 8.56327266e-03 1.90294953e-03 4.75737359e-03
      6.66032359e-03 1.90294953e-03 5.70884859e-03 1.90294953e-03
      7.61179812e-03 8.56327266e-03 4.75737359e-03 9.51474765e-04
      5.70884859e-03 2.85442430e-03 1.90294953e-03 4.75737359e-03
      4.75737359e-03 9.51474765e-04 6.66032359e-03 3.80589906e-03
      2.85442430e-03 1.90294953e-03 6.66032359e-03 3.80589906e-03 0.
      2.85442430e-03 2.85442430e-03 5.70884859e-03 6.66032359e-03 0.
      4.75737359e-03 1.90294953e-03 4.75737359e-03 3.80589906e-03 0.
      5.70884859e-03 3.80589906e-03 2.85442430e-03 9.51474765e-04 0.
      6.66032359e-03 9.51474765e-04 7.61179812e-03</_>
    <_>
      5.35714300e-03 3.57142859e-03 1.25000002e-02 3.57142859e-03 0.
      7.14285718e-03 7.14285718e-03 1.07142860e-02 1.78571430e-03
      1.78571430e-03 3.57142859e-03 1.25000002e-02 3.57142859e-03
      8.92857183e-03 3.57142859e-03 1.25000002e-02 1.07142860e-02
      5.35714300e-03 5.35714300e-03 1.78571430e-03 7.14285718e-03
      3.57142859e-03 5.35714300e-03 3.57142873e-02 1.07142860e-02
      1.07142860e-02 1.60714295e-02 1.78571430e-03 1.07142860e-02
      5.35714300e-03 3.57142859e-03 1.78571430e-03 5.35714300e-03
      1.78571430e-03 5.35714300e-03 0. 3.57142859e-03 5.35714300e-03
      3.57142859e-03 1.07142860e-02 1.42857144e-02 1.60714295e-02
      8.92857183e-03 1.96428578e-02 7.14285718e-03 8.92857183e-03
      5.35714300e-03 1.07142860e-02 1.78571430e-03 1.78571430e-03
      8.92857183e-03 7.14285718e-03 5.35714300e-03 2.32142862e-02
      3.57142859e-03 8.92857183e-03 1.07142860e-02 2.32142862e-02
      5.35714300e-03 1.78571430e-03 5.35714300e-03 5.35714300e-03
      5.35714300e-03 7.14285718e-03 3.57142859e-03 1.78571430e-03
      1.25000002e-02 2.50000004e-02 8.92857183e-03 8.92857183e-03
      3.57142859e-03 5.35714300e-03 2.67857146e-02 0. 7.14285718e-03
      8.92857183e-03 8.92857183e-03 1.25000002e-02 7.14285718e-03
      1.78571430e-03 1.07142860e-02 3.57142859e-03 8.92857183e-03
      3.57142859e-03 0. 7.14285718e-03 1.60714295e-02 8.92857183e-03
      1.78571430e-03 1.07142860e-02 0. 8.92857183e-03 1.78571430e-03 0.
      3.57142859e-03 7.14285718e-03 8.92857183e-03 7.14285718e-03
      5.35714300e-03 5.35714300e-03 1.07142860e-02 7.14285718e-03
      1.78571430e-03 0. 3.57142859e-03 1.78571430e-03 5.35714300e-03
      3.57142859e-03 5.35714300e-03 1.78571430e-03 1.78571430e-03
      7.14285718e-03 1.78571430e-03 0. 3.57142859e-03 7.14285718e-03
      3.57142859e-03 5.35714300e-03 8.92857183e-03 7.14285718e-03
      3.57142859e-03 1.25000002e-02 1.07142860e-02 1.78571430e-03
      3.57142859e-03 1.78571430e-03 1.60714295e-02 8.92857183e-03
      3.57142859e-03 1.78571430e-03 1.60714295e-02 0. 7.14285718e-03
      3.57142859e-03 5.35714300e-03 3.57142859e-03 3.57142859e-03 0.
      1.25000002e-02 3.57142859e-03 5.35714300e-03 5.35714300e-03
      1.07142860e-02 1.78571430e-03 7.14285718e-03 3.57142859e-03
      5.35714300e-03 1.78571430e-03 0. 3.57142859e-03</_>
    <_>
      2.78293132e-03 2.78293132e-03 7.42115034e-03 2.78293132e-03
      7.42115034e-03 8.34879372e-03 0. 1.85528758e-03 1.57699436e-02
      8.34879372e-03 8.34879372e-03 2.78293132e-03 1.85528758e-03
      3.71057517e-03 2.78293132e-03 1.02040814e-02 4.63821879e-03 0.
      2.13358067e-02 1.11317253e-02 1.20593691e-02 3.71057503e-02
      4.63821879e-03 1.29870130e-02 2.78293132e-03 5.56586264e-03
      2.78293132e-03 2.78293132e-03 7.42115034e-03 2.78293132e-03
      2.78293132e-03 2.78293132e-03 9.27643757e-03 5.56586264e-03
      3.71057517e-03 1.85528758e-03 4.63821879e-03 6.49350649e-03
      2.78293132e-03 9.27643792e-04 3.71057517e-03 8.34879372e-03
      9.27643792e-04 1.02040814e-02 3.71057517e-03 3.71057517e-03
      3.71057517e-03 2.78293132e-03 2.78293132e-03 3.71057517e-03
      1.85528758e-03 4.63821879e-03 8.34879372e-03 9.27643757e-03
      9.27643792e-04 2.78293132e-03 7.42115034e-03 6.49350649e-03
      3.71057517e-03 1.57699436e-02 3.71057517e-03 9.27643792e-04
      7.42115034e-03 4.63821879e-03 6.49350649e-03 9.27643757e-03
      3.71057517e-03 1.02040814e-02 3.71057517e-03 3.71057517e-03
      4.63821879e-03 1.85528758e-03 1.02040814e-02 5.56586273e-02
      1.02040814e-02 0. 1.85528758e-03 1.85528758e-03 1.85528758e-03
      9.27643792e-04 2.31910944e-02 1.11317253e-02 9.27643757e-03 0. 0.
      9.27643792e-04 7.42115034e-03 6.49350649e-03 8.34879372e-03
      9.27643757e-03 2.78293132e-03 0. 9.27643792e-04 6.49350649e-03
      1.85528758e-03 1.02040814e-02 3.71057517e-03 7.42115034e-03
      3.71057517e-03 4.63821879e-03 4.63821879e-03 9.27643792e-04
      9.27643792e-04 4.63821879e-03 9.27643792e-04 3.71057517e-03
      1.29870130e-02 1.66975874e-02 5.56586264e-03 9.27643757e-03
      9.27643792e-04 2.22634505e-02 1.85528758e-03 9.27643792e-04
      1.85528758e-03 7.42115034e-03 7.42115034e-03 1.85528758e-03 0.
      9.27643792e-04 9.27643757e-03 2.50463821e-02 5.56586264e-03
      5.56586264e-03 2.22634505e-02 1.29870130e-02 1.66975874e-02
      4.63821879e-03 2.78293132e-03 1.85528758e-03 2.78293132e-03
      4.91651222e-02 5.56586264e-03 5.56586264e-03 7.42115034e-03
      7.42115034e-03 0. 5.56586264e-03 2.41187382e-02 1.48423007e-02
      7.42115034e-03 1.85528758e-03 3.71057517e-03 5.56586264e-03
      2.78293132e-03 7.42115034e-03 5.56586264e-03 1.85528758e-03
      9.27643792e-04 6.49350649e-03</_>
    <_>
      8.17995891e-03 1.84049085e-02 1.02249486e-02 6.13496918e-03 0. 0.
      2.04498973e-03 2.04498973e-03 1.43149281e-02 2.04498973e-03
      6.13496918e-03 1.22699384e-02 1.43149281e-02 6.13496918e-03
      2.04498973e-02 0. 2.24948861e-02 1.02249486e-02 6.13496918e-03
      4.08997945e-03 1.43149281e-02 1.02249486e-02 6.13496918e-03
      8.17995891e-03 4.08997945e-03 0. 0. 1.22699384e-02 1.63599178e-02
      1.02249486e-02 1.63599178e-02 0. 0. 6.13496918e-03 2.24948861e-02
      0. 6.13496918e-03 2.04498973e-03 4.08997945e-03 4.08997945e-03
      8.17995891e-03 4.08997945e-03 0. 8.17995891e-03 0. 4.08997945e-03
      0. 4.08997945e-03 1.22699384e-02 6.13496918e-03 2.04498973e-03
      6.13496918e-03 2.04498973e-03 8.17995891e-03 2.04498973e-03
      2.04498973e-03 2.04498973e-03 1.63599178e-02 2.04498973e-03
      6.13496918e-03 1.02249486e-02 6.13496918e-03 0. 1.22699384e-02 0.
      0. 2.04498973e-03 6.13496918e-03 6.13496918e-03 3.06748450e-02
      4.08997945e-03 1.22699384e-02 1.02249486e-02 2.04498973e-03
      2.04498973e-03 4.08997945e-03 4.08997945e-03 6.13496918e-03 0.
      6.13496918e-03 6.13496918e-03 1.22699384e-02 6.33946806e-02
      4.08997945e-03 2.04498973e-03 0. 2.04498973e-03 6.13496918e-03
      1.02249486e-02 8.17995891e-03 4.08997945e-03 1.43149281e-02
      6.13496918e-03 6.13496918e-03 2.04498973e-03 4.08997945e-03
      8.17995891e-03 0. 6.13496918e-03 4.08997945e-03 2.04498973e-03
      4.08997945e-03 2.04498973e-03 1.02249486e-02 0. 0. 4.08997945e-03
      4.08997945e-03 3.06748450e-02 2.04498973e-03 4.08997945e-03
      6.13496918e-03 2.04498973e-03 4.08997945e-03 0. 6.13496918e-03 0.
      6.13496918e-03 6.13496918e-03 4.08997945e-03 0. 1.43149281e-02
      2.04498973e-03 1.22699384e-02 1.02249486e-02 2.24948861e-02
      4.08997945e-03 0. 2.65848674e-02 2.04498973e-03 6.13496918e-03 0.
      0. 4.08997945e-03 4.08997945e-03 1.43149281e-02 1.02249486e-02
      4.08997945e-03 1.22699384e-02 8.17995891e-03 1.02249486e-02 0.
      2.04498973e-03 2.04498973e-03 6.13496918e-03 4.08997945e-03 0.
      6.13496918e-03 4.08997945e-03 1.02249486e-02</_>
    <_>
      0. 9.38337855e-03 1.34048262e-03 0. 1.20643433e-02 5.36193047e-03
      1.34048262e-03 1.34048262e-03 2.27882043e-02 9.38337855e-03
      1.20643433e-02 1.34048262e-03 4.02144808e-03 1.60857923e-02
      1.47453090e-02 1.87667571e-02 8.04289617e-03 2.68096523e-03
      2.68096523e-03 6.70241285e-03 1.47453090e-02 6.70241285e-03
      8.04289617e-03 4.02144808e-03 9.38337855e-03 2.68096523e-03
      1.34048262e-03 1.34048262e-03 1.34048257e-02 0. 9.38337855e-03
      1.74262747e-02 6.70241285e-03 2.68096523e-03 1.20643433e-02
      4.02144808e-03 5.36193047e-03 6.70241285e-03 6.70241285e-03
      5.36193047e-03 4.02144808e-03 6.70241285e-03 8.04289617e-03 0.
      6.70241285e-03 4.02144808e-03 5.36193047e-03 1.34048262e-03
      1.34048257e-02 4.02144808e-03 9.38337855e-03 2.68096523e-03
      6.70241285e-03 1.20643433e-02 2.68096523e-03 8.04289617e-03 0.
      4.02144808e-03 9.38337855e-03 1.60857923e-02 0. 5.36193047e-03
      8.04289617e-03 5.36193047e-03 6.70241285e-03 1.34048262e-03 0. 0.
      1.20643433e-02 1.34048257e-02 0. 1.47453090e-02 1.74262747e-02
      2.68096523e-03 1.34048262e-03 1.34048262e-03 5.36193047e-03
      2.68096523e-03 4.02144808e-03 2.68096523e-03 6.70241285e-03
      2.27882043e-02 6.70241285e-03 4.02144808e-03 1.34048262e-03
      4.02144808e-03 1.34048257e-02 1.87667571e-02 9.38337855e-03
      6.70241285e-03 9.38337855e-03 0. 2.68096523e-03 8.04289617e-03
      4.02144808e-03 1.60857923e-02 4.02144808e-03 8.04289617e-03
      5.36193047e-03 1.34048262e-03 1.47453090e-02 2.68096523e-03 0.
      6.70241285e-03 5.36193047e-03 2.68096523e-03 0. 6.70241285e-03
      6.70241285e-03 8.04289617e-03 5.36193047e-03 1.34048257e-02
      1.07238609e-02 2.68096523e-03 1.34048262e-03 4.02144808e-03
      9.38337855e-03 1.34048262e-03 1.47453090e-02 5.36193047e-03
      4.02144808e-03 2.68096523e-03 6.70241285e-03 2.68096523e-03
      5.36193047e-03 1.74262747e-02 1.07238609e-02 6.70241285e-03
      1.34048257e-02 5.36193047e-03 1.34048262e-03 2.01072395e-02
      1.74262747e-02 4.02144808e-03 8.04289617e-03 9.38337855e-03
      1.34048262e-03 2.68096523e-03 9.38337855e-03 6.70241285e-03
      9.38337855e-03 2.68096523e-03 2.68096523e-03 9.38337855e-03
      2.68096523e-03 6.70241285e-03 5.36193047e-03 8.04289617e-03
      4.02144808e-03 1.34048262e-03</_>
    <_>
      0. 5.90551179e-03 0. 7.87401572e-03 0. 5.90551179e-03
      3.93700786e-03 7.87401572e-03 7.87401572e-03 1.57480314e-02
      1.18110236e-02 1.96850393e-03 5.90551179e-03 1.96850393e-02
      2.95275599e-02 3.93700786e-03 3.93700786e-03 1.96850393e-03
      1.96850393e-03 7.87401572e-03 2.16535442e-02 5.90551179e-03
      3.93700786e-03 3.93700786e-03 3.93700786e-03 7.87401572e-03
      1.96850393e-03 1.96850393e-03 9.84251965e-03 0. 1.96850393e-03
      2.75590550e-02 3.93700786e-03 5.90551179e-03 3.93700786e-03 0.
      5.90551179e-03 1.96850393e-03 1.37795275e-02 3.93700786e-03
      9.84251965e-03 1.18110236e-02 1.77165344e-02 1.18110236e-02
      3.93700786e-03 2.36220472e-02 1.96850393e-03 5.90551179e-03
      7.87401572e-03 9.84251965e-03 7.87401572e-03 3.93700786e-03
      1.96850393e-03 9.84251965e-03 3.93700786e-03 5.90551179e-03
      1.37795275e-02 7.87401572e-03 2.95275599e-02 3.93700786e-03
      1.96850393e-03 1.96850393e-03 1.96850393e-02 0. 3.93700786e-03
      1.96850393e-03 1.37795275e-02 1.37795275e-02 3.93700786e-03
      3.93700786e-03 1.96850393e-03 1.96850393e-03 7.87401572e-03 0. 0.
      7.87401572e-03 7.87401572e-03 0. 7.87401572e-03 5.90551179e-03
      9.84251965e-03 1.96850393e-03 1.57480314e-02 0. 1.96850393e-03
      1.96850393e-03 3.93700786e-03 7.87401572e-03 1.96850393e-03
      5.90551179e-03 5.90551179e-03 7.87401572e-03 3.93700786e-03
      7.87401572e-03 5.90551179e-03 1.77165344e-02 1.96850393e-03
      4.13385816e-02 5.90551179e-03 3.93700786e-03 5.90551179e-03
      1.96850393e-03 1.18110236e-02 3.93700786e-03 5.90551179e-03
      5.90551179e-03 0. 0. 1.77165344e-02 0. 5.90551179e-03
      3.93700786e-03 7.87401572e-03 3.93700786e-03 1.96850393e-03
      5.90551179e-03 3.93700786e-03 3.93700786e-03 0. 7.87401572e-03
      3.93700786e-03 5.90551179e-03 3.93700786e-03 5.90551179e-03
      3.93700786e-03 1.96850393e-03 1.18110236e-02 1.18110236e-02 0.
      5.90551179e-03 0. 0. 1.18110236e-02 5.90551179e-03 9.84251965e-03
      1.77165344e-02 5.90551179e-03 7.87401572e-03 7.87401572e-03
      7.87401572e-03 1.96850393e-03 5.90551179e-03 5.90551179e-03
      3.93700786e-03 1.96850393e-03 3.93700786e-03 1.96850393e-03
      1.57480314e-02 0. 3.93700786e-03</_>
    <_>
      2.60756188e-03 2.60756188e-03 5.21512376e-03 1.04302475e-02
      1.04302475e-02 7.82268587e-03 1.30378094e-03 1.30378092e-02
      6.51890459e-03 1.69491526e-02 5.21512376e-03 1.30378094e-03
      5.21512376e-03 3.91134294e-03 1.30378092e-02 2.86831800e-02
      7.82268587e-03 1.30378094e-03 9.12646670e-03 2.60756188e-03
      1.82529334e-02 3.91134294e-03 2.60756188e-03 1.43415900e-02
      5.21512376e-03 9.12646670e-03 0. 2.60756188e-03 7.82268587e-03
      2.60756188e-03 5.21512376e-03 2.99869608e-02 6.51890459e-03
      6.51890459e-03 2.60756188e-03 1.30378094e-03 5.21512376e-03
      3.91134294e-03 3.91134294e-03 3.91134294e-03 1.04302475e-02
      1.30378094e-03 5.21512376e-03 1.69491526e-02 7.82268587e-03 0.
      1.30378094e-03 5.21512376e-03 1.17340283e-02 1.30378094e-03
      1.30378092e-02 6.51890459e-03 2.60756188e-03 1.69491526e-02
      2.60756188e-03 9.12646670e-03 6.51890459e-03 1.17340283e-02
      3.91134294e-03 1.30378094e-03 7.82268587e-03 5.21512376e-03
      5.21512376e-03 6.51890459e-03 2.60756188e-03 1.30378094e-03
      5.21512376e-03 1.30378092e-02 1.04302475e-02 1.04302475e-02
      1.17340283e-02 5.21512376e-03 1.30378092e-02 0. 3.91134294e-03
      2.60756188e-03 5.21512376e-03 3.91134294e-03 3.91134294e-03
      2.60756188e-03 2.60756188e-03 1.56453717e-02 9.12646670e-03
      2.60756188e-03 1.04302475e-02 1.30378092e-02 1.30378094e-03
      1.95567142e-02 6.51890459e-03 5.21512376e-03 7.82268587e-03
      2.60756188e-03 1.30378094e-03 1.17340283e-02 1.30378094e-03
      2.47718375e-02 2.60756188e-03 2.99869608e-02 6.51890459e-03
      6.51890459e-03 1.04302475e-02 6.51890459e-03 0. 1.30378094e-03
      5.21512376e-03 2.60756188e-03 7.82268587e-03 7.82268587e-03
      9.12646670e-03 2.60756188e-03 1.30378094e-03 7.82268587e-03
      1.17340283e-02 3.91134294e-03 9.12646670e-03 1.30378094e-03
      3.91134294e-03 1.30378094e-03 0. 2.60756188e-03 2.60756188e-03
      1.30378094e-03 1.04302475e-02 1.04302475e-02 2.60756188e-03
      6.51890459e-03 1.30378094e-03 3.91134294e-03 1.04302475e-02
      1.04302475e-02 1.30378092e-02 3.91134294e-03 1.43415900e-02
      3.91134294e-03 3.91134294e-03 1.95567142e-02 0. 6.51890459e-03
      7.82268587e-03 6.51890459e-03 3.91134294e-03 2.60756188e-03
      1.04302475e-02 3.91134294e-03 1.30378094e-03 3.91134294e-03 0.
      6.51890459e-03 0. 3.91134294e-03</_>
    <_>
      4.13223123e-03 1.96280982e-02 4.13223123e-03 9.29751992e-03
      9.29751992e-03 1.54958675e-02 1.03305781e-03 9.29751992e-03
      1.23966932e-02 8.26446246e-03 1.13636358e-02 0. 5.16528916e-03
      1.65289249e-02 3.09917331e-03 1.96280982e-02 1.03305781e-03 0.
      5.16528916e-03 7.23140454e-03 9.29751992e-03 4.13223123e-03
      4.13223123e-03 1.85950398e-02 1.44628091e-02 9.29751992e-03
      1.13636358e-02 6.19834661e-03 1.23966932e-02 6.19834661e-03
      5.16528916e-03 5.16528916e-03 5.16528916e-03 4.13223123e-03
      5.16528916e-03 1.03305781e-03 7.23140454e-03 3.09917331e-03
      1.13636358e-02 3.09917331e-03 5.16528916e-03 1.03305781e-03
      3.30578499e-02 2.06611562e-03 5.16528916e-03 9.29751992e-03
      3.09917331e-03 4.13223123e-03 2.06611562e-03 5.16528916e-03
      4.13223123e-03 4.13223123e-03 1.54958675e-02 2.06611562e-03
      1.03305781e-03 1.44628091e-02 6.19834661e-03 5.16528916e-03
      4.23553698e-02 7.23140454e-03 3.09917331e-03 6.19834661e-03
      5.37190065e-02 3.09917331e-03 1.03305783e-02 4.13223123e-03
      7.23140454e-03 1.03305781e-03 2.06611562e-03 4.13223123e-03
      6.19834661e-03 6.19834661e-03 4.13223123e-03 2.06611562e-03
      4.13223123e-03 7.23140454e-03 3.09917331e-03 2.06611562e-03
      7.23140454e-03 2.06611562e-03 4.13223123e-03 2.37603299e-02
      1.03305781e-03 2.06611562e-03 1.03305781e-03 8.26446246e-03
      1.13636358e-02 1.03305783e-02 6.19834661e-03 1.13636358e-02
      1.03305781e-03 5.16528916e-03 0. 4.13223123e-03 9.29751992e-03
      1.23966932e-02 2.16942132e-02 1.03305781e-03 0. 2.06611562e-03
      7.23140454e-03 3.09917331e-03 1.03305781e-03 1.03305781e-03
      2.06611562e-03 5.16528916e-03 5.16528916e-03 3.09917331e-03
      2.06611562e-03 7.23140454e-03 8.26446246e-03 4.13223123e-03
      2.06611562e-03 1.23966932e-02 7.23140454e-03 7.23140454e-03
      4.13223123e-03 1.03305781e-03 1.03305781e-03 4.13223123e-03
      2.06611562e-03 8.26446246e-03 3.09917331e-03 7.23140454e-03
      4.13223123e-03 2.06611562e-03 3.09917331e-03 2.78925616e-02
      3.09917331e-03 1.03305781e-03 5.16528916e-03 2.06611562e-03
      4.13223123e-03 8.26446246e-03 6.19834661e-03 2.06611562e-03
      2.06611562e-03 3.09917331e-03 2.06611562e-03 1.23966932e-02
      3.09917331e-03 1.03305781e-03 1.03305783e-02 8.26446246e-03
      3.09917331e-03 5.16528916e-03 3.09917331e-03 1.03305781e-03 0.
      9.29751992e-03</_>
    <_>
      0. 1.12676052e-02 4.22535185e-03 1.26760555e-02 1.40845065e-03
      1.40845065e-03 5.63380262e-03 1.40845065e-03 2.81690131e-03 0.
      7.04225339e-03 4.22535185e-03 8.45070370e-03 1.12676052e-02
      2.11267602e-02 1.12676052e-02 1.97183099e-02 2.81690131e-03
      4.22535185e-03 5.63380262e-03 1.26760555e-02 4.22535185e-03
      1.40845065e-03 8.45070370e-03 5.63380262e-03 7.04225339e-03
      9.85915493e-03 2.81690131e-03 4.22535185e-03 5.63380262e-03
      5.63380262e-03 1.26760555e-02 0. 8.45070370e-03 7.04225339e-03 0.
      2.81690131e-03 1.40845065e-03 8.45070370e-03 4.22535185e-03
      2.81690131e-03 0. 5.63380262e-03 3.66197154e-02 2.81690131e-03
      1.12676052e-02 0. 1.54929571e-02 7.04225339e-03 1.40845065e-03 0.
      7.04225339e-03 1.40845065e-03 0. 4.22535185e-03 1.40845065e-03
      9.85915493e-03 2.39436608e-02 8.45070370e-03 1.40845065e-03
      2.81690131e-03 7.04225339e-03 1.12676052e-02 2.81690131e-03 0.
      5.63380262e-03 8.45070370e-03 3.52112651e-02 1.12676052e-02
      2.11267602e-02 7.04225339e-03 2.81690131e-03 2.81690131e-03
      2.81690131e-03 1.40845065e-03 1.54929571e-02 7.04225339e-03
      5.63380262e-03 1.12676052e-02 1.40845065e-03 0. 4.22535185e-03
      1.40845068e-02 2.81690131e-03 2.11267602e-02 2.81690131e-03
      9.85915493e-03 1.54929571e-02 2.81690131e-03 4.22535185e-03
      7.04225339e-03 1.12676052e-02 4.22535185e-03 2.25352105e-02 0.
      1.40845068e-02 8.45070370e-03 3.66197154e-02 3.09859142e-02
      4.22535185e-03 2.81690131e-03 1.26760555e-02 0. 1.40845065e-03
      2.81690131e-03 4.22535185e-03 2.81690131e-03 1.40845065e-03
      1.83098577e-02 8.45070370e-03 2.81690131e-03 4.22535185e-03
      1.97183099e-02 5.63380262e-03 1.26760555e-02 1.40845065e-03
      7.04225339e-03 2.81690131e-03 7.04225339e-03 7.04225339e-03
      1.40845065e-03 2.81690131e-03 4.22535185e-03 2.81690131e-03
      1.40845065e-03 1.69014074e-02 4.22535185e-03 9.85915493e-03
      4.22535185e-03 1.40845065e-03 2.81690131e-03 1.40845065e-03
      1.26760555e-02 4.22535185e-03 2.81690131e-03 2.81690131e-03
      4.22535185e-03 1.40845065e-03 4.22535185e-03 2.81690131e-03
      2.81690131e-03 1.40845065e-03 0. 2.81690131e-03 0. 1.40845065e-03
      0. 1.40845065e-03 0. 5.63380262e-03</_>
    <_>
      1.87265920e-03 2.24719103e-02 9.36329551e-03 0. 1.68539323e-02
      7.49063678e-03 1.87265920e-03 3.74531839e-03 2.43445691e-02
      2.05992516e-02 7.49063678e-03 3.74531839e-03 1.12359552e-02
      1.49812736e-02 1.68539323e-02 7.49063678e-03 1.87265920e-03 0.
      1.31086148e-02 0. 1.68539323e-02 1.87265920e-03 3.74531839e-03
      1.87265920e-03 9.36329551e-03 0. 1.87265920e-03 0. 5.61797759e-03
      1.87265920e-03 1.87265920e-03 2.99625471e-02 7.49063678e-03
      1.87265920e-03 3.74531820e-02 3.74531839e-03 0. 1.87265920e-03
      7.49063678e-03 0. 0. 1.31086148e-02 1.49812736e-02 0.
      1.12359552e-02 0. 3.74531839e-03 3.74531839e-03 2.62172297e-02
      3.74531839e-03 0. 0. 1.31086148e-02 1.87265910e-02 3.74531839e-03
      1.87265920e-03 5.61797759e-03 1.87265920e-03 7.49063678e-03
      9.36329551e-03 1.87265920e-03 1.87265920e-03 1.12359552e-02
      3.74531839e-03 1.12359552e-02 0. 1.87265920e-03 1.87265920e-03
      3.74531839e-03 7.49063678e-03 1.87265920e-03 3.74531839e-03
      2.43445691e-02 1.12359552e-02 5.61797759e-03 0. 1.87265920e-03 0.
      5.61797759e-03 1.87265920e-03 1.87265920e-03 7.49063678e-03
      1.31086148e-02 3.74531839e-03 0. 1.87265920e-03 5.61797759e-03
      1.31086148e-02 5.61797759e-03 3.74531839e-03 0. 3.74531839e-03 0.
      0. 0. 3.74531839e-03 5.61797759e-03 7.49063678e-03 0.
      3.74531839e-03 1.12359552e-02 0. 0. 1.87265920e-03 1.87265920e-03
      0. 1.87265920e-03 5.61797759e-03 3.74531839e-03 7.49063678e-03 0.
      1.12359552e-02 1.87265920e-03 1.87265910e-02 3.74531839e-03
      2.24719103e-02 0. 0. 3.74531820e-02 1.87265920e-03 3.74531839e-03
      1.49812736e-02 1.87265920e-03 1.31086148e-02 5.61797759e-03
      5.61797759e-03 3.74531839e-03 1.68539323e-02 0. 7.49063678e-03 0.
      1.87265920e-03 1.87265920e-03 1.87265920e-03 9.36329551e-03
      2.43445691e-02 5.61797759e-03 7.49063678e-03 7.49063678e-03
      2.62172297e-02 0. 0. 1.87265920e-03 5.61797759e-03 1.87265920e-03
      1.87265920e-03 2.80898884e-02 0. 2.62172297e-02 3.74531839e-03</_>
    <_>
      0. 0. 2.65780725e-02 6.64451811e-03 1.32890362e-02 3.32225906e-03
      3.32225906e-03 2.32558139e-02 1.66112948e-02 9.96677764e-03 0. 0.
      0. 6.64451811e-03 6.64451811e-03 3.32225906e-03 3.32225906e-03 0.
      3.32225906e-03 3.32225906e-03 0. 9.96677764e-03 0. 9.96677764e-03
      9.96677764e-03 6.64451811e-03 9.96677764e-03 1.66112948e-02 0.
      1.32890362e-02 3.32225906e-03 3.32225906e-03 6.64451811e-03
      2.65780725e-02 0. 0. 6.64451811e-03 3.32225906e-03 6.64451811e-03
      1.66112948e-02 6.64451811e-03 3.32225906e-03 3.32225906e-03
      1.32890362e-02 3.32225906e-03 0. 0. 0. 6.64451811e-03 0.
      6.64451811e-03 6.64451811e-03 3.32225906e-03 1.32890362e-02 0.
      1.32890362e-02 0. 2.32558139e-02 0. 0. 6.64451811e-03
      6.64451811e-03 1.32890362e-02 3.32225906e-03 6.64451811e-03
      2.99003311e-02 0. 3.32225906e-03 0. 0. 9.96677764e-03 0.
      2.32558139e-02 9.96677764e-03 6.64451811e-03 0. 9.96677764e-03 0.
      0. 3.32225906e-03 9.96677764e-03 9.96677764e-03 2.65780725e-02 0.
      0. 1.99335553e-02 3.32225896e-02 3.32225906e-03 6.64451811e-03
      1.66112948e-02 0. 3.32225906e-03 0. 1.32890362e-02 3.32225906e-03
      3.32225906e-03 3.32225906e-03 6.64451811e-03 6.64451811e-03
      6.64451811e-03 6.64451811e-03 9.96677764e-03 9.96677764e-03
      3.32225906e-03 6.64451811e-03 1.66112948e-02 1.66112948e-02
      6.64451811e-03 1.66112948e-02 9.96677764e-03 6.64451811e-03
      9.96677764e-03 0. 1.32890362e-02 3.32225906e-03 3.32225906e-03
      3.32225906e-03 0. 0. 0. 9.96677764e-03 0. 6.64451811e-03
      3.32225906e-03 6.64451811e-03 3.32225906e-03 3.32225906e-03
      6.64451811e-03 3.32225906e-03 9.96677764e-03 6.64451811e-03
      2.99003311e-02 3.32225906e-03 3.32225906e-03 0. 9.96677764e-03
      3.32225906e-03 3.32225906e-03 1.32890362e-02 6.64451811e-03
      3.32225906e-03 0. 0. 3.32225906e-03 0. 1.66112948e-02 0.
      3.32225906e-03 0. 9.96677764e-03</_>
    <_>
      0. 1.21457493e-02 8.09716620e-03 1.01214573e-02 6.07287465e-03
      1.01214573e-02 8.09716620e-03 1.41700413e-02 4.04858310e-03
      1.21457493e-02 2.02429155e-03 2.02429155e-03 4.04858310e-03
      2.02429155e-03 1.01214573e-02 1.01214573e-02 1.01214573e-02
      6.07287465e-03 6.07287465e-03 0. 6.07287465e-03 1.01214573e-02 0.
      1.21457493e-02 6.07287465e-03 3.03643737e-02 6.07287465e-03
      4.04858310e-03 2.02429155e-03 1.01214573e-02 6.07287465e-03
      4.04858310e-03 0. 1.21457493e-02 1.82186235e-02 2.02429155e-03
      2.02429155e-03 4.04858310e-03 1.21457493e-02 4.04858310e-03
      1.21457493e-02 8.09716620e-03 0. 1.21457493e-02 0. 8.09716620e-03
      0. 2.02429155e-03 1.82186235e-02 4.04858310e-03 4.04858310e-03
      4.04858310e-03 6.07287465e-03 4.04858310e-03 2.02429155e-03
      2.02429155e-03 4.04858310e-03 0. 2.02429155e-03 6.07287465e-03
      4.04858310e-03 4.04858310e-03 4.04858310e-03 2.02429155e-03
      8.09716620e-03 0. 1.01214573e-02 1.61943324e-02 6.07287465e-03
      8.09716620e-03 1.82186235e-02 1.01214573e-02 1.61943324e-02
      2.02429155e-03 6.07287465e-03 1.01214573e-02 8.09716620e-03
      8.09716620e-03 4.04858310e-03 0. 4.04858310e-03 1.01214573e-02
      3.03643737e-02 2.02429155e-03 4.04858310e-03 1.01214573e-02
      1.01214573e-02 1.21457493e-02 0. 4.04858310e-03 1.82186235e-02
      6.07287465e-03 0. 2.02429146e-02 0. 1.41700413e-02 1.01214573e-02
      2.02429146e-02 1.82186235e-02 6.07287465e-03 6.07287465e-03
      1.61943324e-02 4.04858310e-03 2.02429155e-03 0. 1.21457493e-02
      1.41700413e-02 1.01214573e-02 1.21457493e-02 0. 4.04858310e-03
      6.07287465e-03 2.02429155e-03 1.41700413e-02 2.02429155e-03
      2.02429155e-03 1.01214573e-02 0. 0. 6.07287465e-03 2.02429146e-02
      4.04858310e-03 0. 2.02429155e-03 4.04858310e-03 2.02429155e-03 0.
      2.02429155e-03 6.07287465e-03 1.01214573e-02 1.21457493e-02 0.
      4.04858310e-03 1.01214573e-02 2.02429155e-03 1.21457493e-02 0.
      4.04858310e-03 8.09716620e-03 6.07287465e-03 2.02429155e-03 0.
      1.01214573e-02 6.07287465e-03 2.02429155e-03 4.04858310e-03 0.
      6.07287465e-03 0. 2.02429155e-03</_>
    <_>
      1.65016507e-03 6.60066027e-03 8.25082511e-03 4.95049544e-03
      1.65016507e-03 4.95049544e-03 6.60066027e-03 1.81518160e-02
      6.60066027e-03 1.65016507e-03 1.81518160e-02 3.30033014e-03
      1.65016507e-03 0. 1.65016507e-03 2.31023114e-02 3.30033014e-03 0.
      1.65016507e-03 1.65016507e-03 1.65016507e-03 3.30033014e-03
      1.65016507e-03 3.46534662e-02 9.90099087e-03 1.48514854e-02
      3.30033014e-03 1.65016507e-03 9.90099087e-03 3.30033014e-03
      4.95049544e-03 1.65016507e-03 8.25082511e-03 6.60066027e-03 0.
      3.30033014e-03 0. 4.95049544e-03 3.30033014e-03 6.60066027e-03
      6.60066027e-03 2.31023114e-02 4.95049544e-03 2.14521457e-02
      1.15511557e-02 1.65016507e-03 3.30033014e-03 8.25082511e-03
      4.95049544e-03 4.95049544e-03 9.90099087e-03 3.30033014e-03
      4.95049544e-03 1.65016502e-02 1.65016507e-03 8.25082511e-03
      8.25082511e-03 8.25082511e-03 2.14521457e-02 8.25082511e-03
      1.65016507e-03 3.30033014e-03 1.98019817e-02 1.65016507e-03
      1.15511557e-02 3.30033014e-03 3.30033014e-03 1.48514854e-02
      9.90099087e-03 0. 6.60066027e-03 4.95049544e-03 2.14521457e-02
      4.95049544e-03 1.48514854e-02 0. 0. 3.30033014e-03 1.15511557e-02
      0. 8.25082511e-03 6.60066027e-03 4.12541255e-02 1.65016507e-03
      1.65016507e-03 8.25082511e-03 2.97029708e-02 0. 6.60066027e-03
      9.90099087e-03 1.65016507e-03 4.95049544e-03 0. 8.25082511e-03 0.
      9.90099087e-03 1.32013205e-02 0. 4.95049544e-03 6.60066027e-03
      9.90099087e-03 3.30033014e-03 0. 3.30033014e-03 1.65016507e-03
      9.90099087e-03 4.95049544e-03 1.65016507e-03 1.15511557e-02
      9.90099087e-03 6.60066027e-03 6.60066027e-03 0. 3.30033014e-03
      8.25082511e-03 4.95049544e-03 3.30033014e-03 3.30033014e-03
      9.90099087e-03 3.30033014e-03 9.90099087e-03 8.25082511e-03
      1.65016502e-02 6.60066027e-03 4.95049544e-03 0. 8.25082511e-03
      8.25082511e-03 3.30033014e-03 1.15511557e-02 8.25082511e-03
      8.25082511e-03 0. 4.95049544e-03 1.32013205e-02 1.65016507e-03
      1.65016507e-03 4.95049544e-03 4.95049544e-03 3.30033014e-03
      6.60066027e-03 0. 8.25082511e-03 6.60066027e-03 0. 1.15511557e-02
      1.65016507e-03 0. 1.65016507e-03 8.25082511e-03</_>
    <_>
      0. 2.45098048e-03 0. 7.35294167e-03 9.80392192e-03 2.45098048e-03
      7.35294167e-03 4.90196096e-03 1.71568636e-02 2.45098048e-03
      1.47058833e-02 4.90196096e-03 4.90196096e-03 7.35294167e-03
      4.90196096e-03 7.35294167e-03 2.69607846e-02 0. 2.45098048e-03
      4.90196096e-03 7.35294167e-03 1.22549022e-02 2.45098048e-03
      2.45098048e-03 7.35294167e-03 9.80392192e-03 7.35294167e-03
      7.35294167e-03 4.90196096e-03 7.35294167e-03 0. 1.47058833e-02 0.
      1.22549022e-02 2.45098048e-03 2.45098048e-03 0. 2.45098048e-03
      1.22549022e-02 1.22549022e-02 7.35294167e-03 2.45098048e-03
      9.80392192e-03 1.71568636e-02 2.45098048e-03 1.47058833e-02
      2.45098048e-03 0. 0. 0. 4.90196096e-03 2.45098048e-03
      4.90196096e-03 0. 2.45098048e-03 1.47058833e-02 2.45098048e-03
      2.94117667e-02 3.43137272e-02 1.71568636e-02 7.35294167e-03
      2.45098048e-03 4.65686284e-02 2.45098048e-03 2.45098048e-03 0. 0.
      1.22549022e-02 7.35294167e-03 9.80392192e-03 1.22549022e-02
      4.90196096e-03 0. 4.90196096e-03 7.35294167e-03 4.90196096e-03 0.
      4.90196096e-03 2.45098048e-03 4.90196096e-03 4.90196096e-03
      1.22549022e-02 9.80392192e-03 0. 4.90196096e-03 4.90196096e-03
      2.45098048e-03 9.80392192e-03 7.35294167e-03 2.45098048e-03
      1.96078438e-02 4.90196096e-03 0. 0. 2.45098048e-03 2.45098048e-03
      9.80392192e-03 7.35294167e-03 0. 4.90196096e-03 4.90196096e-03
      2.45098048e-03 0. 0. 4.90196096e-03 7.35294167e-03 2.45098048e-03
      2.45098048e-03 3.18627469e-02 1.22549022e-02 4.90196096e-03
      3.67647074e-02 4.90196096e-03 4.90196096e-03 2.45098048e-03
      4.90196096e-03 4.90196096e-03 2.45098048e-03 2.45098048e-03
      2.45098048e-03 2.45098048e-03 1.71568636e-02 2.45098048e-03 0.
      2.45098048e-03 0. 4.90196096e-03 7.35294167e-03 1.22549022e-02
      7.35294167e-03 7.35294167e-03 1.47058833e-02 7.35294167e-03
      4.90196096e-03 1.22549022e-02 2.45098048e-03 2.45098048e-03
      7.35294167e-03 0. 4.90196096e-03 0. 0. 0. 2.45098048e-03
      2.45098048e-03 2.45098048e-03 1.96078438e-02 2.45098048e-03
      2.45098043e-02 9.80392192e-03</_>
    <_>
      1.37362641e-03 1.37362641e-03 1.37362641e-03 8.24175868e-03
      2.74725282e-03 1.23626376e-02 5.49450563e-03 1.64835174e-02
      8.24175868e-03 1.37362638e-02 8.24175868e-03 1.23626376e-02 0.
      1.37362641e-03 1.37362641e-03 3.02197803e-02 0. 1.37362641e-03 0.
      1.37362641e-03 1.37362641e-03 1.37362641e-03 6.86813192e-03
      2.33516488e-02 1.23626376e-02 2.47252751e-02 2.74725277e-02
      6.86813192e-03 2.74725282e-03 6.86813192e-03 9.61538497e-03
      9.61538497e-03 2.74725282e-03 1.09890113e-02 0. 2.74725282e-03
      2.74725282e-03 1.92307699e-02 1.37362641e-03 4.12087934e-03
      5.49450563e-03 1.09890113e-02 1.23626376e-02 1.23626376e-02
      1.37362641e-03 1.37362641e-03 1.37362641e-03 2.74725282e-03 0.
      1.37362641e-03 1.78571437e-02 0. 1.92307699e-02 1.37362638e-02
      2.74725282e-03 4.12087934e-03 8.24175868e-03 1.09890113e-02
      1.78571437e-02 1.51098901e-02 2.74725282e-03 1.37362641e-03
      2.06043962e-02 4.12087934e-03 1.78571437e-02 2.74725282e-03 0.
      8.24175868e-03 5.49450563e-03 5.49450563e-03 1.37362638e-02
      4.12087934e-03 1.78571437e-02 0. 5.49450563e-03 2.74725282e-03
      4.12087934e-03 6.86813192e-03 8.24175868e-03 1.37362641e-03
      1.37362641e-03 1.23626376e-02 8.24175868e-03 1.37362641e-03
      4.12087934e-03 9.61538497e-03 1.37362638e-02 5.49450563e-03
      6.86813192e-03 1.09890113e-02 2.74725282e-03 2.74725282e-03 0.
      5.49450563e-03 0. 2.47252751e-02 8.24175868e-03 2.74725282e-03
      2.74725282e-03 6.86813192e-03 6.86813192e-03 5.49450563e-03 0.
      1.37362641e-03 1.37362638e-02 1.23626376e-02 5.49450563e-03
      1.37362641e-03 9.61538497e-03 8.24175868e-03 4.12087934e-03
      9.61538497e-03 6.86813192e-03 6.86813192e-03 0. 4.12087934e-03
      2.74725282e-03 4.12087934e-03 1.09890113e-02 1.37362641e-03
      9.61538497e-03 4.12087934e-03 1.78571437e-02 1.37362641e-03
      2.74725282e-03 0. 4.12087934e-03 5.49450563e-03 6.86813192e-03
      1.09890113e-02 6.86813192e-03 0. 5.49450563e-03 5.49450563e-03
      8.24175868e-03 1.37362638e-02 1.37362641e-03 2.74725282e-03
      1.09890113e-02 4.12087934e-03 8.24175868e-03 0. 1.09890113e-02
      1.37362641e-03 0. 4.12087934e-03 0. 0. 1.37362641e-03
      8.24175868e-03</_>
    <_>
      2.07039341e-03 0. 4.14078683e-03 4.14078683e-03 2.07039341e-02 0.
      2.07039341e-03 4.14078683e-03 4.14078683e-03 4.14078683e-03
      2.07039341e-03 2.07039341e-03 2.07039341e-03 2.07039341e-03
      1.24223605e-02 3.31262946e-02 6.21118024e-03 4.14078683e-03
      2.07039341e-03 4.14078683e-03 1.03519671e-02 8.28157365e-03
      6.21118024e-03 1.03519671e-02 0. 6.21118024e-03 2.48447210e-02
      8.28157365e-03 0. 6.21118024e-03 4.14078683e-03 4.34782617e-02
      1.24223605e-02 6.21118024e-03 0. 2.07039341e-03 8.28157365e-03
      4.14078683e-03 0. 8.28157365e-03 1.44927539e-02 2.69151144e-02
      2.07039341e-03 0. 2.07039341e-03 0. 0. 0. 0. 6.21118024e-03
      6.21118024e-03 2.07039341e-03 1.03519671e-02 1.24223605e-02 0.
      4.14078683e-03 6.21118024e-03 4.14078683e-03 0. 8.28157365e-03
      4.14078683e-03 0. 2.07039341e-03 6.21118024e-03 2.89855078e-02 0.
      1.44927539e-02 0. 1.03519671e-02 4.14078683e-03 2.07039341e-03
      8.28157365e-03 1.24223605e-02 1.65631473e-02 4.14078683e-03
      2.07039341e-03 4.14078683e-03 2.07039341e-03 1.86335407e-02
      2.07039341e-03 2.07039341e-03 4.14078683e-03 6.21118024e-03 0.
      2.07039341e-03 1.03519671e-02 1.44927539e-02 2.69151144e-02
      2.07039341e-03 2.07039341e-02 2.27743275e-02 2.07039341e-03
      2.07039341e-03 2.07039341e-03 4.14078683e-03 3.31262946e-02
      1.24223605e-02 2.07039341e-02 1.03519671e-02 8.28157365e-03
      1.44927539e-02 8.28157365e-03 0. 4.14078683e-03 2.07039341e-03
      1.24223605e-02 4.14078683e-03 2.07039341e-03 1.44927539e-02
      2.07039341e-03 0. 4.14078683e-03 0. 1.24223605e-02 2.07039341e-03
      0. 6.21118024e-03 6.21118024e-03 1.65631473e-02 6.21118024e-03
      8.28157365e-03 0. 1.03519671e-02 0. 4.14078683e-03 6.21118024e-03
      6.21118024e-03 4.14078683e-03 2.07039341e-03 4.14078683e-03
      8.28157365e-03 0. 2.07039341e-02 2.07039341e-03 2.07039341e-03
      1.03519671e-02 0. 0. 0. 1.44927539e-02 4.14078683e-03
      2.07039341e-03 8.28157365e-03 0. 0. 0. 4.14078683e-03
      4.14078683e-03 0. 1.44927539e-02</_>
    <_>
      0. 2.32828874e-03 6.98486622e-03 0. 3.49243311e-03 6.98486622e-03
      4.65657748e-03 8.14901106e-03 4.65657748e-03 1.86263099e-02
      2.32828874e-03 4.65657748e-03 5.82072185e-03 5.82072185e-03
      4.65657748e-03 2.32828874e-03 6.98486622e-03 0. 4.65657748e-03
      1.04772989e-02 1.16414437e-02 1.39697324e-02 3.49243311e-03
      1.16414437e-02 9.31315497e-03 1.04772989e-02 5.82072185e-03
      1.04772989e-02 3.49243311e-03 3.49243311e-03 8.14901106e-03
      3.25960442e-02 0. 8.14901106e-03 2.32828874e-03 3.49243311e-03
      3.49243311e-03 1.04772989e-02 6.98486622e-03 1.16414437e-02
      5.82072185e-03 5.82072185e-03 2.32828874e-03 1.28055885e-02
      1.16414437e-03 4.65657748e-03 2.32828874e-03 3.49243311e-03
      8.14901106e-03 2.32828874e-03 5.82072185e-03 4.65657748e-03
      4.65657748e-03 8.14901106e-03 4.65657748e-03 5.82072185e-03
      9.31315497e-03 1.62980221e-02 2.32828874e-03 8.14901106e-03
      3.49243311e-03 2.32828874e-03 1.51338764e-02 1.16414437e-02
      1.16414437e-02 3.49243311e-03 9.31315497e-03 1.16414437e-02
      3.49243311e-03 8.14901106e-03 6.98486622e-03 4.65657748e-03
      9.31315497e-03 5.82072185e-03 1.28055885e-02 3.49243311e-03
      1.04772989e-02 3.49243311e-03 1.28055885e-02 2.32828874e-03
      3.49243311e-03 1.16414437e-02 2.32828874e-03 2.32828874e-03
      1.16414437e-02 4.65657748e-03 4.65657748e-03 2.21187435e-02
      3.49243311e-03 3.49243311e-03 0. 2.32828874e-03 2.32828874e-03
      6.98486622e-03 3.49243311e-03 2.32828874e-03 3.49243311e-03
      5.93713634e-02 6.98486622e-03 1.16414437e-03 1.16414437e-02
      5.82072185e-03 1.16414437e-03 3.49243311e-03 6.98486622e-03
      5.82072185e-03 5.82072185e-03 8.14901106e-03 8.14901106e-03
      6.98486622e-03 6.98486622e-03 5.82072185e-03 1.04772989e-02
      5.82072185e-03 1.16414437e-03 2.32828874e-03 1.28055885e-02
      2.32828874e-03 4.65657748e-03 2.32828874e-03 4.65657748e-03
      3.49243311e-03 2.32828874e-03 4.65657748e-03 5.82072185e-03
      2.32828874e-03 6.98486622e-03 3.49243311e-03 1.16414437e-03
      9.31315497e-03 1.86263099e-02 5.82072185e-03 1.62980221e-02
      1.39697324e-02 5.82072185e-03 1.28055885e-02 1.16414437e-03
      5.82072185e-03 6.98486622e-03 1.16414437e-02 6.98486622e-03
      4.65657748e-03 5.82072185e-03 2.32828874e-03 2.32828874e-03
      8.14901106e-03 0. 2.32828874e-03 0. 1.16414437e-03</_>
    <_>
      7.31707318e-03 2.43902439e-03 4.87804879e-03 2.43902439e-03 0.
      1.70731712e-02 2.43902439e-03 1.46341464e-02 2.92682927e-02
      9.75609757e-03 7.31707318e-03 2.43902439e-03 4.87804879e-03
      2.43902439e-03 0. 4.87804879e-03 2.43902439e-03 0. 0.
      1.46341464e-02 2.43902439e-03 0. 4.87804879e-03 9.75609757e-03
      7.31707318e-03 4.87804879e-03 0. 4.87804879e-03 4.87804879e-03 0.
      0. 4.87804879e-03 0. 0. 2.43902439e-03 0. 2.43902439e-03
      7.31707318e-03 2.43902439e-03 7.31707318e-03 1.46341464e-02 0.
      1.70731712e-02 0. 7.31707318e-03 4.87804879e-03 2.43902439e-03 0.
      4.87804879e-03 2.43902439e-03 1.21951215e-02 0. 1.46341464e-02 0.
      0. 9.75609757e-03 2.43902439e-03 4.87804879e-03 4.87804879e-03
      1.95121951e-02 2.43902439e-03 0. 4.87804879e-03 0. 9.75609757e-03
      2.43902439e-03 4.87804879e-03 1.95121951e-02 2.43902439e-03
      7.31707318e-03 2.43902439e-03 7.31707318e-03 0. 0. 7.31707318e-03
      2.43902439e-03 7.31707318e-03 2.92682927e-02 1.70731712e-02
      7.31707318e-03 2.43902439e-03 2.43902430e-02 2.92682927e-02
      2.43902439e-03 9.75609757e-03 9.75609757e-03 2.19512191e-02
      4.87804879e-03 7.31707318e-03 2.19512191e-02 4.87804879e-03
      4.87804879e-03 9.75609757e-03 7.31707318e-03 2.43902439e-03
      9.75609757e-03 7.31707318e-03 3.17073166e-02 2.43902439e-03
      4.87804879e-03 2.43902439e-03 0. 0. 2.43902439e-03 4.87804879e-03
      1.21951215e-02 7.31707318e-03 2.43902439e-03 2.43902439e-03
      2.43902439e-03 4.87804879e-03 2.43902439e-03 7.31707318e-03
      2.19512191e-02 4.87804879e-03 7.31707318e-03 4.87804879e-03
      2.43902439e-03 7.31707318e-03 4.87804879e-03 4.87804879e-03
      4.87804879e-03 4.87804879e-03 4.87804879e-03 2.43902439e-03
      2.43902439e-03 7.31707318e-03 4.87804879e-03 0. 1.21951215e-02
      1.46341464e-02 0. 4.87804879e-03 1.70731712e-02 7.31707318e-03
      4.87804879e-03 0. 2.43902439e-03 4.87804879e-03 3.90243903e-02
      4.87804879e-03 7.31707318e-03 9.75609757e-03 2.43902439e-03
      9.75609757e-03 3.41463424e-02 2.43902439e-03 7.31707318e-03 0.
      2.43902439e-03</_>
    <_>
      4.95049497e-03 9.90098994e-03 4.95049497e-03 1.98019799e-02 0.
      9.90098994e-03 4.95049497e-03 4.95049497e-03 2.47524753e-02
      9.90098994e-03 4.95049497e-03 9.90098994e-03 0. 0. 4.95049497e-03
      1.98019799e-02 0. 0. 0. 9.90098994e-03 0. 0. 4.95049497e-03
      2.47524753e-02 0. 1.48514844e-02 4.95049497e-03 9.90098994e-03 0.
      9.90098994e-03 9.90098994e-03 0. 9.90098994e-03 1.48514844e-02 0.
      0. 9.90098994e-03 4.95049497e-03 4.95049497e-03 9.90098994e-03
      2.97029689e-02 4.95049497e-03 0. 0. 0. 4.95049497e-03
      4.95049497e-03 4.95049497e-03 0. 9.90098994e-03 1.98019799e-02
      4.95049497e-03 1.98019799e-02 4.95049497e-03 0. 9.90098994e-03 0.
      0. 4.95049497e-03 4.95049497e-03 1.98019799e-02 9.90098994e-03 0.
      1.98019799e-02 9.90098994e-03 0. 4.95049497e-03 0. 0.
      9.90098994e-03 4.95049497e-03 0. 0. 0. 0. 0. 1.48514844e-02
      9.90098994e-03 4.95049497e-03 4.95049497e-03 0. 1.48514844e-02
      6.43564314e-02 4.95049497e-03 0. 0. 0. 0. 1.48514844e-02
      9.90098994e-03 4.95049497e-03 1.48514844e-02 4.95049497e-03
      1.48514844e-02 0. 0. 1.48514844e-02 0. 0. 0. 0. 1.48514844e-02 0.
      9.90098994e-03 4.95049497e-03 4.95049497e-03 1.48514844e-02
      9.90098994e-03 5.94059378e-02 9.90098994e-03 9.90098994e-03
      9.90098994e-03 0. 4.95049497e-03 0. 4.95049497e-03 0. 0. 0. 0.
      1.48514844e-02 0. 1.48514844e-02 0. 4.95049497e-03 0.
      1.98019799e-02 9.90098994e-03 0. 0. 1.48514844e-02 0.
      4.95049497e-03 9.90098994e-03 0. 4.95049497e-03 4.95049497e-03
      4.95049497e-03 1.48514844e-02 1.48514844e-02 4.95049497e-03 0. 0.
      0. 4.95049497e-03 4.95049497e-03 0. 0. 0. 4.95049497e-03</_>
    <_>
      0. 0. 6.80272095e-03 0. 2.72108838e-02 6.80272095e-03
      6.80272095e-03 6.80272095e-03 0. 1.36054419e-02 0. 1.36054419e-02
      0. 0. 0. 2.72108838e-02 0. 0. 0. 0. 1.36054419e-02 0. 0.
      3.40136066e-02 6.80272095e-03 3.40136066e-02 2.72108838e-02 0. 0.
      0. 0. 0. 1.36054419e-02 2.04081628e-02 0. 6.80272095e-03
      6.80272095e-03 2.72108838e-02 0. 2.04081628e-02 5.44217676e-02
      6.80272095e-03 6.80272095e-03 0. 0. 0. 0. 0. 0. 0. 1.36054419e-02
      6.80272095e-03 0. 0. 0. 0. 2.72108838e-02 6.80272095e-03 0.
      2.04081628e-02 6.80272095e-03 0. 6.80272095e-03 2.04081628e-02
      6.80272095e-03 0. 1.36054419e-02 0. 6.80272095e-03 0. 0.
      2.72108838e-02 0. 0. 6.80272095e-03 0. 3.40136066e-02
      6.80272095e-03 0. 0. 0. 0. 0. 0. 0. 6.80272095e-03 1.36054419e-02
      6.80272095e-03 6.80272095e-03 2.04081628e-02 0. 6.80272095e-03 0.
      6.12244904e-02 0. 5.44217676e-02 0. 0. 0. 0. 0. 0. 0. 0. 0.
      2.04081628e-02 0. 0. 6.80272095e-03 6.80272095e-03 0.
      6.80272095e-03 0. 1.36054419e-02 0. 0. 6.80272095e-03 0. 0. 0.
      1.36054419e-02 0. 5.44217676e-02 6.80272095e-03 6.80272095e-03 0.
      0. 0. 0. 2.04081628e-02 6.80272095e-03 0. 0. 6.80272095e-03
      1.36054419e-02 0. 0. 1.36054419e-02 0. 6.80272095e-03 0. 0.
      6.80272095e-03 0. 0. 0. 0. 6.80272095e-03 0. 0.</_>
    <_>
      1.24481339e-02 2.90456451e-02 0. 4.14937781e-03 4.14937781e-03
      4.14937781e-03 0. 0. 4.14937781e-03 8.29875562e-03 4.14937781e-03
      0. 1.24481339e-02 4.14937772e-02 4.14937781e-03 0. 2.07468886e-02
      8.29875562e-03 1.24481339e-02 1.65975112e-02 4.14937781e-03 0.
      8.29875562e-03 4.14937781e-03 0. 0. 0. 4.14937781e-03
      2.48962678e-02 0. 8.29875562e-03 8.29875562e-03 0. 0.
      8.29875562e-03 1.24481339e-02 0. 0. 2.90456451e-02 0. 0. 0.
      2.07468886e-02 8.29875562e-03 8.29875562e-03 4.14937781e-03
      4.14937781e-03 2.48962678e-02 1.65975112e-02 1.24481339e-02 0. 0.
      0. 0. 8.29875562e-03 8.29875562e-03 0. 4.14937781e-03 0. 0. 0.
      8.29875562e-03 0. 8.29875562e-03 0. 7.88381770e-02 8.29875562e-03
      0. 8.29875562e-03 4.14937781e-03 4.14937781e-03 1.24481339e-02 0.
      4.14937781e-03 0. 4.14937781e-03 0. 0. 0. 4.14937781e-03
      2.07468886e-02 0. 1.24481339e-02 1.24481339e-02 4.14937781e-03 0.
      4.14937781e-03 4.14937781e-03 4.14937781e-03 0. 0. 0. 0. 0.
      4.14937781e-03 0. 4.14937781e-03 0. 8.29875562e-03 1.65975112e-02
      4.14937781e-03 4.14937781e-03 1.65975112e-02 8.29875562e-03 0. 0.
      4.14937781e-03 2.90456451e-02 1.65975112e-02 8.29875562e-03 0. 0.
      8.29875562e-03 0. 8.29875562e-03 1.24481339e-02 4.14937781e-03
      4.14937781e-03 0. 4.14937781e-03 4.14937781e-03 4.14937781e-03 0.
      8.29875562e-03 1.65975112e-02 0. 2.07468886e-02 2.48962678e-02 0.
      0. 0. 1.65975112e-02 4.14937781e-03 0. 0. 0. 5.39419129e-02
      1.65975112e-02 4.14937781e-03 4.14937781e-03 4.14937781e-03 0. 0.
      4.14937781e-03 1.24481339e-02 4.14937781e-03 0. 4.14937781e-03 0.
      0.</_>
    <_>
      4.95049497e-03 0. 4.95049497e-03 4.95049497e-03 0. 0. 0.
      4.95049497e-03 4.95049497e-03 4.95049497e-03 9.90098994e-03
      9.90098994e-03 9.90098994e-03 9.90098994e-03 4.95049497e-03
      9.90098994e-03 4.95049497e-03 9.90098994e-03 1.48514844e-02 0.
      4.95049497e-03 1.48514844e-02 4.95049497e-03 9.90098994e-03
      1.48514844e-02 9.90098994e-03 0. 4.95049497e-03 4.95049497e-03 0.
      0. 0. 4.95049497e-03 9.90098994e-03 4.95049497e-03 9.90098994e-03
      4.95049497e-03 1.48514844e-02 4.95049497e-03 0. 0. 0.
      4.95049497e-03 4.95049497e-03 4.95049497e-03 4.95049497e-03
      4.95049497e-03 2.97029689e-02 4.95049497e-03 9.90098994e-03 0. 0.
      4.95049497e-03 0. 9.90098994e-03 4.95049497e-03 3.96039598e-02
      3.96039598e-02 9.90098994e-03 4.95049497e-03 4.95049497e-03
      1.48514844e-02 0. 0. 4.95049497e-03 2.97029689e-02 4.95049497e-03
      9.90098994e-03 0. 1.48514844e-02 9.90098994e-03 9.90098994e-03 0.
      4.95049497e-03 0. 4.45544533e-02 0. 4.95049497e-03 0.
      9.90098994e-03 9.90098994e-03 0. 4.95049497e-03 4.95049497e-03 0.
      0. 9.90098994e-03 0. 5.94059378e-02 9.90098994e-03 4.95049497e-03
      9.90098994e-03 1.48514844e-02 9.90098994e-03 0. 0. 1.48514844e-02
      0. 4.95049497e-03 0. 4.95049497e-03 4.95049497e-03 9.90098994e-03
      4.95049497e-03 9.90098994e-03 0. 0. 0. 4.95049497e-03
      1.98019799e-02 9.90098994e-03 4.95049497e-03 4.95049497e-03 0. 0.
      0. 0. 4.95049497e-03 0. 4.95049497e-03 1.48514844e-02 0. 0.
      4.95049497e-03 4.95049497e-03 0. 4.95049497e-03 4.95049497e-03
      9.90098994e-03 0. 4.95049497e-03 9.90098994e-03 0. 1.48514844e-02
      0. 4.95049497e-03 2.97029689e-02 0. 4.95049497e-03 4.95049497e-03
      0. 4.95049497e-03 4.95049497e-03 4.95049497e-03 4.95049497e-03
      4.95049497e-03 0. 1.48514844e-02 0. 4.95049497e-03</_>
    <_>
      1.48698883e-02 0. 0. 3.71747208e-03 3.71747208e-03 1.11524165e-02
      7.43494416e-03 7.43494416e-03 1.11524165e-02 0. 1.11524165e-02
      7.43494416e-03 1.11524165e-02 1.11524165e-02 1.11524165e-02
      2.60223038e-02 1.48698883e-02 0. 0. 2.23048329e-02 1.48698883e-02
      1.11524165e-02 0. 3.71747208e-03 7.43494416e-03 3.71747208e-03
      3.71747208e-03 1.48698883e-02 1.48698883e-02 7.43494416e-03
      7.43494416e-03 0. 1.11524165e-02 7.43494416e-03 3.71747208e-03
      3.71747208e-03 7.43494416e-03 7.43494416e-03 3.71747208e-03
      3.71747208e-03 0. 7.43494416e-03 3.71747208e-03 3.71747208e-03
      1.48698883e-02 1.11524165e-02 1.11524165e-02 3.71747208e-03 0.
      3.71747208e-03 7.43494416e-03 3.71747208e-03 7.43494416e-03
      3.71747208e-03 3.71747208e-03 7.43494416e-03 7.43494416e-03
      3.71747208e-03 0. 7.43494416e-03 7.43494416e-03 2.60223038e-02 0.
      0. 7.43494416e-03 0. 3.71747203e-02 0. 1.11524165e-02
      3.71747208e-03 1.11524165e-02 3.71747208e-03 0. 7.43494416e-03
      3.71747208e-03 2.23048329e-02 1.11524165e-02 3.71747208e-03
      3.71747208e-03 7.43494416e-03 0. 1.11524165e-02 7.43494416e-03
      1.11524165e-02 0. 1.11524165e-02 3.71747208e-03 0. 0.
      3.71747208e-03 3.71747208e-03 7.43494416e-03 3.71747208e-03
      7.43494416e-03 0. 1.11524165e-02 3.71747208e-03 0. 0.
      7.43494416e-03 7.43494416e-03 3.71747208e-03 0. 1.11524165e-02
      7.43494416e-03 3.71747208e-03 7.43494416e-03 3.71747208e-03
      1.85873602e-02 0. 3.71747208e-03 3.71747208e-03 1.11524165e-02
      1.85873602e-02 7.43494416e-03 1.11524165e-02 7.43494416e-03
      3.71747208e-03 0. 0. 7.43494416e-03 1.11524165e-02 1.48698883e-02
      7.43494416e-03 1.48698883e-02 0. 1.85873602e-02 3.71747208e-03 0.
      3.71747208e-03 7.43494416e-03 0. 3.71747208e-03 1.48698883e-02
      1.48698883e-02 0. 7.43494416e-03 7.43494416e-03 3.71747208e-03
      7.43494416e-03 1.11524165e-02 0. 0. 0. 7.43494416e-03
      7.43494416e-03 3.71747208e-03 3.71747208e-03 0. 3.71747208e-03</_>
    <_>
      2.65957434e-02 5.31914877e-03 1.06382975e-02 5.31914877e-03 0. 0.
      0. 1.06382975e-02 1.06382975e-02 0. 0. 5.31914877e-03
      1.06382975e-02 5.31914877e-03 1.06382975e-02 5.31914877e-03
      2.12765951e-02 1.06382975e-02 1.06382975e-02 0. 5.31914877e-03
      5.31914877e-03 1.06382975e-02 1.06382975e-02 0. 1.59574468e-02 0.
      0. 0. 0. 0. 2.12765951e-02 1.59574468e-02 0. 0. 5.31914877e-03 0.
      5.31914877e-03 5.31914877e-03 0. 5.31914877e-03 1.06382975e-02
      5.31914877e-03 5.31914877e-03 1.06382975e-02 2.12765951e-02 0.
      5.31914877e-03 0. 5.31914877e-03 1.06382975e-02 1.06382975e-02 0.
      5.31914877e-03 5.31914877e-03 1.06382975e-02 1.06382975e-02 0. 0.
      0. 0. 1.06382975e-02 5.31914877e-03 1.59574468e-02 5.31914877e-03
      1.59574468e-02 2.12765951e-02 0. 2.12765951e-02 0. 0. 0. 0. 0.
      5.31914877e-03 1.06382975e-02 5.31914877e-03 0. 5.31914877e-03
      2.65957434e-02 0. 1.06382975e-02 1.59574468e-02 1.06382975e-02
      5.31914877e-03 5.31914877e-03 5.31914877e-03 0. 5.31914877e-03 0.
      5.31914877e-03 0. 1.06382975e-02 5.31914877e-03 5.31914877e-03 0.
      5.31914877e-03 0. 5.31914877e-03 5.31914877e-03 0. 1.06382975e-02
      0. 2.65957434e-02 1.59574468e-02 1.59574468e-02 5.31914877e-03
      5.31914877e-03 2.12765951e-02 0. 2.65957434e-02 5.31914877e-03
      5.31914877e-03 5.31914877e-03 0. 5.31914877e-03 1.06382975e-02
      1.59574468e-02 0. 1.06382975e-02 1.06382975e-02 0. 0.
      5.31914877e-03 0. 1.06382975e-02 1.59574468e-02 1.06382975e-02
      1.59574468e-02 5.31914877e-03 0. 0. 0. 1.06382975e-02
      2.12765951e-02 0. 1.06382975e-02 5.31914877e-03 0. 1.06382975e-02
      0. 2.12765951e-02 1.59574468e-02 5.31914877e-03 0. 1.59574468e-02
      0. 0. 0. 0.</_>
    <_>
      0. 5.64971752e-03 5.64971752e-03 1.69491526e-02 1.12994350e-02
      5.64971752e-03 2.25988701e-02 3.38983051e-02 0. 2.82485876e-02 0.
      5.64971752e-03 0. 5.64971752e-03 0. 3.38983051e-02 2.82485876e-02
      5.64971752e-03 0. 5.64971752e-03 5.64971752e-03 0. 1.69491526e-02
      0. 1.12994350e-02 0. 1.12994350e-02 0. 5.64971752e-03
      1.12994350e-02 0. 0. 0. 5.64971752e-03 0. 1.12994350e-02
      1.12994350e-02 0. 0. 1.12994350e-02 1.69491526e-02 5.64971752e-03
      5.64971752e-03 0. 0. 2.25988701e-02 5.64971752e-03 0. 0.
      3.38983051e-02 2.82485876e-02 0. 1.12994350e-02 0. 0. 0. 0.
      1.12994350e-02 0. 5.64971752e-03 0. 0. 0. 1.69491526e-02
      5.64971752e-03 0. 5.64971752e-03 0. 0. 1.12994350e-02
      5.64971752e-03 5.64971752e-03 0. 0. 0. 5.64971752e-03 0. 0.
      5.64971752e-03 0. 0. 5.64971752e-03 1.12994350e-02 5.64971752e-03
      0. 3.38983051e-02 1.12994350e-02 0. 0. 0. 0. 1.12994350e-02 0.
      1.69491526e-02 0. 2.82485876e-02 1.12994350e-02 1.69491526e-02 0.
      0. 0. 1.12994350e-02 0. 1.12994350e-02 0. 1.69491526e-02
      1.69491526e-02 0. 4.51977402e-02 0. 5.64971752e-03 2.25988701e-02
      0. 5.64971752e-03 0. 5.64971752e-03 0. 5.64971752e-03 0.
      2.25988701e-02 5.64971752e-03 0. 0. 0. 0. 0. 0. 0. 5.64971752e-03
      5.64971752e-03 1.12994350e-02 0. 1.69491526e-02 0. 0.
      3.38983051e-02 0. 0. 5.64971752e-03 5.64971752e-03 5.64971752e-03
      0. 1.12994350e-02 0. 5.64971752e-03 5.64971752e-03 0. 0.
      5.64971752e-03 2.82485876e-02</_>
    <_>
      2.69541773e-03 5.39083546e-03 5.39083546e-03 2.69541778e-02
      2.69541773e-03 0. 1.07816709e-02 1.07816709e-02 8.08625296e-03
      1.34770889e-02 5.39083546e-03 8.08625296e-03 1.61725059e-02
      1.34770889e-02 1.34770889e-02 8.08625296e-03 1.61725059e-02
      5.39083546e-03 0. 2.69541773e-03 2.69541773e-03 0. 2.69541773e-03
      1.34770889e-02 5.39083546e-03 8.08625296e-03 1.07816709e-02
      8.08625296e-03 2.69541773e-03 8.08625296e-03 2.69541773e-03
      5.39083546e-03 0. 0. 0. 2.69541773e-03 0. 2.69541773e-03
      1.88679248e-02 5.39083546e-03 1.61725059e-02 2.69541773e-03
      2.69541773e-03 5.39083546e-03 2.69541773e-03 2.69541773e-03 0. 0.
      2.69541773e-03 8.08625296e-03 1.07816709e-02 2.69541773e-03
      1.07816709e-02 0. 1.34770889e-02 2.69541773e-03 2.69541773e-03
      1.61725059e-02 2.69541773e-03 0. 0. 0. 8.08625296e-03 0.
      1.07816709e-02 5.39083546e-03 5.39083546e-03 0. 5.39083546e-03
      1.34770889e-02 1.34770889e-02 8.08625296e-03 2.69541773e-03 0.
      1.07816709e-02 1.88679248e-02 5.39083546e-03 8.08625296e-03
      8.08625296e-03 5.39083546e-03 0. 1.07816709e-02 4.04312648e-02 0.
      2.69541773e-03 8.08625296e-03 8.08625296e-03 3.50404307e-02
      5.39083546e-03 5.39083546e-03 2.69541773e-03 5.39083546e-03
      2.69541773e-03 8.08625296e-03 0. 5.39083546e-03 5.39083546e-03
      5.39083546e-03 0. 8.08625296e-03 2.69541773e-03 2.69541778e-02 0.
      1.61725059e-02 5.39083546e-03 1.34770889e-02 2.69541773e-03 0.
      4.31266837e-02 8.08625296e-03 2.69541773e-03 5.39083546e-03
      2.69541773e-03 0. 0. 0. 1.07816709e-02 8.08625296e-03
      2.69541773e-03 8.08625296e-03 2.69541773e-03 8.08625296e-03 0.
      8.08625296e-03 2.69541773e-03 4.31266837e-02 0. 0. 1.61725059e-02
      0. 5.39083546e-03 0. 8.08625296e-03 8.08625296e-03 5.39083546e-03
      1.61725059e-02 0. 2.69541773e-03 2.69541773e-03 0. 8.08625296e-03
      2.69541773e-03 1.61725059e-02 5.39083546e-03 0. 2.69541773e-03 0.
      5.39083546e-03 0. 2.69541773e-03</_>
    <_>
      8.26446246e-03 1.65289249e-02 0. 0. 0. 0. 1.65289249e-02 0. 0. 0.
      0. 8.26446246e-03 4.95867729e-02 0. 8.26446246e-03 8.26446246e-03
      9.09090862e-02 8.26446246e-03 0. 8.26446246e-03 1.65289249e-02 0.
      0. 1.65289249e-02 8.26446246e-03 8.26446246e-03 0. 0. 0. 0. 0. 0.
      0. 8.26446246e-03 1.65289249e-02 0. 0. 0. 0. 0. 2.47933865e-02 0.
      0. 0. 0. 2.47933865e-02 8.26446246e-03 8.26446246e-03
      1.65289249e-02 0. 0. 0. 0. 0. 1.65289249e-02 0. 0. 2.47933865e-02
      0. 0. 0. 0. 0. 8.26446246e-03 0. 0. 4.13223132e-02 0.
      8.26446246e-03 0. 0. 0. 0. 0. 0. 8.26446246e-03 8.26446246e-03 0.
      0. 2.47933865e-02 0. 8.26446246e-03 6.61156997e-02 4.13223132e-02
      8.26446246e-03 0. 0. 0. 0. 0. 0. 0. 8.26446246e-03 8.26446246e-03
      8.26446246e-03 8.26446246e-03 0. 0. 0. 0. 0. 0. 8.26446246e-03
      5.78512363e-02 8.26446246e-03 0. 0. 8.26446246e-03 4.13223132e-02
      0. 0. 0. 0. 0. 0. 8.26446246e-03 0. 8.26446246e-03 0. 0. 0. 0.
      8.26446246e-03 0. 0. 0. 8.26446246e-03 0. 0. 0. 0. 0. 0.
      8.26446246e-03 0. 0. 8.26446246e-03 1.65289249e-02 0. 0. 0.
      1.65289249e-02 8.26446246e-03 8.26446246e-03 8.26446246e-03
      8.26446246e-03 0. 7.43801594e-02 0. 8.26446246e-03</_>
    <_>
      0. 2.36406620e-03 4.72813239e-03 9.45626479e-03 1.18203312e-02
      7.09219836e-03 7.09219836e-03 1.89125296e-02 2.36406620e-03 0.
      4.72813239e-03 2.36406620e-03 0. 4.72813239e-03 2.36406620e-03
      1.41843967e-02 1.65484641e-02 4.72813239e-03 4.72813239e-03
      2.36406620e-03 0. 2.36406620e-03 2.36406620e-03 9.45626479e-03
      4.72813239e-03 2.83687934e-02 3.54609936e-02 4.72813239e-03
      4.72813239e-03 9.45626479e-03 2.12765951e-02 0. 2.36406620e-03
      7.09219836e-03 0. 7.09219836e-03 4.72813239e-03 2.36406620e-03
      1.18203312e-02 9.45626479e-03 2.12765951e-02 9.45626479e-03
      2.36406620e-03 2.36406620e-03 2.36406620e-03 9.45626479e-03 0.
      7.09219836e-03 4.72813239e-03 7.09219836e-03 1.41843967e-02
      2.36406620e-03 4.72813239e-03 0. 0. 1.18203312e-02 1.41843967e-02
      1.41843967e-02 2.36406620e-03 9.45626479e-03 4.72813239e-03
      2.36406620e-03 2.36406620e-03 2.36406620e-03 1.18203312e-02 0.
      9.45626479e-03 4.72813239e-03 1.41843967e-02 9.45626479e-03 0.
      1.89125296e-02 2.36406620e-03 0. 7.09219836e-03 4.72813239e-03
      9.45626479e-03 4.72813239e-03 7.09219836e-03 4.72813239e-03 0.
      1.65484641e-02 1.41843967e-02 1.65484641e-02 0. 1.41843967e-02
      1.18203312e-02 0. 7.09219836e-03 2.12765951e-02 4.72813239e-03
      7.09219836e-03 0. 7.09219836e-03 2.36406620e-03 1.65484641e-02
      4.72813239e-03 0. 2.36406620e-03 2.36406620e-03 0. 2.36406620e-03
      0. 9.45626479e-03 2.36406620e-03 1.89125296e-02 4.72813239e-03
      2.36406620e-03 7.09219836e-03 9.45626479e-03 9.45626479e-03
      1.18203312e-02 0. 7.09219836e-03 7.09219836e-03 9.45626479e-03
      7.09219836e-03 2.36406620e-03 7.09219836e-03 0. 2.12765951e-02
      9.45626479e-03 9.45626479e-03 7.09219836e-03 2.36406620e-03 0.
      4.72813239e-03 1.18203312e-02 4.72813239e-03 4.72813239e-03
      1.89125296e-02 0. 0. 1.18203312e-02 9.45626479e-03 0.
      2.36406620e-03 1.65484641e-02 2.36406620e-03 2.36406620e-03 0.
      4.72813239e-03 9.45626479e-03 9.45626479e-03 2.36406620e-03
      7.09219836e-03 2.36406620e-03 2.36406620e-03 2.36406620e-03
      4.72813239e-03</_>
    <_>
      0. 8.33333377e-03 0. 3.33333351e-02 0. 8.33333377e-03 0.
      1.66666675e-02 0. 0. 0. 1.66666675e-02 0. 0. 0. 0. 5.00000045e-02
      8.33333377e-03 0. 0. 0. 0. 1.66666675e-02 0. 0. 8.33333377e-03 0.
      8.33333377e-03 1.66666675e-02 0. 0. 0. 1.66666675e-02
      8.33333377e-03 0. 0. 8.33333377e-03 2.50000022e-02 0.
      1.66666675e-02 1.66666675e-02 0. 0. 0. 8.33333377e-03 0. 0. 0. 0.
      0. 8.33333377e-03 0. 0. 0. 0. 0. 0. 0. 0. 0. 0. 8.33333377e-03 0.
      8.33333377e-03 0. 2.50000022e-02 4.16666679e-02 0. 8.33333377e-03
      0. 8.33333377e-03 0. 0. 0. 0. 2.50000022e-02 0. 0. 0.
      2.50000022e-02 1.66666675e-02 0. 7.50000030e-02 1.66666675e-02 0.
      1.66666675e-02 0. 0. 0. 0. 0. 0. 0. 0. 0. 3.33333351e-02
      8.33333377e-03 0. 0. 0. 0. 3.33333351e-02 0. 1.66666675e-02
      8.33333377e-03 8.33333377e-03 0. 8.33333377e-03 6.66666701e-02 0.
      8.33333377e-03 0. 0. 0. 0. 8.33333377e-03 0. 2.50000022e-02
      4.16666679e-02 0. 1.66666675e-02 0. 0. 0. 0. 1.66666675e-02
      8.33333377e-03 1.66666675e-02 0. 0. 8.33333377e-03 0. 0. 0.
      8.33333377e-03 0. 0. 0. 0. 0. 3.33333351e-02 0. 0. 0.
      1.66666675e-02 8.33333377e-03 0. 2.50000022e-02 0. 0.</_>
    <_>
      2.97029689e-02 9.90098994e-03 0. 1.98019799e-02 0. 0. 0.
      9.90098994e-03 0. 0. 0. 2.97029689e-02 9.90098994e-03 0.
      9.90098994e-03 9.90098994e-03 4.95049506e-02 0. 9.90098994e-03 0.
      0. 0. 0. 0. 9.90098994e-03 0. 0. 0. 0. 0. 0. 0. 9.90098994e-03 0.
      0. 9.90098994e-03 9.90098994e-03 0. 9.90098994e-03 0.
      9.90098994e-03 0. 0. 0. 9.90098994e-03 9.90098994e-03
      9.90098994e-03 1.98019799e-02 2.97029689e-02 1.98019799e-02
      9.90098994e-03 0. 0. 0. 9.90098994e-03 9.90098994e-03 0. 0. 0. 0.
      0. 9.90098994e-03 0. 1.98019799e-02 0. 0. 1.98019799e-02 0.
      3.96039598e-02 0. 0. 0. 0. 1.98019799e-02 9.90098994e-03
      2.97029689e-02 0. 0. 0. 0. 0. 9.90098994e-03 1.98019799e-02 0.
      9.90098994e-03 2.97029689e-02 0. 9.90098994e-03 9.90098994e-03 0.
      0. 0. 0. 0. 0. 0. 0. 0. 0. 9.90098994e-03 9.90098994e-03 0.
      9.90098994e-03 9.90098994e-03 0. 0. 0. 0. 0. 0. 0. 0.
      9.90098994e-03 0. 0. 9.90098994e-03 1.98019799e-02 9.90098994e-03
      0. 9.90098994e-03 0. 0. 0. 0. 0. 1.98019799e-02 2.97029689e-02
      9.90098994e-03 3.96039598e-02 0. 9.90098994e-03 0. 0.
      9.90098994e-03 0. 0. 4.95049506e-02 0. 0. 9.90098994e-03
      9.90098994e-03 0. 0. 2.97029689e-02 9.90098994e-03 9.90098994e-03
      0. 3.96039598e-02 0. 9.90098994e-03</_>
    <_>
      3.13971750e-03 6.27943501e-03 4.70957626e-03 1.56985875e-03
      1.25588700e-02 7.84929376e-03 0. 7.84929376e-03 2.04081647e-02 0.
      2.66875997e-02 3.13971750e-03 0. 4.70957626e-03 1.56985875e-03
      3.13971750e-03 0. 0. 7.84929376e-03 3.13971750e-03 4.70957626e-03
      4.70957626e-03 3.13971750e-03 3.13971750e-03 7.84929376e-03
      3.13971750e-03 1.41287288e-02 4.70957626e-03 1.09890113e-02
      1.56985875e-03 4.70957626e-03 0. 2.35478804e-02 0. 0.
      3.13971750e-03 4.70957626e-03 9.41915251e-03 4.70957626e-03
      3.13971750e-03 3.13971750e-03 1.41287288e-02 6.27943501e-03 0.
      1.72684453e-02 3.13971750e-03 9.41915251e-03 6.27943501e-03 0.
      1.25588700e-02 1.56985875e-03 1.56985875e-03 1.88383050e-02 0. 0.
      1.56985875e-03 7.84929376e-03 3.13971750e-03 3.13971750e-03
      2.19780225e-02 0. 1.56985875e-03 0. 1.56985875e-03 6.27943501e-03
      1.09890113e-02 1.56985875e-03 0. 1.56985875e-03 0. 0.
      4.70957626e-03 0. 1.25588700e-02 1.56985875e-02 1.56985875e-03
      1.56985875e-03 2.35478804e-02 7.84929376e-03 9.41915251e-03
      3.13971750e-03 1.56985875e-02 0. 0. 0. 7.84929376e-03
      2.04081647e-02 0. 1.88383050e-02 2.82574575e-02 1.56985875e-03
      9.41915251e-03 1.56985875e-03 0. 0. 3.13971750e-03 1.72684453e-02
      0. 1.56985875e-03 2.35478804e-02 6.27943501e-03 1.56985875e-03
      1.56985875e-03 0. 1.56985875e-03 1.56985875e-03 1.25588700e-02
      4.70957626e-03 0. 9.41915251e-03 6.27943501e-03 1.25588700e-02
      1.56985875e-03 2.04081647e-02 1.72684453e-02 1.25588700e-02
      3.13971750e-03 0. 2.51177400e-02 1.56985875e-03 3.13971750e-03
      3.76766101e-02 3.13971750e-03 7.84929376e-03 3.13971750e-03 0.
      7.84929376e-03 6.27943501e-03 1.56985875e-03 6.27943501e-03
      1.09890113e-02 3.13971750e-03 0. 7.84929376e-03 2.04081647e-02 0.
      6.27943501e-03 1.41287288e-02 9.41915251e-03 3.29670347e-02
      1.56985875e-03 0. 7.84929376e-03 7.84929376e-03 4.70957626e-03
      2.19780225e-02 1.25588700e-02 0. 3.13971750e-03 7.84929376e-03</_>
    <_>
      1.93548389e-02 6.45161280e-03 2.58064512e-02 0. 0. 1.93548389e-02
      0. 0. 0. 1.93548389e-02 6.45161280e-03 6.45161280e-03 0. 0. 0.
      5.80645166e-02 1.29032256e-02 6.45161280e-03 1.29032256e-02
      1.93548389e-02 1.29032256e-02 0. 6.45161280e-03 6.45161280e-03 0.
      1.29032256e-02 3.87096778e-02 6.45161280e-03 0. 0. 0. 0.
      6.45161280e-03 6.45161280e-03 0. 0. 0. 0. 0. 6.45161280e-03
      1.29032256e-02 0. 0. 6.45161280e-03 1.29032256e-02 0.
      6.45161280e-03 0. 0. 1.29032256e-02 0. 6.45161280e-03
      2.58064512e-02 6.45161280e-03 0. 6.45161280e-03 1.93548389e-02
      3.22580636e-02 1.29032256e-02 6.45161280e-03 6.45161280e-03 0.
      6.45161280e-03 0. 4.51612882e-02 1.29032256e-02 6.45161280e-03
      6.45161280e-03 0. 1.93548389e-02 6.45161280e-03 0. 6.45161280e-03
      0. 0. 6.45161280e-03 6.45161280e-03 0. 6.45161280e-03
      6.45161280e-03 0. 1.93548389e-02 6.45161280e-03 6.45161280e-03 0.
      0. 6.45161280e-03 0. 0. 0. 0. 1.29032256e-02 1.29032256e-02 0. 0.
      6.45161280e-03 6.45161280e-03 6.45161280e-03 0. 0. 6.45161280e-03
      0. 6.45161280e-03 0. 1.93548389e-02 6.45161280e-03 1.29032256e-02
      0. 1.29032256e-02 0. 1.29032256e-02 6.45161280e-03 0.
      1.93548389e-02 1.93548389e-02 6.45161280e-03 6.45161280e-03 0. 0.
      6.45161280e-03 1.29032256e-02 0. 0. 6.45161280e-03 0. 0. 0. 0. 0.
      1.29032256e-02 0. 0. 0. 1.93548389e-02 6.45161280e-03
      1.93548389e-02 0. 0. 6.45161280e-03 6.45161280e-03 0.
      6.45161280e-03 0. 6.45161280e-03 0. 1.93548389e-02 0.
      2.58064512e-02 0. 0.</_>
    <_>
      7.63358781e-03 0. 0. 0. 0. 7.63358781e-03 7.63358781e-03 0.
      7.63358781e-03 7.63358781e-03 7.63358781e-03 0. 7.63358781e-03 0.
      0. 0. 4.58015278e-02 7.63358781e-03 7.63358781e-03 7.63358781e-03
      0. 7.63358781e-03 0. 0. 1.52671756e-02 0. 0. 1.52671756e-02 0.
      2.29007639e-02 0. 0. 7.63358781e-03 1.52671756e-02 0.
      7.63358781e-03 0. 2.29007639e-02 7.63358781e-03 0. 0.
      7.63358781e-03 0. 0. 7.63358781e-03 7.63358781e-03 0.
      7.63358781e-03 0. 0. 7.63358781e-03 2.29007639e-02 7.63358781e-03
      2.29007639e-02 0. 0. 0. 0. 0. 1.52671756e-02 0. 7.63358781e-03 0.
      1.52671756e-02 0. 0. 7.63358781e-03 0. 0. 7.63358781e-03
      7.63358781e-03 1.52671756e-02 0. 0. 1.52671756e-02 1.52671756e-02
      0. 0. 0. 7.63358781e-03 0. 7.63358781e-03 3.81679386e-02
      7.63358781e-03 0. 0. 7.63358781e-03 7.63358781e-03 0. 0.
      7.63358781e-03 0. 1.52671756e-02 0. 0. 0. 0. 0. 0. 0.
      1.52671756e-02 7.63358781e-03 0. 1.52671756e-02 7.63358781e-03 0.
      7.63358781e-03 1.52671756e-02 6.10687025e-02 0. 0. 1.52671756e-02
      0. 0. 2.29007639e-02 7.63358781e-03 7.63358781e-03 7.63358781e-03
      0. 0. 0. 0. 0. 2.29007639e-02 0. 1.52671756e-02 7.63358781e-03
      7.63358781e-03 7.63358781e-03 7.63358781e-03 0. 0. 0.
      5.34351133e-02 7.63358781e-03 0. 0. 0. 0. 2.29007639e-02 0.
      1.52671756e-02 0. 0. 2.29007639e-02 7.63358781e-03 0.
      6.87022880e-02 0. 0.</_>
    <_>
      0. 3.06122452e-02 0. 1.02040814e-02 0. 1.02040814e-02
      1.02040814e-02 0. 1.02040814e-02 0. 0. 1.02040814e-02
      1.02040814e-02 0. 1.02040814e-02 0. 2.04081628e-02 2.04081628e-02
      0. 2.04081628e-02 0. 0. 0. 0. 2.04081628e-02 0. 0. 0. 0. 0. 0. 0.
      3.06122452e-02 0. 2.04081628e-02 0. 1.02040814e-02 0.
      3.06122452e-02 0. 0. 0. 0. 3.06122452e-02 1.02040814e-02 0. 0.
      1.02040814e-02 1.02040814e-02 1.02040814e-02 0. 0. 1.02040814e-02
      1.02040814e-02 2.04081628e-02 0. 0. 0. 0. 0. 0. 0. 0.
      1.02040814e-02 0. 5.10204062e-02 3.06122452e-02 0. 1.02040814e-02
      1.02040814e-02 1.02040814e-02 0. 0. 0. 0. 0. 0. 0. 1.02040814e-02
      0. 1.02040814e-02 0. 3.06122452e-02 3.06122452e-02 1.02040814e-02
      0. 0. 1.02040814e-02 1.02040814e-02 1.02040814e-02 0.
      1.02040814e-02 0. 0. 0. 1.02040814e-02 0. 0. 0. 0. 1.02040814e-02
      2.04081628e-02 2.04081628e-02 3.06122452e-02 0. 1.02040814e-02 0.
      0. 3.06122452e-02 0. 0. 0. 1.02040814e-02 0. 0. 0. 0.
      1.02040814e-02 0. 0. 0. 0. 0. 0. 0. 3.06122452e-02 1.02040814e-02
      0. 2.04081628e-02 0. 0. 1.02040814e-02 1.02040814e-02 0. 0. 0.
      4.08163257e-02 0. 1.02040814e-02 0. 0. 0. 0. 1.02040814e-02
      1.02040814e-02 1.02040814e-02 0. 3.06122452e-02 0. 1.02040814e-02</_>
    <_>
      0. 0. 0. 2.57510729e-02 4.29184549e-03 1.28755365e-02
      8.58369097e-03 4.29184549e-03 4.29184549e-03 4.29184549e-03 0. 0.
      0. 1.28755365e-02 4.29184549e-03 1.28755365e-02 4.72102985e-02
      8.58369097e-03 4.29184549e-03 4.29184549e-03 0. 4.29184549e-03
      8.58369097e-03 4.29184549e-03 0. 1.28755365e-02 0. 4.29184549e-03
      4.29184549e-03 4.29184549e-03 4.29184549e-03 0. 1.28755365e-02
      8.58369097e-03 8.58369097e-03 0. 0. 4.29184549e-03 4.29184549e-03
      1.71673819e-02 2.57510729e-02 4.29184549e-03 1.28755365e-02 0.
      8.58369097e-03 0. 0. 0. 1.28755365e-02 1.28755365e-02
      8.58369097e-03 8.58369097e-03 4.29184549e-03 0. 4.29184549e-03
      4.29184549e-03 8.58369097e-03 3.43347639e-02 4.29184549e-03 0.
      1.71673819e-02 0. 0. 0. 4.29184549e-03 0. 4.29184549e-03 0.
      4.29184549e-03 0. 8.58369097e-03 8.58369097e-03 0. 0.
      8.58369097e-03 1.28755365e-02 8.58369097e-03 4.29184549e-03
      4.29184549e-03 4.29184549e-03 8.58369097e-03 0. 9.44205970e-02
      4.29184549e-03 0. 0. 1.28755365e-02 0. 0. 0. 0. 8.58369097e-03 0.
      0. 4.29184549e-03 1.71673819e-02 4.29184549e-03 0. 0.
      4.29184549e-03 1.71673819e-02 2.57510729e-02 4.29184549e-03
      2.14592274e-02 4.29184549e-03 8.58369097e-03 0. 8.58369097e-03
      4.72102985e-02 0. 4.29184549e-03 0. 0. 4.29184549e-03
      8.58369097e-03 4.29184549e-03 1.28755365e-02 0. 0. 2.14592274e-02
      2.14592274e-02 4.29184549e-03 0. 1.28755365e-02 4.29184549e-03 0.
      4.29184549e-03 4.29184549e-03 0. 4.29184549e-03 1.28755365e-02 0.
      0. 4.29184549e-03 4.29184549e-03 8.58369097e-03 0. 0.
      8.58369097e-03 4.29184549e-03 0. 0. 0. 0. 0. 1.71673819e-02 0.
      2.57510729e-02 0. 0.</_>
    <_>
      6.71140943e-03 1.34228189e-02 0. 6.71140943e-03 0. 0. 0. 0.
      1.34228189e-02 0. 0. 3.35570462e-02 0. 6.71140943e-03
      6.71140943e-03 0. 2.68456377e-02 3.35570462e-02 0. 0. 0.
      6.71140943e-03 2.01342292e-02 6.71140943e-03 0. 0. 0.
      6.71140943e-03 6.71140943e-03 0. 0. 0. 0. 0. 0. 6.71140943e-03
      6.71140943e-03 6.71140943e-03 6.71140943e-03 0. 0. 0. 0.
      6.71140943e-03 0. 1.34228189e-02 2.01342292e-02 6.71140943e-03
      7.38255009e-02 2.01342292e-02 0. 0. 0. 6.71140943e-03
      2.01342292e-02 0. 1.34228189e-02 0. 0. 0. 0. 6.71140943e-03 0.
      2.68456377e-02 0. 1.34228189e-02 6.71140943e-03 0. 6.71140924e-02
      6.71140943e-03 0. 0. 0. 0. 6.71140943e-03 2.68456377e-02
      1.34228189e-02 6.71140943e-03 0. 2.01342292e-02 6.71140943e-03 0.
      2.01342292e-02 1.34228189e-02 0. 0. 0. 0. 0. 0. 6.71140943e-03 0.
      1.34228189e-02 0. 6.71140943e-03 0. 1.34228189e-02 0. 0. 0.
      6.71140943e-03 6.71140943e-03 2.01342292e-02 6.71140943e-03
      1.34228189e-02 0. 0. 1.34228189e-02 1.34228189e-02 6.71140943e-03
      6.71140943e-03 0. 6.71140943e-03 0. 0. 2.01342292e-02 0.
      2.68456377e-02 0. 0. 0. 6.71140943e-03 0. 1.34228189e-02
      6.71140943e-03 2.01342292e-02 6.71140943e-03 0. 0. 0.
      6.71140943e-03 0. 0. 6.71140943e-03 0. 0. 6.71140943e-03
      6.71140943e-03 0. 1.34228189e-02 2.01342292e-02 0. 6.71140943e-03
      6.71140943e-03 6.71140943e-03 1.34228189e-02 0. 2.01342292e-02 0.
      0.</_>
    <_>
      5.40540554e-03 5.40540554e-03 1.62162166e-02 2.70270277e-02 0. 0.
      1.08108111e-02 1.08108111e-02 0. 0. 0. 2.70270277e-02 0. 0.
      1.08108111e-02 5.40540554e-03 4.86486480e-02 5.40540554e-03 0.
      5.40540554e-03 5.40540554e-03 1.62162166e-02 1.08108111e-02
      5.40540554e-03 0. 0. 5.40540554e-03 0. 0. 1.08108111e-02 0. 0.
      1.08108111e-02 5.40540554e-03 0. 0. 5.40540554e-03 5.40540554e-03
      0. 5.40540554e-03 0. 5.40540554e-03 0. 0. 5.40540554e-03
      2.16216221e-02 5.40540554e-03 0. 2.16216221e-02 5.40540554e-03
      1.08108111e-02 0. 0. 5.40540554e-03 5.40540554e-03 0.
      5.40540554e-03 0. 0. 0. 1.08108111e-02 0. 0. 5.40540554e-03
      1.08108111e-02 1.08108111e-02 2.16216221e-02 0. 5.40540554e-03
      5.40540554e-03 5.40540554e-03 1.08108111e-02 5.40540554e-03 0.
      1.62162166e-02 4.32432443e-02 5.40540554e-03 0. 0. 0.
      5.40540554e-03 0. 6.48648664e-02 1.08108111e-02 0. 2.16216221e-02
      1.08108111e-02 5.40540554e-03 0. 0. 0. 1.08108111e-02
      2.16216221e-02 5.40540554e-03 5.40540554e-03 5.40540554e-03
      1.08108111e-02 0. 0. 1.08108111e-02 0. 2.70270277e-02 0.
      5.40540554e-03 0. 5.40540554e-03 1.62162166e-02 5.40540554e-03
      3.24324332e-02 0. 0. 5.40540554e-03 5.40540554e-03 0.
      1.08108111e-02 1.62162166e-02 5.40540554e-03 5.40540554e-03 0.
      5.40540554e-03 5.40540554e-03 5.40540554e-03 5.40540554e-03 0.
      5.40540554e-03 0. 5.40540554e-03 5.40540554e-03 1.62162166e-02
      1.08108111e-02 0. 0. 0. 0. 5.40540554e-03 0. 1.08108111e-02
      5.40540554e-03 0. 5.40540554e-03 5.40540554e-03 2.16216221e-02
      5.40540554e-03 0. 0. 0. 0. 2.70270277e-02 0. 5.40540554e-03</_>
    <_>
      1.72413792e-02 8.62068962e-03 0. 4.31034481e-03 0. 0. 0.
      4.31034481e-03 4.31034481e-03 0. 4.31034481e-03 0. 2.58620679e-02
      8.62068962e-03 0. 2.58620679e-02 1.72413792e-02 1.29310340e-02
      4.31034481e-03 4.31034481e-03 0. 0. 0. 1.72413792e-02
      8.62068962e-03 0. 8.62068962e-03 8.62068962e-03 4.31034481e-03
      8.62068962e-03 1.29310340e-02 0. 4.31034481e-03 8.62068962e-03
      1.72413792e-02 4.31034481e-03 4.31034481e-03 8.62068962e-03
      4.31034481e-03 0. 8.62068962e-03 4.31034481e-03 4.31034481e-03
      4.31034481e-03 1.72413792e-02 4.31034481e-03 4.31034481e-03
      8.62068962e-03 1.72413792e-02 8.62068962e-03 0. 0. 8.62068962e-03
      0. 1.72413792e-02 4.31034481e-03 4.31034481e-03 0. 8.62068962e-03
      0. 4.31034481e-03 1.29310340e-02 1.72413792e-02 4.31034481e-03 0.
      0. 2.15517245e-02 4.31034481e-03 8.62068962e-03 8.62068962e-03
      8.62068962e-03 4.31034481e-03 4.31034481e-03 0. 4.31034481e-03 0.
      0. 1.72413792e-02 1.29310340e-02 0. 4.31034481e-03 4.31034481e-03
      3.44827585e-02 4.31034481e-03 0. 8.62068962e-03 1.29310340e-02 0.
      8.62068962e-03 3.44827585e-02 0. 1.29310340e-02 1.72413792e-02 0.
      0. 1.72413792e-02 4.31034481e-03 4.31034481e-03 0. 0.
      4.31034481e-03 0. 0. 2.58620679e-02 4.31034481e-03 4.31034481e-03
      0. 0. 8.62068962e-03 4.31034481e-03 1.29310340e-02 4.31034481e-03
      0. 4.31034481e-03 2.15517245e-02 0. 4.31034481e-03 4.31034481e-03
      0. 4.31034481e-03 0. 2.58620679e-02 8.62068962e-03 4.31034481e-03
      4.31034481e-03 0. 4.31034481e-03 8.62068962e-03 4.31034481e-03 0.
      4.31034481e-03 4.31034481e-03 4.31034481e-03 0. 1.29310340e-02
      4.31034481e-03 2.15517245e-02 8.62068962e-03 0. 0. 0.
      1.29310340e-02 4.31034481e-03 1.72413792e-02 4.31034481e-03
      4.31034481e-03 0. 3.44827585e-02 0. 4.31034481e-03</_>
    <_>
      4.25531901e-03 1.70212761e-02 4.25531901e-03 8.51063803e-03
      2.12765951e-03 2.12765951e-03 6.38297852e-03 8.51063803e-03
      6.38297852e-03 2.12765951e-03 6.38297852e-03 6.38297852e-03
      4.25531901e-03 1.91489346e-02 1.06382975e-02 6.38297852e-03
      8.51063803e-03 0. 1.27659570e-02 2.12765951e-03 2.12765951e-03
      2.55319141e-02 4.25531901e-03 2.12765951e-03 8.51063803e-03
      1.06382975e-02 0. 4.25531901e-03 8.51063803e-03 8.51063803e-03
      4.25531901e-03 2.12765951e-03 6.38297852e-03 8.51063803e-03
      6.38297852e-03 2.12765951e-03 4.25531901e-03 4.25531901e-03
      1.48936165e-02 1.27659570e-02 4.25531901e-03 6.38297852e-03
      2.12765951e-03 2.12765951e-03 4.25531901e-03 1.06382975e-02
      6.38297852e-03 6.38297852e-03 2.34042555e-02 2.12765951e-03
      4.25531901e-03 6.38297852e-03 2.12765951e-03 2.12765951e-03
      4.25531901e-03 6.38297852e-03 1.06382975e-02 1.27659570e-02
      6.38297852e-03 4.25531901e-03 6.38297852e-03 6.38297852e-03
      1.06382975e-02 4.25531901e-03 4.25531901e-03 6.38297852e-03
      8.51063803e-03 0. 2.12765951e-03 2.34042555e-02 1.06382975e-02
      4.25531901e-03 2.12765951e-03 0. 1.06382975e-02 8.51063803e-03
      6.38297852e-03 4.25531901e-03 8.51063803e-03 4.25531901e-03
      8.51063803e-03 1.27659570e-02 8.51063803e-03 4.25531901e-03
      4.25531901e-03 8.51063803e-03 4.25531901e-03 4.25531901e-03
      6.38297852e-03 4.25531901e-03 2.12765951e-03 2.12765951e-03 0.
      2.12765951e-02 0. 4.25531901e-03 6.38297852e-03 0. 4.25531901e-03
      1.27659570e-02 1.06382975e-02 8.51063803e-03 0. 6.38297852e-03
      6.38297852e-03 1.06382975e-02 4.25531901e-03 8.51063803e-03
      2.12765951e-03 8.51063803e-03 2.12765951e-03 4.25531901e-03
      6.38297852e-03 2.12765951e-03 1.06382975e-02 6.38297852e-03
      4.25531901e-03 4.25531901e-03 6.38297852e-03 6.38297852e-03
      8.51063803e-03 2.55319141e-02 4.25531901e-03 8.51063803e-03
      8.51063803e-03 1.91489346e-02 2.12765951e-03 4.25531901e-03
      1.48936165e-02 6.38297852e-03 1.27659570e-02 4.25531901e-03
      1.06382975e-02 8.51063803e-03 0. 2.12765951e-03 4.25531901e-03
      1.27659570e-02 8.51063803e-03 1.06382975e-02 2.12765951e-03 0.
      4.25531901e-03 1.48936165e-02 8.51063803e-03 2.12765951e-03
      2.12765951e-03 6.38297852e-03 0. 6.38297852e-03</_>
    <_>
      0. 1.59574468e-02 0. 1.59574468e-02 0. 0. 5.31914877e-03 0.
      5.31914877e-03 0. 0. 0. 3.19148935e-02 2.12765951e-02 0. 0.
      1.06382975e-02 1.59574468e-02 0. 1.06382975e-02 0. 1.59574468e-02
      0. 5.31914877e-03 2.12765951e-02 1.06382975e-02 0. 1.06382975e-02
      1.06382975e-02 1.06382975e-02 0. 0. 1.06382975e-02 1.59574468e-02
      5.31914877e-03 1.59574468e-02 5.31914877e-03 0. 0. 1.06382975e-02
      5.31914877e-03 1.06382975e-02 0. 0. 5.31914877e-03 2.65957434e-02
      5.31914877e-03 2.12765951e-02 1.59574468e-02 5.31914877e-03 0.
      5.31914877e-03 5.31914877e-03 0. 1.06382975e-02 0. 5.31914877e-03
      5.31914877e-03 0. 5.31914877e-03 5.31914877e-03 5.31914877e-03 0.
      0. 0. 5.31914877e-03 2.12765951e-02 0. 2.65957434e-02
      5.31914877e-03 0. 0. 0. 0. 1.06382975e-02 1.59574468e-02
      1.06382975e-02 5.31914877e-03 5.31914877e-03 2.12765951e-02
      5.31914877e-03 1.59574468e-02 2.65957434e-02 5.31914877e-03 0. 0.
      5.31914877e-03 5.31914877e-03 1.59574468e-02 0. 0. 1.06382975e-02
      5.31914877e-03 2.12765951e-02 1.06382975e-02 5.31914877e-03
      5.31914877e-03 0. 0. 5.31914877e-03 1.06382975e-02 1.06382975e-02
      0. 5.31914877e-03 5.31914877e-03 5.31914877e-03 0. 5.31914877e-03
      2.65957434e-02 0. 1.59574468e-02 5.31914877e-03 0. 0.
      1.59574468e-02 5.31914877e-03 5.31914877e-03 1.06382975e-02 0.
      2.12765951e-02 5.31914877e-03 0. 0. 0. 5.31914877e-03
      1.06382975e-02 0. 5.31914877e-03 1.06382975e-02 0. 5.31914877e-03
      0. 5.31914877e-03 2.12765951e-02 5.31914877e-03 0. 2.65957434e-02
      5.31914877e-03 0. 5.31914877e-03 1.06382975e-02 0. 0. 0.
      1.59574468e-02 5.31914877e-03 0. 1.06382975e-02 0. 0.</_>
    <_>
      5.35714300e-03 1.07142860e-02 3.57142859e-03 8.92857183e-03
      5.35714300e-03 7.14285718e-03 3.57142859e-03 1.25000002e-02
      1.78571430e-03 5.35714300e-03 5.35714300e-03 1.07142860e-02
      2.14285720e-02 1.07142860e-02 8.92857183e-03 2.14285720e-02
      3.57142859e-03 8.92857183e-03 3.57142859e-03 1.25000002e-02
      1.07142860e-02 3.57142859e-03 8.92857183e-03 3.57142859e-03
      5.35714300e-03 7.14285718e-03 8.92857183e-03 1.60714295e-02
      7.14285718e-03 1.78571430e-03 8.92857183e-03 0. 5.35714300e-03
      3.57142859e-03 5.35714300e-03 5.35714300e-03 3.57142859e-03
      2.14285720e-02 3.57142859e-03 3.57142859e-03 1.07142860e-02
      1.07142860e-02 1.78571430e-03 0. 3.57142859e-03 1.25000002e-02
      5.35714300e-03 5.35714300e-03 8.92857183e-03 1.25000002e-02
      1.42857144e-02 5.35714300e-03 3.57142859e-03 7.14285718e-03
      7.14285718e-03 3.57142859e-03 3.57142859e-03 7.14285718e-03 0.
      7.14285718e-03 8.92857183e-03 3.57142859e-03 5.35714300e-03
      1.07142860e-02 7.14285718e-03 0. 8.92857183e-03 1.78571430e-03
      5.35714300e-03 1.42857144e-02 5.35714300e-03 3.57142859e-03
      1.60714295e-02 0. 7.14285718e-03 1.25000002e-02 8.92857183e-03
      1.78571430e-03 0. 7.14285718e-03 8.92857183e-03 7.14285718e-03
      1.42857144e-02 8.92857183e-03 0. 3.57142859e-03 1.78571430e-03
      1.96428578e-02 5.35714300e-03 0. 8.92857183e-03 5.35714300e-03
      5.35714300e-03 3.57142859e-03 5.35714300e-03 3.75000015e-02
      7.14285718e-03 3.57142859e-03 0. 0. 1.78571430e-03 8.92857183e-03
      1.78571430e-03 1.25000002e-02 1.25000002e-02 1.25000002e-02
      1.78571430e-03 5.35714300e-03 5.35714300e-03 1.78571430e-03
      3.57142859e-03 7.14285718e-03 0. 5.35714300e-03 3.57142859e-03
      7.14285718e-03 1.78571430e-03 1.25000002e-02 0. 1.25000002e-02
      1.25000002e-02 3.57142859e-03 1.25000002e-02 1.78571430e-03
      1.78571430e-03 1.60714295e-02 7.14285718e-03 5.35714300e-03
      1.25000002e-02 5.35714300e-03 1.42857144e-02 0. 1.07142860e-02
      3.57142859e-03 3.57142859e-03 5.35714300e-03 1.78571430e-03
      1.78571430e-03 5.35714300e-03 5.35714300e-03 7.14285718e-03
      8.92857183e-03 5.35714300e-03 3.57142859e-03 5.35714300e-03
      3.57142859e-03 0. 5.35714300e-03 0. 1.78571430e-03</_>
    <_>
      5.73065924e-03 2.86532962e-03 5.73065924e-03 1.43266479e-02 0.
      2.86532962e-03 2.86532962e-03 8.59598909e-03 5.73065924e-03
      2.86532962e-03 2.86532962e-03 3.15186270e-02 2.86532962e-03
      5.73065924e-03 3.15186270e-02 2.86532962e-03 5.44412620e-02
      5.73065924e-03 0. 5.73065924e-03 1.71919782e-02 8.59598909e-03
      5.73065924e-03 1.43266479e-02 0. 1.43266479e-02 2.86532962e-03
      5.73065924e-03 1.43266479e-02 1.14613185e-02 8.59598909e-03 0.
      5.73065924e-03 8.59598909e-03 8.59598909e-03 0. 0. 0. 0.
      2.86532962e-03 8.59598909e-03 5.73065924e-03 8.59598909e-03 0.
      1.14613185e-02 5.73065924e-03 5.73065924e-03 5.73065924e-03
      2.86532962e-03 1.14613185e-02 1.14613185e-02 5.73065924e-03
      8.59598909e-03 2.86532962e-03 0. 5.73065924e-03 5.73065924e-03
      1.14613185e-02 2.86532962e-03 0. 1.71919782e-02 0. 5.73065924e-03
      1.14613185e-02 5.73065924e-03 0. 1.14613185e-02 0. 3.15186270e-02
      2.86532962e-03 2.86532962e-03 1.14613185e-02 0. 0. 0.
      1.43266479e-02 0. 2.86532962e-03 0. 5.73065924e-03 2.86532962e-03
      5.73065924e-03 5.73065914e-02 8.59598909e-03 0. 1.14613185e-02
      8.59598909e-03 3.43839563e-02 2.86532962e-03 0. 5.73065924e-03 0.
      2.86532962e-03 2.86532962e-03 0. 5.73065924e-03 0. 0.
      2.86532962e-03 5.73065924e-03 5.73065924e-03 1.43266479e-02 0.
      2.29226369e-02 5.73065924e-03 5.73065924e-03 0. 0. 2.00573076e-02
      5.73065924e-03 2.86532962e-03 8.59598909e-03 5.73065924e-03
      5.73065924e-03 0. 0. 0. 2.86532962e-03 0. 0. 5.73065924e-03
      2.86532962e-03 2.86532962e-03 5.73065924e-03 5.73065924e-03
      2.86532962e-03 5.73065924e-03 2.86532962e-03 1.14613185e-02
      2.86532962e-03 8.59598909e-03 0. 3.15186270e-02 0. 8.59598909e-03
      2.86532962e-03 1.14613185e-02 2.86532962e-03 2.86532962e-03
      8.59598909e-03 5.73065924e-03 2.86532962e-03 2.86532962e-03
      1.14613185e-02 2.86532962e-03 0. 2.86532962e-03 1.14613185e-02 0.
      2.86532962e-03</_>
