<?xml version="1.0"?>
<opencv_storage>
<opencv_ml_svm>
  <format>3</format>
  <svmType>C_SVC</svmType>
  <kernel>
    <type>RBF</type>
    <gamma>5.0625000000000009e-01</gamma></kernel>
  <C>3.1250000000000000e+02</C>
  <term_criteria><iterations>100</iterations></term_criteria>
  <var_count>100</var_count>
  <class_count>5</class_count>
  <class_labels type_id="opencv-matrix">
    <rows>5</rows>
    <cols>1</cols>
    <dt>i</dt>
    <data>
      0 1 2 3 4</data></class_labels>
  <sv_total>160</sv_total>
  <support_vectors>
    <_>
      6.16016425e-03 1.64271053e-02 2.05338816e-03 4.10677642e-02
      1.84804928e-02 8.21355265e-03 1.64271053e-02 6.16016425e-03
      1.23203285e-02 1.02669410e-02 6.16016425e-03 2.25872695e-02
      6.16016425e-03 6.16016425e-03 1.64271053e-02 1.02669410e-02
      4.10677632e-03 6.16016425e-03 1.23203285e-02 2.05338816e-03
      2.87474338e-02 4.10677632e-03 1.02669410e-02 1.43737169e-02
      1.23203285e-02 4.10677632e-03 2.87474338e-02 0. 0. 1.23203285e-02
      8.21355265e-03 0. 8.21355265e-03 8.21355265e-03 6.16016425e-03
      6.16016425e-03 6.16016425e-03 4.10677632e-03 1.23203285e-02
      1.84804928e-02 2.05338816e-03 6.16016425e-03 0. 6.16016425e-03 0.
      2.46406570e-02 2.05338816e-03 1.02669410e-02 1.02669410e-02
      1.64271053e-02 4.10677632e-03 2.05338821e-02 1.84804928e-02
      1.84804928e-02 4.10677632e-03 0. 2.05338816e-03 4.10677632e-03
      6.16016425e-03 1.23203285e-02 1.23203285e-02 4.10677632e-03
      6.16016425e-03 6.16016425e-03 8.21355265e-03 4.10677642e-02
      6.16016425e-03 1.23203285e-02 0. 0. 4.10677632e-03 0.
      8.21355265e-03 3.49075980e-02 2.05338821e-02 1.02669410e-02
      3.90143767e-02 4.10677632e-03 4.10677632e-03 8.21355265e-03
      1.43737169e-02 1.43737169e-02 4.10677632e-03 0. 1.02669410e-02
      4.10677632e-03 8.21355265e-03 4.10677632e-03 4.10677642e-02
      2.05338816e-03 4.10677632e-03 6.16016425e-03 1.23203285e-02
      8.21355265e-03 1.64271053e-02 4.10677632e-03 2.05338816e-03
      1.23203285e-02 4.10677632e-03 6.16016425e-03</_>
    <_>
      5.22193220e-03 7.83289783e-03 7.83289783e-03 9.13838148e-02
      2.34986953e-02 2.61096610e-03 2.61096610e-03 0. 7.83289783e-03
      1.04438644e-02 2.61096610e-03 1.04438644e-02 0. 2.08877288e-02
      1.04438644e-02 0. 1.82767622e-02 2.08877288e-02 5.22193220e-03
      5.22193220e-03 1.04438644e-02 1.30548310e-02 2.61096610e-03
      2.61096610e-03 0. 0. 1.04438644e-02 2.61096610e-03 1.82767622e-02
      6.78851157e-02 1.30548310e-02 0. 2.61096610e-03 2.61096610e-03
      2.61096610e-03 2.61096610e-03 1.56657957e-02 1.04438644e-02
      4.17754576e-02 7.83289783e-03 4.17754576e-02 2.61096610e-03 0.
      5.22193220e-03 1.56657957e-02 1.30548310e-02 7.83289783e-03
      1.82767622e-02 0. 0. 1.30548310e-02 1.04438644e-02 1.30548310e-02
      1.56657957e-02 5.22193220e-03 0. 2.61096610e-03 5.22193220e-03 0.
      0. 1.56657957e-02 5.22193220e-03 7.83289783e-03 0. 2.61096610e-03
      1.04438644e-02 1.30548310e-02 7.83289783e-03 1.82767622e-02
      1.30548310e-02 7.83289783e-03 2.87206266e-02 2.34986953e-02
      2.34986953e-02 2.61096610e-03 0. 0. 2.61096610e-03 5.22193220e-03
      5.22193220e-03 2.08877288e-02 0. 5.22193220e-03 1.30548310e-02
      7.83289783e-03 5.22193220e-03 0. 2.61096610e-03 3.13315913e-02
      7.83289783e-03 7.83289783e-03 0. 0. 7.83289783e-03 2.34986953e-02
      5.22193220e-03 5.22193220e-03 5.22193220e-03 5.22193220e-03
      2.61096610e-03</_>
    <_>
      8.08625296e-03 1.34770889e-02 8.08625296e-03 1.88679248e-02
      2.69541773e-03 0. 1.07816709e-02 0. 2.69541773e-03 1.34770889e-02
      2.69541773e-03 1.88679248e-02 5.39083546e-03 0. 4.04312648e-02
      1.34770889e-02 2.15633418e-02 5.66037707e-02 1.07816709e-02
      1.61725059e-02 0. 2.69541773e-03 0. 1.34770889e-02 1.07816709e-02
      5.39083546e-03 5.39083546e-03 7.00808614e-02 1.07816709e-02
      2.42587589e-02 1.88679248e-02 5.39083546e-03 5.39083546e-03
      2.69541773e-03 0. 5.39083546e-03 2.69541773e-03 5.39083546e-03
      7.27762803e-02 8.08625296e-03 2.15633418e-02 8.08625296e-03
      8.08625296e-03 8.08625296e-03 1.34770889e-02 2.69541773e-03
      2.69541773e-03 0. 0. 5.39083546e-03 1.07816709e-02 2.69541773e-03
      0. 2.69541773e-03 2.69541773e-03 1.61725059e-02 2.69541773e-03
      2.69541773e-03 1.34770889e-02 8.08625296e-03 5.39083546e-03
      1.34770889e-02 3.23450118e-02 2.69541773e-03 0. 0. 2.15633418e-02
      3.23450118e-02 8.08625296e-03 0. 8.08625296e-03 1.61725059e-02
      2.69541778e-02 5.39083546e-03 2.69541773e-03 5.39083546e-03
      8.08625296e-03 0. 0. 1.34770889e-02 0. 5.39083546e-03
      8.08625296e-03 5.39083546e-03 1.07816709e-02 2.15633418e-02
      2.69541773e-03 2.69541773e-03 5.39083546e-03 8.08625296e-03 0.
      1.07816709e-02 0. 5.39083546e-03 0. 8.08625296e-03 5.39083546e-03
      1.07816709e-02 8.08625296e-03 1.34770889e-02</_>
    <_>
      5.94530301e-03 8.32342450e-03 1.18906060e-02 5.94530301e-03
      4.75624250e-03 1.30796665e-02 3.56718199e-03 8.32342450e-03
      2.61593331e-02 1.54577885e-02 1.66468490e-02 1.18906063e-03
      5.94530301e-03 1.42687280e-02 9.51248500e-03 0. 2.14030910e-02
      1.78359095e-02 9.51248500e-03 1.42687280e-02 2.37812125e-03
      1.78359095e-02 1.07015455e-02 2.37812125e-03 3.56718199e-03
      9.51248500e-03 1.18906060e-02 1.18906060e-02 2.37812120e-02
      2.14030910e-02 5.94530301e-03 5.94530301e-03 1.18906060e-02
      1.07015455e-02 1.54577885e-02 1.07015455e-02 1.66468490e-02
      1.54577885e-02 1.18906060e-02 4.75624250e-03 2.73483936e-02
      2.37812125e-03 8.32342450e-03 1.18906060e-02 1.07015455e-02
      2.37812125e-03 1.18906060e-02 0. 7.13436399e-03 1.07015455e-02
      1.30796665e-02 5.94530301e-03 2.37812125e-03 1.18906060e-02
      8.32342450e-03 1.18906063e-03 0. 4.75624250e-03 3.56718199e-03
      1.18906063e-03 1.90249700e-02 2.37812120e-02 7.13436399e-03
      1.30796665e-02 9.51248500e-03 1.18906063e-03 8.32342450e-03
      1.78359095e-02 2.85374559e-02 1.07015455e-02 2.37812125e-03
      8.32342450e-03 1.18906063e-03 9.51248500e-03 5.94530301e-03
      2.37812125e-03 1.30796665e-02 2.37812125e-03 4.75624250e-03
      1.30796665e-02 0. 1.78359095e-02 8.32342450e-03 8.32342450e-03
      2.14030910e-02 8.32342450e-03 2.97265165e-02 0. 8.32342450e-03
      5.94530301e-03 1.54577885e-02 2.37812125e-03 5.94530301e-03
      9.51248500e-03 3.56718199e-03 1.07015455e-02 3.80499400e-02
      1.07015455e-02 5.94530301e-03 3.56718199e-03</_>
    <_>
      1.33779263e-02 2.34113708e-02 3.34448158e-03 3.17725763e-02
      5.01672225e-03 1.17056854e-02 0. 0. 1.67224072e-02 6.68896316e-03
      5.01672225e-03 1.17056854e-02 1.00334445e-02 1.67224079e-03
      2.50836127e-02 5.01672225e-03 2.00668890e-02 6.68896316e-03
      1.00334445e-02 1.17056854e-02 8.36120360e-03 1.67224079e-03
      1.50501672e-02 1.00334445e-02 6.68896316e-03 6.68896316e-03
      8.36120360e-03 3.34448158e-03 2.00668890e-02 3.67892981e-02
      5.01672225e-03 5.01672225e-03 6.68896316e-03 5.01672225e-03
      1.50501672e-02 3.34448158e-03 3.34448158e-03 6.68896316e-03
      1.83946490e-02 1.00334445e-02 1.33779263e-02 1.33779263e-02
      1.83946490e-02 6.68896316e-03 8.36120360e-03 5.01672225e-03
      1.00334445e-02 0. 1.17056854e-02 1.17056854e-02 6.68896316e-03
      1.33779263e-02 5.01672225e-03 1.50501672e-02 8.36120360e-03
      3.34448158e-03 3.34448158e-03 8.36120360e-03 1.17056854e-02
      3.34448158e-03 6.68896316e-03 1.50501672e-02 8.36120360e-03
      3.34448158e-03 1.17056854e-02 1.00334445e-02 1.50501672e-02
      1.50501672e-02 0. 8.36120360e-03 5.01672225e-03 5.01672225e-03
      1.00334445e-02 2.67558526e-02 3.34448158e-03 3.34448158e-03
      8.36120360e-03 3.34448158e-03 1.33779263e-02 1.17056854e-02 0.
      8.36120360e-03 1.67224072e-02 1.00334445e-02 1.67224072e-02
      3.34448158e-03 1.50501672e-02 3.34448158e-03 1.67224072e-02
      8.36120360e-03 1.67224072e-02 6.68896316e-03 2.00668890e-02
      1.17056854e-02 1.67224079e-03 1.17056854e-02 1.33779263e-02
      2.50836127e-02 1.67224072e-02 1.67224079e-03</_>
    <_>
      5.70884859e-03 8.56327266e-03 7.61179812e-03 1.23691717e-02
      4.75737359e-03 7.61179812e-03 6.66032359e-03 5.70884859e-03
      6.66032359e-03 5.70884859e-03 6.66032359e-03 1.99809708e-02
      4.75737359e-03 1.52235962e-02 1.04662227e-02 1.54138908e-01
      1.52235962e-02 4.75737359e-03 6.66032359e-03 7.61179812e-03
      6.66032359e-03 9.51474719e-03 1.23691717e-02 5.70884859e-03
      3.80589906e-03 3.80589906e-03 8.56327266e-03 1.90294953e-03
      1.04662227e-02 9.51474719e-03 7.61179812e-03 6.66032359e-03
      1.23691717e-02 9.51474719e-03 1.23691717e-02 3.80589906e-03
      1.33206472e-02 7.61179812e-03 5.70884859e-03 5.70884859e-03
      1.52235962e-02 3.80589906e-03 1.61750708e-02 2.85442430e-03
      5.70884859e-03 2.37868689e-02 4.75737359e-03 2.85442430e-03
      1.90294953e-03 2.85442430e-03 7.61179812e-03 5.70884859e-03
      7.61179812e-03 2.85442430e-03 7.61179812e-03 0. 7.61179812e-03
      3.80589906e-03 7.61179812e-03 5.70884859e-03 7.61179812e-03 0.
      4.75737359e-03 1.90294953e-03 9.51474719e-03 9.51474765e-04
      6.66032359e-03 1.23691717e-02 9.51474765e-04 1.04662227e-02
      1.90294953e-03 5.70884859e-03 1.14176972e-02 1.23691717e-02
      1.90294953e-03 4.75737359e-03 8.37297812e-02 9.51474719e-03
      6.66032359e-03 7.61179812e-03 1.90294953e-03 3.80589906e-03
      8.56327266e-03 3.80589906e-03 8.46812576e-02 4.75737359e-03
      2.85442430e-03 5.70884859e-03 4.75737359e-03 8.56327266e-03
      5.70884859e-03 6.66032359e-03 6.66032359e-03 8.56327266e-03
      2.85442430e-03 5.70884859e-03 8.56327266e-03 3.80589906e-03
      7.61179812e-03 3.80589906e-03</_>
    <_>
      5.35714300e-03 1.60714295e-02 3.57142859e-03 1.25000002e-02
      2.67857146e-02 1.07142860e-02 8.92857183e-03 1.25000002e-02
      8.92857183e-03 8.92857183e-03 8.92857183e-03 8.92857183e-03
      1.25000002e-02 1.07142860e-02 5.35714300e-03 3.57142859e-03
      1.42857144e-02 3.57142859e-03 1.42857144e-02 7.14285718e-03
      1.78571430e-03 7.14285718e-03 7.14285718e-03 1.25000002e-02
      3.57142859e-03 1.78571430e-03 1.25000002e-02 1.07142860e-02
      1.78571437e-02 1.42857144e-02 3.57142859e-03 7.14285718e-03
      2.14285720e-02 7.14285718e-03 5.35714300e-03 1.07142860e-02
      2.85714287e-02 1.07142860e-02 1.96428578e-02 1.25000002e-02
      1.96428578e-02 1.42857144e-02 1.25000002e-02 5.35714300e-03
      1.07142860e-02 1.25000002e-02 1.42857144e-02 1.96428578e-02
      1.25000002e-02 1.25000002e-02 5.35714300e-03 7.14285718e-03
      7.14285718e-03 1.07142860e-02 8.92857183e-03 7.14285718e-03
      3.57142859e-03 8.92857183e-03 5.35714300e-03 5.35714300e-03
      1.78571437e-02 3.57142859e-03 3.57142859e-03 3.57142859e-03
      5.35714300e-03 7.14285718e-03 1.25000002e-02 5.35714300e-03
      1.78571430e-03 2.14285720e-02 1.78571430e-03 5.35714300e-03
      8.92857183e-03 1.42857144e-02 3.57142859e-03 5.35714300e-03
      1.78571430e-03 8.92857183e-03 8.92857183e-03 8.92857183e-03
      2.50000004e-02 8.92857183e-03 5.35714300e-03 1.60714295e-02
      1.07142860e-02 1.42857144e-02 1.78571430e-03 0. 2.67857146e-02
      3.57142859e-03 1.25000002e-02 7.14285718e-03 7.14285718e-03
      1.60714295e-02 2.32142862e-02 8.92857183e-03 1.25000002e-02
      1.25000002e-02 8.92857183e-03 5.35714300e-03</_>
    <_>
      6.13496918e-03 4.08997945e-02 1.84049085e-02 7.56646171e-02
      1.02249486e-02 1.02249486e-02 0. 6.13496918e-03 8.17995891e-03
      2.04498973e-03 2.04498973e-03 3.27198356e-02 2.04498973e-03
      2.04498973e-03 2.04498973e-02 1.84049085e-02 8.17995891e-03
      1.22699384e-02 1.02249486e-02 2.04498973e-03 1.02249486e-02
      4.08997945e-03 4.08997945e-03 4.08997945e-03 8.17995891e-03
      1.02249486e-02 2.04498973e-03 8.17995891e-03 6.13496918e-03
      4.08997945e-03 1.02249486e-02 4.08997945e-03 1.22699384e-02
      4.08997945e-03 1.43149281e-02 2.65848674e-02 6.13496918e-03
      1.43149281e-02 0. 1.22699384e-02 2.04498973e-03 1.02249486e-02
      1.43149281e-02 2.86298562e-02 4.08997945e-03 1.02249486e-02
      1.84049085e-02 8.17995891e-03 1.02249486e-02 1.22699384e-02
      4.08997945e-03 6.13496918e-03 6.13496918e-03 2.45398767e-02
      8.17995891e-03 0. 4.08997945e-03 4.08997945e-03 2.86298562e-02
      8.17995891e-03 1.22699384e-02 4.08997945e-03 4.08997945e-03 0.
      8.17995891e-03 1.02249486e-02 0. 1.84049085e-02 8.17995891e-03
      4.08997945e-03 1.22699384e-02 1.02249486e-02 1.43149281e-02
      5.31697348e-02 1.02249486e-02 8.17995891e-03 0. 1.02249486e-02
      4.08997945e-03 8.17995891e-03 6.13496918e-03 1.43149281e-02
      4.08997945e-03 6.13496918e-03 0. 2.04498973e-03 2.04498973e-03
      6.13496918e-03 1.22699384e-02 8.17995891e-03 0. 6.13496918e-03
      8.17995891e-03 1.02249486e-02 8.17995891e-03 8.17995891e-03
      6.13496918e-03 1.43149281e-02 6.13496918e-03 4.08997945e-03</_>
    <_>
      1.30378092e-02 1.04302475e-02 1.95567142e-02 1.43415900e-02
      1.43415900e-02 3.91134294e-03 1.43415900e-02 1.95567142e-02
      5.21512376e-03 1.69491526e-02 3.91134294e-03 5.21512376e-03
      1.30378094e-03 5.21512376e-03 1.43415900e-02 1.43415900e-02
      2.21642759e-02 9.12646670e-03 5.21512376e-03 7.82268587e-03
      6.51890459e-03 5.21512376e-03 9.12646670e-03 3.91134294e-03
      1.30378094e-03 1.69491526e-02 1.30378092e-02 1.30378094e-03
      6.51890459e-03 2.73793992e-02 1.30378094e-03 9.12646670e-03
      1.17340283e-02 1.56453717e-02 9.12646670e-03 9.12646670e-03
      1.56453717e-02 7.82268587e-03 3.78096476e-02 3.91134294e-03 0.
      1.43415900e-02 5.21512376e-03 1.04302475e-02 1.17340283e-02
      7.82268587e-03 1.04302475e-02 2.21642759e-02 7.82268587e-03
      6.51890459e-03 2.08604950e-02 1.82529334e-02 7.82268587e-03
      1.04302475e-02 9.12646670e-03 1.30378094e-03 0. 7.82268587e-03
      6.51890459e-03 5.21512376e-03 6.51890459e-03 2.60756188e-03
      1.43415900e-02 1.04302475e-02 9.12646670e-03 0. 1.82529334e-02
      2.60756188e-03 1.30378094e-03 2.60756188e-03 2.60756188e-03
      6.51890459e-03 2.08604950e-02 1.43415900e-02 5.21512376e-03
      2.60756188e-03 3.91134284e-02 1.43415900e-02 1.04302475e-02
      1.17340283e-02 1.30378092e-02 6.51890459e-03 2.60756188e-03
      5.21512376e-03 3.65058668e-02 2.34680567e-02 3.91134294e-03 0.
      1.30378092e-02 5.21512376e-03 9.12646670e-03 2.60756188e-03
      9.12646670e-03 1.04302475e-02 1.69491526e-02 9.12646670e-03
      5.21512376e-03 6.51890459e-03 5.21512376e-03 3.91134294e-03</_>
    <_>
      4.13223123e-03 1.23966932e-02 7.23140454e-03 1.03305781e-03
      2.06611562e-03 4.13223123e-03 8.26446246e-03 1.13636358e-02
      5.16528916e-03 6.19834661e-03 6.09504096e-02 1.44628091e-02
      1.13636358e-02 1.44628091e-02 5.16528916e-03 1.54958675e-02
      1.03305783e-02 1.44628091e-02 1.13636358e-02 1.85950398e-02
      5.16528916e-03 3.30578499e-02 8.26446246e-03 7.23140454e-03
      7.23140454e-03 2.68595032e-02 5.16528897e-02 2.06611562e-03
      6.19834661e-03 1.34297516e-02 1.03305781e-03 8.26446246e-03
      7.23140454e-03 9.29751992e-03 1.75619833e-02 7.23140454e-03
      1.13636358e-02 1.03305783e-02 2.27272715e-02 9.29751992e-03
      1.13636358e-02 3.09917331e-03 1.03305783e-02 3.09917331e-03
      5.16528916e-03 0. 1.75619833e-02 2.06611562e-03 6.19834661e-03
      2.06611562e-03 1.34297516e-02 3.09917331e-03 5.16528916e-03
      1.23966932e-02 5.16528916e-03 2.06611562e-03 4.13223123e-03
      1.23966932e-02 2.06611562e-03 3.09917331e-03 7.23140454e-03
      1.13636358e-02 1.23966932e-02 3.09917331e-03 4.13223123e-03
      3.09917331e-03 6.19834661e-03 9.29751992e-03 3.09917331e-03
      1.96280982e-02 0. 1.13636358e-02 1.44628091e-02 3.09917331e-03
      4.13223123e-03 6.19834661e-03 5.16528916e-03 1.65289249e-02
      4.13223123e-03 2.16942132e-02 4.13223123e-03 4.13223123e-03
      2.06611562e-03 3.09917331e-03 1.54958675e-02 2.58264448e-02
      1.13636358e-02 1.03305781e-03 1.03305783e-02 1.13636358e-02
      1.85950398e-02 3.09917331e-03 6.19834661e-03 2.16942132e-02
      1.23966932e-02 1.34297516e-02 1.23966932e-02 1.75619833e-02
      5.16528916e-03 6.19834661e-03</_>
    <_>
      5.61797759e-03 9.36329551e-03 2.80898884e-02 1.68539323e-02
      2.62172297e-02 3.74531839e-03 1.49812736e-02 7.49063678e-03
      7.49063678e-03 7.49063678e-03 1.49812736e-02 5.43071181e-02
      1.87265920e-03 9.36329551e-03 2.80898884e-02 3.74531820e-02
      1.31086148e-02 3.18352059e-02 5.61797759e-03 1.87265920e-03 0.
      1.31086148e-02 0. 1.87265920e-03 3.74531839e-03 5.61797759e-03
      1.31086148e-02 5.61797768e-02 7.49063678e-03 5.61797759e-03
      5.61797759e-03 7.49063678e-03 1.87265920e-03 3.74531839e-03
      5.61797759e-03 1.87265920e-03 3.74531839e-03 3.74531839e-03
      9.36329551e-03 2.80898884e-02 3.74531839e-03 7.49063678e-03 0.
      1.87265920e-03 1.31086148e-02 3.74531839e-03 7.49063678e-03
      1.87265920e-03 3.74531839e-03 3.74531839e-03 1.68539323e-02
      1.87265920e-03 9.36329551e-03 5.61797759e-03 3.74531839e-03
      1.87265920e-03 0. 0. 5.61797759e-03 0. 1.87265920e-03
      3.55805233e-02 2.24719103e-02 9.36329551e-03 1.87265920e-03
      5.61797759e-03 7.49063678e-03 2.43445691e-02 3.18352059e-02
      7.49063678e-03 0. 1.68539323e-02 1.49812736e-02 3.74531839e-03
      3.74531839e-03 1.87265920e-03 3.55805233e-02 1.87265910e-02
      5.61797759e-03 5.61797759e-03 3.74531839e-03 5.61797759e-03
      3.74531839e-03 1.49812736e-02 1.49812736e-02 1.12359552e-02
      1.87265920e-03 1.87265920e-03 1.87265920e-03 1.87265920e-03 0. 0.
      0. 1.12359552e-02 2.24719103e-02 1.68539323e-02 7.49063678e-03
      2.43445691e-02 0. 5.61797759e-03</_>
    <_>
      3.32225906e-03 6.64451811e-03 9.96677764e-03 2.99003311e-02
      2.32558139e-02 1.32890362e-02 3.32225906e-03 2.99003311e-02
      1.66112948e-02 3.32225906e-03 0. 0. 0. 3.32225906e-03
      1.66112948e-02 1.66112948e-02 0. 6.64451811e-03 1.66112948e-02
      6.64451811e-03 3.32225906e-03 0. 2.65780725e-02 3.32225906e-03 0.
      6.64451811e-03 0. 0. 1.66112948e-02 6.64451811e-03 0.
      6.64451811e-03 1.32890362e-02 2.32558139e-02 9.96677764e-03
      3.32225906e-03 1.99335553e-02 6.64451811e-03 6.64451811e-03 0.
      9.96677764e-03 0. 2.32558139e-02 3.32225906e-03 9.96677764e-03
      9.96677764e-03 0. 3.32225906e-03 0. 0. 6.64451811e-03
      1.32890362e-02 6.64451811e-03 2.32558139e-02 3.32225906e-03 0.
      9.96677764e-03 6.64451811e-03 3.32225906e-03 0. 1.32890362e-02
      3.98671106e-02 9.96677764e-03 9.96677764e-03 2.99003311e-02
      1.99335553e-02 6.64451811e-03 1.66112948e-02 1.99335553e-02
      2.99003311e-02 0. 1.32890362e-02 3.32225906e-03 2.32558139e-02
      1.32890362e-02 3.32225906e-03 3.32225906e-03 9.96677764e-03
      9.96677764e-03 9.96677764e-03 6.64451811e-03 3.32225906e-03
      6.64451811e-03 9.96677764e-03 1.99335553e-02 1.66112948e-02
      3.32225906e-03 9.96677764e-03 2.32558139e-02 2.32558139e-02
      9.96677764e-03 0. 9.96677764e-03 9.96677764e-03 1.32890362e-02
      2.99003311e-02 9.96677764e-03 3.32225906e-03 9.96677764e-03
      3.32225906e-03</_>
    <_>
      8.09716620e-03 1.01214573e-02 1.01214573e-02 3.64372469e-02
      1.82186235e-02 2.02429155e-03 6.07287465e-03 1.41700413e-02
      1.82186235e-02 4.04858310e-03 1.01214573e-02 2.22672075e-02
      1.01214573e-02 2.02429146e-02 1.41700413e-02 2.02429146e-02
      1.21457493e-02 1.21457493e-02 1.41700413e-02 1.21457493e-02
      6.07287465e-03 8.09716620e-03 1.61943324e-02 8.09716620e-03
      6.07287465e-03 6.07287465e-03 4.04858310e-03 0. 1.41700413e-02
      2.42914986e-02 8.09716620e-03 6.07287465e-03 2.22672075e-02
      1.82186235e-02 8.09716620e-03 8.09716620e-03 1.01214573e-02
      8.09716620e-03 8.09716620e-03 4.04858310e-03 1.41700413e-02
      4.04858310e-03 8.09716620e-03 6.07287465e-03 8.09716620e-03
      2.02429146e-02 6.07287465e-03 1.21457493e-02 2.02429155e-03 0.
      1.41700413e-02 2.63157897e-02 1.21457493e-02 4.04858310e-03
      6.07287465e-03 0. 4.04858310e-03 1.82186235e-02 4.04858310e-03 0.
      1.01214573e-02 0. 6.07287465e-03 0. 1.21457493e-02 0.
      6.07287465e-03 6.07287465e-03 0. 1.41700413e-02 0. 8.09716620e-03
      2.02429146e-02 1.41700413e-02 4.04858310e-03 4.04858310e-03
      6.07287465e-03 8.09716620e-03 2.02429146e-02 1.82186235e-02
      1.61943324e-02 0. 1.01214573e-02 1.01214573e-02 2.22672075e-02
      1.41700413e-02 4.04858310e-03 6.07287465e-03 4.04858310e-03 0.
      2.22672075e-02 0. 2.83400826e-02 1.61943324e-02 8.09716620e-03
      1.41700413e-02 4.04858310e-03 1.21457493e-02 6.07287465e-03
      4.04858310e-03</_>
    <_>
      6.60066027e-03 0. 6.60066027e-03 4.29042913e-02 2.31023114e-02
      6.60066027e-03 9.90099087e-03 1.98019817e-02 1.81518160e-02
      2.14521457e-02 2.97029708e-02 3.30033014e-03 4.95049544e-03
      9.90099087e-03 4.95049544e-03 6.60066027e-03 3.30033014e-03
      6.60066027e-03 3.30033014e-03 1.15511557e-02 0. 3.13531347e-02
      8.25082511e-03 6.60066027e-03 6.60066027e-03 6.60066027e-03
      1.32013205e-02 8.25082511e-03 1.48514854e-02 1.81518160e-02 0.
      6.60066027e-03 1.81518160e-02 1.15511557e-02 1.98019817e-02
      6.60066027e-03 2.31023114e-02 6.60066027e-03 2.31023114e-02
      8.25082511e-03 8.25082511e-03 8.25082511e-03 3.30033014e-03
      4.95049544e-03 1.65016502e-02 4.95049544e-03 9.90099087e-03
      2.31023114e-02 9.90099087e-03 6.60066027e-03 3.30033014e-03
      8.25082511e-03 1.65016507e-03 9.90099087e-03 1.15511557e-02 0. 0.
      9.90099087e-03 1.65016507e-03 3.30033014e-03 4.95049544e-03
      1.15511557e-02 1.48514854e-02 9.90099087e-03 1.15511557e-02
      1.65016507e-03 1.65016507e-03 6.60066027e-03 8.25082511e-03
      3.96039635e-02 0. 2.31023114e-02 3.30033014e-03 1.65016502e-02
      8.25082511e-03 0. 1.65016507e-03 9.90099087e-03 4.95049544e-03
      6.60066027e-03 1.48514854e-02 6.60066027e-03 3.30033014e-03
      3.30033004e-02 1.65016507e-03 2.31023114e-02 1.65016507e-03 0.
      9.90099087e-03 6.60066027e-03 1.98019817e-02 4.95049544e-03
      4.95049544e-03 4.95049544e-03 1.81518160e-02 1.48514854e-02
      6.60066027e-03 1.15511557e-02 3.30033014e-03 3.30033014e-03</_>
    <_>
      1.47058833e-02 4.90196096e-03 1.47058833e-02 2.20588241e-02 0.
      2.45098048e-03 2.45098048e-03 7.35294167e-03 4.90196096e-03
      2.45098048e-03 3.92156877e-02 2.45098048e-03 0. 4.90196096e-03
      4.90196096e-03 0. 4.90196096e-03 1.47058833e-02 0. 7.35294167e-03
      2.45098048e-03 2.94117667e-02 9.80392192e-03 7.35294167e-03
      2.45098048e-03 2.20588241e-02 1.96078438e-02 4.16666679e-02
      9.80392192e-03 7.35294167e-03 0. 9.80392192e-03 9.80392192e-03
      7.35294167e-03 9.80392192e-03 2.45098048e-03 1.71568636e-02
      2.45098048e-03 7.35294167e-03 7.35294167e-03 9.80392192e-03
      9.80392192e-03 7.35294167e-03 1.22549022e-02 3.67647074e-02
      4.90196096e-03 7.35294167e-03 1.71568636e-02 0. 4.90196096e-03
      1.22549022e-02 2.45098048e-03 0. 7.35294167e-03 4.90196096e-03
      4.90196096e-03 2.45098048e-03 0. 0. 4.90196096e-03 4.90196096e-03
      1.47058833e-02 2.94117667e-02 2.45098048e-03 1.47058833e-02
      4.90196096e-03 7.35294167e-03 1.47058833e-02 1.96078438e-02
      1.22549022e-02 0. 1.47058833e-02 1.22549022e-02 6.12745136e-02 0.
      2.45098048e-03 1.96078438e-02 9.80392192e-03 1.22549022e-02
      9.80392192e-03 1.47058833e-02 4.90196096e-03 1.22549022e-02
      2.45098048e-03 2.20588241e-02 1.71568636e-02 4.90196096e-03
      2.45098048e-03 3.18627469e-02 7.35294167e-03 9.80392192e-03 0.
      1.22549022e-02 1.47058833e-02 0. 9.80392192e-03 1.71568636e-02
      4.90196096e-03 7.35294167e-03 7.35294167e-03</_>
    <_>
      2.74725282e-03 1.78571437e-02 2.19780225e-02 1.09890113e-02
      1.92307699e-02 1.37362638e-02 1.37362641e-03 2.06043962e-02
      8.24175868e-03 3.02197803e-02 2.33516488e-02 0. 4.12087934e-03
      1.78571437e-02 5.49450563e-03 0. 6.86813192e-03 8.24175868e-03
      9.61538497e-03 8.24175868e-03 1.37362641e-03 1.09890113e-02
      1.51098901e-02 1.37362641e-03 1.37362641e-03 1.51098901e-02
      2.06043962e-02 4.12087934e-03 9.61538497e-03 2.74725277e-02
      2.74725282e-03 6.86813192e-03 1.09890113e-02 1.64835174e-02
      2.19780225e-02 1.09890113e-02 2.47252751e-02 1.64835174e-02
      3.02197803e-02 4.12087934e-03 3.84615399e-02 5.49450563e-03
      6.86813192e-03 8.24175868e-03 1.64835174e-02 4.12087934e-03
      6.86813192e-03 1.23626376e-02 4.12087934e-03 8.24175868e-03
      2.06043962e-02 4.12087934e-03 1.37362641e-03 4.12087934e-03
      2.06043962e-02 1.37362641e-03 1.37362641e-03 4.12087934e-03 0.
      4.12087934e-03 1.09890113e-02 1.37362641e-03 5.49450563e-03
      2.74725282e-03 1.64835174e-02 4.12087934e-03 9.61538497e-03
      1.23626376e-02 2.74725282e-03 1.78571437e-02 1.37362641e-03
      1.09890113e-02 8.24175868e-03 1.09890113e-02 2.74725282e-03
      1.37362641e-03 1.09890113e-02 8.24175868e-03 2.06043962e-02
      1.23626376e-02 9.61538497e-03 1.09890113e-02 1.37362641e-03
      1.78571437e-02 5.49450563e-03 2.33516488e-02 2.74725282e-03
      1.37362641e-03 1.51098901e-02 2.74725282e-03 2.88461540e-02
      2.74725282e-03 6.86813192e-03 1.37362641e-03 1.78571437e-02
      6.86813192e-03 6.86813192e-03 2.74725282e-03 4.12087934e-03
      2.74725282e-03</_>
    <_>
      8.28157365e-03 4.14078683e-03 1.03519671e-02 1.03519671e-02
      1.44927539e-02 8.28157365e-03 2.07039341e-03 4.14078683e-03
      8.28157365e-03 1.44927539e-02 0. 2.07039341e-03 1.03519671e-02
      2.89855078e-02 1.24223605e-02 0. 2.69151144e-02 2.27743275e-02
      8.28157365e-03 8.28157365e-03 6.21118024e-03 8.28157365e-03
      1.65631473e-02 2.07039341e-03 6.21118024e-03 8.28157365e-03
      2.07039341e-03 4.14078683e-03 6.21118024e-03 3.72670814e-02
      4.14078683e-03 8.28157365e-03 2.89855078e-02 1.24223605e-02
      2.89855078e-02 4.14078683e-03 8.28157365e-03 0. 3.72670814e-02 0.
      3.10559012e-02 1.24223605e-02 1.24223605e-02 2.07039341e-03
      4.14078683e-03 1.24223605e-02 2.07039341e-03 0. 0. 4.14078683e-03
      4.14078683e-03 4.14078683e-03 4.14078683e-03 4.14078683e-03
      1.03519671e-02 8.28157365e-03 0. 1.03519671e-02 4.14078683e-03
      2.07039341e-03 6.21118024e-03 6.21118024e-03 1.86335407e-02
      1.44927539e-02 6.21118024e-03 0. 2.27743275e-02 6.21118024e-03
      2.27743275e-02 1.86335407e-02 6.21118024e-03 1.03519671e-02
      1.86335407e-02 2.27743275e-02 4.14078683e-03 2.07039341e-03
      4.34782617e-02 2.07039341e-03 6.21118024e-03 1.03519671e-02 0.
      8.28157365e-03 6.21118024e-03 2.48447210e-02 2.69151144e-02
      6.21118024e-03 1.03519671e-02 0. 4.14078683e-03 1.03519671e-02
      2.07039341e-02 2.07039341e-03 1.03519671e-02 2.07039341e-03
      2.27743275e-02 1.44927539e-02 6.21118024e-03 0. 6.21118024e-03
      2.07039341e-03</_>
    <_>
      4.87804879e-03 1.21951215e-02 4.87804879e-03 2.92682927e-02
      2.43902439e-03 7.31707318e-03 4.87804879e-03 2.19512191e-02
      1.46341464e-02 9.75609757e-03 1.46341464e-02 9.75609757e-03
      7.31707318e-03 9.75609757e-03 4.87804879e-03 9.75609757e-03
      1.46341464e-02 3.41463424e-02 9.75609757e-03 4.87804879e-03
      7.31707318e-03 2.43902430e-02 1.95121951e-02 0. 2.43902439e-03
      2.92682927e-02 2.19512191e-02 0. 1.21951215e-02 1.46341464e-02
      4.87804879e-03 4.87804879e-03 1.46341464e-02 1.46341464e-02
      2.68292688e-02 2.43902439e-03 1.95121951e-02 9.75609757e-03
      9.75609757e-03 9.75609757e-03 1.21951215e-02 4.87804879e-03
      1.46341464e-02 0. 1.21951215e-02 2.43902439e-03 9.75609757e-03
      1.21951215e-02 0. 7.31707318e-03 1.70731712e-02 4.87804879e-03
      4.87804879e-03 2.43902439e-03 7.31707318e-03 9.75609757e-03 0.
      7.31707318e-03 4.87804879e-03 2.43902439e-03 3.17073166e-02
      4.87804879e-03 4.87804879e-03 0. 2.43902439e-03 0. 4.87804879e-03
      3.65853645e-02 2.43902439e-03 1.95121951e-02 1.21951215e-02
      9.75609757e-03 7.31707318e-03 2.43902439e-03 2.43902439e-03
      1.46341464e-02 4.87804879e-03 4.87804879e-03 2.43902439e-03
      9.75609757e-03 2.19512191e-02 4.87804879e-03 2.43902439e-03
      4.87804879e-03 3.17073166e-02 1.46341464e-02 7.31707318e-03
      2.43902439e-03 7.31707318e-03 2.19512191e-02 1.95121951e-02
      2.43902439e-03 2.43902439e-03 0. 4.87804879e-03 1.70731712e-02
      1.95121951e-02 7.31707318e-03 4.87804879e-03 7.31707318e-03</_>
    <_>
      9.90098994e-03 9.90098994e-03 1.48514844e-02 6.43564314e-02 0.
      1.98019799e-02 0. 4.95049497e-03 4.95049497e-03 1.48514844e-02
      9.90098994e-03 0. 4.95049497e-03 1.48514844e-02 4.95049497e-03 0.
      0. 1.98019799e-02 1.98019799e-02 9.90098994e-03 0. 4.95049497e-03
      0. 4.95049497e-03 9.90098994e-03 1.48514844e-02 9.90098994e-03 0.
      0. 4.95049497e-03 0. 0. 4.45544533e-02 4.95049497e-03
      9.90098994e-03 1.48514844e-02 4.45544533e-02 9.90098994e-03
      1.48514844e-02 4.95049497e-03 4.95049497e-03 0. 1.48514844e-02 0.
      9.90098994e-03 4.95049497e-03 0. 0. 9.90098994e-03 0.
      9.90098994e-03 9.90098994e-03 1.48514844e-02 2.47524753e-02
      2.47524753e-02 0. 0. 9.90098994e-03 0. 9.90098994e-03
      1.48514844e-02 4.95049497e-03 4.95049497e-03 9.90098994e-03
      2.97029689e-02 4.95049497e-03 0. 2.97029689e-02 4.95049497e-03 0.
      4.95049497e-03 0. 0. 5.94059378e-02 4.95049497e-03 4.95049497e-03
      0. 0. 9.90098994e-03 1.98019799e-02 0. 9.90098994e-03
      1.48514844e-02 4.95049497e-03 0. 1.48514844e-02 4.95049497e-03 0.
      9.90098994e-03 9.90098994e-03 2.97029689e-02 4.95049497e-03
      2.97029689e-02 9.90098994e-03 4.95049497e-03 2.47524753e-02
      1.48514844e-02 9.90098994e-03 9.90098994e-03 9.90098994e-03</_>
    <_>
      1.36054419e-02 6.80272095e-03 0. 0. 0. 0. 0. 1.36054419e-02
      2.72108838e-02 5.44217676e-02 0. 0. 0. 1.36054419e-02 0. 0.
      6.80272095e-03 1.36054419e-02 3.40136066e-02 0. 6.80272095e-03
      6.80272095e-03 2.72108838e-02 0. 0. 2.04081628e-02 6.80272095e-03
      0. 1.36054419e-02 6.80272132e-02 0. 0. 4.76190448e-02
      6.80272095e-03 1.36054419e-02 6.80272095e-03 6.12244904e-02
      2.72108838e-02 3.40136066e-02 6.80272095e-03 4.08163257e-02 0. 0.
      0. 6.80272095e-03 0. 0. 0. 0. 1.36054419e-02 2.04081628e-02
      6.12244904e-02 0. 0. 3.40136066e-02 6.80272095e-03 0.
      6.80272095e-03 0. 6.80272095e-03 2.04081628e-02 0. 1.36054419e-02
      1.36054419e-02 1.36054419e-02 0. 0. 6.80272095e-03 0.
      1.36054419e-02 6.80272095e-03 0. 6.80272095e-03 0. 6.80272095e-03
      0. 0. 0. 0. 6.80272095e-03 0. 1.36054419e-02 6.80272095e-03
      6.80272095e-03 0. 6.80272095e-03 0. 0. 1.36054419e-02
      6.80272095e-03 4.08163257e-02 0. 6.80272095e-03 1.36054419e-02
      6.80272095e-03 2.04081628e-02 6.80272095e-03 0. 6.80272095e-03 0.</_>
    <_>
      4.14937781e-03 0. 4.14937781e-03 1.65975112e-02 0. 2.90456451e-02
      1.65975112e-02 0. 0. 0. 4.14937781e-03 2.90456451e-02
      4.14937781e-03 0. 4.14937781e-03 4.97925356e-02 4.14937781e-03
      4.14937781e-03 0. 0. 4.14937781e-03 4.14937781e-03 0.
      8.29875562e-03 1.65975112e-02 0. 3.31950225e-02 0. 4.14937781e-03
      0. 1.65975112e-02 1.65975112e-02 0. 0. 0. 8.29875562e-03
      4.14937781e-03 2.90456451e-02 0. 1.24481339e-02 0. 1.24481339e-02
      4.14937781e-03 0. 4.14937781e-03 8.29875562e-03 3.73443998e-02 0.
      2.48962678e-02 1.24481339e-02 1.24481339e-02 0. 2.90456451e-02 0.
      0. 4.14937781e-03 2.07468886e-02 8.29875562e-03 0. 8.29875562e-03
      1.24481339e-02 2.07468886e-02 4.14937781e-03 4.14937781e-03 0.
      4.97925356e-02 8.29875562e-03 8.29875562e-03 8.29875562e-03
      4.14937781e-03 4.14937781e-03 1.24481339e-02 8.29875562e-03
      3.31950225e-02 1.65975112e-02 1.24481339e-02 8.29875562e-03
      3.31950225e-02 4.14937781e-03 4.14937781e-03 0. 4.14937772e-02 0.
      4.14937781e-03 0. 4.14937781e-03 0. 2.48962678e-02 8.29875562e-03
      2.48962678e-02 0. 1.65975112e-02 8.29875562e-03 2.48962678e-02
      8.29875562e-03 4.14937781e-03 8.29875562e-03 4.56431545e-02 0.
      4.14937781e-03</_>
    <_>
      0. 4.95049506e-02 9.90098994e-03 1.48514844e-02 0. 9.90098994e-03
      9.90098994e-03 9.90098994e-03 1.48514844e-02 4.95049497e-03
      9.90098994e-03 9.90098994e-03 1.98019799e-02 9.90098994e-03
      4.95049497e-03 4.95049497e-03 0. 1.98019799e-02 0. 4.95049497e-03
      1.48514844e-02 4.95049497e-03 0. 3.96039598e-02 1.48514844e-02
      4.95049497e-03 0. 4.95049497e-03 0. 0. 4.95049497e-03
      4.95049497e-03 0. 4.95049497e-03 1.98019799e-02 4.95049497e-03
      4.95049497e-03 4.95049497e-03 9.90098994e-03 4.95049497e-03 0.
      1.48514844e-02 9.90098994e-03 9.90098994e-03 9.90098994e-03
      1.48514844e-02 1.98019799e-02 4.95049497e-03 2.97029689e-02
      9.90098994e-03 4.95049497e-03 1.98019799e-02 0. 0. 1.48514844e-02
      4.95049497e-03 9.90098994e-03 1.48514844e-02 0. 9.90098994e-03
      2.97029689e-02 2.97029689e-02 9.90098994e-03 4.95049497e-03
      9.90098994e-03 3.46534662e-02 0. 4.95049497e-03 9.90098994e-03
      2.47524753e-02 2.47524753e-02 0. 4.95049497e-03 9.90098994e-03
      4.95049497e-03 9.90098994e-03 0. 4.95049497e-03 9.90098994e-03
      1.98019799e-02 9.90098994e-03 4.95049497e-03 4.95049497e-03 0. 0.
      9.90098994e-03 4.95049497e-03 9.90098994e-03 4.45544533e-02
      2.97029689e-02 4.95049497e-03 0. 9.90098994e-03 0. 4.95049497e-03
      2.47524753e-02 4.95049497e-03 9.90098994e-03 0. 1.48514844e-02</_>
    <_>
      1.11524165e-02 1.48698883e-02 0. 1.48698883e-02 0. 2.23048329e-02
      1.85873602e-02 1.11524165e-02 1.11524165e-02 2.97397766e-02 0.
      1.11524165e-02 3.71747208e-03 7.43494416e-03 1.48698883e-02
      7.43494416e-03 0. 3.71747208e-03 2.23048329e-02 7.43494416e-03
      3.71747208e-03 7.43494416e-03 7.43494416e-03 2.97397766e-02
      7.43494416e-03 1.48698883e-02 1.85873602e-02 3.71747208e-03
      1.48698883e-02 1.11524165e-02 7.43494416e-03 1.11524165e-02
      3.71747208e-03 1.85873602e-02 7.43494416e-03 0. 1.11524165e-02
      1.11524165e-02 2.23048329e-02 1.11524165e-02 3.71747208e-03
      1.11524165e-02 2.60223038e-02 0. 7.43494416e-03 0. 1.85873602e-02
      0. 1.11524165e-02 3.71747208e-03 0. 7.43494416e-03 7.43494416e-03
      1.48698883e-02 7.43494416e-03 3.71747208e-03 7.43494416e-03
      5.94795533e-02 0. 1.48698883e-02 3.71747208e-03 0. 1.48698883e-02
      1.85873602e-02 7.43494416e-03 7.43494416e-03 3.71747208e-03
      1.11524165e-02 7.43494416e-03 1.48698883e-02 3.71747208e-03
      1.48698883e-02 1.85873602e-02 2.23048329e-02 1.85873602e-02
      1.48698883e-02 0. 1.11524165e-02 1.11524165e-02 7.43494416e-03 0.
      3.71747208e-03 3.71747208e-03 3.71747208e-03 0. 1.11524165e-02
      7.43494416e-03 1.11524165e-02 1.11524165e-02 2.23048329e-02
      3.71747208e-03 7.43494416e-03 7.43494416e-03 7.43494416e-03
      3.71747208e-03 3.71747208e-03 1.85873602e-02 0. 0. 2.23048329e-02</_>
    <_>
      0. 0. 5.31914877e-03 4.25531901e-02 5.31914877e-03 3.19148935e-02
      0. 1.06382975e-02 2.12765951e-02 1.06382975e-02 0. 5.31914877e-03
      2.12765951e-02 5.31914877e-03 2.12765951e-02 5.31914877e-03 0.
      5.31914877e-03 5.31914877e-03 2.12765951e-02 0. 5.31914877e-03
      1.59574468e-02 2.12765951e-02 5.31914877e-03 1.06382975e-02
      1.06382975e-02 0. 2.65957434e-02 1.06382975e-02 2.12765951e-02
      1.06382975e-02 1.06382975e-02 5.31914877e-03 1.59574468e-02 0.
      5.31914877e-03 5.31914877e-03 5.31914877e-03 1.06382975e-02 0.
      2.12765951e-02 0. 1.59574468e-02 1.59574468e-02 5.31914877e-03 0.
      0. 1.06382975e-02 5.31914877e-03 0. 5.31914877e-03 1.06382975e-02
      0. 5.31914877e-03 2.65957434e-02 0. 2.65957434e-02 1.06382975e-02
      3.19148935e-02 1.06382975e-02 0. 0. 1.59574468e-02 5.31914877e-03
      1.59574468e-02 0. 5.31914877e-03 0. 5.31914877e-03 2.65957434e-02
      0. 2.12765951e-02 2.65957434e-02 0. 0. 2.12765951e-02
      2.12765951e-02 0. 1.06382975e-02 0. 3.72340418e-02 5.31914877e-03
      5.31914877e-03 0. 0. 0. 1.06382975e-02 1.06382975e-02
      5.31914877e-03 5.31914877e-03 1.06382975e-02 2.65957434e-02 0.
      1.06382975e-02 2.12765951e-02 1.59574468e-02 5.31914877e-03
      1.06382975e-02 2.65957434e-02</_>
    <_>
      0. 4.51977402e-02 3.95480245e-02 2.25988701e-02 0. 0.
      5.64971752e-03 3.95480245e-02 5.64971752e-03 5.64971752e-03
      5.64971752e-03 0. 1.12994350e-02 5.64971752e-03 5.64971752e-03 0.
      0. 0. 1.12994350e-02 5.64971752e-03 0. 0. 3.38983051e-02
      1.69491526e-02 3.38983051e-02 5.64971752e-03 5.64971752e-03 0. 0.
      2.82485876e-02 1.12994350e-02 0. 1.69491526e-02 2.82485876e-02
      2.82485876e-02 5.64971752e-03 0. 5.64971752e-03 3.38983051e-02
      5.64971752e-03 1.12994350e-02 0. 1.69491526e-02 0. 2.82485876e-02
      0. 5.64971752e-03 0. 5.64971752e-03 1.12994350e-02 3.38983051e-02
      1.69491526e-02 0. 5.64971752e-03 1.12994350e-02 5.64971752e-03 0.
      1.12994350e-02 0. 0. 5.64971752e-03 0. 1.69491526e-02
      5.64971752e-03 5.64971752e-03 5.64971752e-03 1.69491526e-02
      5.64971752e-03 0. 5.64971752e-03 0. 5.64971752e-03 5.64971752e-03
      6.21468946e-02 5.64971752e-03 5.64971752e-03 5.64971752e-03 0.
      5.64971752e-03 1.69491526e-02 0. 2.82485876e-02 1.69491526e-02
      5.64971752e-03 1.69491526e-02 5.64971752e-03 1.12994350e-02 0.
      1.69491526e-02 5.64971752e-03 2.25988701e-02 0. 3.38983051e-02 0.
      0. 1.12994350e-02 0. 0. 1.12994350e-02 0.</_>
    <_>
      1.34770889e-02 1.07816709e-02 2.42587589e-02 5.92991896e-02
      2.69541773e-03 8.08625296e-03 0. 1.07816709e-02 1.61725059e-02
      5.39083546e-03 5.39083546e-03 5.39083546e-03 8.08625296e-03
      1.61725059e-02 1.61725059e-02 2.69541773e-03 3.50404307e-02
      5.39083546e-03 8.08625296e-03 8.08625296e-03 1.07816709e-02
      1.34770889e-02 2.15633418e-02 2.15633418e-02 8.08625296e-03
      1.07816709e-02 1.07816709e-02 0. 1.88679248e-02 1.07816709e-02
      1.34770889e-02 1.07816709e-02 2.96495948e-02 1.07816709e-02
      1.07816709e-02 2.69541773e-03 1.07816709e-02 5.39083546e-03
      8.08625296e-03 5.39083546e-03 1.07816709e-02 5.39083546e-03
      1.34770889e-02 1.88679248e-02 1.07816709e-02 0. 5.39083546e-03
      2.69541773e-03 2.69541773e-03 5.39083546e-03 1.61725059e-02
      8.08625296e-03 2.69541773e-03 5.39083546e-03 1.07816709e-02
      2.69541773e-03 2.69541773e-03 8.08625296e-03 4.58221026e-02
      5.39083546e-03 1.07816709e-02 0. 2.69541773e-03 0. 2.69541773e-03
      2.69541773e-03 8.08625296e-03 5.39083546e-03 2.69541773e-03
      8.08625296e-03 5.39083546e-03 2.69541773e-03 5.39083546e-03
      4.85175177e-02 2.69541773e-03 0. 5.39083546e-03 2.69541773e-03
      2.42587589e-02 5.39083546e-03 0. 2.69541773e-03 0. 2.69541773e-03
      5.39083546e-03 5.39083546e-03 2.69541773e-03 2.69541773e-03
      1.61725059e-02 1.07816709e-02 8.08625296e-03 1.34770889e-02
      4.85175177e-02 2.69541778e-02 0. 1.07816709e-02 1.07816709e-02
      2.69541773e-03 5.39083546e-03 0.</_>
    <_>
      3.30578499e-02 0. 0. 1.07438013e-01 0. 1.65289249e-02
      8.26446246e-03 0. 0. 8.26446246e-03 0. 4.95867729e-02
      8.26446246e-03 0. 8.26446246e-03 1.65289249e-02 0. 0. 0.
      8.26446246e-03 7.43801594e-02 0. 0. 2.47933865e-02 0. 0. 0. 0. 0.
      8.26446246e-03 7.43801594e-02 0. 1.65289249e-02 0. 8.26446246e-03
      0. 8.26446246e-03 0. 2.47933865e-02 1.65289249e-02 0.
      8.26446246e-03 0. 0. 0. 0. 0. 0. 8.26446246e-03 0. 0.
      8.26446246e-03 1.65289249e-02 1.65289249e-02 0. 1.65289249e-02
      8.26446246e-03 3.30578499e-02 0. 1.65289249e-02 0. 0. 0. 0.
      8.26446246e-03 1.65289249e-02 8.26446246e-03 0. 0. 0.
      8.26446246e-03 0. 1.65289249e-02 1.32231399e-01 0. 8.26446246e-03
      0. 0. 0. 8.26446246e-03 0. 8.26446246e-03 0. 0. 0. 0.
      8.26446246e-03 8.26446246e-03 2.47933865e-02 0. 0. 4.13223132e-02
      1.65289249e-02 0. 0. 0. 8.26446246e-03 8.26446246e-03 0.
      1.65289249e-02</_>
    <_>
      0. 0. 0. 9.16666687e-02 0. 3.33333351e-02 0. 1.66666675e-02
      1.66666675e-02 0. 0. 0. 8.33333377e-03 0. 0. 0. 0. 8.33333377e-03
      0. 8.33333377e-03 2.50000022e-02 0. 8.33333377e-03 8.33333377e-03
      0. 0. 0. 0. 8.33333377e-03 3.33333351e-02 1.66666675e-02 0.
      1.66666675e-02 1.66666675e-02 0. 0. 1.66666675e-02 2.50000022e-02
      0. 0. 0. 2.50000022e-02 2.50000022e-02 0. 0. 0. 2.50000022e-02 0.
      0. 5.00000045e-02 0. 0. 8.33333377e-03 0. 2.50000022e-02 0.
      8.33333377e-03 3.33333351e-02 1.66666675e-02 0. 8.33333377e-03 0.
      0. 1.66666675e-02 1.66666675e-02 0. 0. 0. 0. 8.33333377e-03 0.
      1.66666675e-02 0. 1.16666675e-01 0. 3.33333351e-02 0. 0.
      8.33333377e-03 0. 0. 2.50000022e-02 0. 0. 0. 0. 8.33333377e-03
      8.33333377e-03 8.33333377e-03 8.33333377e-03 1.66666675e-02
      3.33333351e-02 5.00000045e-02 0. 0. 8.33333377e-03 0.
      8.33333377e-03 0. 2.50000022e-02</_>
    <_>
      0. 0. 9.90098994e-03 3.96039598e-02 9.90098994e-03 5.94059378e-02
      9.90098994e-03 9.90098994e-03 0. 0. 9.90098994e-03 9.90098994e-03
      9.90098994e-03 0. 0. 2.97029689e-02 9.90098994e-03 9.90098994e-03
      0. 9.90098994e-03 3.96039598e-02 0. 0. 1.98019799e-02
      9.90098994e-03 9.90098994e-03 9.90098994e-03 0. 1.98019799e-02 0.
      1.98019799e-02 3.96039598e-02 0. 2.97029689e-02 9.90098994e-03
      9.90098994e-03 9.90098994e-03 9.90098994e-03 1.98019799e-02
      2.97029689e-02 9.90098994e-03 5.94059378e-02 0. 3.96039598e-02 0.
      0. 9.90098994e-03 0. 9.90098994e-03 9.90098994e-03 0. 0. 0. 0. 0.
      0. 9.90098994e-03 1.98019799e-02 2.97029689e-02 1.98019799e-02
      9.90098994e-03 0. 0. 9.90098994e-03 0. 4.95049506e-02 0. 0.
      1.98019799e-02 0. 0. 0. 0. 4.95049506e-02 0. 1.98019799e-02 0. 0.
      0. 9.90098994e-03 0. 1.98019799e-02 0. 0. 0. 0. 9.90098994e-03
      9.90098994e-03 0. 9.90098994e-03 0. 0. 0. 9.90098994e-03 0. 0.
      1.98019799e-02 9.90098994e-03 0. 9.90098994e-03</_>
    <_>
      1.09890113e-02 6.27943501e-03 6.27943501e-03 0. 0. 2.19780225e-02
      3.13971750e-02 1.09890113e-02 9.41915251e-03 1.41287288e-02
      1.09890113e-02 0. 1.56985875e-03 7.84929376e-03 4.70957626e-03 0.
      0. 5.02354801e-02 7.84929376e-03 1.09890113e-02 0. 2.35478804e-02
      4.70957626e-03 3.13971750e-03 1.25588700e-02 2.04081647e-02
      1.09890113e-02 2.35478804e-02 1.56985875e-02 3.13971750e-03 0.
      2.04081647e-02 1.25588700e-02 7.84929376e-03 2.51177400e-02
      6.27943501e-03 9.41915251e-03 4.70957626e-03 3.13971750e-03
      1.25588700e-02 2.35478804e-02 1.56985875e-03 1.56985875e-02
      3.13971750e-03 2.19780225e-02 0. 1.56985875e-02 1.56985875e-03
      4.70957626e-03 1.56985875e-03 3.13971750e-03 1.56985875e-03
      3.13971750e-03 6.27943501e-03 1.09890113e-02 1.56985875e-03
      1.56985875e-03 0. 0. 4.70957626e-03 5.49450554e-02 1.41287288e-02
      3.13971750e-02 4.08163294e-02 0. 2.19780225e-02 4.70957626e-03
      1.88383050e-02 3.13971750e-02 2.98273154e-02 3.13971750e-03
      1.56985875e-02 7.84929376e-03 0. 3.13971750e-03 1.09890113e-02 0.
      2.66875997e-02 0. 1.09890113e-02 0. 1.25588700e-02 1.56985875e-03
      1.09890113e-02 0. 9.41915251e-03 1.56985875e-03 0. 3.13971750e-03
      9.41915251e-03 6.27943501e-03 0. 1.56985875e-03 2.04081647e-02
      1.56985875e-03 1.88383050e-02 9.41915251e-03 9.41915251e-03 0.
      9.41915251e-03</_>
    <_>
      6.45161280e-03 3.87096778e-02 1.93548389e-02 6.45161280e-03
      6.45161280e-03 6.45161280e-03 1.29032256e-02 0. 1.29032256e-02
      1.29032256e-02 1.93548389e-02 0. 6.45161280e-03 3.87096778e-02 0.
      0. 0. 6.45161280e-03 6.45161280e-03 1.93548389e-02 3.22580636e-02
      1.29032256e-02 6.45161280e-03 0. 1.29032256e-02 2.58064512e-02
      1.29032256e-02 6.45161280e-03 3.22580636e-02 1.29032256e-02 0. 0.
      1.29032256e-02 1.29032256e-02 0. 6.45161280e-03 1.29032256e-02
      1.29032256e-02 5.80645166e-02 6.45161280e-03 4.51612882e-02 0.
      1.29032256e-02 0. 1.29032256e-02 0. 0. 6.45161280e-03 0. 0.
      1.93548389e-02 6.45161280e-03 6.45161280e-03 0. 0. 0.
      6.45161280e-03 6.45161280e-03 0. 3.22580636e-02 0. 0. 0.
      6.45161280e-03 6.45161280e-03 6.45161280e-03 0. 0. 0.
      6.45161280e-03 1.29032256e-02 6.45161280e-03 1.29032256e-02
      1.93548389e-02 0. 0. 0. 0. 0. 3.87096778e-02 1.29032256e-02
      1.29032256e-02 6.45161280e-03 6.45161280e-03 6.45161280e-03
      1.29032256e-02 0. 0. 3.87096778e-02 2.58064512e-02 0. 0.
      1.29032256e-02 6.45161280e-03 6.45161280e-03 3.87096778e-02
      2.58064512e-02 6.45161280e-03 6.45161280e-03 6.45161280e-03</_>
    <_>
      0. 7.63358781e-03 0. 3.81679386e-02 1.52671756e-02 7.63358781e-03
      3.05343512e-02 0. 1.52671756e-02 0. 0. 7.63358781e-03
      7.63358781e-03 0. 7.63358781e-03 0. 0. 7.63358781e-03 0.
      7.63358781e-03 6.10687025e-02 7.63358781e-03 0. 4.58015278e-02 0.
      7.63358781e-03 0. 0. 7.63358781e-03 0. 7.63358781e-03 0. 0. 0. 0.
      0. 0. 1.52671756e-02 0. 3.05343512e-02 0. 0. 1.52671756e-02 0.
      3.81679386e-02 7.63358781e-03 0. 0. 7.63358781e-03 0.
      1.52671756e-02 0. 1.52671756e-02 2.29007639e-02 1.52671756e-02
      7.63358781e-03 0. 7.63358781e-03 1.52671756e-02 7.63358781e-03 0.
      0. 7.63358781e-03 1.52671756e-02 1.52671756e-02 0. 1.52671756e-02
      7.63358781e-03 0. 1.52671756e-02 2.29007639e-02 1.52671756e-02 0.
      9.92366448e-02 7.63358781e-03 3.05343512e-02 0. 2.29007639e-02
      7.63358781e-03 7.63358781e-03 0. 7.63358781e-03 7.63358781e-03 0.
      0. 7.63358781e-03 7.63358781e-03 7.63358781e-03 0. 7.63358781e-03
      0. 7.63358781e-03 2.29007639e-02 1.52671756e-02 2.29007639e-02 0.
      4.58015278e-02 0. 2.29007639e-02 1.52671756e-02</_>
    <_>
      2.04081628e-02 2.04081628e-02 0. 5.10204062e-02 0. 3.06122452e-02
      0. 0. 0. 0. 1.02040814e-02 3.06122452e-02 0. 0. 1.02040814e-02
      2.04081628e-02 1.02040814e-02 1.02040814e-02 0. 0. 2.04081628e-02
      0. 1.02040814e-02 0. 0. 0. 2.04081628e-02 0. 1.02040814e-02
      1.02040814e-02 3.06122452e-02 0. 0. 0. 1.02040814e-02 0. 0.
      1.02040814e-02 1.02040814e-02 0. 0. 0. 0. 2.04081628e-02 0. 0. 0.
      1.02040814e-02 2.04081628e-02 0. 0. 0. 0. 1.02040814e-02 0. 0.
      3.06122452e-02 4.08163257e-02 3.06122452e-02 0. 0. 1.02040814e-02
      0. 4.08163257e-02 0. 3.06122452e-02 0. 1.02040814e-02 0.
      1.02040814e-02 1.02040814e-02 0. 0. 4.08163257e-02 0. 0. 0.
      1.02040814e-02 1.02040814e-02 0. 2.04081628e-02 5.10204062e-02 0.
      0. 0. 1.02040814e-02 2.04081628e-02 4.08163257e-02 0.
      2.04081628e-02 0. 5.10204062e-02 5.10204062e-02 0. 1.02040814e-02
      0. 1.02040814e-02 3.06122452e-02 0. 0.</_>
    <_>
      0. 6.71140943e-03 0. 2.01342292e-02 0. 1.34228189e-02
      1.34228189e-02 0. 6.71140943e-03 0. 0. 0. 6.71140943e-03
      6.71140943e-03 6.71140943e-03 7.38255009e-02 0. 6.71140943e-03
      6.71140943e-03 2.01342292e-02 2.01342292e-02 6.71140943e-03 0.
      3.35570462e-02 3.35570462e-02 6.71140943e-03 6.71140943e-03 0. 0.
      0. 6.04026839e-02 6.71140943e-03 6.71140943e-03 0. 0.
      1.34228189e-02 6.71140943e-03 6.71140943e-03 0. 1.34228189e-02 0.
      6.04026839e-02 1.34228189e-02 6.71140943e-03 0. 6.71140943e-03
      6.71140943e-03 0. 2.01342292e-02 4.02684584e-02 0. 0.
      1.34228189e-02 0. 6.71140943e-03 6.71140943e-03 2.01342292e-02 0.
      1.34228189e-02 1.34228189e-02 1.34228189e-02 6.71140943e-03 0. 0.
      0. 1.34228189e-02 0. 6.71140943e-03 0. 6.71140943e-03
      1.34228189e-02 0. 0. 3.35570462e-02 6.71140943e-03 6.71140943e-03
      0. 2.01342292e-02 0. 0. 0. 5.36912754e-02 0. 6.71140943e-03 0. 0.
      6.71140943e-03 2.01342292e-02 0. 1.34228189e-02 0. 2.68456377e-02
      2.01342292e-02 2.68456377e-02 6.71140943e-03 6.71140943e-03
      6.71140943e-03 2.01342292e-02 0. 2.01342292e-02</_>
    <_>
      1.29310340e-02 1.72413792e-02 4.31034481e-03 6.03448264e-02
      4.31034481e-03 1.29310340e-02 2.58620679e-02 4.31034481e-03
      4.31034481e-03 1.29310340e-02 2.58620679e-02 3.01724132e-02
      4.31034481e-03 0. 4.31034481e-03 2.15517245e-02 0. 4.31034481e-03
      4.31034481e-03 1.72413792e-02 3.44827585e-02 2.15517245e-02
      4.31034481e-03 0. 8.62068962e-03 4.31034481e-03 4.31034481e-03 0.
      4.31034481e-03 1.72413792e-02 2.15517245e-02 1.29310340e-02
      2.58620679e-02 8.62068962e-03 1.29310340e-02 8.62068962e-03
      2.15517245e-02 0. 3.01724132e-02 0. 1.72413792e-02 1.72413792e-02
      8.62068962e-03 4.31034481e-03 4.31034481e-03 0. 0. 0.
      1.29310340e-02 0. 0. 0. 4.31034481e-03 0. 3.01724132e-02
      4.31034481e-03 0. 2.58620679e-02 0. 2.15517245e-02 1.29310340e-02
      4.31034481e-03 8.62068962e-03 8.62068962e-03 8.62068962e-03
      2.58620679e-02 4.31034481e-03 4.31034481e-03 1.72413792e-02
      2.15517245e-02 2.15517245e-02 4.31034481e-03 0. 3.01724132e-02 0.
      1.72413792e-02 0. 1.29310340e-02 8.62068962e-03 0. 4.31034481e-03
      8.62068962e-03 4.31034481e-03 0. 8.62068962e-03 8.62068962e-03
      4.31034481e-03 4.31034481e-03 0. 1.72413792e-02 0. 8.62068962e-03
      0. 8.62068962e-03 4.31034481e-03 8.62068962e-03 0. 2.15517245e-02
      0. 1.29310340e-02</_>
    <_>
      2.34042555e-02 1.91489346e-02 8.51063803e-03 1.27659570e-02
      2.12765951e-03 1.48936165e-02 1.48936165e-02 8.51063803e-03
      1.48936165e-02 6.38297852e-03 6.38297852e-03 1.48936165e-02
      2.12765951e-03 6.38297852e-03 1.91489346e-02 3.40425521e-02
      4.25531901e-03 1.27659570e-02 1.06382975e-02 4.25531901e-03
      4.25531901e-03 1.27659570e-02 1.27659570e-02 1.27659570e-02
      2.12765951e-03 1.06382975e-02 1.48936165e-02 2.12765951e-03
      1.06382975e-02 4.25531901e-03 0. 1.27659570e-02 8.51063803e-03
      1.70212761e-02 1.27659570e-02 8.51063803e-03 1.27659570e-02
      6.38297852e-03 4.25531901e-03 1.48936165e-02 2.12765951e-03
      8.51063803e-03 1.27659570e-02 1.48936165e-02 1.48936165e-02
      8.51063803e-03 1.70212761e-02 0. 1.06382975e-02 8.51063803e-03
      6.38297852e-03 3.19148935e-02 1.06382975e-02 8.51063803e-03
      2.12765951e-03 0. 6.38297852e-03 8.51063803e-03 2.55319141e-02
      2.12765951e-03 1.27659570e-02 8.51063803e-03 1.06382975e-02
      6.38297852e-03 1.06382975e-02 1.91489346e-02 1.27659570e-02
      6.38297852e-03 4.25531901e-03 8.51063803e-03 2.12765951e-03
      4.25531901e-03 2.12765951e-03 1.48936165e-02 4.25531901e-03
      8.51063803e-03 4.25531901e-03 1.48936165e-02 1.70212761e-02
      6.38297852e-03 0. 1.27659570e-02 1.06382975e-02 8.51063803e-03 0.
      2.12765951e-03 4.25531901e-03 4.25531901e-03 1.70212761e-02
      2.12765951e-03 1.27659570e-02 4.25531901e-03 1.48936165e-02
      3.61702107e-02 2.12765951e-03 1.70212761e-02 6.38297852e-03
      2.55319141e-02 8.51063803e-03 6.38297852e-03</_>
    <_>
      1.06382975e-02 1.59574468e-02 5.31914877e-03 4.78723384e-02 0.
      1.06382975e-02 1.06382975e-02 0. 5.31914877e-03 0. 0.
      3.19148935e-02 2.12765951e-02 0. 5.31914877e-03 2.12765951e-02
      5.31914877e-03 1.06382975e-02 1.06382975e-02 2.65957434e-02
      1.59574468e-02 0. 5.31914877e-03 2.12765951e-02 0. 1.06382975e-02
      5.31914877e-03 5.31914877e-03 1.06382975e-02 1.59574468e-02
      2.12765951e-02 0. 1.06382975e-02 0. 5.31914877e-03 0.
      1.59574468e-02 0. 0. 5.31914877e-03 0. 3.19148935e-02
      1.59574468e-02 1.06382975e-02 1.06382975e-02 0. 1.59574468e-02 0.
      3.19148935e-02 1.06382975e-02 0. 1.59574468e-02 5.31914877e-03
      1.59574468e-02 5.31914877e-03 1.06382975e-02 5.31914877e-03
      2.12765951e-02 1.06382975e-02 0. 1.59574468e-02 0. 0.
      1.06382975e-02 1.59574468e-02 3.72340418e-02 5.31914877e-03
      1.06382975e-02 5.31914877e-03 5.31914877e-03 1.06382975e-02 0. 0.
      3.72340418e-02 5.31914877e-03 1.59574468e-02 0. 2.65957434e-02 0.
      5.31914877e-03 0. 5.31914877e-03 1.06382975e-02 1.06382975e-02 0.
      0. 2.65957434e-02 1.59574468e-02 5.31914877e-03 1.06382975e-02 0.
      1.06382975e-02 2.12765951e-02 5.31914877e-03 0. 1.06382975e-02
      2.12765951e-02 1.59574468e-02 5.31914877e-03 1.06382975e-02</_>
    <_>
      8.92857183e-03 1.25000002e-02 7.14285718e-03 2.85714287e-02
      1.60714295e-02 8.92857183e-03 7.14285718e-03 1.25000002e-02
      1.42857144e-02 1.07142860e-02 3.57142859e-03 2.85714287e-02
      1.78571437e-02 8.92857183e-03 1.78571437e-02 1.25000002e-02
      1.96428578e-02 5.35714300e-03 1.42857144e-02 5.35714300e-03
      1.25000002e-02 0. 1.60714295e-02 1.78571437e-02 1.78571437e-02
      1.07142860e-02 3.57142859e-03 1.78571430e-03 3.57142859e-03
      4.10714298e-02 1.60714295e-02 3.57142859e-03 5.35714300e-03
      5.35714300e-03 1.07142860e-02 1.07142860e-02 1.25000002e-02
      7.14285718e-03 2.85714287e-02 1.78571437e-02 1.07142860e-02
      8.92857183e-03 1.96428578e-02 1.42857144e-02 1.07142860e-02
      3.57142859e-03 7.14285718e-03 0. 5.35714300e-03 1.96428578e-02
      8.92857183e-03 5.35714300e-03 7.14285718e-03 1.42857144e-02
      2.32142862e-02 8.92857183e-03 1.78571430e-03 1.07142860e-02
      1.42857144e-02 1.25000002e-02 5.35714300e-03 0. 8.92857183e-03
      8.92857183e-03 7.14285718e-03 3.57142859e-03 1.07142860e-02
      1.78571430e-03 0. 3.57142859e-03 8.92857183e-03 3.57142859e-03
      1.25000002e-02 1.42857144e-02 3.57142859e-03 1.07142860e-02 0.
      5.35714300e-03 3.57142859e-03 3.57142859e-03 1.78571430e-03
      1.96428578e-02 5.35714300e-03 1.07142860e-02 3.57142859e-03
      3.57142859e-03 3.57142859e-03 0. 1.07142860e-02 1.25000002e-02
      1.42857144e-02 1.78571437e-02 1.25000002e-02 7.14285718e-03
      8.92857183e-03 1.25000002e-02 3.57142859e-03 1.25000002e-02
      7.14285718e-03 5.35714300e-03</_>
    <_>
      1.14613185e-02 5.73065924e-03 5.73065924e-03 7.73639008e-02 0.
      1.71919782e-02 8.59598909e-03 1.14613185e-02 1.14613185e-02
      2.86532962e-03 2.86532962e-03 1.14613185e-02 0. 2.86532962e-03
      3.43839563e-02 2.86532962e-03 4.01146151e-02 1.14613185e-02
      2.86532962e-03 1.43266479e-02 1.43266479e-02 0. 8.59598909e-03
      1.71919782e-02 1.14613185e-02 8.59598909e-03 1.71919782e-02 0. 0.
      1.43266479e-02 5.73065924e-03 1.14613185e-02 1.14613185e-02
      1.71919782e-02 8.59598909e-03 2.86532962e-03 1.14613185e-02
      1.14613185e-02 2.86532962e-03 5.73065924e-03 5.73065924e-03
      3.43839563e-02 8.59598909e-03 1.14613185e-02 2.86532962e-03
      5.73065924e-03 1.43266479e-02 0. 1.14613185e-02 2.00573076e-02
      1.14613185e-02 5.73065924e-03 0. 1.71919782e-02 2.86532962e-03
      2.86532962e-03 2.86532962e-03 1.14613185e-02 0. 8.59598909e-03
      5.73065924e-03 0. 2.86532962e-03 5.73065924e-03 1.14613185e-02
      8.59598909e-03 3.15186270e-02 5.73065924e-03 2.86532962e-03
      1.14613185e-02 2.86532962e-03 5.73065924e-03 2.29226369e-02
      7.16332421e-02 5.73065924e-03 5.73065924e-03 0. 1.14613185e-02
      5.73065924e-03 0. 2.86532962e-03 1.71919782e-02 1.14613185e-02
      1.14613185e-02 2.86532962e-03 5.73065924e-03 0. 2.86532962e-03
      1.43266479e-02 1.14613185e-02 1.14613185e-02 1.43266479e-02
      2.29226369e-02 2.86532962e-03 2.86532962e-03 2.86532962e-03 0. 0.
      2.86532962e-03 8.59598909e-03</_>
    <_>
      8.69565271e-03 1.73913054e-02 2.02898551e-02 2.60869581e-02
      2.89855083e-03 1.73913054e-02 1.44927539e-02 1.73913054e-02 0.
      8.69565271e-03 0. 1.44927539e-02 2.89855083e-03 5.79710165e-03
      1.15942033e-02 2.02898551e-02 5.79710165e-03 5.79710165e-03
      8.69565271e-03 5.79710165e-03 2.89855083e-03 0. 2.89855083e-03
      1.73913054e-02 1.44927539e-02 0. 2.89855083e-03 0. 8.69565271e-03
      5.79710165e-03 2.02898551e-02 2.89855083e-03 1.44927539e-02
      2.31884066e-02 1.73913054e-02 1.15942033e-02 1.15942033e-02
      1.15942033e-02 1.73913054e-02 5.79710165e-03 1.44927539e-02
      1.44927539e-02 5.79710165e-03 1.73913054e-02 8.69565271e-03
      2.89855083e-03 8.69565271e-03 5.79710165e-03 2.60869581e-02
      2.89855083e-03 1.73913054e-02 1.73913054e-02 8.69565271e-03
      5.79710165e-03 8.69565271e-03 2.89855083e-03 1.15942033e-02
      5.79710165e-03 5.79710165e-03 5.79710165e-03 8.69565271e-03 0.
      5.79710165e-03 5.79710165e-03 3.47826108e-02 2.60869581e-02
      1.15942033e-02 0. 2.89855083e-03 8.69565271e-03 2.89855083e-03
      8.69565271e-03 8.69565271e-03 2.02898551e-02 0. 5.79710165e-03
      5.79710165e-03 1.15942033e-02 8.69565271e-03 2.31884066e-02
      2.89855083e-03 1.73913054e-02 8.69565271e-03 8.69565271e-03
      8.69565271e-03 8.69565271e-03 2.89855083e-03 1.44927539e-02
      1.15942033e-02 1.15942033e-02 1.73913054e-02 5.79710165e-03
      8.69565271e-03 8.69565271e-03 2.89855083e-03 2.60869581e-02
      1.15942033e-02 8.69565271e-03 1.15942033e-02 0.</_>
    <_>
      3.27868853e-03 6.55737706e-03 6.55737706e-03 6.55737706e-03 0.
      6.55737706e-03 6.55737706e-03 6.55737706e-03 1.96721312e-02
      9.83606558e-03 1.31147541e-02 0. 3.27868853e-03 9.83606558e-03
      9.83606558e-03 6.55737706e-03 1.96721312e-02 1.63934417e-02
      6.55737706e-03 9.83606558e-03 3.27868853e-03 1.63934417e-02
      6.55737706e-03 1.63934417e-02 3.27868853e-03 1.63934417e-02
      1.96721312e-02 0. 3.27868853e-03 3.93442623e-02 0. 3.27868853e-03
      3.60655747e-02 1.63934417e-02 1.96721312e-02 3.27868853e-03
      3.27868834e-02 3.27868853e-03 2.95081958e-02 0. 9.83606558e-03
      6.55737706e-03 3.27868853e-03 0. 9.83606558e-03 9.83606558e-03
      1.31147541e-02 0. 9.83606558e-03 3.27868853e-03 0. 1.31147541e-02
      6.55737706e-03 1.31147541e-02 1.63934417e-02 0. 0. 6.55737706e-03
      3.27868853e-03 6.55737706e-03 3.93442623e-02 1.31147541e-02 0.
      9.83606558e-03 1.63934417e-02 1.31147541e-02 1.96721312e-02
      2.29508206e-02 9.83606558e-03 1.96721312e-02 0. 6.55737706e-03 0.
      1.31147541e-02 3.27868853e-03 6.55737706e-03 0. 9.83606558e-03
      1.63934417e-02 6.55737706e-03 0. 6.55737706e-03 6.55737706e-03
      9.83606558e-03 2.95081958e-02 6.55737706e-03 1.96721312e-02
      3.27868853e-03 1.96721312e-02 1.63934417e-02 1.96721312e-02
      6.55737706e-03 6.55737706e-03 0. 0. 1.63934417e-02 1.31147541e-02
      1.31147541e-02 1.31147541e-02 0.</_>
    <_>
      4.93827183e-03 9.87654366e-03 1.23456791e-02 2.46913591e-03 0.
      7.40740774e-03 2.46913591e-03 2.46913582e-02 9.87654366e-03
      9.87654366e-03 7.40740774e-03 2.22222228e-02 2.46913591e-03
      7.40740774e-03 1.23456791e-02 2.22222228e-02 1.48148155e-02
      1.23456791e-02 2.46913582e-02 9.87654366e-03 1.23456791e-02
      4.93827183e-03 4.93827183e-03 7.40740774e-03 2.46913591e-03
      9.87654366e-03 7.40740774e-03 4.93827183e-03 1.97530873e-02
      3.20987664e-02 9.87654366e-03 7.40740774e-03 1.72839519e-02
      1.72839519e-02 9.87654366e-03 9.87654366e-03 1.97530873e-02
      7.40740774e-03 6.66666701e-02 2.46913591e-03 1.23456791e-02
      9.87654366e-03 4.93827183e-03 2.46913591e-03 4.93827183e-03
      1.48148155e-02 1.48148155e-02 4.93827183e-03 2.46913591e-03
      2.46913591e-03 2.46913591e-03 4.93827183e-03 2.71604955e-02
      1.97530873e-02 1.23456791e-02 7.40740774e-03 0. 7.40740774e-03
      2.46913591e-03 7.40740774e-03 1.48148155e-02 0. 9.87654366e-03
      7.40740774e-03 7.40740774e-03 0. 1.48148155e-02 1.48148155e-02 0.
      9.87654366e-03 2.46913591e-03 7.40740774e-03 2.71604955e-02
      4.93827183e-03 7.40740774e-03 7.40740774e-03 2.46913591e-03
      7.40740774e-03 4.93827183e-03 1.72839519e-02 0. 4.93827183e-03
      9.87654366e-03 4.93827183e-03 1.72839519e-02 4.93827183e-03
      9.87654366e-03 2.46913591e-03 9.87654366e-03 1.23456791e-02
      1.48148155e-02 2.46913591e-03 7.40740774e-03 1.23456791e-02
      2.46913591e-03 1.23456791e-02 1.23456791e-02 1.97530873e-02 0.
      1.23456791e-02</_>
    <_>
      8.06451589e-03 8.06451589e-03 8.06451589e-03 9.67741907e-02 0.
      8.06451589e-03 0. 0. 8.06451589e-03 0. 0. 2.41935477e-02
      4.03225794e-02 0. 0. 0. 0. 1.61290318e-02 8.06451589e-03
      8.06451589e-03 3.22580636e-02 0. 0. 1.61290318e-02 2.41935477e-02
      1.61290318e-02 8.06451589e-03 0. 3.22580636e-02 0. 8.06451589e-03
      0. 0. 0. 8.06451589e-03 3.22580636e-02 0. 2.41935477e-02 0.
      3.22580636e-02 3.22580636e-02 8.06451589e-03 2.41935477e-02 0.
      8.06451589e-03 0. 0. 8.06451589e-03 1.61290318e-02 8.06451589e-03
      8.06451589e-03 0. 0. 1.61290318e-02 0. 1.61290318e-02
      8.06451589e-03 2.41935477e-02 0. 8.06451589e-03 0. 0. 0.
      8.06451589e-03 8.06451589e-03 0. 8.06451589e-03 2.41935477e-02 0.
      0. 4.03225794e-02 2.41935477e-02 0. 2.41935477e-02 0. 0. 0. 0.
      8.06451589e-03 8.06451589e-03 1.61290318e-02 3.22580636e-02
      1.61290318e-02 0. 0. 8.06451589e-03 2.41935477e-02 0. 0.
      8.06451589e-03 8.06451589e-03 0. 0. 0. 1.61290318e-02
      1.61290318e-02 1.61290318e-02 0. 8.06451589e-03 2.41935477e-02</_>
    <_>
      3.57142873e-02 4.76190485e-02 0. 1.07142858e-01 0. 1.19047621e-02
      0. 0. 0. 0. 0. 2.38095243e-02 4.76190485e-02 0. 0. 4.76190485e-02
      0. 0. 0. 3.57142873e-02 2.38095243e-02 0. 0. 7.14285746e-02
      1.19047621e-02 0. 0. 0. 0. 0. 1.19047621e-02 0. 0. 0. 0. 0. 0. 0.
      0. 0. 0. 0. 0. 0. 1.19047621e-02 0. 1.19047621e-02 0.
      3.57142873e-02 0. 0. 0. 0. 0. 0. 3.57142873e-02 1.19047621e-02
      2.38095243e-02 0. 3.57142873e-02 0. 0. 0. 0. 0. 1.19047621e-02 0.
      0. 0. 0. 3.57142873e-02 0. 0. 8.33333358e-02 0. 2.38095243e-02 0.
      1.19047621e-02 0. 0. 0. 0. 1.19047621e-02 0. 0. 2.38095243e-02
      1.19047621e-02 1.19047621e-02 0. 2.38095243e-02 0. 1.19047621e-02
      1.19047621e-02 0. 0. 1.19047621e-02 2.38095243e-02 0.
      2.38095243e-02 2.38095243e-02</_>
    <_>
      1.34907253e-02 8.43170285e-03 2.02360880e-02 1.18043851e-02
      3.37268133e-03 6.74536265e-03 1.01180440e-02 2.19224282e-02
      1.34907253e-02 2.36087702e-02 1.01180440e-02 0. 5.05902199e-03
      1.85497478e-02 3.37268133e-03 3.37268133e-03 1.51770655e-02
      1.68634057e-02 2.02360880e-02 1.85497478e-02 0. 1.18043851e-02
      2.86677908e-02 1.01180440e-02 5.05902199e-03 2.69814506e-02
      1.01180440e-02 1.68634066e-03 8.43170285e-03 1.68634057e-02
      8.43170285e-03 1.01180440e-02 3.03541310e-02 1.34907253e-02
      1.51770655e-02 1.01180440e-02 2.02360880e-02 1.51770655e-02
      8.43170285e-03 3.37268133e-03 1.18043851e-02 3.37268133e-03
      1.18043851e-02 0. 2.02360880e-02 5.05902199e-03 3.37268133e-03
      1.68634066e-03 3.37268133e-03 3.37268133e-03 1.01180440e-02
      1.18043851e-02 8.43170285e-03 8.43170285e-03 1.01180440e-02
      5.05902199e-03 1.68634066e-03 1.34907253e-02 0. 1.68634066e-03
      1.51770655e-02 5.05902199e-03 5.05902199e-03 8.43170285e-03
      3.37268133e-03 0. 1.51770655e-02 1.34907253e-02 5.05902199e-03
      1.34907253e-02 0. 1.68634057e-02 8.43170285e-03 2.36087702e-02 0.
      1.01180440e-02 0. 2.02360880e-02 6.74536265e-03 1.68634057e-02
      3.37268133e-03 8.43170285e-03 3.37268133e-03 2.02360880e-02 0.
      1.68634057e-02 6.74536265e-03 1.68634066e-03 1.68634057e-02
      1.34907253e-02 2.36087702e-02 1.68634066e-03 8.43170285e-03
      1.18043851e-02 5.05902199e-03 6.74536265e-03 1.18043851e-02
      6.74536265e-03 5.05902199e-03 6.74536265e-03</_>
    <_>
      3.58422939e-03 1.43369175e-02 1.43369175e-02 6.81003556e-02
      3.58422939e-03 0. 7.16845877e-03 1.79211460e-02 2.50896066e-02
      2.15053763e-02 7.16845877e-03 1.79211460e-02 3.58422939e-03 0.
      3.58422939e-03 0. 7.16845877e-03 0. 2.15053763e-02 3.58422939e-03
      1.07526882e-02 7.16845877e-03 2.15053763e-02 1.07526882e-02
      1.07526882e-02 3.58422939e-03 0. 3.58422939e-03 7.16845877e-03
      4.30107526e-02 1.43369175e-02 0. 2.15053763e-02 1.43369175e-02
      2.15053763e-02 0. 1.43369175e-02 0. 1.21863797e-01 1.07526882e-02
      2.15053763e-02 3.58422939e-03 1.07526882e-02 0. 0. 3.58422939e-03
      0. 0. 1.79211460e-02 7.16845877e-03 1.07526882e-02 0.
      3.58422939e-03 1.43369175e-02 1.79211460e-02 7.16845877e-03 0.
      7.16845877e-03 0. 1.43369175e-02 0. 0. 1.07526882e-02
      3.58422939e-03 3.58422939e-03 0. 7.16845877e-03 3.58422939e-03 0.
      7.16845877e-03 3.58422939e-03 7.16845877e-03 1.43369175e-02
      6.09318987e-02 0. 1.07526882e-02 7.16845877e-03 0. 1.07526882e-02
      0. 0. 7.16845877e-03 3.58422939e-03 3.58422939e-03 7.16845877e-03
      3.58422939e-03 1.07526882e-02 3.58422939e-03 3.58422939e-03
      3.58422939e-03 7.16845877e-03 7.16845877e-03 2.86738351e-02 0.
      3.58422939e-03 3.58422939e-03 1.07526882e-02 3.58422939e-03
      7.16845877e-03 1.43369175e-02</_>
    <_>
      7.51879718e-03 1.50375944e-02 1.50375944e-02 7.51879718e-03
      7.51879718e-03 7.51879718e-03 1.50375944e-02 0. 3.75939868e-02
      7.51879718e-03 7.51879718e-03 0. 0. 1.50375944e-02 7.51879718e-03
      0. 7.51879718e-03 1.50375944e-02 7.51879718e-03 1.50375944e-02 0.
      7.51879718e-03 7.51879718e-03 2.25563906e-02 2.25563906e-02 0. 0.
      0. 0. 7.51879718e-03 0. 7.51879718e-03 0. 7.51879718e-03
      1.50375944e-02 0. 1.50375944e-02 0. 0. 7.51879718e-03
      1.50375944e-02 7.51879718e-03 1.50375944e-02 1.50375944e-02 0. 0.
      0. 7.51879718e-03 0. 7.51879718e-03 7.51879718e-03 0.
      7.51879718e-03 2.25563906e-02 0. 7.51879718e-03 0. 3.00751887e-02
      1.50375944e-02 3.00751887e-02 7.51879718e-03 0. 0. 7.51879718e-03
      2.25563906e-02 5.26315793e-02 7.51879718e-03 7.51879718e-03 0.
      1.50375944e-02 1.50375944e-02 1.50375944e-02 0. 3.75939868e-02 0.
      1.50375944e-02 0. 7.51879718e-03 7.51879718e-03 7.51879718e-03
      1.50375944e-02 7.51879718e-03 7.51879718e-03 7.51879718e-03 0.
      1.50375944e-02 1.50375944e-02 0. 1.50375944e-02 3.00751887e-02
      7.51879718e-03 2.25563906e-02 7.51879718e-03 1.50375944e-02
      7.51879718e-03 2.25563906e-02 2.25563906e-02 7.51879718e-03
      3.00751887e-02 1.50375944e-02</_>
    <_>
      2.56410260e-02 0. 0. 8.97435918e-02 0. 0. 1.92307699e-02
      1.28205130e-02 1.28205130e-02 0. 6.41025649e-03 5.76923080e-02
      1.28205130e-02 0. 1.28205130e-02 4.48717959e-02 1.28205130e-02 0.
      1.28205130e-02 6.41025649e-03 5.12820520e-02 6.41025649e-03 0.
      1.28205130e-02 3.20512839e-02 0. 0. 6.41025649e-03 0.
      1.28205130e-02 6.41025649e-03 1.92307699e-02 6.41025649e-03
      6.41025649e-03 0. 0. 1.28205130e-02 6.41025649e-03 0.
      1.28205130e-02 0. 6.41025649e-03 6.41025649e-03 6.41025649e-03 0.
      0. 0. 0. 1.92307699e-02 0. 1.28205130e-02 0. 6.41025649e-03 0. 0.
      3.20512839e-02 1.92307699e-02 3.84615399e-02 1.28205130e-02
      6.41025649e-03 6.41025649e-03 0. 0. 1.28205130e-02 2.56410260e-02
      2.56410260e-02 1.28205130e-02 0. 0. 6.41025649e-03 1.92307699e-02
      0. 1.28205130e-02 6.41025677e-02 0. 6.41025649e-03 1.92307699e-02
      6.41025649e-03 0. 0. 0. 6.41025649e-03 1.28205130e-02 0. 0. 0.
      6.41025649e-03 6.41025649e-03 0. 0. 0. 1.92307699e-02 0.
      6.41025649e-03 1.28205130e-02 0. 6.41025649e-03 1.28205130e-02 0.
      6.41025649e-03</_>
    <_>
      1.43369175e-02 1.07526882e-02 7.16845877e-03 1.43369175e-02 0.
      8.96057300e-03 2.15053763e-02 1.07526882e-02 1.07526882e-02
      2.32974906e-02 7.16845877e-03 2.50896066e-02 7.16845877e-03
      1.61290318e-02 5.37634408e-03 1.07526882e-02 1.79211469e-03
      2.15053763e-02 8.96057300e-03 7.16845877e-03 1.79211469e-03
      5.37634408e-03 5.37634408e-03 8.96057300e-03 8.96057300e-03
      7.16845877e-03 0. 1.43369175e-02 1.43369175e-02 0. 1.07526882e-02
      8.96057300e-03 1.07526882e-02 1.25448033e-02 2.68817209e-02
      7.16845877e-03 3.58422939e-03 7.16845877e-03 0. 1.25448033e-02
      4.65949811e-02 1.79211469e-03 8.96057300e-03 1.79211469e-03
      3.04659493e-02 1.79211469e-03 1.61290318e-02 0. 7.16845877e-03
      3.58422939e-03 5.37634408e-03 1.79211469e-03 5.37634408e-03
      8.96057300e-03 2.50896066e-02 5.37634408e-03 1.79211469e-03
      3.58422939e-03 1.79211469e-03 0. 2.15053763e-02 8.96057300e-03
      3.04659493e-02 2.68817209e-02 0. 7.16845877e-03 0. 1.43369175e-02
      4.30107526e-02 3.04659493e-02 1.79211469e-03 1.61290318e-02
      1.79211469e-03 0. 3.58422939e-03 3.58422939e-03 0. 1.79211460e-02
      5.37634408e-03 1.25448033e-02 1.79211469e-03 8.96057300e-03
      5.37634408e-03 2.68817209e-02 0. 8.96057300e-03 5.37634408e-03 0.
      8.96057300e-03 1.25448033e-02 7.16845877e-03 3.58422939e-03
      1.07526882e-02 2.32974906e-02 0. 1.97132621e-02 1.43369175e-02
      1.07526882e-02 5.37634408e-03 3.58422939e-03</_>
    <_>
      0. 0. 0. 7.40740746e-02 0. 0. 1.23456791e-02 0. 1.23456791e-02 0.
      0. 1.23456791e-02 1.23456791e-02 0. 0. 2.46913582e-02 0. 0. 0. 0.
      3.70370373e-02 0. 0. 2.46913582e-02 2.46913582e-02 3.70370373e-02
      0. 0. 0. 0. 2.46913582e-02 0. 0. 0. 1.23456791e-02 1.23456791e-02
      0. 0. 0. 1.23456791e-02 0. 2.46913582e-02 0. 0. 0. 0. 0. 0. 0.
      1.23456791e-02 0. 0. 0. 2.46913582e-02 0. 1.23456791e-02 0.
      3.70370373e-02 1.23456791e-02 0. 0. 1.23456791e-02 1.23456791e-02
      0. 2.46913582e-02 0. 0. 0. 0. 0. 1.23456791e-02 1.23456791e-02 0.
      1.11111112e-01 1.23456791e-02 1.23456791e-02 0. 1.23456791e-02 0.
      1.23456791e-02 0. 2.46913582e-02 4.93827164e-02 1.23456791e-02 0.
      0. 3.70370373e-02 1.23456791e-02 2.46913582e-02 0. 1.23456791e-02
      2.46913582e-02 6.17283955e-02 1.23456791e-02 0. 1.23456791e-02 0.
      0. 2.46913582e-02 0.</_>
    <_>
      3.98406386e-03 0. 1.19521916e-02 2.78884470e-02 0. 1.19521916e-02
      1.19521916e-02 3.98406386e-03 1.59362555e-02 3.98406386e-03
      3.98406386e-03 0. 0. 1.59362555e-02 7.96812773e-03 3.98406386e-03
      7.96812773e-03 3.98406386e-03 1.19521916e-02 3.98406386e-03 0.
      3.98406386e-03 3.98406386e-03 1.99203193e-02 3.98406386e-03
      7.96812773e-03 1.19521916e-02 0. 7.96812773e-03 0. 1.59362555e-02
      3.98406386e-03 1.59362555e-02 3.98406386e-03 1.19521916e-02
      1.59362555e-02 7.96812773e-03 1.59362555e-02 0. 1.19521916e-02
      1.99203193e-02 1.59362555e-02 1.19521916e-02 1.19521916e-02
      1.19521916e-02 0. 1.19521916e-02 7.96812773e-03 3.98406386e-03
      1.99203193e-02 7.96812773e-03 7.96812773e-03 0. 3.98406386e-02 0.
      3.98406386e-03 7.96812773e-03 4.38247025e-02 3.98406386e-03 0. 0.
      3.98406386e-03 1.19521916e-02 1.19521916e-02 1.99203193e-02
      3.98406386e-03 1.59362555e-02 3.98406386e-03 0. 1.19521916e-02 0.
      0. 1.19521916e-02 3.98406386e-02 7.96812773e-03 0. 1.59362555e-02
      1.59362555e-02 1.99203193e-02 2.39043832e-02 0. 7.96812773e-03
      1.59362555e-02 1.19521916e-02 0. 2.39043832e-02 0. 3.98406386e-03
      2.39043832e-02 3.98406386e-03 3.98406386e-03 3.98406386e-03
      3.18725109e-02 1.59362555e-02 1.19521916e-02 1.59362555e-02
      7.96812773e-03 1.59362555e-02 1.99203193e-02 1.59362555e-02</_>
    <_>
      1.89873427e-02 2.53164563e-02 6.32911408e-03 1.26582282e-02 0.
      2.53164563e-02 2.53164563e-02 0. 0. 0. 0. 3.16455700e-02
      6.32911408e-03 0. 0. 1.01265825e-01 0. 6.32911408e-03 0.
      1.89873427e-02 2.53164563e-02 0. 0. 1.89873427e-02 1.26582282e-02
      0. 0. 0. 6.32911408e-03 0. 1.89873427e-02 1.26582282e-02 0. 0.
      6.32911408e-03 1.26582282e-02 6.32911408e-03 1.26582282e-02 0.
      2.53164563e-02 0. 0. 6.32911408e-03 6.32911408e-03 6.32911408e-03
      0. 3.79746854e-02 0. 3.16455700e-02 1.89873427e-02 0. 0.
      1.26582282e-02 1.26582282e-02 6.32911408e-03 3.16455700e-02
      1.26582282e-02 3.16455700e-02 2.53164563e-02 2.53164563e-02 0. 0.
      6.32911408e-03 6.32911408e-03 0. 4.43037972e-02 6.32911408e-03 0.
      6.32911408e-03 1.26582282e-02 3.16455700e-02 0. 0. 6.32911408e-03
      0. 1.89873427e-02 0. 1.26582282e-02 0. 0. 0. 0. 6.32911408e-03 0.
      0. 0. 6.32911408e-03 1.89873427e-02 0. 0. 0. 3.16455700e-02
      6.32911408e-03 1.89873427e-02 0. 6.32911408e-03 0. 3.16455700e-02
      6.32911408e-03 1.26582282e-02</_>
    <_>
      1.86915882e-02 0. 0. 1.86915882e-02 0. 1.40186911e-02
      1.40186911e-02 9.34579410e-03 4.67289705e-03 9.34579410e-03
      4.67289705e-03 3.27102803e-02 4.67289705e-03 1.40186911e-02 0.
      9.34579410e-03 4.67289705e-03 9.34579410e-03 9.34579410e-03
      4.67289705e-03 1.86915882e-02 4.67289705e-03 1.86915882e-02
      1.40186911e-02 4.67289705e-03 2.80373823e-02 4.67289705e-03
      1.40186911e-02 2.33644843e-02 1.40186911e-02 9.34579410e-03
      3.27102803e-02 1.40186911e-02 2.33644843e-02 0. 4.67289705e-03
      1.40186911e-02 1.40186911e-02 0. 0. 6.07476607e-02 0.
      2.33644843e-02 9.34579410e-03 2.80373823e-02 1.40186911e-02
      4.67289705e-03 0. 1.40186911e-02 0. 9.34579410e-03 4.67289705e-03
      1.40186911e-02 9.34579410e-03 4.67289705e-03 9.34579410e-03
      9.34579410e-03 4.67289705e-03 0. 9.34579410e-03 0. 4.67289705e-03
      4.20560725e-02 2.33644843e-02 0. 0. 9.34579410e-03 1.40186911e-02
      2.80373823e-02 4.67289705e-03 9.34579410e-03 2.80373823e-02
      4.67289705e-03 2.33644843e-02 0. 1.40186911e-02 0. 1.40186911e-02
      9.34579410e-03 4.67289705e-03 4.67289705e-03 9.34579410e-03 0. 0.
      0. 4.67289705e-03 0. 9.34579410e-03 0. 9.34579410e-03
      1.40186911e-02 1.86915882e-02 4.67289705e-03 4.67289705e-03 0. 0.
      4.67289705e-03 0. 0. 1.40186911e-02</_>
    <_>
      4.26136376e-03 9.94318165e-03 5.68181835e-03 0. 0. 1.13636367e-02
      9.94318165e-03 1.27840918e-02 1.56250000e-02 2.41477285e-02
      7.10227294e-03 1.42045459e-03 9.94318165e-03 3.55113633e-02 0. 0.
      0. 9.94318165e-03 1.27840918e-02 5.68181835e-03 1.42045459e-03
      9.94318165e-03 8.52272753e-03 2.13068184e-02 9.94318165e-03
      1.70454551e-02 4.26136376e-03 5.68181835e-03 1.84659101e-02
      9.94318165e-03 9.94318165e-03 1.13636367e-02 9.94318165e-03
      1.13636367e-02 3.69318202e-02 1.42045459e-02 5.68181835e-03
      9.94318165e-03 0. 1.84659101e-02 5.11363670e-02 7.10227294e-03
      1.13636367e-02 1.42045459e-03 2.98295468e-02 1.42045459e-03
      1.27840918e-02 0. 4.26136376e-03 1.13636367e-02 1.42045459e-03
      1.42045459e-03 0. 9.94318165e-03 2.27272734e-02 2.84090918e-03
      2.84090918e-03 1.27840918e-02 1.42045459e-03 4.26136376e-03
      1.27840918e-02 7.10227294e-03 4.97159101e-02 2.13068184e-02
      7.10227294e-03 1.42045459e-03 2.84090918e-03 1.70454551e-02
      1.42045459e-02 3.40909101e-02 4.26136376e-03 1.42045459e-02 0.
      4.26136376e-03 2.84090918e-03 0. 2.84090918e-03 1.42045459e-02
      9.94318165e-03 9.94318165e-03 0. 1.56250000e-02 8.52272753e-03
      3.12500000e-02 0. 1.42045459e-03 4.26136376e-03 1.42045459e-03
      8.52272753e-03 4.26136376e-03 1.84659101e-02 2.84090918e-03
      7.10227294e-03 1.56250000e-02 1.42045459e-03 1.27840918e-02
      1.27840918e-02 8.52272753e-03 7.10227294e-03 7.10227294e-03</_>
    <_>
      0. 8.24175868e-03 5.49450563e-03 5.21978028e-02 0. 5.49450563e-03
      0. 5.49450563e-03 5.49450563e-03 1.09890113e-02 0. 3.29670347e-02
      2.19780225e-02 5.49450563e-03 5.49450563e-03 4.67032976e-02
      5.49450563e-03 2.74725282e-03 1.64835174e-02 5.49450563e-03
      1.64835174e-02 2.74725282e-03 1.92307699e-02 2.47252751e-02
      4.39560451e-02 2.74725282e-03 0. 0. 8.24175868e-03 3.02197803e-02
      3.57142873e-02 2.74725282e-03 1.09890113e-02 8.24175868e-03
      8.24175868e-03 2.74725282e-03 1.09890113e-02 5.49450563e-03
      2.74725282e-03 1.92307699e-02 5.49450563e-03 1.09890113e-02
      1.64835174e-02 0. 8.24175868e-03 0. 8.24175868e-03 2.74725282e-03
      1.37362638e-02 4.39560451e-02 2.74725282e-03 2.74725282e-03
      8.24175868e-03 2.74725282e-03 2.19780225e-02 5.49450563e-03
      8.24175868e-03 1.37362638e-02 0. 1.64835174e-02 5.49450563e-03 0.
      2.74725282e-03 8.24175868e-03 0. 0. 5.49450563e-03 2.74725282e-03
      0. 2.74725282e-03 8.24175868e-03 1.64835174e-02 5.49450563e-03
      3.84615399e-02 2.74725282e-03 1.09890113e-02 2.74725282e-03
      1.64835174e-02 5.49450563e-03 5.49450563e-03 2.74725282e-03
      2.19780225e-02 0. 2.74725282e-03 2.74725282e-03 2.74725282e-03
      5.49450563e-03 5.49450563e-03 0. 5.49450563e-03 1.09890113e-02
      2.47252751e-02 1.37362638e-02 1.37362638e-02 2.74725282e-03
      1.64835174e-02 0. 2.47252751e-02 0. 1.92307699e-02</_>
    <_>
      3.32225906e-03 3.32225906e-03 6.64451811e-03 1.32890362e-02 0.
      9.96677764e-03 0. 1.32890362e-02 2.32558139e-02 9.96677764e-03
      1.32890362e-02 0. 6.64451811e-03 9.96677764e-03 9.96677764e-03
      6.64451811e-03 2.65780725e-02 3.32225906e-03 2.32558139e-02
      9.96677764e-03 6.64451811e-03 6.64451811e-03 2.99003311e-02 0. 0.
      1.99335553e-02 6.64451811e-03 0. 3.32225906e-03 2.32558139e-02
      9.96677764e-03 0. 3.32225896e-02 1.66112948e-02 6.64451811e-03
      9.96677764e-03 1.99335553e-02 9.96677764e-03 4.31893691e-02
      3.32225906e-03 2.99003311e-02 2.99003311e-02 2.32558139e-02
      1.32890362e-02 1.32890362e-02 6.64451811e-03 0. 0. 0.
      3.32225906e-03 6.64451811e-03 2.32558139e-02 6.64451811e-03
      6.64451811e-03 1.66112948e-02 0. 0. 6.64451811e-03 0. 0.
      6.64451811e-03 0. 9.96677764e-03 6.64451811e-03 1.32890362e-02
      3.32225906e-03 2.32558139e-02 6.64451811e-03 0. 6.64451811e-03 0.
      3.32225906e-03 4.98338863e-02 9.96677764e-03 0. 1.32890362e-02
      1.32890362e-02 3.32225906e-03 1.66112948e-02 0. 0. 6.64451811e-03
      9.96677764e-03 0. 1.66112948e-02 6.64451811e-03 0. 6.64451811e-03
      3.32225906e-03 6.64451811e-03 4.98338863e-02 3.32225906e-03
      1.99335553e-02 9.96677764e-03 0. 9.96677764e-03 9.96677764e-03
      9.96677764e-03 6.64451811e-03 9.96677764e-03</_>
    <_>
      3.47222225e-03 1.04166670e-02 3.47222225e-03 1.38888890e-02 0.
      6.94444450e-03 1.38888890e-02 2.43055560e-02 1.73611119e-02 0.
      3.47222225e-03 1.04166670e-02 2.43055560e-02 3.47222225e-03
      1.38888890e-02 6.94444450e-03 1.04166670e-02 1.04166670e-02
      6.94444450e-03 1.38888890e-02 1.38888890e-02 0. 1.38888890e-02
      1.04166670e-02 6.94444450e-03 2.77777780e-02 0. 1.38888890e-02
      2.43055560e-02 6.94444450e-03 1.73611119e-02 1.73611119e-02
      1.73611119e-02 1.38888890e-02 1.73611119e-02 6.94444450e-03
      3.47222225e-03 1.38888890e-02 1.04166670e-02 1.04166670e-02
      4.16666679e-02 0. 1.04166670e-02 3.47222225e-03 2.43055560e-02
      3.47222225e-03 0. 0. 3.47222225e-03 6.94444450e-03 0.
      6.94444450e-03 6.94444450e-03 1.04166670e-02 6.94444450e-03
      3.47222225e-03 3.47222225e-03 6.94444450e-03 1.04166670e-02
      3.47222225e-03 2.43055560e-02 0. 1.04166670e-02 3.47222225e-03
      1.04166670e-02 3.47222225e-03 0. 1.38888890e-02 6.94444450e-03
      6.94444450e-03 3.47222225e-03 1.04166670e-02 3.47222225e-03
      1.73611119e-02 1.04166670e-02 6.94444450e-03 0. 3.47222239e-02
      1.04166670e-02 1.04166670e-02 0. 1.73611119e-02 1.38888890e-02
      2.43055560e-02 0. 3.47222225e-03 1.38888890e-02 3.47222225e-03
      1.38888890e-02 3.47222225e-03 6.94444450e-03 6.94444450e-03
      4.86111119e-02 2.08333340e-02 0. 6.94444450e-03 6.94444450e-03
      1.04166670e-02 6.94444450e-03 6.94444450e-03</_>
    <_>
      2.46913591e-03 4.93827183e-03 4.93827183e-03 9.87654366e-03 0.
      2.46913591e-03 2.22222228e-02 1.23456791e-02 1.23456791e-02
      7.40740774e-03 2.46913591e-03 1.48148155e-02 9.87654366e-03
      9.87654366e-03 2.46913591e-03 7.40740774e-03 4.93827183e-03 0.
      2.46913582e-02 9.87654366e-03 7.40740774e-03 2.46913591e-03
      2.46913591e-03 9.87654366e-03 9.87654366e-03 1.48148155e-02
      7.40740774e-03 7.40740774e-03 7.40740774e-03 9.87654366e-03
      2.46913582e-02 1.48148155e-02 2.22222228e-02 7.40740774e-03
      9.87654366e-03 1.97530873e-02 1.97530873e-02 7.40740774e-03 0.
      1.48148155e-02 1.48148155e-02 1.72839519e-02 2.71604955e-02
      7.40740774e-03 9.87654366e-03 4.93827183e-03 1.72839519e-02 0.
      2.46913582e-02 2.96296310e-02 4.93827183e-03 2.46913591e-03
      1.23456791e-02 4.93827183e-03 7.40740774e-03 2.71604955e-02
      9.87654366e-03 7.40740774e-03 4.93827183e-03 1.97530873e-02
      1.48148155e-02 0. 4.93827183e-03 2.22222228e-02 2.46913591e-03
      9.87654366e-03 0. 7.40740774e-03 0. 7.40740774e-03 2.96296310e-02
      1.23456791e-02 0. 2.46913582e-02 9.87654366e-03 1.48148155e-02 0.
      9.87654366e-03 4.93827183e-03 2.46913591e-03 0. 2.71604955e-02
      2.46913591e-03 1.48148155e-02 0. 7.40740774e-03 1.97530873e-02
      1.48148155e-02 4.93827183e-03 1.23456791e-02 7.40740774e-03
      1.48148155e-02 2.46913591e-03 1.97530873e-02 0. 2.46913591e-03
      4.93827183e-03 7.40740774e-03 7.40740774e-03 1.23456791e-02</_>
    <_>
      1.52284261e-02 1.01522841e-02 0. 6.59898445e-02 0. 1.01522841e-02
      0. 1.52284261e-02 5.07614203e-03 5.07614203e-03 0. 4.06091362e-02
      5.07614203e-03 1.01522841e-02 0. 1.52284261e-02 0. 5.07614203e-03
      2.53807101e-02 5.07614203e-03 3.04568522e-02 0. 2.03045681e-02
      1.52284261e-02 5.58375642e-02 0. 1.01522841e-02 0. 5.07614203e-03
      2.03045681e-02 2.03045681e-02 1.01522841e-02 0. 0. 5.07614203e-03
      0. 5.07614203e-03 5.07614203e-03 0. 2.03045681e-02 0.
      1.01522841e-02 2.03045681e-02 5.07614203e-03 0. 0. 1.52284261e-02
      5.07614203e-03 2.03045681e-02 5.07614203e-03 0. 5.07614203e-03
      2.53807101e-02 3.04568522e-02 1.01522841e-02 5.07614203e-03 0.
      2.53807101e-02 5.07614203e-03 5.07614203e-03 5.07614203e-03 0.
      5.07614203e-03 1.01522841e-02 5.07614203e-03 1.01522841e-02
      1.01522841e-02 0. 5.07614203e-03 1.01522841e-02 1.52284261e-02
      1.52284261e-02 5.07614203e-03 2.03045681e-02 5.07614203e-03
      1.01522841e-02 5.07614203e-03 1.52284261e-02 0. 0. 5.07614203e-03
      1.01522841e-02 3.04568522e-02 5.07614203e-03 0. 0. 0. 0.
      2.53807101e-02 5.07614203e-03 1.01522841e-02 2.53807101e-02
      1.52284261e-02 2.03045681e-02 0. 5.07614203e-03 5.07614203e-03
      1.52284261e-02 1.01522841e-02 1.01522841e-02</_>
    <_>
      1.30718956e-02 2.61437912e-02 0. 2.61437912e-02 0. 6.53594779e-03
      6.53594779e-03 6.53594779e-03 0. 6.53594779e-03 0. 1.24183007e-01
      2.61437912e-02 6.53594779e-03 1.30718956e-02 8.49673226e-02 0. 0.
      1.96078438e-02 1.30718956e-02 1.30718956e-02 0. 6.53594779e-03
      3.92156877e-02 3.26797403e-02 0. 6.53594779e-03 0. 0.
      6.53594779e-03 3.26797403e-02 1.30718956e-02 1.30718956e-02 0. 0.
      0. 6.53594779e-03 6.53594779e-03 0. 1.96078438e-02 0. 0.
      6.53594779e-03 0. 0. 0. 1.96078438e-02 6.53594779e-03
      6.53594779e-03 1.96078438e-02 0. 1.30718956e-02 1.96078438e-02
      1.96078438e-02 0. 0. 6.53594779e-03 1.30718956e-02 0.
      1.30718956e-02 6.53594779e-03 0. 0. 1.30718956e-02 0. 0.
      1.30718956e-02 0. 0. 0. 1.30718956e-02 0. 2.61437912e-02
      6.53594779e-03 0. 1.96078438e-02 0. 6.53594779e-03 0.
      6.53594779e-03 6.53594779e-03 1.30718956e-02 0. 6.53594779e-03 0.
      1.30718956e-02 6.53594779e-03 0. 6.53594779e-03 0. 0.
      4.57516350e-02 1.30718956e-02 1.96078438e-02 0. 0. 0.
      3.26797403e-02 0. 6.53594779e-03</_>
    <_>
      6.25000009e-03 6.25000009e-03 3.12500005e-03 1.87500007e-02
      6.25000009e-03 9.37500037e-03 2.81250011e-02 3.12500005e-03
      1.56250000e-02 6.25000009e-03 9.37500037e-03 6.25000009e-03 0.
      3.12500005e-03 6.25000009e-03 6.25000009e-03 2.18749996e-02 0.
      3.12500005e-03 6.25000009e-03 3.12500005e-03 6.25000009e-03
      3.12500005e-03 0. 9.37500037e-03 6.25000009e-03 4.37499993e-02 0.
      0. 6.25000009e-03 1.25000002e-02 9.37500037e-03 1.87500007e-02
      1.25000002e-02 0. 6.25000009e-03 3.12500005e-03 1.56250000e-02 0.
      3.75000015e-02 3.12500005e-03 9.37500037e-03 9.37500037e-03
      6.25000009e-03 0. 6.25000009e-03 2.18749996e-02 1.25000002e-02
      1.87500007e-02 1.87500007e-02 0. 3.12500000e-02 3.12500005e-03 0.
      6.25000009e-03 2.18749996e-02 3.12500005e-03 1.56250000e-02
      9.37500037e-03 1.87500007e-02 3.12500005e-03 3.12500005e-03 0.
      2.81250011e-02 6.25000009e-03 1.56250000e-02 3.12500005e-03
      9.37500037e-03 3.12500005e-03 1.25000002e-02 9.37500037e-03
      6.25000009e-03 3.12500005e-03 4.68750000e-02 0. 9.37500037e-03
      2.18749996e-02 1.25000002e-02 3.12500005e-03 3.12500005e-03
      1.56250000e-02 3.43750007e-02 9.37500037e-03 6.25000009e-03
      1.56250000e-02 3.12500005e-03 1.25000002e-02 3.12500005e-03
      9.37500037e-03 2.81250011e-02 0. 2.18749996e-02 0. 2.18749996e-02
      6.25000009e-03 0. 9.37500037e-03 1.25000002e-02 3.12500005e-03
      1.25000002e-02</_>
    <_>
      0. 0. 7.93650839e-03 1.98412716e-01 0. 0. 0. 2.38095261e-02 0. 0.
      0. 0. 0. 3.17460336e-02 0. 0. 7.93650839e-03 0. 1.58730168e-02
      1.58730168e-02 0. 1.58730168e-02 7.93650839e-03 0. 0.
      3.96825410e-02 0. 0. 0. 1.58730168e-02 7.93650839e-03 0.
      7.93650839e-03 3.17460336e-02 0. 7.93650839e-03 0. 7.93650839e-03
      7.93650839e-03 0. 2.38095261e-02 0. 1.58730168e-02 0. 0. 0. 0. 0.
      7.93650839e-03 7.93650839e-03 7.93650839e-03 2.38095261e-02 0.
      1.58730168e-02 0. 0. 0. 5.55555597e-02 0. 2.38095261e-02 0. 0.
      7.93650839e-03 7.93650839e-03 0. 0. 7.93650839e-03 0. 0.
      7.93650839e-03 7.93650839e-03 0. 0. 1.82539687e-01 0. 0.
      1.58730168e-02 0. 7.93650839e-03 7.93650839e-03 0. 7.93650839e-03
      7.93650839e-03 1.58730168e-02 0. 7.93650839e-03 0. 0.
      1.58730168e-02 0. 0. 1.58730168e-02 7.93650839e-03 0. 0.
      1.58730168e-02 0. 7.93650839e-03 0. 7.93650839e-03</_>
    <_>
      0. 0. 0. 5.00000007e-02 0. 2.85714287e-02 7.14285718e-03 0. 0. 0.
      7.14285718e-03 4.28571440e-02 7.14285718e-03 7.14285718e-03 0.
      2.85714287e-02 0. 0. 0. 3.57142873e-02 2.85714287e-02 0.
      7.14285718e-03 1.42857144e-02 1.42857144e-02 2.85714287e-02
      1.42857144e-02 0. 0. 0. 1.42857144e-02 3.57142873e-02 0. 0. 0.
      7.14285718e-03 7.14285718e-03 0. 0. 4.28571440e-02 0.
      2.14285720e-02 0. 0. 0. 0. 4.28571440e-02 0. 2.14285720e-02
      7.14285718e-03 0. 0. 0. 0. 0. 7.14285718e-03 1.42857144e-02
      3.57142873e-02 7.14285718e-03 7.14285718e-03 1.42857144e-02 0.
      7.14285718e-03 7.14285718e-03 0. 3.57142873e-02 0. 7.14285718e-03
      0. 1.42857144e-02 0. 1.42857144e-02 0. 1.28571436e-01
      7.14285718e-03 7.14285718e-03 0. 1.42857144e-02 0. 0. 0.
      7.14285718e-03 0. 0. 0. 0. 7.14285718e-03 2.14285720e-02
      1.42857144e-02 7.14285718e-03 1.42857144e-02 7.14285718e-03
      7.14285718e-03 7.14285718e-03 7.14285718e-03 7.14285718e-03
      1.42857144e-02 1.42857144e-02 7.14285718e-03 7.14285718e-03</_>
    <_>
      7.29927002e-03 1.82481743e-02 3.64963501e-03 2.18978096e-02 0.
      7.29927002e-03 7.29927002e-03 3.64963501e-03 3.64963501e-03
      2.18978096e-02 0. 1.09489048e-02 1.45985400e-02 7.29927002e-03
      7.29927002e-03 1.09489048e-02 7.29927002e-03 1.09489048e-02 0.
      1.09489048e-02 1.09489048e-02 7.29927002e-03 3.64963501e-03
      1.45985400e-02 7.29927002e-03 1.09489048e-02 3.64963501e-03 0.
      1.45985400e-02 5.83941601e-02 7.29927002e-03 1.09489048e-02
      7.29927002e-03 3.64963501e-03 1.45985400e-02 3.64963501e-03
      1.45985400e-02 3.64963501e-03 6.93430677e-02 2.18978096e-02
      7.29927002e-03 1.45985400e-02 3.64963501e-03 3.64963501e-03
      1.09489048e-02 7.29927002e-03 1.09489048e-02 0. 3.64963501e-03
      3.64963501e-03 3.64963501e-03 7.29927002e-03 3.64963501e-03 0.
      7.29927002e-03 0. 3.64963501e-03 2.18978096e-02 1.09489048e-02
      1.09489048e-02 1.09489048e-02 0. 3.64963501e-03 1.45985400e-02
      7.29927002e-03 7.29927002e-03 1.45985400e-02 3.64963501e-03
      1.09489048e-02 7.29927002e-03 7.29927002e-03 1.45985400e-02
      1.82481743e-02 2.55474448e-02 3.64963501e-03 1.82481743e-02
      1.09489048e-02 7.29927002e-03 1.45985400e-02 1.09489048e-02 0.
      1.09489048e-02 7.29927002e-03 7.29927002e-03 7.29927002e-03
      3.64963501e-03 1.45985400e-02 1.09489048e-02 3.64963487e-02
      1.09489048e-02 3.64963501e-03 3.64963501e-03 1.45985400e-02
      7.29927002e-03 0. 7.29927002e-03 3.64963501e-03 2.55474448e-02 0.
      1.45985400e-02</_>
    <_>
      1.47058833e-02 9.80392192e-03 9.80392192e-03 2.45098043e-02
      4.90196096e-03 0. 9.80392192e-03 9.80392192e-03 9.80392192e-03 0.
      4.90196096e-03 2.45098043e-02 4.90196096e-03 9.80392192e-03
      5.39215691e-02 3.92156877e-02 9.80392192e-03 4.90196096e-03
      9.80392192e-03 1.96078438e-02 4.90196096e-03 4.90196096e-03
      9.80392192e-03 9.80392192e-03 0. 0. 0. 0. 9.80392192e-03
      4.90196096e-03 2.94117667e-02 1.96078438e-02 1.47058833e-02
      4.90196096e-03 4.90196096e-03 0. 9.80392192e-03 1.96078438e-02
      4.90196096e-03 4.90196096e-03 1.96078438e-02 9.80392192e-03
      9.80392192e-03 9.80392192e-03 4.90196096e-03 1.47058833e-02
      4.90196096e-03 0. 4.90196096e-03 4.90196096e-03 0. 2.45098043e-02
      4.90196096e-03 0. 1.47058833e-02 9.80392192e-03 9.80392192e-03
      2.45098043e-02 1.96078438e-02 4.90196096e-03 0. 0. 9.80392192e-03
      0. 4.90196096e-03 4.90196096e-03 1.96078438e-02 0. 4.90196096e-03
      4.90196096e-03 4.90196096e-03 9.80392192e-03 2.94117667e-02
      9.80392192e-03 4.90196096e-03 9.80392192e-03 1.96078438e-02
      9.80392192e-03 9.80392192e-03 0. 4.90196096e-03 1.47058833e-02 0.
      4.90196096e-03 9.80392192e-03 4.90196096e-03 9.80392192e-03
      4.90196096e-03 1.47058833e-02 9.80392192e-03 1.47058833e-02
      1.47058833e-02 9.80392192e-03 3.43137272e-02 0. 9.80392192e-03
      4.90196096e-03 2.45098043e-02 4.90196096e-03 1.96078438e-02</_>
    <_>
      5.10204071e-03 5.10204071e-03 4.59183678e-02 2.55102031e-02 0. 0.
      1.02040814e-02 1.02040814e-02 2.04081628e-02 5.10204071e-03
      1.53061226e-02 0. 0. 2.55102031e-02 5.10204071e-03 0.
      2.04081628e-02 5.10204071e-03 3.06122452e-02 5.10204071e-03
      1.53061226e-02 5.10204071e-03 2.04081628e-02 0. 5.10204071e-03
      1.53061226e-02 1.02040814e-02 0. 1.02040814e-02 5.10204071e-03
      1.02040814e-02 0. 1.53061226e-02 1.02040814e-02 2.04081628e-02 0.
      2.04081628e-02 0. 5.10204071e-03 5.10204071e-03 5.61224483e-02
      1.53061226e-02 1.53061226e-02 5.10204071e-03 2.04081628e-02 0. 0.
      0. 5.10204071e-03 5.10204071e-03 5.61224483e-02 5.10204071e-03 0.
      1.02040814e-02 2.04081628e-02 0. 0. 1.02040814e-02 0.
      5.10204071e-03 5.10204071e-03 1.53061226e-02 1.53061226e-02
      1.53061226e-02 1.02040814e-02 0. 1.02040814e-02 0. 0.
      5.10204071e-03 0. 5.10204071e-03 1.53061226e-02 2.04081628e-02
      5.10204071e-03 0. 0. 0. 1.53061226e-02 2.04081628e-02 0.
      5.10204071e-03 5.10204071e-03 5.10204071e-03 5.10204071e-03
      2.55102031e-02 5.10204071e-03 0. 4.59183678e-02 5.10204071e-03
      3.06122452e-02 0. 2.55102031e-02 0. 0. 3.06122452e-02 0. 0.
      1.53061226e-02 0.</_>
    <_>
      6.32911362e-03 4.21940908e-03 4.21940908e-03 3.16455662e-02 0.
      1.68776363e-02 8.43881816e-03 1.47679318e-02 3.16455662e-02
      1.26582272e-02 4.21940908e-03 8.43881816e-03 1.05485227e-02
      1.68776363e-02 6.32911362e-03 0. 4.21940908e-03 1.47679318e-02
      6.32911362e-03 8.43881816e-03 2.10970454e-03 1.26582272e-02
      1.68776363e-02 2.10970454e-02 8.43881816e-03 4.21940908e-03
      2.10970454e-03 2.10970454e-03 1.26582272e-02 1.05485227e-02
      8.43881816e-03 1.26582272e-02 1.47679318e-02 2.74261590e-02
      1.26582272e-02 1.47679318e-02 6.32911362e-03 1.26582272e-02
      1.05485227e-02 6.32911362e-03 3.37552726e-02 1.68776363e-02
      1.26582272e-02 6.32911362e-03 1.89873409e-02 2.10970454e-03
      6.32911362e-03 0. 2.10970454e-03 6.32911362e-03 6.32911362e-03
      4.21940908e-03 4.21940908e-03 1.05485227e-02 8.43881816e-03
      4.21940908e-03 6.32911362e-03 1.47679318e-02 1.05485227e-02
      4.21940908e-03 1.47679318e-02 2.10970454e-03 1.26582272e-02
      1.26582272e-02 2.32067499e-02 0. 8.43881816e-03 4.21940908e-03
      8.43881816e-03 1.05485227e-02 8.43881816e-03 3.16455662e-02
      2.10970454e-03 2.10970454e-02 0. 4.21940908e-03 0. 1.26582272e-02
      1.47679318e-02 4.21940908e-03 0. 1.47679318e-02 4.21940908e-03
      1.89873409e-02 0. 4.21940908e-03 8.43881816e-03 4.21940908e-03
      6.32911362e-03 4.21940908e-03 3.37552726e-02 1.89873409e-02
      2.53164545e-02 4.21940908e-03 0. 1.26582272e-02 1.47679318e-02
      2.10970454e-03 1.05485227e-02 6.32911362e-03</_>
    <_>
      3.71747208e-03 1.11524165e-02 7.43494416e-03 3.71747208e-03 0.
      1.11524165e-02 3.71747208e-03 4.46096659e-02 7.43494416e-03
      2.60223038e-02 3.71747208e-03 3.71747208e-03 7.43494416e-03
      1.11524165e-02 7.43494416e-03 0. 3.71747208e-03 2.23048329e-02
      1.85873602e-02 1.48698883e-02 1.11524165e-02 7.43494416e-03
      2.23048329e-02 1.11524165e-02 3.71747208e-03 2.97397766e-02 0. 0.
      3.71747208e-03 2.97397766e-02 0. 3.71747208e-03 2.97397766e-02
      2.60223038e-02 1.11524165e-02 1.11524165e-02 3.71747208e-03
      1.11524165e-02 1.11524165e-02 0. 2.97397766e-02 1.11524165e-02
      1.11524165e-02 2.23048329e-02 1.85873602e-02 7.43494416e-03
      3.71747208e-03 0. 3.71747208e-03 7.43494416e-03 1.48698883e-02
      1.48698883e-02 1.48698883e-02 2.23048329e-02 7.43494416e-03
      3.71747208e-03 0. 2.23048329e-02 1.11524165e-02 7.43494416e-03
      1.85873602e-02 0. 1.48698883e-02 7.43494416e-03 2.23048329e-02 0.
      3.71747208e-03 1.11524165e-02 0. 1.48698883e-02 1.11524165e-02
      7.43494416e-03 3.71747208e-03 1.11524165e-02 3.71747208e-03 0.
      1.11524165e-02 7.43494416e-03 3.71747203e-02 7.43494416e-03 0.
      7.43494416e-03 1.11524165e-02 1.85873602e-02 0. 0. 3.71747208e-03
      0. 2.97397766e-02 3.71747208e-03 2.23048329e-02 0. 1.48698883e-02
      3.71747208e-03 0. 0. 1.11524165e-02 3.71747208e-03 3.71747208e-03
      0.</_>
    <_>
      4.08163248e-03 2.44897939e-02 0. 5.71428537e-02 1.63265299e-02
      4.08163248e-03 8.16326495e-03 1.63265299e-02 0. 0. 0.
      3.67346928e-02 1.22448970e-02 4.08163248e-03 8.16326495e-03
      4.08163248e-03 8.16326495e-03 0. 1.22448970e-02 8.16326495e-03
      1.22448970e-02 0. 4.08163248e-03 2.44897939e-02 4.08163248e-03 0.
      8.16326495e-03 0. 8.16326495e-03 2.04081628e-02 4.48979586e-02
      1.22448970e-02 4.08163248e-03 1.63265299e-02 0. 0. 1.63265299e-02
      4.08163248e-03 4.08163257e-02 4.08163248e-03 0. 4.08163248e-03
      4.08163248e-03 8.16326495e-03 4.08163248e-03 4.08163248e-03
      8.16326495e-03 1.22448970e-02 4.89795879e-02 0. 0. 2.44897939e-02
      8.16326495e-03 1.63265299e-02 4.08163248e-03 1.63265299e-02
      2.04081628e-02 1.63265299e-02 1.22448970e-02 1.63265299e-02 0. 0.
      8.16326495e-03 1.63265299e-02 4.08163248e-03 4.08163248e-03
      8.16326495e-03 8.16326495e-03 0. 0. 3.26530598e-02 0. 0.
      1.22448970e-02 1.22448970e-02 1.22448970e-02 4.08163248e-03
      4.08163248e-03 8.16326495e-03 0. 1.22448970e-02 4.08163248e-03
      1.63265299e-02 0. 0. 0. 8.16326495e-03 2.04081628e-02
      1.22448970e-02 4.08163248e-03 8.16326495e-03 2.04081628e-02
      8.16326495e-03 4.08163248e-03 8.16326495e-03 4.08163248e-03
      8.16326495e-03 4.08163248e-03 1.63265299e-02 2.85714269e-02</_>
    <_>
      0. 0. 0. 0. 0. 0. 0. 1.24223605e-02 3.10559012e-02 1.86335407e-02
      0. 0. 0. 1.86335407e-02 0. 0. 1.86335407e-02 1.24223605e-02
      3.72670814e-02 6.21118024e-03 0. 0. 1.86335407e-02 0.
      1.24223605e-02 1.24223605e-02 0. 0. 1.86335407e-02 6.21118024e-02
      1.24223605e-02 1.86335407e-02 1.86335407e-02 3.10559012e-02
      2.48447210e-02 1.24223605e-02 4.34782617e-02 1.24223605e-02
      5.59006222e-02 0. 6.21118024e-03 4.34782617e-02 0. 1.86335407e-02
      1.24223605e-02 1.24223605e-02 0. 0. 1.24223605e-02 6.21118024e-03
      0. 1.24223605e-02 0. 0. 1.24223605e-02 6.21118024e-03 0.
      1.24223605e-02 1.24223605e-02 6.21118024e-03 1.24223605e-02 0.
      6.21118024e-03 1.24223605e-02 2.48447210e-02 6.21118024e-03
      6.21118024e-03 1.24223605e-02 0. 6.21118024e-03 6.21118024e-03
      1.24223605e-02 6.21118024e-03 1.24223605e-02 0. 0. 1.86335407e-02
      0. 6.21118024e-03 1.24223605e-02 0. 6.21118024e-03 1.86335407e-02
      0. 0. 6.21118024e-03 1.24223605e-02 0. 1.24223605e-02 0.
      3.10559012e-02 6.21118024e-03 1.24223605e-02 6.21118024e-03
      6.21118024e-03 0. 1.24223605e-02 0. 1.86335407e-02 6.21118024e-03</_>
    <_>
      0. 0. 0. 4.44444418e-02 1.48148146e-02 7.40740728e-03
      7.40740728e-03 1.48148146e-02 1.48148146e-02 7.40740728e-03 0.
      2.22222209e-02 2.96296291e-02 1.48148146e-02 2.22222209e-02
      4.44444418e-02 0. 0. 7.40740728e-03 7.40740728e-03 1.48148146e-02
      0. 4.44444418e-02 5.18518500e-02 7.40740728e-03 7.40740728e-03
      7.40740728e-03 0. 0. 7.40740728e-03 2.96296291e-02 0.
      7.40740728e-03 2.96296291e-02 7.40740728e-03 7.40740728e-03 0.
      1.48148146e-02 5.18518500e-02 0. 2.96296291e-02 7.40740728e-03 0.
      0. 0. 7.40740728e-03 7.40740728e-03 0. 7.40740728e-03
      7.40740728e-03 7.40740728e-03 0. 7.40740728e-03 7.40740728e-03 0.
      7.40740728e-03 0. 7.40740728e-03 0. 7.40740728e-03 0. 0. 0.
      7.40740728e-03 3.70370373e-02 0. 0. 0. 0. 0. 7.40740728e-03
      1.48148146e-02 1.48148146e-02 7.40740728e-03 7.40740728e-03
      7.40740728e-03 0. 0. 7.40740728e-03 1.48148146e-02 0.
      2.22222209e-02 2.22222209e-02 7.40740728e-03 0. 7.40740728e-03
      2.22222209e-02 7.40740728e-03 2.22222209e-02 0. 0. 2.22222209e-02
      2.22222209e-02 0. 7.40740728e-03 0. 0. 0. 3.70370373e-02
      1.48148146e-02</_>
    <_>
      3.33333341e-03 2.83333343e-02 4.99999989e-03 2.50000004e-02
      6.66666683e-03 1.66666671e-03 3.33333341e-03 6.66666683e-03
      4.99999989e-03 6.66666683e-03 1.66666671e-03 4.33333330e-02
      3.33333341e-03 8.33333377e-03 1.16666667e-02 1.66666675e-02
      1.16666667e-02 9.99999978e-03 1.50000006e-02 8.33333377e-03
      1.16666667e-02 3.33333341e-03 2.66666673e-02 1.16666667e-02
      4.99999989e-03 9.99999978e-03 1.66666671e-03 0. 1.50000006e-02
      8.33333377e-03 8.33333377e-03 9.99999978e-03 9.99999978e-03
      8.33333377e-03 1.99999996e-02 0. 1.99999996e-02 6.66666683e-03
      9.99999978e-03 8.33333377e-03 1.16666667e-02 6.66666683e-03
      1.16666667e-02 1.16666667e-02 9.99999978e-03 1.99999996e-02
      1.66666675e-02 4.99999989e-03 6.66666683e-03 0. 8.33333377e-03
      9.99999978e-03 9.99999978e-03 1.83333345e-02 9.99999978e-03
      3.33333341e-03 4.99999989e-03 2.33333334e-02 4.99999989e-03
      1.16666667e-02 4.99999989e-03 0. 6.66666683e-03 3.33333341e-03
      8.33333377e-03 3.33333341e-03 1.99999996e-02 4.99999989e-03 0.
      9.99999978e-03 4.99999989e-03 0. 1.33333337e-02 2.16666665e-02
      1.33333337e-02 8.33333377e-03 9.99999978e-03 9.99999978e-03
      1.33333337e-02 1.83333345e-02 0. 3.33333341e-03 1.16666667e-02
      4.99999989e-03 9.99999978e-03 9.99999978e-03 1.66666671e-03
      8.33333377e-03 1.99999996e-02 1.50000006e-02 1.66666675e-02
      1.16666667e-02 6.66666683e-03 1.33333337e-02 3.33333341e-03
      1.66666675e-02 3.33333341e-03 2.33333334e-02 1.50000006e-02
      8.33333377e-03</_>
    <_>
      0. 0. 1.42857153e-02 4.76190494e-03 2.38095243e-02 9.52380989e-03
      0. 5.23809530e-02 9.52380989e-03 1.90476198e-02 1.42857153e-02 0.
      0. 4.76190494e-03 0. 0. 2.85714306e-02 4.76190494e-03
      1.42857153e-02 0. 0. 1.90476198e-02 9.52380989e-03 0.
      4.76190494e-03 3.33333351e-02 0. 4.76190494e-03 1.90476198e-02
      3.80952395e-02 0. 0. 2.85714306e-02 5.23809530e-02 9.52380989e-03
      0. 1.90476198e-02 0. 3.80952395e-02 0. 3.33333351e-02 0.
      1.42857153e-02 0. 9.52380989e-03 0. 4.76190494e-03 0. 0.
      9.52380989e-03 1.90476198e-02 1.42857153e-02 9.52380989e-03
      1.90476198e-02 9.52380989e-03 0. 0. 0. 0. 4.76190494e-03
      4.76190494e-03 0. 6.19047657e-02 4.76190494e-03 9.52380989e-03 0.
      2.85714306e-02 9.52380989e-03 0. 4.76190494e-03 0. 0.
      1.90476198e-02 0. 0. 0. 9.52380989e-03 4.76190494e-03
      1.42857153e-02 2.85714306e-02 0. 4.76190494e-03 4.76190494e-03
      1.90476198e-02 1.90476198e-02 4.76190485e-02 0. 0. 0. 0.
      1.42857153e-02 4.76190494e-03 0. 0. 4.76190494e-03 4.28571440e-02
      4.76190494e-03 0. 0. 9.52380989e-03</_>
    <_>
      4.92610829e-03 4.92610829e-03 2.46305414e-03 1.72413792e-02
      4.92610829e-03 1.23152705e-02 7.38916267e-03 1.47783253e-02
      4.92610829e-03 7.38916267e-03 2.46305414e-03 0. 1.72413792e-02
      1.72413792e-02 1.47783253e-02 2.46305414e-03 1.23152705e-02
      7.38916267e-03 1.47783253e-02 1.47783253e-02 7.38916267e-03
      7.38916267e-03 1.47783253e-02 2.46305410e-02 1.97044332e-02
      2.46305414e-03 4.92610829e-03 0. 9.85221658e-03 2.70935949e-02
      1.23152705e-02 7.38916267e-03 1.72413792e-02 7.38916267e-03
