<?xml version="1.0"?>
<opencv_storage>
<opencv_ml_svm>
  <format>3</format>
  <svmType>C_SVC</svmType>
  <kernel>
    <type>RBF</type>
    <gamma>5.0625000000000009e-01</gamma></kernel>
  <C>3.1250000000000000e+02</C>
  <term_criteria><iterations>100</iterations></term_criteria>
  <var_count>50</var_count>
  <class_count>5</class_count>
  <class_labels type_id="opencv-matrix">
    <rows>5</rows>
    <cols>1</cols>
    <dt>i</dt>
    <data>
      0 1 2 3 4</data></class_labels>
  <sv_total>166</sv_total>
  <support_vectors>
    <_>
      1.94174759e-02 4.85436898e-03 2.18446609e-02 8.49514548e-03
      1.29854366e-01 8.49514548e-03 2.79126223e-02 1.26213595e-01
      9.70873795e-03 3.64077687e-02 1.09223304e-02 1.45631069e-02
      4.85436898e-03 2.30582524e-02 1.09223304e-02 3.64077673e-03
      9.70873795e-03 2.66990289e-02 9.70873795e-03 6.06796145e-03
      1.21359229e-02 4.73300964e-02 2.91262139e-02 1.33495145e-02
      7.28155347e-03 2.79126223e-02 7.28155347e-03 2.79126223e-02
      9.70873795e-03 1.33495145e-02 1.09223304e-02 8.49514548e-03
      1.82038844e-02 1.21359229e-02 1.57766994e-02 3.64077673e-03
      8.49514548e-03 4.85436898e-03 1.09223304e-02 2.06310675e-02
      1.94174759e-02 1.45631069e-02 4.85436898e-03 1.09223304e-02
      4.85436898e-03 1.09223304e-02 2.18446609e-02 3.03398054e-02
      4.49029133e-02 1.45631069e-02</_>
    <_>
      1.43737169e-02 6.98151961e-02 3.08008231e-02 1.02669410e-02
      3.90143767e-02 6.77618086e-02 3.49075980e-02 1.43737169e-02
      2.87474338e-02 1.43737169e-02 8.21355265e-03 8.21355265e-03
      1.23203285e-02 1.23203285e-02 2.25872695e-02 8.21355265e-03
      1.23203285e-02 3.49075980e-02 4.51745391e-02 1.64271053e-02
      6.16016425e-03 1.64271053e-02 1.84804928e-02 2.05338821e-02
      2.05338816e-03 8.21355265e-03 2.05338821e-02 1.02669410e-02
      1.23203285e-02 2.05338821e-02 4.10677642e-02 2.25872695e-02
      4.10677632e-03 1.02669410e-02 1.64271053e-02 1.02669410e-02
      1.64271053e-02 1.84804928e-02 8.21355265e-03 1.02669410e-02
      1.23203285e-02 1.02669410e-02 1.02669410e-02 1.84804928e-02
      1.84804928e-02 2.25872695e-02 1.64271053e-02 5.74948676e-02
      2.05338821e-02 1.43737169e-02</_>
    <_>
      2.96495948e-02 2.96495948e-02 5.39083546e-03 1.88679248e-02
      8.08625296e-03 2.69541778e-02 2.69541778e-02 6.19946085e-02
      5.39083546e-03 1.61725059e-02 1.07816709e-02 8.08625296e-03
      2.69541773e-03 1.88679248e-02 5.12129366e-02 1.07816709e-02
      2.42587589e-02 2.69541778e-02 8.08625296e-03 2.15633418e-02
      2.69541773e-03 2.42587589e-02 1.88679248e-02 5.39083546e-03
      6.73854426e-02 5.39083546e-03 8.08625296e-03 8.08625296e-03
      8.08625296e-03 5.39083546e-03 1.07816709e-02 5.39083546e-03
      7.81671107e-02 3.23450118e-02 1.07816709e-02 5.39083546e-03
      1.61725059e-02 1.61725059e-02 1.34770889e-02 1.61725059e-02
      3.50404307e-02 2.69541778e-02 1.34770889e-02 1.88679248e-02
      2.69541773e-03 1.88679248e-02 5.39083546e-03 2.15633418e-02
      8.08625296e-02 5.39083546e-03</_>
    <_>
      2.37812120e-02 1.42687280e-02 2.14030910e-02 1.42687280e-02
      3.68608795e-02 3.56718199e-03 1.66468490e-02 4.63733636e-02
      1.42687280e-02 2.37812125e-03 5.46967871e-02 2.49702726e-02
      2.37812120e-02 3.80499400e-02 1.18906060e-02 3.56718199e-03
      2.85374559e-02 2.85374559e-02 1.30796665e-02 1.18906060e-02
      1.42687280e-02 2.25921515e-02 2.02140305e-02 1.66468490e-02
      3.92390005e-02 4.28061821e-02 1.66468490e-02 2.73483936e-02
      3.56718190e-02 2.25921515e-02 1.42687280e-02 9.51248500e-03
      2.02140305e-02 2.37812120e-02 2.73483936e-02 2.14030910e-02
      1.18906060e-02 8.32342450e-03 1.18906060e-02 2.02140305e-02
      2.37812120e-02 3.32936980e-02 5.94530301e-03 8.32342450e-03
      1.18906060e-02 1.78359095e-02 0. 1.54577885e-02 2.37812120e-02 0.</_>
    <_>
      2.67558526e-02 4.84949835e-02 1.83946490e-02 2.17391308e-02
      5.01672225e-03 3.17725763e-02 2.17391308e-02 2.00668890e-02
      2.34113708e-02 1.17056854e-02 2.84280926e-02 5.01672225e-03
      1.50501672e-02 2.50836127e-02 4.34782617e-02 6.68896316e-03
      2.67558526e-02 5.35117052e-02 4.01337780e-02 2.84280926e-02
      1.33779263e-02 2.00668890e-02 2.84280926e-02 8.36120360e-03
      1.83946490e-02 1.83946490e-02 2.00668890e-02 2.00668890e-02
      6.68896316e-03 8.36120360e-03 1.33779263e-02 1.00334445e-02
      8.36120360e-03 1.17056854e-02 1.83946490e-02 2.17391308e-02
      1.67224072e-02 1.50501672e-02 1.83946490e-02 2.34113708e-02
      1.33779263e-02 2.50836127e-02 8.36120360e-03 1.00334445e-02
      3.67892981e-02 2.67558526e-02 6.68896316e-03 1.50501672e-02
      2.84280926e-02 8.36120360e-03</_>
    <_>
      1.61750708e-02 1.71265453e-02 4.75737359e-03 1.14176972e-02
      5.70884859e-03 3.42530906e-02 1.61750708e-02 3.80589906e-03
      1.61750708e-02 1.63653657e-01 1.04662227e-02 1.61750708e-02
      2.09324453e-02 1.61750708e-02 1.23691717e-02 5.70884859e-03
      1.71265453e-02 1.99809708e-02 1.52235962e-02 1.42721217e-02
      8.56327266e-03 9.80018973e-02 1.23691717e-02 7.61179812e-03
      1.99809708e-02 2.09324453e-02 9.51474719e-03 1.99809708e-02
      2.56898180e-02 1.33206472e-02 1.52235962e-02 7.61179812e-03
      3.80589906e-03 1.04662227e-02 7.61179812e-03 9.51474719e-03
      1.61750708e-02 1.80780198e-02 1.42721217e-02 1.33206472e-02
      8.56327266e-03 2.09324453e-02 6.66032359e-03 6.66032359e-03
      1.33206472e-02 2.75927689e-02 8.56327266e-03 8.84871557e-02
      1.90294944e-02 1.04662227e-02</_>
    <_>
      1.25000002e-02 3.21428590e-02 2.14285720e-02 2.85714287e-02
      1.60714295e-02 1.60714295e-02 3.21428590e-02 1.96428578e-02
      1.60714295e-02 8.92857183e-03 1.78571437e-02 1.42857144e-02
      3.03571429e-02 2.32142862e-02 8.92857183e-03 5.35714300e-03
      1.07142860e-02 2.50000004e-02 2.14285720e-02 2.32142862e-02
      1.78571437e-02 1.42857144e-02 1.96428578e-02 3.75000015e-02
      2.14285720e-02 2.32142862e-02 1.42857144e-02 3.03571429e-02
      4.28571440e-02 1.96428578e-02 1.60714295e-02 2.85714287e-02
      1.60714295e-02 1.25000002e-02 2.32142862e-02 5.35714300e-03
      2.14285720e-02 1.96428578e-02 1.96428578e-02 1.42857144e-02
      1.42857144e-02 2.32142862e-02 1.07142860e-02 1.07142860e-02
      1.25000002e-02 3.03571429e-02 1.96428578e-02 5.35714300e-03
      4.46428582e-02 2.67857146e-02</_>
    <_>
      2.69016698e-02 2.78293137e-02 1.94805190e-02 7.42115034e-03
      8.07050094e-02 3.71057517e-03 2.87569575e-02 6.86456412e-02
      3.61781083e-02 2.13358067e-02 1.39146568e-02 2.50463821e-02
      8.34879372e-03 3.61781083e-02 1.57699436e-02 2.78293132e-03
      2.87569575e-02 2.22634505e-02 1.20593691e-02 5.56586264e-03
      1.66975874e-02 1.76252313e-02 3.52504626e-02 1.94805190e-02
      8.34879372e-03 1.39146568e-02 4.17439714e-02 1.94805190e-02
      3.98886837e-02 7.42115034e-03 2.31910944e-02 2.13358067e-02
      1.76252313e-02 5.56586264e-03 1.85528751e-02 1.20593691e-02
      1.29870130e-02 1.85528758e-03 1.57699436e-02 1.57699436e-02
      4.54545468e-02 1.02040814e-02 3.71057517e-03 5.56586264e-03
      1.11317253e-02 1.20593691e-02 1.20593691e-02 5.56586264e-03
      2.41187382e-02 1.39146568e-02</_>
    <_>
      2.24948861e-02 1.06339470e-01 2.24948861e-02 3.68098170e-02
      2.04498973e-02 5.11247441e-02 1.22699384e-02 6.13496918e-03
      2.24948861e-02 2.45398767e-02 1.22699384e-02 1.43149281e-02
      2.24948861e-02 4.08997945e-03 2.65848674e-02 2.04498973e-02
      3.06748450e-02 1.43149281e-02 7.56646171e-02 5.52147217e-02
      2.24948861e-02 1.63599178e-02 1.84049085e-02 1.22699384e-02
      2.04498973e-02 2.04498973e-03 2.65848674e-02 6.13496918e-03
      1.43149281e-02 1.63599178e-02 1.43149281e-02 1.43149281e-02
      2.04498973e-02 1.02249486e-02 2.86298562e-02 1.22699384e-02
      1.22699384e-02 1.22699384e-02 1.02249486e-02 4.08997945e-03
      1.84049085e-02 1.63599178e-02 8.17995891e-03 1.22699384e-02
      1.22699384e-02 1.02249486e-02 1.22699384e-02 2.04498973e-03 0.
      1.22699384e-02</_>
    <_>
      1.07238609e-02 2.41286866e-02 1.20643433e-02 3.88739966e-02
      1.87667571e-02 2.81501357e-02 1.07238609e-02 4.95978557e-02
      1.34048257e-02 4.28954437e-02 1.34048257e-02 2.81501357e-02
      2.41286866e-02 3.61930318e-02 2.54691690e-02 1.07238609e-02
      2.41286866e-02 3.61930318e-02 1.60857923e-02 2.14477219e-02
      2.41286866e-02 2.14477219e-02 2.14477219e-02 2.54691690e-02
      1.47453090e-02 1.34048257e-02 1.60857923e-02 2.01072395e-02
      2.14477219e-02 1.20643433e-02 1.60857923e-02 2.41286866e-02
      2.01072395e-02 1.07238609e-02 1.47453090e-02 4.02144808e-03
      2.27882043e-02 6.70241285e-03 1.34048257e-02 2.01072395e-02
      2.41286866e-02 3.21715847e-02 5.36193047e-03 8.04289617e-03
      2.68096523e-03 4.28954437e-02 2.68096523e-03 2.41286866e-02
      2.41286866e-02 5.36193047e-03</_>
    <_>
      2.08604950e-02 2.08604950e-02 9.12646670e-03 2.73793992e-02
      7.82268587e-03 1.17340283e-02 3.25945243e-02 6.51890459e-03
      2.08604950e-02 2.47718375e-02 1.43415900e-02 1.56453717e-02
      1.95567142e-02 1.30378092e-02 2.60756183e-02 1.17340283e-02
      9.12646670e-03 5.47587983e-02 1.82529334e-02 1.95567142e-02
      1.56453717e-02 5.86701408e-02 2.21642759e-02 1.82529334e-02
      1.69491526e-02 1.82529334e-02 1.43415900e-02 1.17340283e-02
      2.86831800e-02 1.95567142e-02 1.04302475e-02 3.12907435e-02
      3.91134294e-03 1.69491526e-02 1.17340283e-02 1.04302475e-02
      9.12646670e-03 5.21512376e-03 1.17340283e-02 2.21642759e-02
      1.69491526e-02 2.99869608e-02 2.60756188e-03 1.04302475e-02
      2.08604950e-02 2.86831800e-02 1.95567142e-02 5.08474559e-02
      6.25814870e-02 1.56453717e-02</_>
    <_>
      3.30578499e-02 9.29751992e-03 8.26446246e-03 8.26446246e-03
      1.23966932e-02 2.78925616e-02 4.23553698e-02 2.58264448e-02
      1.44628091e-02 2.68595032e-02 2.37603299e-02 4.33884263e-02
      2.37603299e-02 2.16942132e-02 1.03305783e-02 5.16528916e-03
      2.37603299e-02 2.16942132e-02 5.16528916e-03 1.13636358e-02
      1.96280982e-02 2.16942132e-02 3.61570232e-02 2.16942132e-02
      2.47933865e-02 2.27272715e-02 1.44628091e-02 2.68595032e-02
      2.16942132e-02 1.44628091e-02 1.34297516e-02 1.34297516e-02
      1.75619833e-02 1.75619833e-02 1.65289249e-02 1.23966932e-02
      1.75619833e-02 1.65289249e-02 2.58264448e-02 6.40495867e-02
      2.78925616e-02 1.34297516e-02 4.13223123e-03 4.13223123e-03
      1.54958675e-02 1.44628091e-02 5.16528916e-03 3.92561965e-02
      2.89256182e-02 9.29751992e-03</_>
    <_>
      2.32558139e-02 4.31893691e-02 1.32890362e-02 6.64451811e-03
      4.65116277e-02 0. 1.99335553e-02 6.31229207e-02 3.32225896e-02
      3.32225896e-02 1.32890362e-02 6.64451811e-03 4.31893691e-02
      2.99003311e-02 1.66112948e-02 3.32225906e-03 1.66112948e-02
      2.65780725e-02 2.65780725e-02 6.64451811e-03 0. 3.32225896e-02
      1.32890362e-02 1.32890362e-02 3.98671106e-02 3.32225906e-03
      3.32225896e-02 5.64784035e-02 1.66112948e-02 4.31893691e-02
      9.96677764e-03 3.65448482e-02 0. 0. 1.32890362e-02 3.98671106e-02
      1.99335553e-02 0. 1.66112948e-02 3.32225906e-03 3.65448482e-02
      6.64451811e-03 0. 0. 2.65780725e-02 2.32558139e-02 1.32890362e-02
      3.32225906e-03 1.32890362e-02 1.32890362e-02</_>
    <_>
      2.02429146e-02 4.65587042e-02 6.07287465e-03 1.21457493e-02
      4.04858310e-03 4.04858291e-02 2.63157897e-02 8.09716620e-03
      2.02429146e-02 3.64372469e-02 1.21457493e-02 2.22672075e-02
      2.42914986e-02 2.22672075e-02 1.82186235e-02 2.02429155e-03
      1.01214573e-02 6.07287474e-02 3.23886648e-02 1.41700413e-02
      8.09716620e-03 2.63157897e-02 1.82186235e-02 1.41700413e-02
      1.82186235e-02 2.22672075e-02 1.61943324e-02 2.02429146e-02
      3.64372469e-02 3.84615399e-02 1.01214573e-02 2.63157897e-02
      2.02429155e-03 2.02429155e-03 8.09716620e-03 3.03643737e-02
      1.21457493e-02 1.21457493e-02 2.22672075e-02 2.42914986e-02
      2.83400826e-02 2.22672075e-02 4.04858310e-03 6.07287465e-03
      4.25101221e-02 2.42914986e-02 1.61943324e-02 6.07287465e-03
      2.22672075e-02 2.02429146e-02</_>
    <_>
      2.14521457e-02 5.11551164e-02 1.15511557e-02 1.65016502e-02
      3.63036320e-02 6.60066027e-03 4.62046228e-02 2.14521457e-02
      1.15511557e-02 6.60066027e-03 8.25082511e-03 4.45544571e-02
      2.80528069e-02 1.98019817e-02 9.90099087e-03 3.30033014e-03
      1.48514854e-02 3.30033004e-02 1.81518160e-02 1.65016507e-03
      1.15511557e-02 1.65016507e-03 2.14521457e-02 2.80528069e-02
      2.31023114e-02 3.79537977e-02 1.15511557e-02 4.29042913e-02
      5.77557757e-02 2.47524753e-02 1.32013205e-02 3.30033004e-02
      1.32013205e-02 4.95049544e-03 1.48514854e-02 1.65016502e-02
      9.90099087e-03 6.60066027e-03 2.14521457e-02 2.14521457e-02
      3.30033004e-02 6.60066027e-03 6.60066027e-03 8.25082511e-03
      1.48514854e-02 1.48514854e-02 2.80528069e-02 9.90099087e-03
      3.13531347e-02 1.98019817e-02</_>
    <_>
      2.20588241e-02 4.65686284e-02 7.35294167e-03 2.69607846e-02
      4.16666679e-02 7.35294167e-03 3.18627469e-02 3.18627469e-02
      1.22549022e-02 4.90196096e-03 2.20588241e-02 5.88235334e-02
      1.96078438e-02 9.80392192e-03 7.35294167e-03 7.35294167e-03
      1.71568636e-02 1.47058833e-02 6.61764741e-02 1.22549022e-02
      1.47058833e-02 2.69607846e-02 2.69607846e-02 2.45098048e-03
      2.94117667e-02 9.80392192e-03 1.71568636e-02 3.43137272e-02
      3.18627469e-02 1.71568636e-02 1.22549022e-02 2.45098048e-03
      5.39215691e-02 1.22549022e-02 4.90196096e-03 1.47058833e-02
      2.45098048e-03 7.35294167e-03 7.35294167e-03 4.16666679e-02
      2.45098043e-02 7.35294167e-03 0. 0. 2.94117667e-02 9.80392192e-03
      2.20588241e-02 4.16666679e-02 1.22549022e-02 1.47058833e-02</_>
    <_>
      2.47252751e-02 1.37362638e-02 2.19780225e-02 1.23626376e-02
      1.23626376e-02 1.37362641e-03 6.45604432e-02 6.86813192e-03
      6.86813192e-03 1.37362641e-03 1.51098901e-02 4.39560451e-02
      2.74725277e-02 1.64835174e-02 1.09890113e-02 8.24175868e-03
      1.51098901e-02 4.94505502e-02 1.51098901e-02 1.51098901e-02
      9.61538497e-03 8.24175868e-03 1.37362638e-02 2.06043962e-02
      6.18131869e-02 3.43406610e-02 8.24175868e-03 4.12087925e-02
      3.57142873e-02 2.19780225e-02 6.86813192e-03 2.88461540e-02
      2.19780225e-02 6.86813192e-03 1.23626376e-02 2.88461540e-02
      9.61538497e-03 8.24175868e-03 6.86813192e-03 3.02197803e-02
      1.92307699e-02 1.64835174e-02 5.49450563e-03 6.86813192e-03
      3.57142873e-02 1.23626376e-02 1.51098901e-02 2.60989014e-02
      4.67032976e-02 1.64835174e-02</_>
    <_>
      1.44927539e-02 1.86335407e-02 1.03519671e-02 1.86335407e-02
      2.89855078e-02 1.24223605e-02 1.24223605e-02 1.86335407e-02
      1.03519671e-02 8.28157365e-03 1.24223605e-02 1.44927539e-02
      1.44927539e-02 1.03519671e-02 1.24223605e-02 1.03519671e-02
      8.28157365e-03 5.79710156e-02 2.27743275e-02 8.28157365e-03
      2.07039341e-03 4.55486551e-02 1.03519671e-02 2.27743275e-02
      5.38302287e-02 4.14078683e-02 1.03519671e-02 3.31262946e-02
      6.00414090e-02 1.86335407e-02 6.21118024e-03 1.86335407e-02
      1.44927539e-02 8.28157365e-03 2.27743275e-02 1.44927539e-02
      2.89855078e-02 1.24223605e-02 2.69151144e-02 1.86335407e-02
      2.27743275e-02 3.10559012e-02 2.07039341e-03 4.14078683e-03
      1.65631473e-02 3.51966880e-02 0. 4.34782617e-02 4.96894419e-02 0.</_>
    <_>
      1.46341464e-02 3.65853645e-02 1.21951215e-02 1.21951215e-02
      7.31707318e-03 1.21951215e-02 2.19512191e-02 2.68292688e-02
      7.31707318e-03 1.21951215e-02 2.68292688e-02 3.41463424e-02
      4.63414639e-02 1.46341464e-02 1.46341464e-02 1.46341464e-02
      3.41463424e-02 3.41463424e-02 4.87804879e-03 1.46341464e-02
      2.19512191e-02 3.17073166e-02 7.31707318e-03 1.70731712e-02
      5.12195118e-02 4.14634161e-02 4.87804879e-03 5.12195118e-02
      2.19512191e-02 4.87804860e-02 2.19512191e-02 1.95121951e-02
      9.75609757e-03 1.70731712e-02 1.95121951e-02 9.75609757e-03
      1.95121951e-02 7.31707318e-03 1.21951215e-02 2.92682927e-02
      1.46341464e-02 1.95121951e-02 7.31707318e-03 4.87804879e-03
      9.75609757e-03 7.31707318e-03 1.95121951e-02 2.43902430e-02
      9.75609757e-03 1.70731712e-02</_>
    <_>
      3.46534662e-02 7.42574260e-02 1.98019799e-02 0. 9.90098994e-03 0.
      4.45544533e-02 1.98019799e-02 2.47524753e-02 0. 1.48514844e-02
      4.95049497e-03 3.46534662e-02 1.98019799e-02 9.90098994e-03
      1.48514844e-02 4.95049506e-02 3.46534662e-02 6.93069324e-02
      2.47524753e-02 9.90098994e-03 0. 9.90098994e-03 4.95049497e-03
      9.90098994e-03 2.97029689e-02 2.97029689e-02 1.48514844e-02
      1.98019799e-02 3.46534662e-02 2.47524753e-02 0. 4.95049497e-03
      4.95049497e-03 2.97029689e-02 4.95049506e-02 2.47524753e-02
      1.98019799e-02 9.90098994e-03 4.95049497e-03 3.96039598e-02 0.
      4.95049497e-03 4.95049497e-03 3.46534662e-02 9.90098994e-03 0.
      9.90098994e-03 5.44554442e-02 0.</_>
    <_>
      6.80272095e-03 6.80272095e-03 1.36054419e-02 6.80272095e-03
      6.80272095e-03 6.80272095e-03 2.04081628e-02 6.80272095e-03
      6.80272095e-03 0. 1.36054419e-02 1.36054419e-02 6.80272132e-02
      2.04081628e-02 6.80272095e-03 2.04081628e-02 1.36054419e-02
      1.49659857e-01 2.04081628e-02 2.04081628e-02 6.80272095e-03 0.
      1.36054419e-02 1.36054419e-02 5.44217676e-02 2.72108838e-02
      6.80272095e-03 3.40136066e-02 3.40136066e-02 2.72108838e-02
      1.36054419e-02 6.80272095e-03 6.80272095e-03 6.80272095e-03
      2.04081628e-02 2.04081628e-02 3.40136066e-02 2.04081628e-02
      6.80272095e-03 3.40136066e-02 4.08163257e-02 6.80272095e-03 0.
      6.80272095e-03 2.04081628e-02 0. 0. 0. 1.02040812e-01
      6.80272095e-03</_>
    <_>
      8.29875562e-03 2.07468886e-02 7.88381770e-02 2.90456451e-02
      6.63900450e-02 4.97925356e-02 8.29875562e-03 5.80912903e-02
      1.65975112e-02 7.46887997e-02 1.24481339e-02 4.14937781e-03 0.
      1.24481339e-02 8.29875562e-03 1.24481339e-02 2.07468886e-02 0.
      3.73443998e-02 0. 6.63900450e-02 4.14937781e-03 5.80912903e-02
      2.90456451e-02 0. 0. 4.14937781e-03 4.14937781e-03 4.14937781e-03
      0. 2.48962678e-02 2.48962678e-02 0. 1.24481339e-02 2.90456451e-02
      4.14937781e-03 0. 4.14937781e-03 1.24481339e-02 1.24481339e-02
      4.14937781e-03 1.65975112e-02 2.07468886e-02 4.56431545e-02
      1.24481339e-02 2.90456451e-02 2.07468886e-02 1.65975112e-02 0.
      2.07468886e-02</_>
    <_>
      3.46534662e-02 6.93069324e-02 1.98019799e-02 1.48514844e-02
      4.95049506e-02 3.46534662e-02 3.46534662e-02 7.92079195e-02
      4.95049497e-03 9.90098994e-03 4.95049497e-03 1.98019799e-02
      2.47524753e-02 9.90098994e-03 9.90098994e-03 2.97029689e-02
      2.47524753e-02 9.90098994e-03 1.98019799e-02 3.96039598e-02
      1.48514844e-02 0. 9.90098994e-03 4.95049497e-03 9.90098994e-03
      2.47524753e-02 9.90098994e-03 3.46534662e-02 4.95049497e-03
      4.95049497e-03 2.47524753e-02 0. 9.90098994e-03 2.47524753e-02
      2.47524753e-02 1.48514844e-02 4.95049497e-03 2.97029689e-02
      3.46534662e-02 2.47524753e-02 2.47524753e-02 4.95049497e-03
      4.95049497e-03 2.47524753e-02 1.98019799e-02 1.98019799e-02
      1.48514844e-02 0. 9.90098994e-03 1.98019799e-02</_>
    <_>
      2.23048329e-02 4.08921912e-02 2.23048329e-02 1.11524165e-02
      3.71747203e-02 1.48698883e-02 1.11524165e-02 0. 4.46096659e-02
      1.48698883e-02 1.85873602e-02 1.48698883e-02 1.48698883e-02
      2.23048329e-02 2.60223038e-02 2.23048329e-02 4.08921912e-02
      2.23048329e-02 3.71747203e-02 1.48698883e-02 2.97397766e-02 0.
      3.34572494e-02 7.43494416e-03 1.85873602e-02 1.48698883e-02
      1.11524165e-02 1.85873602e-02 2.23048329e-02 1.85873602e-02
      3.71747203e-02 3.71747208e-03 1.48698883e-02 2.23048329e-02
      1.11524165e-02 1.48698883e-02 4.08921912e-02 7.43494416e-03
      5.57620823e-02 1.85873602e-02 1.48698883e-02 3.71747208e-03
      1.85873602e-02 7.43494416e-03 1.11524165e-02 1.85873602e-02
      1.11524165e-02 0. 3.71747203e-02 2.23048329e-02</_>
    <_>
      2.12765951e-02 6.38297871e-02 2.12765951e-02 5.31914867e-02
      1.59574468e-02 1.59574468e-02 1.06382975e-02 0. 5.31914877e-03
      5.31914877e-03 2.12765951e-02 1.59574468e-02 1.06382975e-02
      4.78723384e-02 2.65957434e-02 3.19148935e-02 1.06382975e-02
      3.19148935e-02 3.19148935e-02 0. 1.06382975e-02 0. 3.19148935e-02
      1.59574468e-02 0. 1.59574468e-02 1.06382975e-02 5.31914877e-03
      2.65957434e-02 1.59574468e-02 1.59574468e-02 2.12765951e-02 0.
      6.38297871e-02 4.78723384e-02 2.12765951e-02 1.06382975e-02
      3.72340418e-02 5.31914867e-02 1.59574468e-02 1.59574468e-02 0.
      1.59574468e-02 2.12765951e-02 1.06382975e-02 5.31914877e-03
      2.12765951e-02 2.65957434e-02 1.06382975e-02 1.06382975e-02</_>
    <_>
      3.95480245e-02 3.95480245e-02 1.12994350e-02 0. 5.64971752e-03
      5.64971752e-03 2.25988701e-02 5.64971752e-03 0. 0. 3.38983051e-02
      5.08474559e-02 4.51977402e-02 0. 5.64971752e-03 1.12994350e-02
      1.69491526e-02 5.64971752e-02 1.07344635e-01 3.38983051e-02
      5.64971752e-03 2.25988701e-02 0. 0. 2.82485876e-02 4.51977402e-02
      5.64971752e-03 4.51977402e-02 1.69491526e-02 3.38983051e-02
      5.64971752e-03 5.64971752e-03 5.64971752e-03 0. 3.38983051e-02
      1.12994350e-02 1.12994350e-02 2.25988701e-02 2.25988701e-02
      2.82485876e-02 2.25988701e-02 0. 0. 1.69491526e-02 3.95480245e-02
      1.69491526e-02 0. 5.64971752e-03 5.08474559e-02 5.64971752e-03</_>
    <_>
      1.34770889e-02 8.35579485e-02 1.61725059e-02 2.15633418e-02
      1.07816709e-02 1.34770889e-02 2.42587589e-02 0. 1.34770889e-02
      1.61725059e-02 8.08625296e-03 3.50404307e-02 1.61725059e-02
      2.15633418e-02 4.04312648e-02 5.39083546e-03 8.08625296e-03
      1.88679248e-02 9.16442052e-02 2.42587589e-02 1.34770889e-02
      8.08625296e-03 3.77358496e-02 5.39083546e-03 1.34770889e-02
      2.69541778e-02 8.08625296e-03 1.34770889e-02 4.04312648e-02
      2.69541778e-02 2.69541773e-03 5.39083546e-03 2.69541773e-03
      1.07816709e-02 5.39083546e-03 2.69541773e-03 2.42587589e-02
      1.61725059e-02 2.42587589e-02 2.42587589e-02 1.61725059e-02
      5.12129366e-02 1.34770889e-02 1.88679248e-02 4.58221026e-02
      8.08625296e-03 5.39083546e-03 5.39083546e-03 3.50404307e-02
      5.39083546e-03</_>
    <_>
      1.65289249e-02 1.40495867e-01 8.26446246e-03 2.47933865e-02 0.
      9.91735458e-02 0. 0. 0. 2.47933865e-02 2.47933865e-02 0. 0.
      8.26446246e-03 8.26446246e-03 8.26446246e-03 8.26446246e-03
      3.30578499e-02 1.73553705e-01 0. 4.95867729e-02 8.26446246e-03 0.
      0. 0. 8.26446246e-03 8.26446246e-03 0. 0. 0. 2.47933865e-02 0. 0.
      1.65289249e-02 8.26446246e-03 8.26446246e-03 0. 1.65289249e-02
      4.95867729e-02 8.26446246e-03 8.26446246e-03 0. 9.09090862e-02
      2.47933865e-02 0. 8.26446246e-03 2.47933865e-02 0. 4.95867729e-02
      8.26446246e-03</_>
    <_>
      1.65484641e-02 2.83687934e-02 1.41843967e-02 6.38297871e-02
      1.18203312e-02 2.36406620e-03 3.07328608e-02 9.45626479e-03
      7.09219836e-03 1.65484641e-02 1.41843967e-02 1.65484641e-02
      3.78250591e-02 1.41843967e-02 1.65484641e-02 7.09219836e-03
      1.18203312e-02 7.09219873e-02 2.60047279e-02 2.36406624e-02
      1.65484641e-02 0. 4.01891246e-02 7.09219836e-03 5.67375869e-02
      2.60047279e-02 9.45626479e-03 3.54609936e-02 3.07328608e-02
      5.20094559e-02 1.65484641e-02 2.36406620e-03 9.45626479e-03
      9.45626479e-03 9.45626479e-03 2.12765951e-02 2.12765951e-02
      7.09219836e-03 4.25531901e-02 1.41843967e-02 1.89125296e-02
      4.72813239e-03 2.12765951e-02 9.45626479e-03 1.65484641e-02
      4.72813239e-03 7.09219836e-03 7.09219836e-03 3.78250591e-02
      4.72813239e-03</_>
    <_>
      0. 1.16666675e-01 1.00000009e-01 1.66666675e-02 8.33333377e-03
      2.50000022e-02 8.33333377e-03 4.16666679e-02 2.50000022e-02 0. 0.
      0. 3.33333351e-02 0. 0. 1.66666675e-02 1.66666675e-02
      5.83333373e-02 1.33333340e-01 0. 2.50000022e-02 0. 8.33333377e-03
      8.33333377e-03 0. 8.33333377e-03 0. 8.33333377e-03 0.
      2.50000022e-02 3.33333351e-02 0. 0. 0. 1.66666675e-02
      2.50000022e-02 0. 1.66666675e-02 5.00000045e-02 1.66666675e-02
      1.66666675e-02 0. 3.33333351e-02 8.33333377e-03 5.83333373e-02
      8.33333377e-03 8.33333377e-03 0. 1.66666675e-02 8.33333377e-03</_>
    <_>
      9.90098994e-03 5.94059378e-02 5.94059378e-02 9.90099013e-02
      6.93069324e-02 4.95049506e-02 0. 9.90098994e-03 9.90098994e-03
      2.97029689e-02 0. 0. 9.90098994e-03 2.97029689e-02 2.97029689e-02
      9.90098994e-03 9.90098994e-03 0. 6.93069324e-02 0. 9.90098994e-03
      0. 3.96039598e-02 0. 2.97029689e-02 0. 0. 0. 9.90098994e-03
      2.97029689e-02 2.97029689e-02 9.90098994e-03 0. 2.97029689e-02
      3.96039598e-02 0. 0. 2.97029689e-02 3.96039598e-02 1.98019799e-02
      0. 1.98019799e-02 1.98019799e-02 1.98019799e-02 9.90098994e-03 0.
      1.98019799e-02 0. 2.97029689e-02 9.90098994e-03</_>
    <_>
      2.35478804e-02 0. 1.72684453e-02 7.84929376e-03 1.36577711e-01
      4.70957626e-03 1.88383050e-02 7.37833604e-02 1.09890113e-02
      3.13971750e-03 7.84929376e-03 2.98273154e-02 3.29670347e-02
      3.76766101e-02 6.27943501e-03 6.27943501e-03 3.92464697e-02
      4.70957626e-03 0. 4.70957626e-03 1.72684453e-02 0. 6.27943501e-02
      1.09890113e-02 5.96546307e-02 3.76766101e-02 7.84929376e-03
      3.29670347e-02 3.29670347e-02 2.51177400e-02 2.98273154e-02
      1.09890113e-02 4.08163294e-02 9.41915251e-03 2.35478804e-02
      3.13971750e-03 1.41287288e-02 6.27943501e-03 9.41915251e-03
      2.35478804e-02 4.23861854e-02 1.56985875e-03 0. 6.27943501e-03
      3.13971750e-03 7.84929376e-03 6.27943501e-03 0. 3.13971750e-03
      4.70957626e-03</_>
    <_>
      5.80645166e-02 1.29032256e-02 1.29032256e-02 6.45161280e-03
      1.93548389e-02 2.58064512e-02 3.87096778e-02 0. 1.29032256e-02
      1.29032256e-02 1.93548389e-02 3.22580636e-02 1.29032256e-02
      3.87096778e-02 6.45161280e-03 1.93548389e-02 3.87096778e-02
      1.29032256e-02 2.58064512e-02 3.22580636e-02 0. 0. 1.93548389e-02
      1.93548389e-02 7.74193555e-02 1.29032256e-02 6.45161280e-03
      1.93548389e-02 5.16129024e-02 1.29032256e-02 1.93548389e-02
      6.45161280e-03 1.29032256e-02 2.58064512e-02 1.93548389e-02
      6.45161280e-03 1.29032256e-02 1.29032256e-02 1.93548389e-02
      2.58064512e-02 5.80645166e-02 0. 0. 6.45161280e-03 1.93548389e-02
      0. 6.45161280e-03 0. 7.74193555e-02 1.29032256e-02</_>
    <_>
      1.52671756e-02 8.39694664e-02 0. 1.52671756e-02 3.05343512e-02
      6.10687025e-02 0. 1.52671756e-02 5.34351133e-02 7.63358781e-03
      3.05343512e-02 7.63358781e-03 1.52671756e-02 5.34351133e-02
      1.52671756e-02 3.05343512e-02 7.63358781e-03 0. 1.14503816e-01
      7.63358781e-03 1.52671756e-02 0. 1.52671756e-02 2.29007639e-02 0.
      2.29007639e-02 3.05343512e-02 3.81679386e-02 0. 7.63358781e-03
      3.81679386e-02 7.63358781e-03 0. 3.81679386e-02 1.52671756e-02
      1.52671756e-02 0. 1.52671756e-02 1.52671756e-02 0. 3.05343512e-02
      7.63358781e-03 7.63358781e-03 1.52671756e-02 3.81679386e-02
      1.52671756e-02 1.52671756e-02 7.63358781e-03 0. 0.</_>
    <_>
      2.04081628e-02 6.12244904e-02 6.12244904e-02 1.02040814e-02
      3.06122452e-02 5.10204062e-02 1.02040814e-02 1.02040814e-02 0.
      4.08163257e-02 3.06122452e-02 1.02040814e-02 0. 1.02040814e-02
      3.06122452e-02 0. 2.04081628e-02 1.02040814e-02 7.14285672e-02
      4.08163257e-02 2.04081628e-02 0. 2.04081628e-02 3.06122452e-02 0.
      1.02040814e-02 1.02040814e-02 1.02040814e-02 0. 0. 1.02040814e-02
      0. 0. 0. 5.10204062e-02 1.02040814e-02 0. 0. 4.08163257e-02 0. 0.
      1.02040814e-02 5.10204062e-02 3.06122452e-02 3.06122452e-02
      1.02040814e-02 5.10204062e-02 1.02040814e-02 2.04081628e-02
      5.10204062e-02</_>
    <_>
      4.29184549e-03 1.41630903e-01 8.58369097e-03 2.14592274e-02
      1.28755365e-02 3.43347639e-02 2.14592274e-02 0. 1.71673819e-02
      3.00429184e-02 2.57510729e-02 1.71673819e-02 3.86266112e-02
      2.14592274e-02 8.58369097e-03 0. 8.58369097e-03 3.43347639e-02
      1.11587986e-01 1.28755365e-02 4.29184549e-03 0. 1.28755365e-02
      8.58369097e-03 8.58369097e-03 8.58369097e-03 3.43347639e-02
      3.43347639e-02 2.14592274e-02 8.58369097e-03 1.28755365e-02 0.
      4.29184549e-03 4.29184549e-03 1.71673819e-02 3.00429184e-02
      1.71673819e-02 3.00429184e-02 8.58369097e-03 1.28755365e-02
      8.58369097e-03 8.58369097e-03 8.58369097e-03 1.28755365e-02
      3.86266112e-02 1.28755365e-02 4.29184549e-03 8.58369097e-03
      3.43347639e-02 1.28755365e-02</_>
    <_>
      0. 3.35570462e-02 4.69798669e-02 8.05369169e-02 2.01342292e-02
      3.35570462e-02 6.71140943e-03 2.01342292e-02 1.34228189e-02
      8.05369169e-02 1.34228189e-02 6.71140943e-03 1.34228189e-02
      6.71140943e-03 6.71140943e-03 3.35570462e-02 0. 6.71140943e-03
      6.04026839e-02 2.68456377e-02 1.34228189e-02 0. 4.69798669e-02
      2.68456377e-02 6.71140943e-03 6.71140943e-03 0. 6.71140943e-03
      1.34228189e-02 6.71140943e-03 3.35570462e-02 0. 0. 2.01342292e-02
      8.05369169e-02 6.71140943e-03 1.34228189e-02 2.68456377e-02
      1.34228189e-02 0. 1.34228189e-02 0. 3.35570462e-02 7.38255009e-02
      1.34228189e-02 0. 1.34228189e-02 0. 0. 2.01342292e-02</_>
    <_>
      8.62068962e-03 6.89655170e-02 8.62068962e-03 3.44827585e-02
      7.32758641e-02 5.17241359e-02 2.15517245e-02 3.87931019e-02
      1.29310340e-02 2.58620679e-02 4.31034481e-03 3.44827585e-02
      1.29310340e-02 2.15517245e-02 8.62068962e-03 3.44827585e-02
      1.29310340e-02 1.72413792e-02 5.17241359e-02 1.29310340e-02
      4.31034481e-03 8.62068962e-03 3.01724132e-02 8.62068962e-03
      1.72413792e-02 3.01724132e-02 8.62068962e-03 1.72413792e-02
      4.31034481e-03 3.44827585e-02 3.44827585e-02 8.62068962e-03
      4.31034481e-03 1.72413792e-02 8.62068962e-03 8.62068962e-03
      8.62068962e-03 8.62068962e-03 4.74137925e-02 3.01724132e-02
      4.31034481e-03 0. 1.72413792e-02 1.29310340e-02 8.62068962e-03
      1.29310340e-02 4.31034481e-03 0. 3.87931019e-02 4.31034481e-03</_>
    <_>
      1.27659570e-02 2.97872331e-02 1.91489346e-02 1.91489346e-02
      2.34042555e-02 3.82978693e-02 8.51063803e-03 1.91489346e-02
      2.76595727e-02 7.02127665e-02 1.70212761e-02 1.70212761e-02
      2.34042555e-02 1.91489346e-02 2.55319141e-02 4.25531901e-03
      1.06382975e-02 1.70212761e-02 2.12765951e-02 4.25531901e-02
      2.34042555e-02 0. 6.59574419e-02 1.06382975e-02 1.70212761e-02
      2.97872331e-02 1.91489346e-02 1.91489346e-02 2.55319141e-02
      2.34042555e-02 2.34042555e-02 1.06382975e-02 6.38297852e-03
      8.51063803e-03 2.34042555e-02 2.12765951e-02 1.70212761e-02
      1.27659570e-02 1.06382975e-02 1.48936165e-02 2.76595727e-02
      1.48936165e-02 8.51063803e-03 8.51063803e-03 2.76595727e-02
      2.55319141e-02 6.38297852e-03 8.51063803e-03 2.12765951e-02
      2.12765951e-03</_>
    <_>
      1.59574468e-02 6.38297871e-02 1.59574468e-02 4.25531901e-02
      3.19148935e-02 6.38297871e-02 2.12765951e-02 1.06382975e-02
      2.12765951e-02 2.65957434e-02 2.12765951e-02 0. 1.59574468e-02
      1.06382975e-02 5.31914877e-03 2.65957434e-02 2.12765951e-02
      2.65957434e-02 5.31914867e-02 2.65957434e-02 3.72340418e-02 0.
      3.19148935e-02 0. 5.31914877e-03 5.31914877e-03 1.06382975e-02
      1.59574468e-02 5.31914877e-03 5.31914877e-03 3.72340418e-02 0.
      5.31914877e-03 2.65957434e-02 1.06382975e-02 3.72340418e-02
      2.65957434e-02 2.65957434e-02 3.72340418e-02 0. 5.31914877e-03
      5.31914877e-03 1.59574468e-02 5.85106350e-02 2.65957434e-02
      1.59574468e-02 1.06382975e-02 5.31914877e-03 0. 1.06382975e-02</_>
    <_>
      1.07142860e-02 3.39285731e-02 2.67857146e-02 2.67857146e-02
      1.07142860e-02 3.57142873e-02 1.25000002e-02 1.78571430e-03
      1.60714295e-02 1.96428578e-02 1.42857144e-02 2.14285720e-02
      3.21428590e-02 2.32142862e-02 2.32142862e-02 1.78571437e-02
      1.42857144e-02 6.42857179e-02 2.14285720e-02 1.96428578e-02
      1.42857144e-02 8.92857183e-03 1.78571437e-02 1.25000002e-02
      2.67857146e-02 1.78571437e-02 1.25000002e-02 1.42857144e-02
      2.67857146e-02 1.25000002e-02 3.57142873e-02 1.96428578e-02
      1.78571430e-03 2.32142862e-02 2.85714287e-02 2.14285720e-02
      2.14285720e-02 2.67857146e-02 1.96428578e-02 1.96428578e-02
      1.42857144e-02 3.03571429e-02 3.21428590e-02 1.60714295e-02
      1.78571437e-02 1.07142860e-02 0. 5.35714300e-03 3.92857157e-02
      5.35714300e-03</_>
    <_>
      5.73065924e-03 8.59598890e-02 3.72492857e-02 6.01719208e-02
      2.86532962e-03 2.29226369e-02 2.00573076e-02 5.73065924e-03
      1.71919782e-02 1.43266479e-02 2.86532962e-03 1.43266479e-02
      2.57879663e-02 8.59598909e-03 4.29799445e-02 8.59598909e-03
      3.15186270e-02 2.29226369e-02 9.16905478e-02 5.73065924e-03
      2.29226369e-02 8.59598909e-03 2.00573076e-02 8.59598909e-03
      1.14613185e-02 2.86532962e-03 2.29226369e-02 2.29226369e-02
      5.73065924e-03 2.00573076e-02 1.14613185e-02 5.73065924e-03
      8.59598909e-03 8.59598909e-03 2.29226369e-02 2.29226369e-02
      1.71919782e-02 1.14613185e-02 2.57879663e-02 1.71919782e-02 0.
      3.43839563e-02 1.43266479e-02 1.14613185e-02 3.15186270e-02
      4.29799445e-02 2.86532962e-03 5.73065924e-03 2.57879663e-02
      5.73065924e-03</_>
    <_>
      4.63768132e-02 3.18840593e-02 1.44927539e-02 4.63768132e-02
      2.31884066e-02 1.44927539e-02 2.31884066e-02 5.79710165e-03
      5.79710165e-03 3.18840593e-02 2.60869581e-02 1.73913054e-02
      2.02898551e-02 1.15942033e-02 1.15942033e-02 1.73913054e-02
      1.15942033e-02 2.60869581e-02 2.31884066e-02 2.02898551e-02
      2.02898551e-02 8.69565271e-03 1.44927539e-02 1.15942033e-02
      2.60869581e-02 3.18840593e-02 1.44927539e-02 1.73913054e-02
      1.15942033e-02 2.60869581e-02 3.18840593e-02 8.69565271e-03 0.
      1.15942033e-02 3.76811624e-02 4.05797102e-02 1.15942033e-02
      1.44927539e-02 1.15942033e-02 1.73913054e-02 3.47826108e-02
      1.44927539e-02 2.02898551e-02 3.18840593e-02 8.69565271e-03
      2.02898551e-02 1.73913054e-02 1.15942033e-02 2.60869581e-02
      1.73913054e-02</_>
    <_>
      1.96721312e-02 1.96721312e-02 9.83606558e-03 6.55737706e-03
      2.62295082e-02 3.27868853e-03 4.59016412e-02 5.57377040e-02
      2.29508206e-02 6.55737706e-03 2.62295082e-02 1.31147541e-02
      2.95081958e-02 1.31147541e-02 1.31147541e-02 6.55737706e-03
      3.27868834e-02 6.55737668e-02 1.63934417e-02 6.55737706e-03
      1.96721312e-02 3.60655747e-02 3.27868853e-03 0. 1.96721312e-02
      2.95081958e-02 2.62295082e-02 3.27868834e-02 2.29508206e-02
      3.93442623e-02 6.55737706e-03 6.55737706e-03 3.27868853e-03
      6.55737706e-03 2.29508206e-02 4.26229499e-02 2.29508206e-02
      3.27868853e-03 1.31147541e-02 1.96721312e-02 1.96721312e-02
      2.29508206e-02 9.83606558e-03 3.27868853e-03 2.95081958e-02
      2.62295082e-02 9.83606558e-03 3.27868853e-03 5.57377040e-02
      3.27868853e-03</_>
    <_>
      3.20987664e-02 9.87654366e-03 9.87654366e-03 1.72839519e-02
      9.87654366e-03 4.69135828e-02 7.40740774e-03 4.93827183e-03
      2.96296310e-02 2.96296310e-02 1.48148155e-02 2.22222228e-02
      3.45679037e-02 2.71604955e-02 1.48148155e-02 9.87654366e-03
      1.72839519e-02 5.18518537e-02 9.87654366e-03 9.87654366e-03
      1.97530873e-02 3.20987664e-02 1.97530873e-02 1.23456791e-02
      2.71604955e-02 1.97530873e-02 3.45679037e-02 1.23456791e-02
      1.72839519e-02 2.46913582e-02 1.97530873e-02 1.72839519e-02
      4.93827183e-03 2.22222228e-02 2.46913582e-02 1.23456791e-02
      3.70370373e-02 9.87654366e-03 1.72839519e-02 2.22222228e-02
      1.48148155e-02 1.97530873e-02 7.40740774e-03 4.93827183e-03
      7.40740774e-03 3.20987664e-02 7.40740774e-03 4.93827183e-03
      7.90123492e-02 4.93827183e-03</_>
    <_>
      1.61290318e-02 1.04838707e-01 2.41935477e-02 1.61290318e-02
      8.06451589e-03 4.03225794e-02 1.61290318e-02 0. 1.61290318e-02
      2.41935477e-02 4.03225794e-02 8.06451589e-03 0. 6.45161271e-02
      8.06451589e-03 4.83870953e-02 3.22580636e-02 0. 3.22580636e-02
      8.06451589e-03 8.06451589e-03 0. 1.61290318e-02 1.61290318e-02
      5.64516112e-02 8.06451589e-03 2.41935477e-02 0. 8.06451589e-03
      8.06451589e-03 0. 0. 8.06451589e-03 2.41935477e-02 7.25806430e-02
      1.61290318e-02 1.61290318e-02 4.83870953e-02 6.45161271e-02 0.
      8.06451589e-03 8.06451589e-03 1.61290318e-02 1.61290318e-02
      8.06451589e-03 8.06451589e-03 8.06451589e-03 0. 0. 2.41935477e-02</_>
    <_>
      0. 1.19047619e-01 1.19047621e-02 1.19047621e-02 1.19047621e-02
      2.38095243e-02 1.19047621e-02 0. 2.38095243e-02 4.76190485e-02
      2.38095243e-02 0. 0. 2.38095243e-02 0. 4.76190485e-02
      2.38095243e-02 0. 9.52380970e-02 4.76190485e-02 3.57142873e-02 0.
      2.38095243e-02 0. 0. 0. 1.19047621e-02 0. 2.38095243e-02 0.
      4.76190485e-02 0. 0. 5.95238097e-02 0. 1.19047621e-02 0.
      1.07142858e-01 5.95238097e-02 0. 1.19047621e-02 0. 1.19047621e-02
      4.76190485e-02 0. 0. 1.19047621e-02 0. 0. 1.19047621e-02</_>
    <_>
      2.52951104e-02 2.52951104e-02 1.34907253e-02 1.01180440e-02
      1.85497478e-02 0. 3.03541310e-02 1.51770655e-02 1.34907253e-02
      1.51770655e-02 1.18043851e-02 3.37268114e-02 5.05902208e-02
      2.36087702e-02 8.43170285e-03 6.74536265e-03 2.19224282e-02
      4.21585180e-02 3.03541310e-02 1.01180440e-02 6.74536265e-03
      5.05902199e-03 2.52951104e-02 5.05902199e-03 4.72175404e-02
      3.87858339e-02 1.51770655e-02 4.04721759e-02 4.04721759e-02
      4.04721759e-02 2.19224282e-02 2.19224282e-02 1.18043851e-02
      1.18043851e-02 1.34907253e-02 2.19224282e-02 2.69814506e-02
      1.51770655e-02 2.02360880e-02 3.20404731e-02 1.51770655e-02
      2.52951104e-02 6.74536265e-03 1.01180440e-02 1.34907253e-02
      2.52951104e-02 5.05902199e-03 3.37268133e-03 2.19224282e-02
      5.05902199e-03</_>
    <_>
      1.79211460e-02 7.16845840e-02 7.16845877e-03 3.58422939e-03
      3.58422939e-03 3.58422920e-02 0. 0. 3.58422939e-03 0.
      1.79211460e-02 2.50896066e-02 2.50896066e-02 2.50896066e-02
      3.58422939e-03 1.79211460e-02 1.07526882e-02 5.37634417e-02
      7.88530484e-02 1.43369175e-02 0. 1.07526882e-02 0. 7.16845877e-03
      3.94265242e-02 2.50896066e-02 1.43369175e-02 2.15053763e-02
      1.79211460e-02 1.43369175e-02 2.50896066e-02 1.07526882e-02
      3.58422939e-03 2.86738351e-02 7.16845877e-03 1.07526882e-02
      2.86738351e-02 1.43369175e-02 2.50896066e-02 2.15053763e-02
      1.07526882e-02 3.58422939e-03 1.43369175e-02 3.22580636e-02
      2.86738351e-02 7.16845877e-03 3.58422939e-03 7.16845877e-03
      1.46953404e-01 3.58422939e-03</_>
    <_>
      2.25563906e-02 3.00751887e-02 7.51879718e-03 1.50375944e-02
      4.51127812e-02 0. 1.50375944e-02 2.25563906e-02 0. 7.51879718e-03
      5.26315793e-02 1.50375944e-02 3.00751887e-02 3.00751887e-02
      3.00751887e-02 3.00751887e-02 7.51879718e-03 7.51879718e-03
      5.26315793e-02 2.25563906e-02 7.51879718e-03 0. 3.75939868e-02
      1.50375944e-02 3.00751887e-02 7.51879718e-03 3.00751887e-02
      2.25563906e-02 2.25563906e-02 1.50375944e-02 3.75939868e-02
      1.50375944e-02 0. 3.75939868e-02 2.25563906e-02 5.26315793e-02
      1.50375944e-02 7.51879718e-03 3.75939868e-02 1.50375944e-02
      2.25563906e-02 1.50375944e-02 2.25563906e-02 0. 2.25563906e-02
      1.50375944e-02 2.25563906e-02 0. 0. 7.51879718e-03</_>
    <_>
      0. 1.02564104e-01 6.41025649e-03 1.92307699e-02 5.12820520e-02
      1.08974360e-01 0. 0. 1.28205130e-02 5.12820520e-02 1.28205130e-02
      1.28205130e-02 1.28205130e-02 1.28205130e-02 1.28205130e-02
      2.56410260e-02 0. 1.28205130e-02 1.08974360e-01 6.41025649e-03
      1.92307699e-02 0. 1.28205130e-02 1.92307699e-02 0. 0.
      1.28205130e-02 6.41025649e-03 6.41025649e-03 0. 6.41025649e-03
      1.28205130e-02 6.41025649e-03 4.48717959e-02 6.41025649e-03
      1.92307699e-02 1.92307699e-02 1.28205130e-02 5.76923080e-02
      1.92307699e-02 0. 1.92307699e-02 1.92307699e-02 2.56410260e-02
      6.41025649e-03 6.41025649e-03 1.28205130e-02 2.56410260e-02
      6.41025649e-03 2.56410260e-02</_>
    <_>
      2.32974906e-02 2.68817209e-02 1.79211460e-02 3.58422939e-03
      9.13978517e-02 3.22580636e-02 1.97132621e-02 3.22580636e-02
      5.37634408e-03 1.97132621e-02 1.43369175e-02 1.79211460e-02
      2.68817209e-02 3.22580636e-02 1.43369175e-02 7.16845877e-03
      1.97132621e-02 5.37634408e-03 3.58422939e-03 1.25448033e-02
      1.97132621e-02 0. 3.58422920e-02 1.79211469e-03 8.24372768e-02
      4.30107526e-02 1.07526882e-02 5.91397844e-02 5.55555560e-02
      2.68817209e-02 1.43369175e-02 1.79211469e-03 3.22580636e-02
      1.07526882e-02 1.43369175e-02 8.96057300e-03 1.43369175e-02
      1.07526882e-02 1.43369175e-02 3.22580636e-02 4.12186384e-02
      3.58422939e-03 7.16845877e-03 1.25448033e-02 1.25448033e-02
      5.37634408e-03 0. 0. 0. 1.79211469e-03</_>
    <_>
      2.46913582e-02 1.11111112e-01 1.23456791e-02 2.46913582e-02 0.
      3.70370373e-02 0. 1.23456791e-02 2.46913582e-02 2.46913582e-02
      6.17283955e-02 1.23456791e-02 0. 0. 1.23456791e-02 1.23456791e-02
      0. 0. 1.60493821e-01 1.23456791e-02 0. 0. 1.23456791e-02
      1.23456791e-02 1.23456791e-02 0. 8.64197537e-02 2.46913582e-02
      2.46913582e-02 0. 1.23456791e-02 0. 0. 1.23456791e-02
      2.46913582e-02 3.70370373e-02 0. 1.23456791e-02 4.93827164e-02 0.
      1.23456791e-02 0. 4.93827164e-02 0. 6.17283955e-02 0.
      1.23456791e-02 0. 0. 0.</_>
    <_>
      3.98406386e-02 4.38247025e-02 2.78884470e-02 3.18725109e-02
      1.19521916e-02 0. 4.38247025e-02 7.96812773e-03 4.38247025e-02
      7.96812773e-03 7.96812773e-03 1.99203193e-02 1.99203193e-02
      1.59362555e-02 1.59362555e-02 7.96812773e-03 3.98406386e-03
      3.98406386e-03 5.17928302e-02 3.98406386e-03 1.19521916e-02 0.
      4.38247025e-02 1.19521916e-02 1.99203193e-02 2.39043832e-02
      5.97609580e-02 3.58565748e-02 1.99203193e-02 1.59362555e-02
      1.19521916e-02 0. 3.98406386e-03 1.59362555e-02 7.96812773e-03
      1.99203193e-02 2.78884470e-02 2.39043832e-02 4.78087664e-02
      1.59362555e-02 1.59362555e-02 1.59362555e-02 1.59362555e-02
      3.98406386e-03 3.58565748e-02 2.39043832e-02 1.59362555e-02
      2.78884470e-02 7.96812773e-03 7.96812773e-03</_>
    <_>
      6.32911408e-03 2.53164563e-02 3.79746854e-02 1.26582282e-02
      6.32911408e-03 5.69620281e-02 6.32911408e-03 1.26582282e-02
      6.32911408e-03 1.32911399e-01 0. 1.26582282e-02 6.32911408e-03
      3.16455700e-02 1.26582282e-02 3.79746854e-02 6.32911408e-03 0.
      1.89873427e-02 5.06329127e-02 5.06329127e-02 0. 5.69620281e-02 0.
      0. 6.32911408e-03 1.89873427e-02 1.26582282e-02 0. 0.
      3.79746854e-02 0. 6.32911408e-03 4.43037972e-02 2.53164563e-02 0.
      0. 6.32911408e-03 6.32911399e-02 6.32911408e-03 6.32911408e-03 0.
      6.32911399e-02 2.53164563e-02 0. 2.53164563e-02 3.79746854e-02 0.
      0. 2.53164563e-02</_>
    <_>
      1.49812736e-02 5.24344593e-02 1.87265910e-02 2.62172297e-02
      1.87265910e-02 5.24344593e-02 2.99625471e-02 1.49812736e-02 0.
      3.37078646e-02 7.49063678e-03 2.62172297e-02 4.49438207e-02
      7.49063678e-03 3.37078646e-02 3.74531820e-02 1.49812736e-02
      2.24719103e-02 2.62172297e-02 2.99625471e-02 1.12359552e-02
      3.74531839e-03 3.37078646e-02 0. 2.62172297e-02 2.99625471e-02 0.
      2.62172297e-02 3.74531820e-02 1.12359552e-02 1.49812736e-02
      7.49063678e-03 7.49063678e-03 1.49812736e-02 1.49812736e-02
      7.49063678e-03 2.24719103e-02 3.74531839e-03 2.62172297e-02
      2.24719103e-02 1.12359552e-02 1.87265910e-02 1.12359552e-02
      1.49812736e-02 1.49812736e-02 1.49812736e-02 2.62172297e-02
      3.74531839e-03 3.37078646e-02 1.49812736e-02</_>
    <_>
      2.33644843e-02 3.27102803e-02 4.67289705e-03 0. 5.60747646e-02
      4.20560725e-02 4.67289705e-03 2.33644843e-02 1.86915882e-02
      1.40186911e-02 4.67289705e-03 0. 4.20560725e-02 3.27102803e-02
      4.67289705e-03 2.80373823e-02 3.27102803e-02 2.33644843e-02
      3.73831764e-02 0. 9.34579410e-03 4.67289705e-03 2.80373823e-02 0.
      9.81308371e-02 1.40186911e-02 4.67289705e-03 2.33644843e-02
      2.80373823e-02 3.27102803e-02 4.20560725e-02 0. 4.67289686e-02
      1.86915882e-02 1.40186911e-02 0. 1.40186911e-02 1.40186911e-02
      4.67289705e-03 4.67289705e-03 2.80373823e-02 1.86915882e-02
      3.27102803e-02 4.67289705e-03 1.86915882e-02 2.80373823e-02
      1.40186911e-02 0. 1.40186911e-02 1.40186911e-02</_>
    <_>
      2.69886367e-02 9.94318165e-03 2.13068184e-02 3.26704569e-02
      3.55113633e-02 4.26136376e-03 1.56250000e-02 1.84659101e-02
      1.13636367e-02 0. 1.42045459e-02 3.12500000e-02 2.84090918e-02
      3.83522734e-02 5.68181835e-03 5.68181835e-03 1.84659101e-02
      2.41477285e-02 7.10227294e-03 1.13636367e-02 1.70454551e-02 0.
      3.40909101e-02 7.10227294e-03 7.38636404e-02 5.82386367e-02
      1.56250000e-02 6.25000000e-02 7.24431872e-02 2.13068184e-02
      1.56250000e-02 1.42045459e-03 3.40909101e-02 9.94318165e-03
      2.27272734e-02 2.13068184e-02 1.84659101e-02 2.27272734e-02
      1.84659101e-02 1.84659101e-02 3.83522734e-02 4.26136376e-03
      8.52272753e-03 9.94318165e-03 1.42045459e-02 4.26136376e-03
      4.26136376e-03 2.84090918e-03 5.68181835e-03 1.42045459e-03</_>
    <_>
      1.64835174e-02 7.14285746e-02 6.04395606e-02 4.12087925e-02
      5.49450563e-03 4.94505502e-02 8.24175868e-03 2.74725282e-03
      1.09890113e-02 6.04395606e-02 2.19780225e-02 2.74725282e-03
      2.19780225e-02 1.64835174e-02 8.24175868e-03 3.84615399e-02
      5.49450563e-03 5.76923080e-02 4.67032976e-02 8.24175868e-03
      1.37362638e-02 5.49450563e-03 3.02197803e-02 5.49450563e-03
      1.37362638e-02 8.24175868e-03 1.09890113e-02 1.37362638e-02
      1.37362638e-02 1.09890113e-02 3.57142873e-02 2.74725282e-03
      5.49450563e-03 1.64835174e-02 3.02197803e-02 5.49450563e-03
      1.64835174e-02 2.19780225e-02 3.02197803e-02 2.74725282e-03
      1.64835174e-02 8.24175868e-03 4.94505502e-02 2.19780225e-02
      8.24175868e-03 5.49450563e-03 1.37362638e-02 2.74725282e-03
      1.37362638e-02 1.09890113e-02</_>
    <_>
      4.32900432e-03 1.38528138e-01 2.59740259e-02 5.19480519e-02 0.
      6.06060624e-02 0. 8.65800865e-03 1.29870130e-02 8.65800828e-02
      1.29870130e-02 0. 8.65800865e-03 8.65800865e-03 1.29870130e-02
      1.73160173e-02 1.29870130e-02 8.65800865e-03 9.52380970e-02
      4.32900432e-03 4.32900414e-02 0. 1.73160173e-02 4.32900432e-03
      3.46320346e-02 0. 1.29870130e-02 8.65800865e-03 1.73160173e-02
      8.65800865e-03 1.73160173e-02 4.32900432e-03 4.32900432e-03
      8.65800865e-03 3.89610380e-02 8.65800865e-03 0. 1.29870130e-02
      2.59740259e-02 4.32900432e-03 8.65800865e-03 4.32900432e-03
      4.76190485e-02 1.29870130e-02 1.73160173e-02 4.32900432e-03
      2.59740259e-02 0. 1.29870130e-02 2.16450207e-02</_>
    <_>
      9.96677764e-03 1.66112948e-02 9.96677764e-03 3.65448482e-02
      3.32225906e-03 6.64451811e-03 1.32890362e-02 3.32225906e-03
      1.99335553e-02 2.65780725e-02 1.66112948e-02 1.99335553e-02
      2.99003311e-02 6.64451811e-03 1.99335553e-02 6.64451811e-03
      1.99335553e-02 5.64784035e-02 2.32558139e-02 3.32225906e-03 0.
      1.99335553e-02 1.66112948e-02 6.64451811e-03 3.65448482e-02
      4.98338863e-02 1.66112948e-02 2.65780725e-02 3.32225896e-02
      2.65780725e-02 1.99335553e-02 3.32225906e-03 0. 3.32225906e-03
      1.99335553e-02 2.99003311e-02 1.99335553e-02 9.96677764e-03
      1.66112948e-02 4.65116277e-02 1.99335553e-02 3.65448482e-02
      6.64451811e-03 6.64451811e-03 3.32225896e-02 3.32225896e-02
      3.32225906e-03 2.32558139e-02 8.63787383e-02 0.</_>
    <_>
      1.73611119e-02 2.77777780e-02 1.73611119e-02 1.73611119e-02
      1.38888890e-02 2.08333340e-02 1.73611119e-02 6.94444450e-03
      2.77777780e-02 2.77777780e-02 2.43055560e-02 6.94444450e-03
      4.16666679e-02 3.81944440e-02 1.38888890e-02 1.04166670e-02
      2.08333340e-02 1.04166670e-02 3.12500000e-02 3.47222239e-02
      6.94444450e-03 0. 5.20833321e-02 1.38888890e-02 5.20833321e-02
      1.73611119e-02 2.43055560e-02 1.38888890e-02 3.12500000e-02
      2.43055560e-02 2.77777780e-02 6.94444450e-03 3.47222239e-02
      1.38888890e-02 3.47222239e-02 2.08333340e-02 1.38888890e-02
      3.12500000e-02 1.73611119e-02 3.47222225e-03 3.47222239e-02
      2.08333340e-02 1.38888890e-02 6.94444450e-03 3.12500000e-02
      3.47222225e-03 3.47222225e-03 0. 1.73611119e-02 0.</_>
    <_>
      1.23456791e-02 1.72839519e-02 3.95061746e-02 3.95061746e-02
      1.72839519e-02 2.22222228e-02 1.72839519e-02 4.93827183e-03
      9.87654366e-03 1.48148155e-02 3.20987664e-02 7.40740774e-03
      3.45679037e-02 7.40740774e-03 7.40740774e-03 5.18518537e-02
      1.48148155e-02 9.87654366e-03 3.70370373e-02 4.93827183e-03
      2.22222228e-02 0. 4.19753119e-02 4.93827183e-03 3.95061746e-02
      1.97530873e-02 1.48148155e-02 1.72839519e-02 2.71604955e-02
      2.71604955e-02 2.96296310e-02 4.93827183e-03 7.40740774e-03
      4.69135828e-02 3.20987664e-02 9.87654366e-03 2.71604955e-02
      1.72839519e-02 1.97530873e-02 1.72839519e-02 7.40740774e-03
      1.23456791e-02 2.46913582e-02 5.18518537e-02 7.40740774e-03
      1.48148155e-02 2.46913582e-02 2.46913591e-03 1.48148155e-02
      9.87654366e-03</_>
    <_>
      0. 9.64467004e-02 2.53807101e-02 2.53807101e-02 5.07614203e-03
      8.62944126e-02 1.52284261e-02 1.01522841e-02 2.53807101e-02
      3.55329961e-02 2.03045681e-02 1.01522841e-02 2.53807101e-02
      1.01522841e-02 5.07614203e-03 3.04568522e-02 0. 3.55329961e-02
      2.03045681e-02 1.52284261e-02 3.04568522e-02 0. 4.56852764e-02
      1.01522841e-02 1.01522841e-02 1.01522841e-02 6.09137043e-02
      1.52284261e-02 1.52284261e-02 0. 3.04568522e-02 1.01522841e-02 0.
      1.01522841e-02 1.52284261e-02 1.01522841e-02 3.04568522e-02
      5.07614203e-03 5.07614203e-02 0. 5.07614203e-03 0. 3.55329961e-02
      2.03045681e-02 4.56852764e-02 5.07614203e-03 5.07614203e-03
      1.01522841e-02 5.07614203e-03 1.01522841e-02</_>
    <_>
      1.30718956e-02 3.92156877e-02 3.92156877e-02 6.53594779e-03 0.
      1.56862751e-01 1.30718956e-02 0. 1.30718956e-02 1.11111112e-01
      1.96078438e-02 0. 2.61437912e-02 6.53594779e-03 1.30718956e-02
      2.61437912e-02 0. 1.30718956e-02 1.96078438e-02 2.61437912e-02
      5.22875823e-02 0. 2.61437912e-02 0. 0. 6.53594779e-03
      1.96078438e-02 6.53594779e-03 6.53594779e-03 6.53594779e-03
      2.61437912e-02 0. 0. 1.96078438e-02 3.26797403e-02 1.30718956e-02
      1.96078438e-02 1.96078438e-02 4.57516350e-02 1.30718956e-02 0. 0.
      7.18954280e-02 3.26797403e-02 6.53594779e-03 1.30718956e-02
      6.53594779e-03 0. 0. 1.30718956e-02</_>
    <_>
      3.12500005e-03 3.43750007e-02 5.00000007e-02 2.81250011e-02
      2.50000004e-02 9.37500037e-03 9.37500037e-03 2.18749996e-02
      6.25000009e-03 9.37500037e-03 1.25000002e-02 2.18749996e-02
      1.56250000e-02 1.56250000e-02 2.18749996e-02 1.87500007e-02
      1.56250000e-02 2.18749996e-02 4.68750000e-02 1.56250000e-02
      5.00000007e-02 1.25000002e-02 4.06250022e-02 1.25000002e-02
      3.12500005e-03 9.37500037e-03 9.37500037e-03 2.18749996e-02 0.
      1.87500007e-02 5.00000007e-02 6.25000009e-03 3.12500005e-03
      3.75000015e-02 4.68750000e-02 1.25000002e-02 1.56250000e-02
      3.12500005e-03 3.12500000e-02 1.25000002e-02 6.25000009e-03
      3.12500000e-02 2.50000004e-02 2.50000004e-02 9.37500037e-03
      1.56250000e-02 2.18749996e-02 3.75000015e-02 1.25000002e-02
      1.56250000e-02</_>
    <_>
      7.93650839e-03 2.06349224e-01 7.93650839e-03 7.93650839e-03 0.
      7.93650839e-03 2.38095261e-02 0. 7.93650839e-03 0. 7.93650839e-03
      2.38095261e-02 1.58730168e-02 0. 7.93650839e-03 0. 1.58730168e-02
      3.17460336e-02 2.06349224e-01 7.93650839e-03 0. 0. 7.93650839e-03
      0. 3.17460336e-02 0. 3.96825410e-02 7.93650839e-03 3.96825410e-02
      3.17460336e-02 7.93650839e-03 7.93650839e-03 7.93650839e-03
      1.58730168e-02 7.93650839e-03 2.38095261e-02 1.58730168e-02 0.
      4.76190522e-02 0. 1.58730168e-02 7.93650839e-03 3.17460336e-02 0.
      2.38095261e-02 7.93650839e-03 0. 1.58730168e-02 1.58730168e-02 0.</_>
    <_>
      0. 7.14285746e-02 3.57142873e-02 3.57142873e-02 3.57142873e-02
      8.57142881e-02 0. 7.14285718e-03 7.14285718e-03 5.00000007e-02
      2.14285720e-02 0. 7.14285718e-03 2.85714287e-02 2.14285720e-02
      1.42857144e-02 7.14285718e-03 0. 1.42857149e-01 1.42857144e-02
      4.28571440e-02 0. 5.71428575e-02 1.42857144e-02 0. 7.14285718e-03
      0. 2.85714287e-02 2.85714287e-02 7.14285718e-03 2.14285720e-02
      7.14285718e-03 0. 7.14285718e-03 2.14285720e-02 0. 0.
      7.14285718e-03 7.14285746e-02 7.14285718e-03 7.14285718e-03
      7.14285718e-03 1.42857144e-02 1.42857144e-02 0. 1.42857144e-02
      1.42857144e-02 0. 0. 1.42857144e-02</_>
    <_>
      1.82481743e-02 5.47445267e-02 1.09489048e-02 1.09489048e-02
      2.91970801e-02 2.91970801e-02 1.09489048e-02 3.64963501e-03
      1.45985400e-02 3.64963487e-02 3.28467153e-02 1.82481743e-02
      1.45985400e-02 2.91970801e-02 7.29927002e-03 1.09489048e-02
      1.09489048e-02 6.56934306e-02 4.01459858e-02 3.28467153e-02
      1.82481743e-02 1.09489048e-02 3.64963487e-02 1.09489048e-02
      2.18978096e-02 1.82481743e-02 1.09489048e-02 1.09489048e-02
      1.09489048e-02 1.45985400e-02 4.01459858e-02 0. 1.45985400e-02
      1.45985400e-02 1.82481743e-02 1.09489048e-02 7.29927002e-03
      1.82481743e-02 3.64963487e-02 1.09489048e-02 1.09489048e-02
      7.29927002e-03 3.64963501e-03 1.09489048e-02 1.82481743e-02
      1.82481743e-02 3.64963501e-03 1.82481743e-02 8.02919716e-02
      1.09489048e-02</_>
    <_>
      4.90196096e-03 4.41176482e-02 4.90196096e-03 2.45098043e-02
      2.45098043e-02 3.92156877e-02 1.96078438e-02 0. 1.47058833e-02
      5.39215691e-02 1.47058833e-02 1.96078438e-02 1.47058833e-02
      2.94117667e-02 7.35294148e-02 2.45098043e-02 4.90196096e-03
      3.43137272e-02 1.47058833e-02 2.45098043e-02 1.47058833e-02
      1.47058833e-02 4.41176482e-02 4.90196096e-03 3.43137272e-02
      9.80392192e-03 4.90196096e-03 1.47058833e-02 1.96078438e-02
      1.96078438e-02 9.80392192e-03 9.80392192e-03 0. 1.96078438e-02
      2.45098043e-02 9.80392192e-03 9.80392192e-03 4.90196096e-03
      4.41176482e-02 2.45098043e-02 1.47058833e-02 1.47058833e-02
      3.92156877e-02 9.80392192e-03 1.96078438e-02 2.94117667e-02 0.
      2.94117667e-02 9.80392192e-03 9.80392192e-03</_>
    <_>
      3.57142836e-02 4.08163257e-02 0. 2.55102031e-02 1.53061226e-02
      1.02040814e-02 6.63265288e-02 1.53061226e-02 3.06122452e-02 0.
      5.10204071e-03 5.61224483e-02 3.57142836e-02 1.02040814e-02
      5.10204071e-03 1.53061226e-02 5.10204071e-03 1.53061226e-02
      4.08163257e-02 5.10204071e-03 1.02040814e-02 1.02040814e-02 0.
      5.10204071e-03 5.61224483e-02 1.53061226e-02 2.04081628e-02
      2.04081628e-02 4.08163257e-02 3.06122452e-02 1.02040814e-02
      5.10204071e-03 1.02040814e-02 5.10204071e-03 1.02040814e-02
      1.53061226e-02 3.06122452e-02 1.53061226e-02 2.55102031e-02
      5.10204062e-02 5.10204062e-02 2.04081628e-02 1.02040814e-02
      1.53061226e-02 3.57142836e-02 5.10204071e-03 1.02040814e-02
      1.02040814e-02 1.53061226e-02 5.10204071e-03</_>
    <_>
      3.20284702e-02 3.55871879e-02 1.42348753e-02 1.77935939e-02
      1.42348753e-02 3.55871879e-02 1.77935939e-02 0. 1.77935939e-02
      1.42348753e-02 3.55871879e-02 4.62633446e-02 4.27046269e-02
      2.84697507e-02 2.13523135e-02 1.77935939e-02 1.06761567e-02
      1.77935939e-02 4.62633446e-02 1.06761567e-02 1.77935939e-02 0.
      3.20284702e-02 3.55871883e-03 2.84697507e-02 2.49110311e-02
      1.06761567e-02 2.84697507e-02 1.77935939e-02 2.84697507e-02
      1.06761567e-02 3.55871883e-03 1.06761567e-02 2.13523135e-02
      2.49110311e-02 1.42348753e-02 4.62633446e-02 2.49110311e-02
      7.11743766e-03 3.20284702e-02 1.06761567e-02 1.42348753e-02
      2.13523135e-02 3.55871883e-03 2.49110311e-02 2.49110311e-02
      1.06761567e-02 7.11743766e-03 1.06761567e-02 7.11743766e-03</_>
    <_>
      2.23048329e-02 1.85873602e-02 1.48698883e-02 2.23048329e-02
      3.71747208e-03 1.11524165e-02 3.34572494e-02 7.43494416e-03
      1.11524165e-02 3.71747208e-03 2.97397766e-02 1.85873602e-02
      5.57620823e-02 1.48698883e-02 1.11524165e-02 1.48698883e-02
      2.60223038e-02 5.57620823e-02 2.60223038e-02 2.23048329e-02
      7.43494416e-03 0. 1.48698883e-02 3.71747208e-03 5.20446077e-02
      3.71747203e-02 2.60223038e-02 4.46096659e-02 3.34572494e-02
      7.43494406e-02 7.43494416e-03 1.11524165e-02 0. 7.43494416e-03
      1.11524165e-02 3.34572494e-02 3.71747203e-02 1.11524165e-02
      2.60223038e-02 2.60223038e-02 3.71747208e-03 7.43494416e-03 0. 0.
      5.20446077e-02 7.43494416e-03 0. 1.48698883e-02 2.60223038e-02 0.</_>
    <_>
      1.86335407e-02 1.24223605e-02 6.21118024e-03 5.59006222e-02
      1.24223605e-02 0. 2.48447210e-02 6.21118024e-03 2.48447210e-02 0.
      2.48447210e-02 6.21118024e-03 3.10559012e-02 3.10559012e-02
      1.24223605e-02 1.86335407e-02 1.24223605e-02 1.11801244e-01
      2.48447210e-02 0. 0. 0. 6.21118024e-03 6.21118024e-03
      1.86335407e-02 6.83229864e-02 1.86335407e-02 1.24223605e-02
      3.72670814e-02 3.10559012e-02 0. 6.21118024e-03 0. 1.86335407e-02
      1.86335407e-02 3.10559012e-02 4.96894419e-02 1.24223605e-02
      2.48447210e-02 1.24223605e-02 6.21118024e-03 4.34782617e-02
      1.24223605e-02 1.24223605e-02 1.86335407e-02 1.24223605e-02 0.
      1.86335407e-02 6.83229864e-02 0.</_>
    <_>
      9.20245424e-03 4.60122675e-02 3.06748459e-03 3.06748450e-02
      3.06748459e-03 9.20245424e-03 2.14723926e-02 6.13496918e-03
      1.22699384e-02 9.20245424e-03 1.84049085e-02 1.84049085e-02
      2.14723926e-02 1.53374225e-02 2.45398767e-02 6.13496918e-03
      6.13496918e-03 1.04294479e-01 7.05521479e-02 1.53374225e-02
      3.06748459e-03 1.22699384e-02 2.14723926e-02 6.13496918e-03
      9.20245424e-03 3.68098170e-02 2.45398767e-02 2.45398767e-02
      1.84049085e-02 3.37423310e-02 3.06748459e-03 6.13496918e-03 0.
      1.22699384e-02 1.84049085e-02 4.29447852e-02 2.45398767e-02
      2.45398767e-02 3.68098170e-02 1.84049085e-02 6.13496918e-03
      2.45398767e-02 0. 6.13496918e-03 3.37423310e-02 9.20245424e-03
      3.06748459e-03 9.20245424e-03 7.66871125e-02 3.06748459e-03</_>
    <_>
      1.48148146e-02 8.14814791e-02 1.48148146e-02 7.40740728e-03 0.
      2.96296291e-02 7.40740728e-03 0. 2.22222209e-02 4.44444418e-02
      5.92592582e-02 7.40740728e-03 1.48148146e-02 1.48148146e-02
      1.48148146e-02 7.40740728e-03 7.40740728e-03 2.96296291e-02
      2.22222209e-02 0. 7.40740728e-03 7.40740728e-03 2.22222209e-02
      1.48148146e-02 3.70370373e-02 7.40740728e-03 2.96296291e-02
      1.48148146e-02 2.22222209e-02 3.70370373e-02 2.22222209e-02
      2.22222209e-02 0. 7.40740728e-03 3.70370373e-02 5.92592582e-02
      7.40740728e-03 5.92592582e-02 7.40740728e-03 7.40740728e-03 0.
      7.40740728e-03 3.70370373e-02 1.48148146e-02 3.70370373e-02
      7.40740728e-03 7.40740728e-03 7.40740728e-03 5.18518500e-02 0.</_>
    <_>
      2.66666673e-02 4.83333357e-02 0. 1.16666667e-02 9.99999978e-03
      6.50000051e-02 1.50000006e-02 1.66666671e-03 3.00000012e-02
      2.66666673e-02 1.50000006e-02 1.99999996e-02 3.50000001e-02
      2.83333343e-02 2.33333334e-02 1.16666667e-02 2.33333334e-02
      2.66666673e-02 4.50000018e-02 3.50000001e-02 1.83333345e-02
      1.16666667e-02 1.66666675e-02 1.16666667e-02 1.66666675e-02
      2.16666665e-02 2.16666665e-02 2.16666665e-02 1.16666667e-02
      1.33333337e-02 2.33333334e-02 1.33333337e-02 1.66666671e-03
      1.66666675e-02 1.16666667e-02 9.99999978e-03 2.16666665e-02
      1.16666667e-02 1.33333337e-02 1.99999996e-02 3.00000012e-02
      1.99999996e-02 1.16666667e-02 1.83333345e-02 1.99999996e-02
      3.99999991e-02 1.33333337e-02 1.50000006e-02 1.66666675e-02
      8.33333377e-03</_>
    <_>
      5.71428612e-02 4.76190494e-03 9.52380989e-03 0. 0. 0.
      3.80952395e-02 0. 9.52380989e-03 0. 4.76190494e-03 1.90476198e-02
      5.23809530e-02 1.90476198e-02 4.76190494e-03 4.76190494e-03
      4.76190494e-03 6.19047657e-02 0. 0. 0. 3.33333351e-02
      4.76190494e-03 4.76190494e-03 7.14285746e-02 3.33333351e-02
      4.28571440e-02 9.52380989e-03 3.80952395e-02 6.19047657e-02
      9.52380989e-03 4.76190485e-02 9.52380989e-03 1.42857153e-02
      4.76190494e-03 9.52380989e-03 1.90476198e-02 0. 0. 1.90476198e-02
      9.52380970e-02 3.33333351e-02 4.76190494e-03 0. 2.38095243e-02
      1.42857153e-02 0. 3.33333351e-02 7.14285746e-02 0.</_>
    <_>
      1.97044332e-02 2.46305410e-02 2.46305410e-02 2.21674871e-02
      4.92610829e-03 7.38916267e-03 2.46305410e-02 2.46305414e-03
      2.95566507e-02 9.85221658e-03 1.72413792e-02 1.47783253e-02
      2.46305410e-02 1.97044332e-02 1.97044332e-02 3.44827585e-02
      1.23152705e-02 3.20197046e-02 6.15763552e-02 7.38916267e-03
      1.72413792e-02 9.85221658e-03 2.46305410e-02 7.38916267e-03
      1.97044332e-02 1.23152705e-02 1.97044332e-02 1.97044332e-02
      2.46305410e-02 2.46305410e-02 1.72413792e-02 7.38916267e-03 0.
      4.18719202e-02 3.69458124e-02 2.95566507e-02 1.97044332e-02
      2.21674871e-02 2.95566507e-02 1.47783253e-02 2.70935949e-02
      2.21674871e-02 1.23152705e-02 1.72413792e-02 2.70935949e-02
      3.20197046e-02 9.85221658e-03 2.46305414e-03 2.46305410e-02
      1.23152705e-02</_>
    <_>
      2.04081628e-02 4.89795879e-02 8.16326495e-03 1.22448970e-02 0.
      2.44897939e-02 2.04081628e-02 8.16326495e-03 3.26530598e-02
      1.63265299e-02 8.16326495e-03 2.85714269e-02 3.26530598e-02
      1.22448970e-02 0. 2.04081628e-02 2.85714269e-02 7.34693855e-02
      2.85714269e-02 0. 8.16326495e-03 8.16326495e-03 8.16326495e-03
      3.67346928e-02 1.63265299e-02 8.16326495e-03 2.44897939e-02
      1.22448970e-02 2.85714269e-02 5.30612208e-02 1.22448970e-02
      4.48979586e-02 8.16326495e-03 1.63265299e-02 2.04081628e-02
      8.16326495e-03 1.63265299e-02 0. 2.44897939e-02 3.26530598e-02
      2.44897939e-02 1.22448970e-02 0. 1.22448970e-02 8.16326495e-03
      3.67346928e-02 8.16326495e-03 4.08163248e-03 6.12244867e-02
      2.04081628e-02</_>
    <_>
      1.37741044e-02 8.26446339e-03 1.65289268e-02 2.75482088e-02
      8.53994489e-02 8.26446339e-03 3.58126722e-02 3.85674946e-02
      2.75482098e-03 8.26446339e-03 1.37741044e-02 1.65289268e-02
      4.13223132e-02 1.37741044e-02 5.50964195e-03 8.26446339e-03
      1.10192839e-02 9.09090936e-02 3.30578536e-02 1.10192839e-02
      8.26446339e-03 8.26446339e-03 2.75482088e-02 5.50964195e-03
      4.95867766e-02 2.75482088e-02 8.26446339e-03 1.37741044e-02
      2.75482098e-03 3.03030312e-02 5.50964195e-03 1.10192839e-02
      2.47933883e-02 1.10192839e-02 1.92837473e-02 1.37741044e-02
      2.47933883e-02 1.37741044e-02 2.47933883e-02 3.30578536e-02
      2.20385678e-02 8.26446339e-03 0. 2.75482098e-03 2.47933883e-02
      1.92837473e-02 0. 0. 6.88705221e-02 0.</_>
    <_>
      0. 5.00000007e-02 2.30769236e-02 7.69230770e-03 1.15384618e-02
      8.46153870e-02 3.84615385e-03 3.84615385e-03 2.69230772e-02
      7.30769262e-02 1.53846154e-02 0. 3.84615385e-03 1.15384618e-02
      1.92307699e-02 6.15384616e-02 1.15384618e-02 1.53846154e-02
      6.15384616e-02 1.15384618e-02 2.30769236e-02 3.46153863e-02
      2.30769236e-02 7.69230770e-03 0. 0. 2.30769236e-02 1.15384618e-02
      1.92307699e-02 0. 3.07692308e-02 1.15384618e-02 0. 4.61538471e-02
      1.53846154e-02 7.69230770e-03 3.84615385e-03 3.07692308e-02
      2.69230772e-02 1.15384618e-02 0. 2.30769236e-02 2.30769236e-02
      4.23076935e-02 0. 1.15384618e-02 2.30769236e-02 1.53846154e-02
      1.15384618e-02 2.69230772e-02</_>
    <_>
      6.46551698e-03 3.01724132e-02 1.72413792e-02 2.58620679e-02
      4.31034481e-03 1.72413792e-02 2.80172415e-02 4.31034481e-03
      1.93965510e-02 6.46551698e-03 4.31034490e-02 1.50862066e-02
      3.44827585e-02 2.80172415e-02 2.37068962e-02 2.58620679e-02
      2.58620679e-02 2.37068962e-02 3.66379321e-02 1.93965510e-02
      8.62068962e-03 6.46551698e-03 1.93965510e-02 1.50862066e-02
      1.50862066e-02 1.07758623e-02 2.80172415e-02 6.46551698e-03
      2.80172415e-02 3.01724132e-02 2.15517245e-02 1.29310340e-02 0.
      3.23275849e-02 1.72413792e-02 3.01724132e-02 1.93965510e-02
      3.66379321e-02 2.58620679e-02 1.50862066e-02 6.46551698e-03
      2.58620679e-02 4.52586189e-02 3.87931019e-02 4.31034490e-02
      6.46551698e-03 0. 2.15517241e-03 1.50862066e-02 2.15517241e-03</_>
    <_>
      1.96078438e-02 7.84313753e-02 9.80392192e-03 9.80392192e-03 0.
      4.90196086e-02 0. 0. 0. 5.88235334e-02 3.92156877e-02
      1.96078438e-02 9.80392192e-03 2.94117667e-02 1.96078438e-02
      4.90196086e-02 1.96078438e-02 1.96078438e-02 1.96078438e-02
      2.94117667e-02 0. 2.94117667e-02 1.96078438e-02 0. 1.96078438e-02
      9.80392192e-03 9.80392192e-03 9.80392192e-03 9.80392192e-03
      2.94117667e-02 4.90196086e-02 9.80392192e-03 0. 5.88235334e-02 0.
      0. 9.80392192e-03 9.80392192e-03 3.92156877e-02 9.80392192e-03
      9.80392192e-03 0. 1.96078438e-02 1.96078438e-02 1.96078438e-02
      1.96078438e-02 2.94117667e-02 0. 5.88235334e-02 1.96078438e-02</_>
    <_>
      1.42857144e-02 2.14285720e-02 2.50000004e-02 1.07142860e-02
      1.78571437e-02 2.50000004e-02 0. 3.57142873e-02 3.92857157e-02
      1.78571437e-02 2.50000004e-02 4.64285724e-02 1.42857144e-02
      7.14285718e-03 2.14285720e-02 1.78571437e-02 1.07142860e-02
      2.50000004e-02 2.50000004e-02 1.07142860e-02 3.57142859e-03
      2.14285720e-02 2.14285720e-02 2.85714287e-02 1.42857144e-02
      3.57142859e-03 5.00000007e-02 0. 1.42857144e-02 3.57142859e-03
      2.50000004e-02 1.42857144e-02 0. 2.85714287e-02 1.42857144e-02
      1.07142860e-02 3.57142873e-02 1.07142860e-02 3.21428590e-02
      3.21428590e-02 1.07142860e-02 1.07142860e-02 1.07142860e-02
      1.07142860e-02 7.14285718e-03 2.50000004e-02 3.92857157e-02
      6.42857179e-02 1.07142860e-02 3.57142873e-02</_>
    <_>
      3.59281451e-02 1.91616774e-01 1.19760484e-02 5.98802418e-03 0.
      5.98802418e-03 1.79640725e-02 0. 1.79640725e-02 0. 0.
      1.79640725e-02 3.59281451e-02 3.59281451e-02 1.19760484e-02
      1.19760484e-02 5.98802418e-03 5.38922176e-02 7.78443143e-02 0.
      1.79640725e-02 0. 1.79640725e-02 0. 2.99401209e-02 1.19760484e-02
      2.39520967e-02 3.59281451e-02 4.79041934e-02 2.39520967e-02 0.
      5.98802418e-03 5.98802418e-03 1.79640725e-02 1.79640725e-02
      5.98802418e-03 1.79640725e-02 0. 1.19760484e-02 2.39520967e-02
      2.39520967e-02 0. 0. 0. 1.79640725e-02 0. 0. 0. 8.98203626e-02
      1.19760484e-02</_>
    <_>
      8.92857183e-03 1.33928582e-02 1.33928582e-02 8.92857183e-03
      1.33928582e-02 1.33928582e-02 2.67857164e-02 1.33928582e-02
      4.46428591e-03 2.23214291e-02 1.78571437e-02 2.67857164e-02
      4.46428582e-02 2.23214291e-02 2.23214291e-02 3.57142873e-02 0.
      3.12500000e-02 1.78571437e-02 8.92857183e-03 1.78571437e-02
      2.67857164e-02 4.46428591e-03 8.92857183e-03 4.91071455e-02
      1.78571437e-02 8.92857183e-03 2.23214291e-02 4.01785746e-02
      3.57142873e-02 2.67857164e-02 0. 8.92857183e-03 2.23214291e-02
      2.23214291e-02 1.33928582e-02 2.23214291e-02 1.33928582e-02
      4.46428591e-03 3.12500000e-02 4.91071455e-02 4.01785746e-02
      4.46428591e-03 4.46428591e-03 8.92857183e-03 2.23214291e-02
      1.33928582e-02 2.23214291e-02 6.25000000e-02 8.92857183e-03</_>
    <_>
      1.30718956e-02 4.57516350e-02 4.57516350e-02 0. 3.92156877e-02
      2.61437912e-02 1.30718956e-02 1.96078438e-02 2.61437912e-02
      2.61437912e-02 6.53594779e-03 1.30718956e-02 3.92156877e-02
      6.53594779e-03 3.26797403e-02 2.61437912e-02 1.96078438e-02
      1.96078438e-02 4.57516350e-02 6.53594779e-03 0. 3.92156877e-02
      6.53594779e-03 0. 5.22875823e-02 1.30718956e-02 1.96078438e-02
      6.53594779e-03 4.57516350e-02 2.61437912e-02 0. 6.53594779e-03 0.
      1.30718956e-02 1.96078438e-02 6.53594779e-03 2.61437912e-02
      1.96078438e-02 2.61437912e-02 3.26797403e-02 6.53594779e-03
      1.96078438e-02 1.30718956e-02 0. 3.26797403e-02 0. 2.61437912e-02
      1.30718956e-02 6.53594779e-03 5.22875823e-02</_>
    <_>
      1.33928582e-02 1.78571437e-02 5.35714328e-02 0. 2.23214291e-02
      4.01785746e-02 4.46428591e-03 2.67857164e-02 4.01785746e-02
      7.58928582e-02 3.57142873e-02 1.33928582e-02 4.46428591e-03
      1.78571437e-02 2.67857164e-02 2.67857164e-02 1.78571437e-02
      3.57142873e-02 4.46428591e-03 1.78571437e-02 1.78571437e-02
      1.33928582e-02 2.67857164e-02 3.12500000e-02 4.46428591e-03
      8.92857183e-03 2.67857164e-02 1.33928582e-02 0. 1.33928582e-02
      3.12500000e-02 8.92857183e-03 0. 2.67857164e-02 2.67857164e-02
      1.33928582e-02 8.92857183e-03 2.23214291e-02 8.92857183e-03 0.
      4.46428591e-03 4.46428591e-03 1.33928582e-02 2.23214291e-02
      4.46428591e-03 1.78571437e-02 4.46428582e-02 1.78571437e-02
      2.67857164e-02 4.46428582e-02</_>
    <_>
      1.12359552e-02 2.99625471e-02 3.74531839e-03 2.99625471e-02
      8.98876414e-02 1.49812736e-02 7.49063678e-03 2.24719103e-02
      1.49812736e-02 3.74531820e-02 6.74157292e-02 1.49812736e-02
      1.87265910e-02 1.49812736e-02 1.49812736e-02 4.49438207e-02
      2.24719103e-02 1.87265910e-02 1.49812736e-02 0. 7.49063678e-03
      1.49812736e-02 5.99250942e-02 7.49063678e-03 7.49063678e-03
      7.49063678e-03 2.24719103e-02 7.49063678e-03 1.87265910e-02
      3.74531839e-03 1.49812736e-02 1.12359552e-02 0. 4.86891381e-02
      1.87265910e-02 2.62172297e-02 7.49063678e-03 3.74531820e-02
      3.74531839e-03 2.24719103e-02 1.12359552e-02 3.74531839e-03
      3.74531839e-03 1.49812736e-02 2.62172297e-02 1.87265910e-02
      2.99625471e-02 0. 2.62172297e-02 2.24719103e-02</_>
    <_>
      1.19760484e-02 8.98203626e-02 2.39520967e-02 5.98802418e-03
      5.98802418e-03 3.59281451e-02 1.19760484e-02 5.98802418e-03
      2.99401209e-02 1.79640725e-02 1.79640725e-02 1.19760484e-02
      2.99401209e-02 1.19760484e-02 2.39520967e-02 2.99401209e-02
      1.19760484e-02 1.79640725e-02 8.38323385e-02 5.98802418e-03
      1.79640725e-02 5.98802418e-03 1.79640725e-02 1.19760484e-02 0.
      1.19760484e-02 1.79640725e-02 1.79640725e-02 1.79640725e-02
      1.79640725e-02 5.38922176e-02 1.19760484e-02 0. 3.59281451e-02
      1.19760484e-02 2.99401209e-02 1.19760484e-02 1.79640725e-02
      4.19161692e-02 1.79640725e-02 5.98802418e-03 0. 4.19161692e-02
      1.19760484e-02 2.99401209e-02 1.79640725e-02 1.79640725e-02 0. 0.
      1.79640725e-02</_>
    <_>
      1.45190563e-02 3.62976417e-02 1.45190563e-02 2.35934667e-02
      1.63339376e-02 1.99637022e-02 9.07441042e-03 2.72232313e-02
      1.63339376e-02 7.25952815e-03 9.07441042e-03 1.63339376e-02
      2.90381126e-02 2.17785835e-02 2.54083481e-02 1.27041740e-02
      2.35934667e-02 4.35571671e-02 3.44827585e-02 1.81488208e-02
      2.17785835e-02 1.27041740e-02 3.62976417e-02 1.81488208e-02
      3.62976417e-02 1.81488208e-02 1.08892918e-02 1.99637022e-02
      3.08529940e-02 1.45190563e-02 2.90381126e-02 5.44464588e-03
      5.44464588e-03 1.08892918e-02 1.81488208e-02 1.08892918e-02
      2.35934667e-02 1.08892918e-02 2.72232313e-02 1.81488208e-02
      1.27041740e-02 3.08529940e-02 1.45190563e-02 1.45190563e-02
      1.27041740e-02 2.17785835e-02 5.44464588e-03 1.81488208e-02
      6.35208711e-02 7.25952815e-03</_>
    <_>
      0. 2.39043832e-02 7.96812773e-03 2.39043832e-02 1.19521916e-02
      1.19521916e-02 7.96812773e-03 1.99203193e-02 2.39043832e-02
      2.78884470e-02 5.97609580e-02 3.58565748e-02 3.98406386e-03
      1.99203193e-02 1.99203193e-02 4.78087664e-02 1.19521916e-02
      3.98406386e-03 6.37450218e-02 0. 1.99203193e-02 7.96812773e-03
      1.19521916e-02 1.19521916e-02 7.56972134e-02 1.59362555e-02
      3.98406386e-03 1.19521916e-02 7.96812773e-03 2.39043832e-02
      2.78884470e-02 1.19521916e-02 1.99203193e-02 3.18725109e-02
      3.98406386e-03 1.59362555e-02 1.59362555e-02 8.76494050e-02
      2.39043832e-02 3.18725109e-02 7.96812773e-03 1.99203193e-02
      3.98406386e-03 7.96812773e-03 1.19521916e-02 1.19521916e-02
      1.59362555e-02 3.98406386e-03 1.59362555e-02 1.19521916e-02</_>
    <_>
      3.84615385e-03 3.46153863e-02 2.69230772e-02 3.46153863e-02
      2.69230772e-02 1.92307699e-02 1.15384618e-02 2.69230772e-02
      2.30769236e-02 1.53846154e-02 3.46153863e-02 3.84615385e-03
      7.69230770e-03 2.30769236e-02 1.92307699e-02 4.61538471e-02
      3.46153863e-02 5.00000007e-02 2.69230772e-02 3.84615385e-03
      3.46153863e-02 1.15384618e-02 2.69230772e-02 1.53846154e-02
      3.84615385e-03 1.15384618e-02 7.69230770e-03 1.53846154e-02
      2.30769236e-02 1.15384618e-02 1.53846154e-02 1.15384618e-02 0.
      4.61538471e-02 3.07692308e-02 7.69230770e-03 7.69230770e-03
      2.69230772e-02 4.61538471e-02 3.07692308e-02 3.84615385e-03
      7.69230770e-03 2.30769236e-02 7.69230770e-03 1.92307699e-02
      1.53846154e-02 1.15384618e-02 1.53846154e-02 2.69230772e-02
      1.15384618e-02</_>
    <_>
      9.56937764e-03 3.82775106e-02 9.56937764e-03 1.91387553e-02 0.
      5.74162677e-02 1.91387553e-02 4.78468882e-03 9.56937764e-03
      1.43540669e-02 2.87081338e-02 2.87081338e-02 4.30621989e-02
      4.78468882e-03 4.78468873e-02 1.43540669e-02 1.43540669e-02
      8.13397095e-02 1.43540669e-02 3.34928222e-02 9.56937764e-03
      1.91387553e-02 1.91387553e-02 0. 4.78468882e-03 3.82775106e-02
      2.39234436e-02 3.34928222e-02 1.91387553e-02 3.82775106e-02
      9.56937764e-03 4.78468882e-03 0. 1.43540669e-02 4.78468882e-03
      3.82775106e-02 2.87081338e-02 1.91387553e-02 3.34928222e-02
      2.39234436e-02 2.87081338e-02 9.56937764e-03 9.56937764e-03 0.
      2.39234436e-02 9.56937764e-03 4.78468882e-03 0. 3.34928222e-02
      4.78468882e-03</_>
    <_>
      1.56250000e-02 7.81250000e-02 3.90625000e-02 0. 0. 3.90625000e-02
      7.81250000e-03 7.81250000e-03 3.90625000e-02 7.81250000e-03
      7.81250000e-03 0. 3.12500000e-02 3.12500000e-02 0. 3.12500000e-02
      7.81250000e-03 3.90625000e-02 3.12500000e-02 0. 3.12500000e-02 0.
      7.81250000e-03 0. 0. 0. 5.46875000e-02 0. 1.56250000e-02
      2.34375000e-02 3.90625000e-02 0. 0. 2.34375000e-02 2.34375000e-02
      3.90625000e-02 3.90625000e-02 0. 5.46875000e-02 0. 3.12500000e-02
      7.81250000e-03 7.81250000e-02 5.46875000e-02 3.12500000e-02 0.
      7.81250000e-03 2.34375000e-02 0. 0.</_>
    <_>
      5.40540554e-03 1.43243253e-01 1.08108111e-02 2.70270277e-03
      3.78378406e-02 3.24324332e-02 2.43243240e-02 1.08108111e-02
      2.43243240e-02 2.70270277e-03 3.51351351e-02 0. 5.40540554e-03
      1.89189203e-02 2.70270277e-03 3.51351351e-02 1.35135138e-02
      3.78378406e-02 1.24324329e-01 1.89189203e-02 8.10810830e-03 0.
      8.10810830e-03 1.08108111e-02 2.43243240e-02 1.62162166e-02
      3.51351351e-02 5.40540554e-03 1.35135138e-02 5.40540554e-03
      1.62162166e-02 1.08108111e-02 1.35135138e-02 3.78378406e-02
      2.43243240e-02 1.08108111e-02 2.70270277e-03 1.62162166e-02
      2.97297314e-02 5.40540554e-03 1.62162166e-02 8.10810830e-03
      2.16216221e-02 1.89189203e-02 1.89189203e-02 2.70270277e-03
      8.10810830e-03 5.40540554e-03 1.89189203e-02 0.</_>
    <_>
      0. 8.84353742e-02 0. 0. 0. 3.40136066e-02 0. 0. 1.36054419e-02 0.
      4.76190448e-02 0. 2.72108838e-02 6.80272095e-03 1.36054419e-02
      4.76190448e-02 2.72108838e-02 2.04081628e-02 9.52380896e-02 0.
      1.36054419e-02 0. 0. 6.80272095e-03 2.04081628e-02 1.36054419e-02
      6.80272095e-03 1.36054419e-02 6.80272095e-03 4.08163257e-02
      3.40136066e-02 0. 0. 2.72108838e-02 6.80272095e-03 0.
      6.80272095e-03 7.48299286e-02 8.16326514e-02 6.80272095e-03 0. 0.
      2.72108838e-02 6.12244904e-02 5.44217676e-02 6.80272095e-03
      2.72108838e-02 6.80272095e-03 6.80272095e-03 2.72108838e-02</_>
    <_>
      2.12201588e-02 3.71352769e-02 1.85676385e-02 2.38726791e-02
      1.06100794e-02 2.12201588e-02 2.65251994e-02 1.06100794e-02
      2.91777179e-02 5.30503970e-03 2.91777179e-02 2.65251994e-02
      1.85676385e-02 7.95755908e-03 2.65251994e-02 3.18302363e-02
      7.95755908e-03 8.22281167e-02 4.50928360e-02 4.24403176e-02
      2.65251994e-02 7.95755908e-03 1.85676385e-02 7.95755908e-03
      1.32625997e-02 1.85676385e-02 2.12201588e-02 1.32625997e-02
      2.65251985e-03 3.18302363e-02 2.12201588e-02 1.32625997e-02 0.
      2.38726791e-02 1.32625997e-02 1.32625997e-02 2.91777179e-02
      1.06100794e-02 2.91777179e-02 1.06100794e-02 2.38726791e-02
      4.50928360e-02 1.06100794e-02 1.85676385e-02 1.85676385e-02
      1.59151182e-02 5.30503970e-03 0. 1.32625997e-02 0.</_>
    <_>
      1.79445352e-02 3.42577472e-02 1.79445352e-02 4.07830328e-02
      2.93637849e-02 8.15660693e-03 1.79445352e-02 1.46818925e-02
      3.26264277e-02 1.30505711e-02 3.75203937e-02 8.15660693e-03
      2.77324636e-02 2.28384994e-02 6.52528554e-03 2.44698208e-02
      2.93637849e-02 3.09951063e-02 3.42577472e-02 1.46818925e-02
      6.52528554e-03 8.15660693e-03 1.63132139e-02 1.95758566e-02
      1.79445352e-02 1.14192497e-02 3.26264277e-02 1.95758566e-02
      2.77324636e-02 2.77324636e-02 1.95758566e-02 6.52528554e-03
      3.26264277e-03 3.26264277e-02 3.58890705e-02 2.12071780e-02
      2.61011422e-02 2.77324636e-02 1.79445352e-02 6.52528554e-03
      1.46818925e-02 1.79445352e-02 1.63132139e-02 2.44698208e-02
      2.12071780e-02 1.30505711e-02 6.52528554e-03 1.63132139e-03
      2.93637849e-02 6.52528554e-03</_>
    <_>
      1.36518767e-02 2.04778146e-02 1.36518767e-02 1.70648452e-02
      2.04778146e-02 6.82593836e-03 1.36518767e-02 0. 2.04778146e-02
      1.02389073e-02 2.38907840e-02 3.75426598e-02 1.02389073e-02
      2.73037534e-02 3.41296904e-02 4.43685986e-02 3.41296918e-03
      3.07167228e-02 5.80204763e-02 0. 1.36518767e-02 6.48464113e-02
      2.38907840e-02 1.36518767e-02 1.02389073e-02 1.36518767e-02
      2.73037534e-02 2.04778146e-02 1.36518767e-02 1.02389073e-02
      2.04778146e-02 1.36518767e-02 3.41296918e-03 3.07167228e-02
      6.82593836e-03 1.36518767e-02 6.82593836e-03 1.70648452e-02
      1.36518767e-02 2.04778146e-02 6.82593836e-03 1.70648452e-02
      2.38907840e-02 2.38907840e-02 1.70648452e-02 2.38907840e-02
      1.70648452e-02 5.80204763e-02 4.09556292e-02 6.82593836e-03</_>
    <_>
      3.24675324e-03 3.24675329e-02 1.94805190e-02 1.94805190e-02 0.
      7.79220760e-02 1.62337665e-02 9.74025950e-03 9.74025950e-03
      4.54545468e-02 1.29870130e-02 2.27272734e-02 1.94805190e-02
      2.59740259e-02 2.59740259e-02 1.94805190e-02 1.62337665e-02
      4.87012975e-02 3.24675329e-02 1.62337665e-02 9.74025950e-03
      9.74025950e-03 3.24675329e-02 9.74025950e-03 0. 2.59740259e-02
      1.62337665e-02 9.74025950e-03 6.49350649e-03 2.27272734e-02
      2.59740259e-02 9.74025950e-03 0. 1.94805190e-02 1.94805190e-02
      2.59740259e-02 1.62337665e-02 2.59740259e-02 3.24675329e-02
      1.94805190e-02 1.62337665e-02 1.29870130e-02 1.29870130e-02
      1.29870130e-02 1.29870130e-02 1.29870130e-02 2.27272734e-02
      1.29870130e-02 5.19480519e-02 1.94805190e-02</_>
    <_>
      1.29032256e-02 1.54838711e-01 6.45161280e-03 1.29032256e-02
      6.45161280e-03 4.83870953e-02 3.22580640e-03 0. 5.16129024e-02
      6.45161280e-03 2.90322583e-02 1.29032256e-02 1.61290318e-02
      1.93548389e-02 0. 1.29032256e-02 3.22580640e-03 5.48387095e-02
      5.16129024e-02 1.61290318e-02 6.45161280e-03 6.45161280e-03
      1.29032256e-02 1.29032256e-02 1.29032256e-02 1.93548389e-02
      2.90322583e-02 9.67741944e-03 3.54838707e-02 2.58064512e-02
      9.67741944e-03 6.45161280e-03 3.22580640e-03 2.90322583e-02
      6.45161280e-03 2.58064512e-02 3.22580636e-02 2.90322583e-02
      1.61290318e-02 0. 9.67741944e-03 9.67741944e-03 3.87096778e-02
      2.90322583e-02 2.25806441e-02 1.29032256e-02 6.45161280e-03 0.
      1.61290318e-02 6.45161280e-03</_>
    <_>
      7.69230770e-03 2.30769236e-02 3.84615399e-02 2.30769236e-02
      1.15384618e-02 3.07692308e-02 1.53846154e-02 5.38461544e-02
      3.07692308e-02 3.46153863e-02 2.30769236e-02 3.84615385e-03
      1.15384618e-02 1.15384618e-02 7.69230770e-03 5.00000007e-02
      7.69230770e-03 3.07692308e-02 3.84615399e-02 1.53846154e-02
      3.07692308e-02 0. 1.15384618e-02 1.15384618e-02 7.69230770e-03
      2.69230772e-02 1.53846154e-02 0. 0. 1.53846154e-02 2.69230772e-02
      1.53846154e-02 0. 2.30769236e-02 4.23076935e-02 1.53846154e-02
      2.30769236e-02 1.53846154e-02 6.15384616e-02 3.84615385e-03
      3.84615385e-03 2.30769236e-02 2.30769236e-02 3.84615385e-03
      1.92307699e-02 3.46153863e-02 4.23076935e-02 3.84615385e-03
      3.84615385e-03 2.69230772e-02</_>
    <_>
      5.81395347e-03 9.01162773e-02 1.74418613e-02 3.77906971e-02
      8.72093067e-03 8.72093067e-03 8.72093067e-03 2.90697673e-03
      2.90697664e-02 1.45348832e-02 2.03488376e-02 2.90697673e-03
      8.72093067e-03 5.81395347e-03 1.16279069e-02 2.03488376e-02
      8.72093067e-03 4.94186059e-02 9.30232555e-02 1.45348832e-02
      8.72093067e-03 1.16279069e-02 2.90697664e-02 5.81395347e-03
      1.16279069e-02 3.19767445e-02 1.74418613e-02 8.72093067e-03
      2.32558139e-02 1.16279069e-02 8.72093067e-03 8.72093067e-03 0.
      5.23255803e-02 2.32558139e-02 3.19767445e-02 1.74418613e-02
      3.19767445e-02 4.06976752e-02 8.72093067e-03 5.81395347e-03
      1.74418613e-02 8.72093067e-03 2.90697673e-03 2.61627901e-02
      1.16279069e-02 1.16279069e-02 1.74418613e-02 4.36046496e-02
      1.16279069e-02</_>
    <_>
      0. 1.06382973e-01 1.06382975e-02 1.59574468e-02 5.31914877e-03
      1.06382975e-02 5.31914877e-03 5.31914877e-03 2.12765951e-02 0.
      1.59574468e-02 5.31914877e-03 0. 1.06382975e-02 0. 5.31914867e-02
      1.59574468e-02 5.85106350e-02 1.48936167e-01 5.31914877e-03
      5.31914877e-03 1.06382975e-02 5.31914877e-03 3.19148935e-02
      1.59574468e-02 1.59574468e-02 2.12765951e-02 5.31914877e-03
      1.06382975e-02 1.59574468e-02 0. 2.12765951e-02 0. 6.38297871e-02
      1.06382975e-02 2.12765951e-02 5.31914877e-03 2.12765951e-02
      4.78723384e-02 5.31914877e-03 0. 5.31914877e-03 2.12765951e-02
      2.65957434e-02 3.72340418e-02 1.06382975e-02 1.06382975e-02
      5.31914877e-03 3.72340418e-02 1.59574468e-02</_>
    <_>
      9.00900923e-03 7.20720738e-02 1.80180185e-02 2.25225240e-02
      1.80180185e-02 4.95495498e-02 1.35135138e-02 0. 2.70270277e-02
      1.35135138e-02 9.00900923e-03 9.00900923e-03 4.05405425e-02 0.
      1.35135138e-02 9.00900923e-03 1.35135138e-02 5.40540554e-02
      4.95495498e-02 1.35135138e-02 9.00900923e-03 1.80180185e-02
      2.25225240e-02 1.35135138e-02 9.00900923e-03 1.80180185e-02
      1.80180185e-02 9.00900923e-03 1.80180185e-02 1.80180185e-02
      1.35135138e-02 9.00900923e-03 0. 4.50450461e-03 3.15315314e-02
      1.35135138e-02 1.80180185e-02 3.15315314e-02 3.15315314e-02
      2.70270277e-02 2.25225240e-02 0. 1.80180185e-02 9.00900923e-03
      1.35135138e-02 9.00900923e-03 1.35135138e-02 2.70270277e-02
      8.10810849e-02 1.80180185e-02</_>
    <_>
      1.88679248e-02 6.13207556e-02 3.77358496e-02 5.18867932e-02
      4.71698120e-03 4.24528308e-02 1.41509436e-02 0. 3.30188684e-02
      4.71698120e-02 3.77358496e-02 4.71698120e-03 1.88679248e-02
      3.30188684e-02 1.88679248e-02 1.88679248e-02 1.41509436e-02
      4.24528308e-02 0. 1.41509436e-02 9.43396240e-03 0. 2.83018872e-02
      4.71698120e-03 2.83018872e-02 0. 2.35849060e-02 2.83018872e-02
      1.41509436e-02 1.41509436e-02 5.18867932e-02 0. 0. 1.41509436e-02
      3.30188684e-02 1.88679248e-02 1.41509436e-02 4.71698120e-03
      3.30188684e-02 9.43396240e-03 2.35849060e-02 9.43396240e-03
      1.88679248e-02 1.88679248e-02 4.71698120e-03 1.88679248e-02
      2.83018872e-02 4.71698120e-03 4.71698120e-03 2.35849060e-02</_>
    <_>
      0. 4.89130430e-02 1.08695654e-02 2.71739140e-02 0. 2.71739140e-02
      5.43478271e-03 1.08695654e-02 2.17391308e-02 1.25000000e-01
      1.08695654e-02 0. 5.43478271e-03 2.17391308e-02 4.89130430e-02
      4.89130430e-02 5.43478271e-03 2.17391308e-02 1.03260875e-01
      1.08695654e-02 5.43478271e-03 0. 3.80434804e-02 5.43478271e-03 0.
      5.43478271e-03 2.17391308e-02 5.43478271e-03 1.08695654e-02
      5.43478271e-03 6.52173907e-02 0. 0. 3.80434804e-02 1.08695654e-02
      1.08695654e-02 0. 2.17391308e-02 2.71739140e-02 5.43478271e-03
      1.08695654e-02 2.17391308e-02 2.17391308e-02 5.43478271e-03
      1.63043477e-02 2.71739140e-02 1.63043477e-02 2.17391308e-02
      2.71739140e-02 0.</_>
    <_>
      9.92555823e-03 9.42928046e-02 1.48883369e-02 4.21836227e-02 0.
      1.48883369e-02 2.48138956e-03 0. 1.98511165e-02 0. 5.45905717e-02
      9.92555823e-03 3.97022329e-02 3.22580636e-02 4.96277912e-03
      1.98511165e-02 1.73697267e-02 3.72208431e-02 9.67741907e-02
      9.92555823e-03 1.24069480e-02 7.44416844e-03 0. 2.48138956e-03
      1.73697267e-02 2.23325063e-02 7.44416844e-03 2.72952858e-02
      1.48883369e-02 1.24069480e-02 1.24069480e-02 4.96277912e-03
      2.48138956e-03 1.98511165e-02 9.92555823e-03 1.48883369e-02
      2.97766738e-02 2.48138960e-02 3.22580636e-02 1.24069480e-02
      2.23325063e-02 2.72952858e-02 2.23325063e-02 9.92555823e-03
      2.72952858e-02 2.48138960e-02 1.24069480e-02 9.92555823e-03
      2.97766738e-02 4.96277912e-03</_>
    <_>
      0. 1.08695656e-01 2.71739140e-02 7.06521720e-02 0. 4.89130430e-02
      0. 5.43478271e-03 0. 1.08695654e-02 2.71739140e-02 5.43478271e-03
      0. 1.63043477e-02 0. 2.17391308e-02 1.08695654e-02 0.
      9.78260860e-02 1.08695654e-02 3.26086953e-02 1.08695654e-02
      1.08695654e-02 1.08695654e-02 1.08695654e-02 5.43478271e-03 0. 0.
      5.43478271e-03 0. 5.43478271e-03 5.43478271e-03 5.43478271e-03
      3.80434804e-02 2.17391308e-02 1.08695654e-02 0. 3.80434804e-02
      6.52173907e-02 5.43478271e-03 5.43478271e-03 1.08695654e-02
      4.34782617e-02 7.60869607e-02 1.63043477e-02 2.17391308e-02
      2.71739140e-02 2.71739140e-02 0. 2.71739140e-02</_>
    <_>
      1.02827763e-02 6.42673522e-02 1.28534706e-02 1.79948583e-02
      1.02827765e-01 6.16966560e-02 2.05655526e-02 8.74035954e-02
      7.71208201e-03 2.57069413e-02 1.28534706e-02 2.57069408e-03
      1.54241640e-02 7.71208201e-03 1.02827763e-02 2.31362469e-02
      2.05655526e-02 0. 1.41388178e-01 2.31362469e-02 1.54241640e-02 0.
      3.34190242e-02 1.02827763e-02 6.16966560e-02 7.71208201e-03 0.
      1.79948583e-02 7.71208201e-03 1.02827763e-02 7.71208201e-03 0.
      1.02827763e-02 2.05655526e-02 2.05655526e-02 2.57069408e-03
      5.14138816e-03 1.28534706e-02 2.05655526e-02 2.57069408e-03
      7.71208201e-03 2.57069408e-03 1.79948583e-02 1.02827763e-02 0.
      1.28534706e-02 5.14138816e-03 0. 5.14138816e-03 2.57069408e-03</_>
    <_>
      1.55440411e-02 2.59067342e-02 1.55440411e-02 1.55440411e-02
      1.03626940e-02 1.55440411e-02 1.03626940e-02 1.03626940e-02
      1.03626940e-02 2.59067342e-02 1.03626940e-02 2.07253881e-02
      1.03626940e-02 2.59067342e-02 1.03626940e-02 1.03626940e-02 0.
      6.73575103e-02 4.14507762e-02 4.66321222e-02 1.03626940e-02
      5.18134702e-03 1.03626940e-02 5.18134702e-03 4.14507762e-02
      4.66321222e-02 1.03626940e-02 3.10880821e-02 5.69948182e-02
      1.55440411e-02 1.55440411e-02 1.03626940e-02 5.18134702e-03
      2.59067342e-02 5.18134702e-03 4.14507762e-02 2.07253881e-02
      2.07253881e-02 1.55440411e-02 3.62694301e-02 1.55440411e-02
      1.03626940e-02 0. 1.03626940e-02 5.18134683e-02 1.55440411e-02
      1.55440411e-02 5.18134702e-03 3.62694301e-02 1.03626940e-02</_>
    <_>
      2.09424086e-02 4.18848172e-02 5.23560215e-03 5.23560215e-03
      1.04712043e-02 5.75916246e-02 2.61780098e-02 5.23560196e-02
      5.23560215e-03 7.85340294e-02 1.57068074e-02 1.57068074e-02
      1.57068074e-02 5.23560215e-03 0. 0. 3.66492160e-02 3.14136147e-02
      5.75916246e-02 1.57068074e-02 3.14136147e-02 5.23560215e-03
      1.04712043e-02 1.04712043e-02 4.18848172e-02 1.04712043e-02 0.
      2.61780098e-02 5.23560215e-03 1.04712043e-02 5.23560215e-03
      1.04712043e-02 2.09424086e-02 1.04712043e-02 1.04712043e-02 0.
      5.23560215e-03 2.61780098e-02 3.14136147e-02 1.57068074e-02
      3.66492160e-02 5.23560215e-03 5.23560215e-03 1.04712043e-02
      5.23560215e-03 5.23560215e-03 7.32984319e-02 0. 1.04712043e-02
      6.28272295e-02</_>
    <_>
      1.64473690e-02 3.28947380e-02 3.94736826e-02 3.28947380e-02
      1.97368413e-02 3.28947380e-02 1.97368413e-02 9.86842066e-03
      4.27631587e-02 2.63157897e-02 2.30263155e-02 1.64473690e-02 0.
      2.63157897e-02 2.96052638e-02 3.61842103e-02 1.64473690e-02
      9.86842066e-03 1.97368413e-02 2.96052638e-02 3.28947380e-02
      9.86842066e-03 3.61842103e-02 6.57894742e-03 1.31578948e-02
      9.86842066e-03 3.28947380e-02 6.57894742e-03 6.57894742e-03
      6.57894742e-03 5.92105277e-02 3.28947371e-03 3.28947371e-03
      2.63157897e-02 1.97368413e-02 6.57894742e-03 1.64473690e-02
      1.64473690e-02 2.96052638e-02 1.64473690e-02 9.86842066e-03
      2.30263155e-02 1.64473690e-02 1.64473690e-02 2.63157897e-02
      1.64473690e-02 1.64473690e-02 1.64473690e-02 3.28947371e-03
      1.64473690e-02</_>
    <_>
      0. 2.61437912e-02 2.61437912e-02 2.61437912e-02 3.26797403e-02
      1.69934645e-01 1.30718956e-02 0. 6.53594779e-03 1.43790856e-01
      1.30718956e-02 6.53594779e-03 6.53594779e-03 1.30718956e-02
      1.30718956e-02 3.92156877e-02 0. 0. 1.96078438e-02 6.53594779e-03
      4.57516350e-02 6.53594779e-03 3.26797403e-02 0. 0. 6.53594779e-03
      0. 0. 0. 6.53594779e-03 3.26797403e-02 0. 0. 1.96078438e-02
      2.61437912e-02 6.53594779e-03 0. 3.26797403e-02 6.53594807e-02
      1.96078438e-02 0. 0. 5.22875823e-02 2.61437912e-02 6.53594779e-03
      6.53594779e-03 2.61437912e-02 0. 0. 1.96078438e-02</_>
    <_>
      1.88679248e-02 1.88679248e-02 2.35849060e-02 1.88679248e-02
      2.35849060e-02 1.88679248e-02 1.41509436e-02 1.88679248e-02
      2.35849060e-02 4.71698120e-03 1.88679248e-02 9.43396240e-03
      3.77358496e-02 1.41509436e-02 1.41509436e-02 0. 4.71698120e-03
      2.83018872e-02 5.18867932e-02 1.88679248e-02 2.35849060e-02 0.
      4.24528308e-02 4.71698120e-03 2.83018872e-02 1.88679248e-02
      1.41509436e-02 2.35849060e-02 2.35849060e-02 5.66037744e-02
      1.88679248e-02 1.41509436e-02 4.71698120e-03 9.43396240e-03
      2.35849060e-02 1.88679248e-02 3.30188684e-02 9.43396240e-03
      4.24528308e-02 3.30188684e-02 9.43396240e-03 1.41509436e-02
      1.88679248e-02 1.88679248e-02 1.88679248e-02 3.30188684e-02
      9.43396240e-03 9.43396240e-03 1.88679248e-02 2.35849060e-02</_>
    <_>
      5.62851783e-03 6.56660423e-02 1.68855526e-02 3.75234522e-03
      2.43902430e-02 5.81613518e-02 1.87617261e-02 1.31332083e-02
      1.31332083e-02 2.43902430e-02 1.12570357e-02 1.31332083e-02
      9.38086305e-03 1.12570357e-02 9.38086305e-03 1.68855526e-02
      2.06378996e-02 5.25328331e-02 7.12945610e-02 5.62851783e-03
      2.25140713e-02 1.87617261e-02 3.00187618e-02 9.38086305e-03
      4.12757993e-02 9.38086305e-03 1.31332083e-02 9.38086305e-03
      2.25140713e-02 2.25140713e-02 1.31332083e-02 9.38086305e-03
      9.38086305e-03 1.68855526e-02 1.12570357e-02 1.87617261e-02
      3.75234522e-03 2.25140713e-02 2.25140713e-02 1.50093809e-02
      1.68855526e-02 1.68855526e-02 2.43902430e-02 2.43902430e-02
      1.50093809e-02 1.68855526e-02 7.50469044e-03 5.62851783e-03
      5.62851802e-02 9.38086305e-03</_>
    <_>
      3.93442623e-02 9.83606558e-03 2.29508206e-02 2.62295082e-02
      1.31147541e-02 1.96721312e-02 3.60655747e-02 6.55737706e-03
      9.83606558e-03 3.27868853e-03 1.63934417e-02 2.62295082e-02
      1.96721312e-02 5.24590164e-02 2.29508206e-02 9.83606558e-03
      2.62295082e-02 3.27868853e-03 2.62295082e-02 3.27868853e-03
      1.96721312e-02 1.63934417e-02 2.62295082e-02 6.55737706e-03
      6.55737668e-02 4.91803288e-02 3.27868853e-03 4.26229499e-02
      4.91803288e-02 1.31147541e-02 3.27868834e-02 9.83606558e-03
      9.83606558e-03 6.55737706e-03 2.29508206e-02 6.55737706e-03
      2.95081958e-02 3.27868853e-03 3.27868834e-02 1.63934417e-02
      3.60655747e-02 1.31147541e-02 1.31147541e-02 1.31147541e-02
      3.27868834e-02 3.27868853e-03 1.31147541e-02 1.63934417e-02 0.
      3.27868853e-03</_>
    <_>
      1.83673464e-02 1.42857134e-02 1.83673464e-02 2.24489793e-02
      5.71428537e-02 6.12244848e-03 1.63265299e-02 4.08163257e-02
      8.16326495e-03 2.44897939e-02 1.83673464e-02 2.24489793e-02
      2.44897939e-02 4.28571403e-02 4.08163248e-03 1.22448970e-02
      3.87755074e-02 2.04081624e-03 2.85714269e-02 1.63265299e-02
      2.24489793e-02 0. 6.12244867e-02 1.63265299e-02 3.67346928e-02
      2.65306104e-02 1.42857134e-02 2.65306104e-02 3.87755074e-02
      3.46938744e-02 2.85714269e-02 4.08163248e-03 2.44897939e-02
      1.83673464e-02 2.65306104e-02 1.02040814e-02 2.85714269e-02
      4.08163248e-03 1.83673464e-02 2.04081628e-02 2.04081628e-02
      1.22448970e-02 6.12244848e-03 1.22448970e-02 1.22448970e-02
      1.22448970e-02 1.02040814e-02 0. 1.22448970e-02 4.08163248e-03</_>
    <_>
      1.21028740e-02 1.81543119e-02 1.51285920e-02 3.47957611e-02
      1.05900150e-02 5.44629321e-02 2.57186070e-02 1.51285925e-03
      1.66414510e-02 7.71558210e-02 1.36157330e-02 9.07715596e-03
      1.66414510e-02 2.42057480e-02 7.11043850e-02 7.56429601e-03
      1.66414510e-02 3.02571841e-02 1.05900150e-02 2.26928890e-02
      1.96671709e-02 2.42057480e-02 3.63086239e-02 9.07715596e-03
      1.96671709e-02 2.26928890e-02 1.21028740e-02 1.81543119e-02
      2.42057480e-02 1.05900150e-02 2.26928890e-02 3.02571850e-03
      3.02571850e-03 1.51285920e-02 1.96671709e-02 1.05900150e-02
      1.36157330e-02 1.05900150e-02 1.81543119e-02 6.05143700e-03
      1.51285920e-02 5.44629321e-02 1.36157330e-02 1.05900150e-02
      9.07715596e-03 4.68986370e-02 4.53857798e-03 1.81543119e-02
      1.66414510e-02 3.02571850e-03</_>
    <_>
      1.03092780e-02 1.44329891e-01 1.03092780e-02 6.70103058e-02
      1.03092780e-02 8.76288638e-02 5.15463902e-03 5.15463902e-03
      1.03092780e-02 2.06185561e-02 1.03092780e-02 3.09278332e-02 0. 0.
      1.03092780e-02 1.54639166e-02 1.03092780e-02 5.15463902e-03
      8.24742243e-02 5.15463911e-02 2.57731955e-02 1.03092780e-02
      2.06185561e-02 5.15463902e-03 1.03092780e-02 5.15463902e-03 0.
      1.03092780e-02 0. 5.15463902e-03 1.54639166e-02 5.15463902e-03 0.
      2.06185561e-02 1.03092780e-02 2.06185561e-02 5.15463902e-03
      4.12371121e-02 4.63917516e-02 5.15463902e-03 1.54639166e-02 0.
      5.67010306e-02 1.54639166e-02 1.03092780e-02 5.15463902e-03
      5.15463902e-03 2.57731955e-02 5.15463902e-03 1.03092780e-02</_>
    <_>
      0. 9.21052620e-02 2.63157897e-02 5.92105277e-02 0. 2.63157897e-02
      6.57894742e-03 0. 6.57894742e-03 1.97368413e-02 3.28947380e-02 0.
      6.57894742e-03 6.57894742e-03 6.57894742e-03 0. 0. 3.28947380e-02
      6.57894760e-02 4.60526310e-02 5.26315793e-02 1.31578948e-02
      5.92105277e-02 6.57894742e-03 0. 0. 6.57894742e-03 1.31578948e-02
      0. 6.57894742e-03 6.57894742e-03 0. 0. 6.57894742e-03
      1.97368413e-02 6.57894742e-03 0. 1.97368413e-02 1.05263159e-01 0.
      6.57894742e-03 1.31578948e-02 2.63157897e-02 1.31578948e-02
      1.31578948e-02 3.94736826e-02 0. 2.63157897e-02 9.86842141e-02
      6.57894742e-03</_>
    <_>
      1.65289249e-02 1.65289249e-02 2.47933865e-02 0. 1.65289249e-02
      5.78512363e-02 0. 3.30578499e-02 3.30578499e-02 1.32231399e-01
      3.30578499e-02 8.26446246e-03 2.47933865e-02 8.26446246e-03
      1.65289249e-02 2.47933865e-02 1.65289249e-02 8.26446246e-03
      6.61156997e-02 0. 1.65289249e-02 0. 8.26446246e-03 0.
      4.95867729e-02 2.47933865e-02 2.47933865e-02 0. 8.26446246e-03 0.
      4.13223132e-02 0. 0. 1.65289249e-02 8.26446246e-03 8.26446246e-03
      4.13223132e-02 4.13223132e-02 4.95867729e-02 0. 2.47933865e-02 0.
      3.30578499e-02 2.47933865e-02 0. 2.47933865e-02 8.26446246e-03 0.
      0. 8.26446246e-03</_>
    <_>
      3.52112651e-02 2.81690136e-02 7.04225339e-03 0. 1.40845068e-02
      6.33802786e-02 5.63380271e-02 0. 2.11267602e-02 2.11267602e-02
      7.04225339e-03 7.04225339e-03 2.11267602e-02 2.11267602e-02
      1.40845068e-02 7.04225339e-03 2.81690136e-02 3.52112651e-02
      1.40845068e-02 2.11267602e-02 7.04225339e-03 1.40845068e-02
      1.40845068e-02 0. 7.04225302e-02 1.40845068e-02 1.40845068e-02
      1.40845068e-02 3.52112651e-02 2.11267602e-02 0. 1.40845068e-02
      2.11267602e-02 1.40845068e-02 7.04225339e-03 4.22535203e-02
      1.40845068e-02 7.04225339e-03 2.81690136e-02 1.40845068e-02
      7.04225302e-02 3.52112651e-02 7.04225339e-03 0. 2.81690136e-02
      1.40845068e-02 7.04225339e-03 7.04225339e-03 3.52112651e-02
      7.04225339e-03</_>
    <_>
      1.27118640e-02 1.55367237e-02 1.41242938e-02 1.41242938e-02
      4.94350269e-02 1.41242938e-02 2.40112990e-02 2.11864412e-02
      4.23728814e-03 5.64971752e-03 9.88700613e-03 3.24858762e-02
      3.10734473e-02 4.66101691e-02 1.12994350e-02 7.06214691e-03
      2.11864412e-02 6.35593235e-02 2.68361587e-02 1.12994350e-02
      2.54237279e-02 1.41242938e-02 2.54237279e-02 9.88700613e-03
      4.23728824e-02 4.37853113e-02 4.23728814e-03 4.09604535e-02
      2.96610165e-02 3.95480245e-02 1.27118640e-02 4.23728814e-03
      9.88700613e-03 7.06214691e-03 2.54237279e-02 1.55367237e-02
      1.41242938e-02 7.06214691e-03 3.10734473e-02 3.24858762e-02
      1.97740123e-02 3.24858762e-02 0. 8.47457629e-03 1.12994350e-02
      1.69491526e-02 4.23728814e-03 0. 2.96610165e-02 5.64971752e-03</_>
    <_>
      2.22717151e-02 1.55902011e-02 2.89532300e-02 3.78619172e-02
      1.55902011e-02 2.00445447e-02 2.22717151e-02 1.78173725e-02
      1.33630298e-02 6.68151490e-03 2.89532300e-02 2.22717151e-02
      2.67260596e-02 2.00445447e-02 6.68151490e-03 8.90868623e-03
      1.78173725e-02 3.78619172e-02 3.56347449e-02 1.55902011e-02
      1.78173725e-02 2.22717156e-03 3.11804023e-02 1.33630298e-02
      2.44988874e-02 3.56347449e-02 3.56347449e-02 2.44988874e-02
      4.00890894e-02 2.22717151e-02 2.00445447e-02 1.55902011e-02
      4.45434311e-03 1.11358576e-02 2.22717151e-02 1.55902011e-02
      2.22717151e-02 1.11358576e-02 3.11804023e-02 1.78173725e-02
      2.67260596e-02 2.89532300e-02 1.11358576e-02 2.22717151e-02
      2.89532300e-02 4.45434311e-03 4.45434311e-03 2.22717156e-03
      2.44988874e-02 6.68151490e-03</_>
    <_>
      6.36942685e-03 1.14649683e-01 1.27388537e-02 6.36942685e-02
      3.18471342e-03 6.05095550e-02 2.22929940e-02 0. 0. 3.18471342e-02
      1.91082805e-02 0. 2.54777074e-02 2.22929940e-02 2.86624208e-02
      9.55414027e-03 6.36942685e-03 1.59235671e-02 1.30573243e-01
      6.36942685e-03 2.54777074e-02 0. 6.36942685e-03 6.36942685e-03 0.
      2.22929940e-02 3.18471342e-03 1.91082805e-02 3.18471342e-02
      1.59235671e-02 6.36942685e-03 0. 0. 1.91082805e-02 1.59235671e-02
      3.18471342e-02 1.59235671e-02 3.50318477e-02 3.18471342e-02
      9.55414027e-03 3.18471342e-03 1.59235671e-02 3.18471342e-02
      1.59235671e-02 3.50318477e-02 6.36942685e-03 6.36942685e-03 0.
      6.36942685e-03 3.18471342e-03</_>
    <_>
      5.64971752e-02 5.64971752e-02 0. 5.64971752e-03 1.69491526e-02 0.
      1.01694912e-01 2.25988701e-02 0. 5.64971752e-03 2.82485876e-02
      2.25988701e-02 1.69491526e-02 2.25988701e-02 1.69491526e-02 0.
      6.21468946e-02 2.25988701e-02 1.69491526e-02 6.21468946e-02
      1.12994350e-02 5.64971752e-03 3.38983051e-02 1.69491526e-02
      3.38983051e-02 2.82485876e-02 5.64971752e-03 3.95480245e-02
      5.64971752e-03 1.12994350e-02 5.64971752e-03 2.82485876e-02
      3.38983051e-02 1.12994350e-02 5.64971752e-03 1.69491526e-02 0.
      3.38983051e-02 1.69491526e-02 1.12994350e-02 2.25988701e-02
      1.12994350e-02 0. 0. 2.82485876e-02 1.12994350e-02 0. 0.
      3.38983051e-02 0.</_>
    <_>
