<?xml version="1.0"?>
<opencv_storage>
<opencv_ml_svm>
  <format>3</format>
  <svmType>C_SVC</svmType>
  <kernel>
    <type>RBF</type>
    <gamma>5.0625000000000009e-01</gamma></kernel>
  <C>6.2500000000000000e+01</C>
  <term_criteria><iterations>100</iterations></term_criteria>
  <var_count>20</var_count>
  <class_count>5</class_count>
  <class_labels type_id="opencv-matrix">
    <rows>5</rows>
    <cols>1</cols>
    <dt>i</dt>
    <data>
      0 1 2 3 4</data></class_labels>
  <sv_total>181</sv_total>
  <support_vectors>
    <_>
      3.37837860e-02 4.72972989e-02 5.91216236e-02 5.40540554e-02
      2.53378376e-02 9.29054096e-02 2.02702712e-02 3.71621624e-02
      3.88513505e-02 8.44594613e-02 1.16554059e-01 1.68918930e-02
      3.20945941e-02 9.96621624e-02 3.04054059e-02 3.04054059e-02
      5.06756753e-02 4.72972989e-02 3.54729742e-02 4.72972989e-02</_>
    <_>
      3.28542106e-02 5.13347052e-02 2.87474338e-02 4.31211516e-02
      5.95482551e-02 4.31211516e-02 4.10677642e-02 7.39219710e-02
      9.03490782e-02 4.51745391e-02 5.13347052e-02 9.44558531e-02
      1.02669410e-01 1.23203285e-02 2.25872695e-02 3.90143767e-02
      4.10677642e-02 2.46406570e-02 5.74948676e-02 4.51745391e-02</_>
    <_>
      7.83289783e-03 3.13315913e-02 4.17754576e-02 5.74412532e-02
      4.17754576e-02 2.61096619e-02 7.31070489e-02 4.17754576e-02
      2.61096619e-02 6.52741492e-02 1.12271540e-01 4.17754576e-02
      1.27937332e-01 9.66057479e-02 2.34986953e-02 2.61096619e-02
      7.83289820e-02 3.65535244e-02 2.61096619e-02 1.82767622e-02</_>
    <_>
      2.86103543e-02 4.90463227e-02 1.90735683e-02 2.45231614e-02
      5.72207086e-02 4.08719331e-02 5.58583103e-02 8.99182558e-02
      1.02179833e-01 9.12806541e-02 1.03542231e-01 6.40326962e-02
      5.31335138e-02 6.26702979e-02 1.77111719e-02 2.17983648e-02
      3.13351490e-02 2.04359666e-02 4.35967296e-02 2.31607631e-02</_>
    <_>
      4.85175177e-02 4.85175177e-02 1.88679248e-02 3.50404307e-02
      1.88679248e-02 7.27762803e-02 9.97304544e-02 1.61725059e-02
      4.58221026e-02 1.10512130e-01 8.08625296e-02 3.50404307e-02
      4.31266837e-02 9.16442052e-02 4.04312648e-02 2.15633418e-02
      5.66037707e-02 7.00808614e-02 1.88679248e-02 2.69541778e-02</_>
    <_>
      6.65873960e-02 4.99405451e-02 7.13436380e-02 5.11296056e-02
      1.42687280e-02 2.02140305e-02 3.09155770e-02 3.44827585e-02
      4.63733636e-02 1.09393574e-01 7.13436380e-02 1.30796665e-02
      2.49702726e-02 1.03448272e-01 5.35077266e-02 5.46967871e-02
      6.18311539e-02 5.35077266e-02 2.14030910e-02 4.75624241e-02</_>
    <_>
      2.33990140e-02 6.28078803e-02 6.15763552e-02 5.54187186e-02
      3.07881776e-02 4.06403951e-02 3.44827585e-02 4.55665030e-02
      4.55665030e-02 1.20689653e-01 7.26600960e-02 2.70935949e-02
      4.80295569e-02 8.49753693e-02 3.32512297e-02 3.69458124e-02
      4.80295569e-02 6.65024593e-02 2.58620679e-02 3.57142836e-02</_>
    <_>
      3.17725763e-02 4.18060198e-02 5.51839471e-02 2.84280926e-02
      3.34448144e-02 5.68561852e-02 4.01337780e-02 9.53177214e-02
      4.01337780e-02 7.19063506e-02 7.02341124e-02 5.51839471e-02
      7.52508342e-02 4.51504998e-02 4.18060198e-02 5.68561852e-02
      3.67892981e-02 3.84615399e-02 2.84280926e-02 5.68561852e-02</_>
    <_>
      2.09324453e-02 3.04471925e-02 3.52045670e-02 3.99619415e-02
      2.56898180e-02 1.96003795e-01 2.66412944e-02 4.56707887e-02
      1.08468123e-01 2.18839198e-02 1.08468123e-01 6.18458614e-02
      3.23501416e-02 4.56707887e-02 2.66412944e-02 3.52045670e-02
      5.04281633e-02 4.09134142e-02 2.28353944e-02 2.47383434e-02</_>
    <_>
      4.10714298e-02 3.75000015e-02 6.07142858e-02 5.89285716e-02
      5.53571433e-02 2.85714287e-02 6.78571463e-02 6.07142858e-02
      6.60714284e-02 7.14285746e-02 5.17857149e-02 3.57142873e-02
      5.00000007e-02 6.60714284e-02 2.67857146e-02 3.57142873e-02
      6.78571463e-02 3.75000015e-02 3.39285731e-02 4.64285724e-02</_>
    <_>
      1.90355331e-02 3.04568522e-02 3.17258872e-02 4.44162413e-02
      5.71065992e-02 1.20558374e-01 2.41116751e-02 3.04568522e-02
      8.37563425e-02 5.71065992e-02 1.53553292e-01 5.45685254e-02
      4.31472063e-02 3.04568522e-02 2.41116751e-02 3.55329961e-02
      4.06091362e-02 4.18781713e-02 4.06091362e-02 3.68020311e-02</_>
    <_>
      2.04081628e-02 2.50463821e-02 5.28756976e-02 3.71057503e-02
      4.26716134e-02 4.45269011e-02 2.96846014e-02 3.43228206e-02
      2.50463821e-02 1.30797774e-01 4.91651222e-02 2.50463821e-02
      3.52504626e-02 1.41001850e-01 2.31910944e-02 5.47309853e-02
      3.80333960e-02 9.64749530e-02 4.08163257e-02 5.38033396e-02</_>
    <_>
      2.04498973e-02 5.52147217e-02 4.29447852e-02 4.08997945e-02
      3.06748450e-02 6.33946806e-02 8.17995891e-03 1.02249488e-01
      2.04498973e-02 6.13496900e-02 2.65848674e-02 8.58895704e-02
      1.34969324e-01 6.13496900e-02 1.84049085e-02 5.52147217e-02
      4.90797535e-02 3.27198356e-02 3.88548039e-02 5.11247441e-02</_>
    <_>
      3.35120670e-02 3.48525494e-02 3.21715847e-02 4.28954437e-02
      3.48525494e-02 8.04289579e-02 3.75335142e-02 4.42359261e-02
      8.57908875e-02 9.24933031e-02 6.83646128e-02 6.03217185e-02
      3.88739966e-02 6.97050989e-02 2.94906180e-02 3.88739966e-02
      6.56836480e-02 5.09383380e-02 2.81501357e-02 3.08311004e-02</_>
    <_>
      3.14960629e-02 2.95275599e-02 3.74015756e-02 3.14960629e-02
      7.28346482e-02 8.66141766e-02 3.34645659e-02 6.29921257e-02
      7.87401572e-02 4.92125973e-02 1.33858263e-01 4.13385816e-02
      6.49606287e-02 5.31496070e-02 2.36220472e-02 3.54330689e-02
      3.14960629e-02 2.55905502e-02 4.92125973e-02 2.75590550e-02</_>
    <_>
      2.99869608e-02 2.60756183e-02 4.04172093e-02 5.73663600e-02
      3.38983051e-02 5.60625792e-02 8.21381956e-02 5.99739216e-02
      9.38722268e-02 3.25945243e-02 1.39504567e-01 2.99869608e-02
      2.99869608e-02 3.12907435e-02 2.60756183e-02 4.17209901e-02
      4.82398942e-02 5.21512367e-02 4.04172093e-02 4.82398942e-02</_>
    <_>
      2.25352105e-02 6.76056296e-02 3.66197154e-02 2.11267602e-02
      5.35211265e-02 5.63380271e-02 4.08450700e-02 8.30985904e-02
      8.16901401e-02 4.92957719e-02 9.29577425e-02 5.77464774e-02
      9.01408419e-02 4.78873216e-02 2.95774639e-02 2.95774639e-02
      3.80281694e-02 2.25352105e-02 5.07042222e-02 2.81690136e-02</_>
    <_>
      2.05992516e-02 2.24719103e-02 2.99625471e-02 5.24344593e-02
      4.11985032e-02 8.98876414e-02 1.31086148e-02 1.31086148e-02
      8.05243477e-02 1.17977530e-01 6.74157292e-02 9.36329588e-02
      1.87265910e-02 1.49812728e-01 1.31086148e-02 2.05992516e-02
      4.11985032e-02 8.61423239e-02 1.87265910e-02 9.36329551e-03</_>
    <_>
      3.32225896e-02 1.32890362e-02 9.30232555e-02 8.97009969e-02
      1.99335553e-02 5.31561449e-02 3.65448482e-02 4.65116277e-02
      1.32890362e-02 9.96677727e-02 6.64451793e-02 9.96677764e-03
      5.64784035e-02 8.97009969e-02 9.96677764e-03 4.65116277e-02
      7.97342211e-02 6.31229207e-02 1.99335553e-02 5.98006621e-02</_>
    <_>
      1.21457493e-02 3.64372469e-02 9.10931230e-02 6.07287474e-02
      3.44129577e-02 5.87044545e-02 5.06072901e-02 7.69230798e-02
      2.63157897e-02 2.63157897e-02 1.03238866e-01 6.47773296e-02
      6.47773296e-02 5.06072901e-02 2.63157897e-02 4.25101221e-02
      5.87044545e-02 4.65587042e-02 3.23886648e-02 3.64372469e-02</_>
    <_>
      2.47524753e-02 2.14521457e-02 9.57095772e-02 7.92079270e-02
      4.78547886e-02 1.98019817e-02 5.28052822e-02 4.45544571e-02
      3.30033004e-02 5.77557757e-02 6.27062693e-02 2.64026411e-02
      5.94059415e-02 1.45214528e-01 2.14521457e-02 3.13531347e-02
      5.28052822e-02 5.44554479e-02 4.45544571e-02 2.47524753e-02</_>
    <_>
      2.45098043e-02 1.96078438e-02 4.16666679e-02 4.16666679e-02
      4.65686284e-02 3.18627469e-02 1.96078438e-02 9.55882370e-02
      5.63725494e-02 5.63725494e-02 9.55882370e-02 1.22549022e-02
      6.12745136e-02 1.17647067e-01 2.94117667e-02 3.43137272e-02
      3.92156877e-02 7.59803951e-02 5.14705889e-02 4.90196086e-02</_>
    <_>
      1.93452388e-02 1.63690485e-02 5.80357164e-02 1.04166672e-01
      3.12500000e-02 1.33928573e-02 6.54761940e-02 4.31547612e-02
      1.17559522e-01 4.76190485e-02 8.92857164e-02 8.92857183e-03
      3.57142873e-02 5.50595261e-02 1.93452388e-02 3.57142873e-02
      1.16071433e-01 5.20833358e-02 3.42261903e-02 3.72023806e-02</_>
    <_>
      1.64835174e-02 3.43406610e-02 9.61538479e-02 7.69230798e-02
      2.33516488e-02 1.78571437e-02 6.73076957e-02 4.39560451e-02
      5.63186817e-02 6.18131869e-02 1.03021979e-01 6.86813192e-03
      2.19780225e-02 8.24175850e-02 2.19780225e-02 4.12087925e-02
      7.55494535e-02 7.82967061e-02 2.74725277e-02 4.67032976e-02</_>
    <_>
      2.69151144e-02 1.24223605e-02 8.69565234e-02 5.17598353e-02
      6.21118024e-03 2.27743275e-02 7.45341629e-02 4.96894419e-02
      1.01449281e-01 5.79710156e-02 1.22153208e-01 2.27743275e-02
      2.07039341e-02 7.66045600e-02 4.14078683e-02 2.27743275e-02
      8.69565234e-02 7.03933761e-02 1.65631473e-02 2.89855078e-02</_>
    <_>
      3.25960442e-02 3.84167656e-02 6.28637969e-02 6.28637969e-02
      4.07450534e-02 4.88940626e-02 2.91036088e-02 4.07450534e-02
      9.66239795e-02 5.70430756e-02 1.11757860e-01 3.02677527e-02
      2.79394649e-02 3.95809077e-02 4.54016291e-02 3.02677527e-02
      5.93713634e-02 5.12223542e-02 3.95809077e-02 5.47147840e-02</_>
    <_>
      4.63414639e-02 3.41463424e-02 5.85365854e-02 8.53658542e-02
      6.09756112e-02 1.95121951e-02 3.41463424e-02 1.70731712e-02
      4.14634161e-02 7.56097585e-02 8.04878026e-02 2.43902430e-02
      4.14634161e-02 7.56097585e-02 3.17073166e-02 5.12195118e-02
      8.53658542e-02 6.34146333e-02 4.39024381e-02 2.92682927e-02</_>
    <_>
      2.97029689e-02 6.43564314e-02 8.91089067e-02 5.44554442e-02
      2.47524753e-02 4.95049497e-03 7.42574260e-02 9.40594077e-02
      1.48514844e-02 5.44554442e-02 5.94059378e-02 4.95049497e-03
      8.41584131e-02 3.46534662e-02 3.46534662e-02 7.42574260e-02
      6.43564314e-02 6.93069324e-02 2.47524753e-02 4.45544533e-02</_>
    <_>
      4.76190448e-02 2.72108838e-02 8.16326514e-02 9.52380896e-02
      2.04081628e-02 0. 1.15646258e-01 3.40136066e-02 6.80272095e-03
      2.72108838e-02 1.70068026e-01 6.80272095e-03 2.04081628e-02
      6.12244904e-02 3.40136066e-02 3.40136066e-02 1.22448981e-01
      6.12244904e-02 2.04081628e-02 1.36054419e-02</_>
    <_>
      2.48962678e-02 4.97925356e-02 2.07468886e-02 1.65975112e-02
      6.63900450e-02 1.03734449e-01 4.14937781e-03 6.63900450e-02
      6.63900450e-02 2.44813293e-01 4.14937781e-03 9.54356864e-02
      3.73443998e-02 4.14937772e-02 2.48962678e-02 1.24481339e-02
      4.14937781e-03 8.29875562e-03 8.29875544e-02 2.48962678e-02</_>
    <_>
      3.96039598e-02 1.03960395e-01 4.95049506e-02 4.95049506e-02
      5.44554442e-02 2.47524753e-02 9.90098994e-03 4.45544533e-02
      4.95049497e-03 1.43564358e-01 2.97029689e-02 3.96039598e-02
      9.90099013e-02 8.41584131e-02 4.95049506e-02 2.47524753e-02
      3.96039598e-02 4.95049506e-02 4.95049506e-02 9.90098994e-03</_>
    <_>
      6.31970242e-02 5.20446077e-02 3.71747203e-02 3.34572494e-02
      8.92193317e-02 3.71747203e-02 4.46096659e-02 9.29367989e-02
      2.23048329e-02 4.46096659e-02 4.83271368e-02 2.23048329e-02
      5.57620823e-02 4.46096659e-02 3.71747203e-02 4.83271368e-02
      7.06319660e-02 3.34572494e-02 5.94795533e-02 6.31970242e-02</_>
    <_>
      9.04255286e-02 3.72340418e-02 5.31914867e-02 2.65957434e-02
      3.72340418e-02 2.65957434e-02 1.59574468e-02 1.27659574e-01
      4.78723384e-02 5.31914867e-02 2.65957434e-02 1.59574468e-02
      9.04255286e-02 3.19148935e-02 7.97872320e-02 4.25531901e-02
      3.19148935e-02 6.91489354e-02 6.38297871e-02 3.19148935e-02</_>
    <_>
      3.95480245e-02 7.34463260e-02 6.21468946e-02 7.34463260e-02
      1.69491526e-02 0. 6.21468946e-02 1.29943505e-01 1.12994350e-02
      2.82485876e-02 1.18644066e-01 5.64971752e-03 5.08474559e-02
      5.08474559e-02 3.38983051e-02 3.95480245e-02 7.34463260e-02
      1.01694912e-01 5.64971752e-03 2.25988701e-02</_>
    <_>
      3.23450118e-02 4.85175177e-02 6.19946085e-02 3.77358496e-02
      2.96495948e-02 4.04312648e-02 6.73854426e-02 1.50943398e-01
      4.31266837e-02 3.23450118e-02 5.66037707e-02 2.42587589e-02
      1.15902960e-01 3.77358496e-02 3.77358496e-02 2.15633418e-02
      4.04312648e-02 5.39083555e-02 3.50404307e-02 3.23450118e-02</_>
    <_>
      5.78512363e-02 7.43801594e-02 8.26446246e-03 0. 4.13223132e-02
      3.30578499e-02 5.78512363e-02 2.31404945e-01 8.26446246e-03
      1.65289249e-02 4.13223132e-02 1.23966940e-01 1.90082639e-01 0.
      3.30578499e-02 2.47933865e-02 0. 8.26446246e-03 4.95867729e-02 0.</_>
    <_>
      3.07328608e-02 6.61938563e-02 8.27423185e-02 5.20094559e-02
      4.49172594e-02 4.49172594e-02 6.61938563e-02 8.98345187e-02
      1.18203312e-02 5.43735214e-02 7.09219873e-02 1.65484641e-02
      4.72813249e-02 5.43735214e-02 2.83687934e-02 3.07328608e-02
      7.09219873e-02 5.91016561e-02 3.78250591e-02 4.01891246e-02</_>
    <_>
      7.92079195e-02 1.98019799e-02 9.90098994e-03 2.97029689e-02
      5.94059378e-02 4.95049506e-02 2.97029689e-02 1.58415839e-01
      3.96039598e-02 1.08910888e-01 0. 5.94059378e-02 7.92079195e-02
      5.94059378e-02 2.97029689e-02 2.97029689e-02 2.97029689e-02
      1.98019799e-02 7.92079195e-02 2.97029689e-02</_>
    <_>
      2.35478804e-02 1.72684453e-02 3.61067504e-02 5.96546307e-02
      7.69230798e-02 9.41915251e-03 7.84929376e-03 9.41915251e-03
      6.27943501e-03 1.58555731e-01 1.25588700e-02 1.41287288e-02
      4.70957626e-03 2.32339099e-01 3.45368907e-02 2.82574575e-02
      8.63422304e-02 8.47723708e-02 7.22135007e-02 2.51177400e-02</_>
    <_>
      3.87096778e-02 3.87096778e-02 9.03225765e-02 5.16129024e-02
      1.93548389e-02 2.58064512e-02 7.74193555e-02 5.16129024e-02
      1.29032256e-02 4.51612882e-02 5.80645166e-02 3.22580636e-02
      3.87096778e-02 8.38709697e-02 3.87096778e-02 3.87096778e-02
      9.67741907e-02 9.67741907e-02 2.58064512e-02 3.87096778e-02</_>
    <_>
      9.16030556e-02 3.81679386e-02 6.10687025e-02 3.05343512e-02
      4.58015278e-02 3.05343512e-02 0. 1.29770994e-01 3.81679386e-02
      2.29007639e-02 0. 7.63358772e-02 9.16030556e-02 6.87022880e-02
      7.63358772e-02 3.81679386e-02 2.29007639e-02 3.05343512e-02
      3.05343512e-02 7.63358772e-02</_>
    <_>
      5.10204062e-02 1.12244897e-01 2.04081628e-02 0. 7.14285672e-02
      6.12244904e-02 2.04081628e-02 1.22448981e-01 3.06122452e-02
      1.42857134e-01 1.02040814e-02 8.16326514e-02 8.16326514e-02
      3.06122452e-02 2.04081628e-02 2.04081628e-02 1.02040814e-02
      2.04081628e-02 8.16326514e-02 1.02040814e-02</_>
    <_>
      8.58369097e-03 1.28755365e-02 7.72532225e-02 4.72102985e-02
      2.14592274e-02 4.72102985e-02 5.15021458e-02 1.71673819e-01
      8.58369097e-03 2.57510729e-02 4.29184549e-02 4.29184549e-02
      1.63090125e-01 5.15021458e-02 2.57510729e-02 6.43776804e-02
      5.15021458e-02 2.57510729e-02 2.14592274e-02 3.86266112e-02</_>
    <_>
      4.69798669e-02 8.72483253e-02 5.36912754e-02 2.01342292e-02
      5.36912754e-02 1.00671142e-01 6.71140943e-03 1.20805368e-01
      6.71140943e-03 1.47651002e-01 6.71140943e-03 5.36912754e-02
      6.71140924e-02 2.01342292e-02 6.04026839e-02 1.34228189e-02
      2.68456377e-02 1.34228189e-02 6.04026839e-02 3.35570462e-02</_>
    <_>
      4.32432443e-02 4.32432443e-02 6.48648664e-02 5.40540554e-02
      3.78378406e-02 4.86486480e-02 5.40540554e-03 1.67567566e-01
      2.16216221e-02 6.48648664e-02 1.62162166e-02 2.16216221e-02
      1.35135144e-01 4.86486480e-02 3.78378406e-02 3.78378406e-02
      3.78378406e-02 4.86486480e-02 2.70270277e-02 3.78378406e-02</_>
    <_>
      4.31034490e-02 5.17241359e-02 2.58620679e-02 2.58620679e-02
      6.46551698e-02 3.87931019e-02 4.31034490e-02 9.91379321e-02
      4.31034481e-03 5.17241359e-02 6.03448264e-02 8.62068981e-02
      6.89655170e-02 6.89655170e-02 6.89655170e-02 3.01724132e-02
      6.03448264e-02 2.58620679e-02 6.03448264e-02 2.15517245e-02</_>
    <_>
      2.12765951e-02 5.74468076e-02 7.02127665e-02 4.68085110e-02
      4.04255316e-02 1.12765953e-01 3.82978693e-02 4.68085110e-02
      2.76595727e-02 7.65957385e-02 4.04255316e-02 5.53191453e-02
      6.59574419e-02 5.95744662e-02 2.34042555e-02 3.82978693e-02
      4.25531901e-02 5.74468076e-02 4.68085110e-02 3.19148935e-02</_>
    <_>
      5.85106350e-02 7.44680837e-02 6.38297871e-02 2.12765951e-02
      6.38297871e-02 4.78723384e-02 1.06382975e-02 1.06382973e-01
      1.06382975e-02 3.72340418e-02 1.59574468e-02 6.91489354e-02
      1.11702122e-01 4.25531901e-02 3.72340418e-02 7.44680837e-02
      1.06382975e-02 3.19148935e-02 5.31914867e-02 5.85106350e-02</_>
    <_>
      5.00000007e-02 4.82142866e-02 6.25000000e-02 5.89285716e-02
      4.46428582e-02 4.46428582e-02 6.25000000e-02 5.53571433e-02
      3.03571429e-02 4.64285724e-02 8.92857164e-02 5.35714291e-02
      7.50000030e-02 2.14285720e-02 5.89285716e-02 4.10714298e-02
      5.35714291e-02 4.28571440e-02 2.32142862e-02 3.75000015e-02</_>
    <_>
      3.15186270e-02 3.72492857e-02 4.87106033e-02 4.29799445e-02
      2.29226369e-02 5.44412620e-02 3.43839563e-02 1.69054449e-01
      6.87679127e-02 5.73065914e-02 5.44412620e-02 3.72492857e-02
      1.06017195e-01 2.86532957e-02 2.00573076e-02 5.44412620e-02
      5.44412620e-02 2.86532957e-02 2.29226369e-02 2.57879663e-02</_>
    <_>
      4.34782617e-02 6.95652217e-02 6.08695671e-02 4.63768132e-02
      4.34782617e-02 3.76811624e-02 4.34782617e-02 6.37681186e-02
      2.31884066e-02 6.37681186e-02 5.79710156e-02 2.89855078e-02
      6.66666701e-02 6.37681186e-02 3.47826108e-02 3.18840593e-02
      6.37681186e-02 8.11594203e-02 4.34782617e-02 3.18840593e-02</_>
    <_>
      2.29508206e-02 3.93442623e-02 8.52458999e-02 3.27868834e-02
      1.96721312e-02 1.96721312e-02 1.08196720e-01 4.59016412e-02
      2.62295082e-02 1.14754096e-01 1.04918033e-01 2.29508206e-02
      3.60655747e-02 7.86885247e-02 1.96721312e-02 3.60655747e-02
      5.24590164e-02 5.24590164e-02 1.63934417e-02 6.55737668e-02</_>
    <_>
      3.95061746e-02 2.96296310e-02 5.92592619e-02 6.17283992e-02
      3.45679037e-02 6.17283992e-02 9.62963030e-02 1.97530873e-02
      2.46913582e-02 4.19753119e-02 9.38271657e-02 7.90123492e-02
      1.72839519e-02 3.20987664e-02 4.44444455e-02 5.92592619e-02
      6.66666701e-02 5.43209910e-02 3.20987664e-02 5.18518537e-02</_>
    <_>
      4.57142852e-02 5.99999987e-02 7.42857158e-02 5.42857125e-02
      3.99999991e-02 5.14285713e-02 1.71428565e-02 5.99999987e-02
      8.57142825e-03 4.57142852e-02 3.42857130e-02 6.28571436e-02
      1.00000001e-01 5.14285713e-02 5.14285713e-02 3.14285718e-02
      6.85714260e-02 5.71428575e-02 2.57142857e-02 5.99999987e-02</_>
    <_>
      4.03225794e-02 4.03225794e-02 5.64516112e-02 1.61290318e-02
      3.22580636e-02 1.61290318e-02 0. 1.04838707e-01 1.61290318e-02
      1.12903222e-01 0. 4.03225794e-02 1.37096763e-01 1.61290318e-02
      6.45161271e-02 8.87096748e-02 8.06451589e-02 4.03225794e-02
      4.83870953e-02 4.83870953e-02</_>
    <_>
      9.52380970e-02 8.33333358e-02 4.76190485e-02 0. 7.14285746e-02
      5.95238097e-02 0. 1.42857149e-01 0. 1.19047621e-02 0.
      3.57142873e-02 2.02380955e-01 1.19047621e-02 1.07142858e-01
      5.95238097e-02 0. 0. 3.57142873e-02 3.57142873e-02</_>
    <_>
      3.54131535e-02 3.87858339e-02 7.25126490e-02 8.26306939e-02
      3.37268114e-02 2.86677908e-02 3.70994955e-02 5.73355816e-02
      3.70994955e-02 5.90219237e-02 6.74536228e-02 1.18043851e-02
      3.87858339e-02 7.25126490e-02 3.37268114e-02 4.72175404e-02
      9.10623968e-02 8.76897126e-02 2.86677908e-02 3.87858339e-02</_>
    <_>
      5.01792133e-02 4.30107526e-02 5.73476702e-02 4.30107526e-02
      2.50896066e-02 1.43369175e-02 1.79211468e-01 1.07526883e-01
      1.07526882e-02 2.15053763e-02 1.03942655e-01 3.22580636e-02
      9.67741907e-02 1.79211460e-02 3.58422920e-02 3.22580636e-02
      5.01792133e-02 3.58422920e-02 1.79211460e-02 2.50896066e-02</_>
    <_>
      6.41025677e-02 2.56410260e-02 3.84615399e-02 1.92307699e-02
      4.48717959e-02 8.97435918e-02 1.28205130e-02 1.60256416e-01
      6.41025677e-02 1.92307699e-02 3.84615399e-02 1.08974360e-01
      1.28205135e-01 4.48717959e-02 3.20512839e-02 1.92307699e-02
      1.92307699e-02 6.41025649e-03 3.84615399e-02 2.56410260e-02</_>
    <_>
      3.40501778e-02 3.58422920e-02 4.48028669e-02 6.27240166e-02
      4.12186384e-02 3.40501778e-02 1.79211469e-03 1.61290318e-02
      1.79211469e-03 8.96057338e-02 7.16845877e-03 4.83870953e-02
      3.04659493e-02 2.15053767e-01 3.76344100e-02 2.86738351e-02
      8.96057338e-02 1.23655915e-01 3.04659493e-02 2.68817209e-02</_>
    <_>
      1.23456791e-02 2.46913582e-02 4.93827164e-02 1.23456791e-02
      2.46913582e-02 4.93827164e-02 0. 2.46913582e-01 1.23456791e-02
      7.40740746e-02 0. 3.70370373e-02 1.72839507e-01 1.23456791e-02
      2.46913582e-02 1.11111112e-01 0. 3.70370373e-02 2.46913582e-02
      7.40740746e-02</_>
    <_>
      3.18725109e-02 5.57768941e-02 8.76494050e-02 3.98406386e-02
      4.38247025e-02 2.78884470e-02 2.39043832e-02 1.27490044e-01
      4.78087664e-02 3.18725109e-02 3.18725109e-02 1.19521916e-02
      8.76494050e-02 4.38247025e-02 1.99203193e-02 7.96812773e-02
      5.17928302e-02 5.17928302e-02 4.38247025e-02 5.97609580e-02</_>
    <_>
      8.22784826e-02 1.07594937e-01 1.26582282e-02 1.89873427e-02
      6.96202517e-02 1.77215189e-01 0. 5.69620281e-02 0. 5.06329127e-02
      0. 1.07594937e-01 6.32911399e-02 3.16455700e-02 1.01265825e-01
      3.79746854e-02 0. 6.32911408e-03 5.69620281e-02 1.89873427e-02</_>
    <_>
      2.62172297e-02 4.49438207e-02 5.24344593e-02 6.74157292e-02
      4.11985032e-02 8.23970065e-02 4.11985032e-02 6.74157292e-02
      1.87265910e-02 6.36704117e-02 4.86891381e-02 5.99250942e-02
      8.98876414e-02 4.11985032e-02 5.99250942e-02 1.12359552e-02
      5.99250942e-02 5.61797768e-02 5.24344593e-02 1.49812736e-02</_>
    <_>
      4.67289686e-02 3.73831764e-02 3.27102803e-02 6.54205605e-02
      5.14018685e-02 1.40186911e-02 1.86915882e-02 6.07476607e-02
      2.33644843e-02 8.41121450e-02 2.80373823e-02 6.54205605e-02
      4.67289686e-02 1.21495321e-01 3.73831764e-02 2.80373823e-02
      8.41121450e-02 7.47663528e-02 5.60747646e-02 2.33644843e-02</_>
    <_>
      1.84331797e-02 5.06912433e-02 4.14746553e-02 1.38248848e-02
      9.21659023e-02 1.01382487e-01 3.68663594e-02 8.75576064e-02
      1.38248848e-02 9.67741907e-02 2.76497696e-02 5.99078350e-02
      8.75576064e-02 7.37327188e-02 2.30414756e-02 1.38248848e-02
      2.76497696e-02 4.60829511e-02 5.06912433e-02 3.68663594e-02</_>
    <_>
      3.12500000e-02 3.55113633e-02 8.52272734e-02 6.25000000e-02
      4.68750000e-02 7.10227294e-03 1.27840918e-02 3.69318202e-02
      7.10227294e-03 7.24431872e-02 2.84090918e-02 1.56250000e-02
      2.27272734e-02 1.80397734e-01 3.40909101e-02 3.97727266e-02
      8.80681872e-02 1.30681828e-01 2.98295468e-02 3.26704569e-02</_>
    <_>
      4.67032976e-02 5.76923080e-02 2.19780225e-02 3.57142873e-02
      4.39560451e-02 7.14285746e-02 2.74725277e-02 1.12637363e-01
      1.37362638e-02 8.79120901e-02 5.21978028e-02 6.59340695e-02
      1.15384616e-01 2.74725277e-02 4.94505502e-02 3.02197803e-02
      3.02197803e-02 2.74725277e-02 5.76923080e-02 2.47252751e-02</_>
    <_>
      2.59740259e-02 4.32900414e-02 5.19480519e-02 8.65800865e-03
      3.46320346e-02 9.52380970e-02 1.29870130e-02 1.64502159e-01
      8.65800865e-03 9.52380970e-02 1.73160173e-02 8.65800828e-02
      1.60173163e-01 1.73160173e-02 2.59740259e-02 4.32900414e-02
      2.16450207e-02 1.29870130e-02 4.32900414e-02 3.03030312e-02</_>
    <_>
      1.32890362e-02 2.99003311e-02 7.64119551e-02 5.64784035e-02
      2.65780725e-02 3.65448482e-02 1.09634548e-01 7.64119551e-02
      7.97342211e-02 2.65780725e-02 1.69435218e-01 9.96677764e-03
      1.99335553e-02 2.99003311e-02 2.32558139e-02 3.65448482e-02
      6.64451793e-02 3.65448482e-02 3.32225896e-02 4.31893691e-02</_>
    <_>
      2.43055560e-02 5.55555560e-02 9.37500000e-02 7.29166642e-02
      4.86111119e-02 4.86111119e-02 2.77777780e-02 6.25000000e-02
      1.73611119e-02 9.02777761e-02 1.73611119e-02 3.81944440e-02
      5.20833321e-02 3.47222239e-02 4.86111119e-02 5.90277798e-02
      5.90277798e-02 6.94444478e-02 3.47222239e-02 4.51388881e-02</_>
    <_>
      7.90123492e-02 7.90123492e-02 5.43209910e-02 6.41975328e-02
      5.67901246e-02 1.97530873e-02 3.70370373e-02 6.91358075e-02
      1.72839519e-02 7.40740746e-02 1.23456791e-02 4.69135828e-02
      2.96296310e-02 6.17283992e-02 8.14814866e-02 2.71604955e-02
      6.66666701e-02 2.71604955e-02 5.43209910e-02 4.19753119e-02</_>
    <_>
      4.06091362e-02 6.09137043e-02 5.07614203e-02 4.06091362e-02
      4.56852764e-02 3.55329961e-02 1.01522841e-02 1.16751269e-01
      1.52284261e-02 5.07614203e-02 3.04568522e-02 1.21827409e-01
      1.06598981e-01 1.01522841e-02 5.07614203e-02 7.10659921e-02
      3.55329961e-02 1.52284261e-02 4.56852764e-02 4.56852764e-02</_>
    <_>
      4.57516350e-02 9.80392173e-02 3.26797403e-02 2.61437912e-02
      3.92156877e-02 1.24183007e-01 1.30718956e-02 7.84313753e-02
      1.96078438e-02 4.57516350e-02 3.92156877e-02 1.96078435e-01
      7.84313753e-02 6.53594779e-03 3.26797403e-02 3.92156877e-02
      2.61437912e-02 1.30718956e-02 2.61437912e-02 1.96078438e-02</_>
    <_>
      7.18749985e-02 5.00000007e-02 3.12500000e-02 2.81250011e-02
      9.06250030e-02 4.37499993e-02 3.12500000e-02 8.74999985e-02
      1.12500004e-01 1.09375000e-01 4.06250022e-02 2.50000004e-02
      4.37499993e-02 5.00000007e-02 4.06250022e-02 2.50000004e-02
      3.43750007e-02 1.87500007e-02 5.00000007e-02 1.56250000e-02</_>
    <_>
      2.38095261e-02 4.76190522e-02 3.96825410e-02 3.96825410e-02 0. 0.
      3.17460336e-02 2.61904776e-01 2.38095261e-02 1.58730168e-02
      3.96825410e-02 7.93650839e-03 2.30158746e-01 3.96825410e-02
      1.58730168e-02 6.34920672e-02 5.55555597e-02 3.96825410e-02
      7.93650839e-03 1.58730168e-02</_>
    <_>
      5.00000007e-02 2.85714287e-02 2.85714287e-02 1.42857144e-02
      2.85714287e-02 9.28571448e-02 0. 2.07142860e-01 0. 8.57142881e-02
      1.42857144e-02 1.28571436e-01 8.57142881e-02 4.28571440e-02
      3.57142873e-02 1.42857144e-02 3.57142873e-02 7.14285718e-03
      5.71428575e-02 4.28571440e-02</_>
    <_>
      1.82481743e-02 4.74452563e-02 3.28467153e-02 1.82481743e-02
      4.74452563e-02 5.10948896e-02 1.02189779e-01 8.02919716e-02
      3.64963487e-02 4.37956192e-02 9.48905125e-02 4.74452563e-02
      6.56934306e-02 8.39416087e-02 2.91970801e-02 4.01459858e-02
      2.91970801e-02 3.28467153e-02 5.10948896e-02 4.74452563e-02</_>
    <_>
      4.41176482e-02 5.39215691e-02 3.92156877e-02 3.43137272e-02
      3.92156877e-02 1.27450988e-01 2.45098043e-02 6.86274543e-02
      6.86274543e-02 2.94117667e-02 7.35294148e-02 6.86274543e-02
      6.86274543e-02 4.41176482e-02 3.92156877e-02 1.47058833e-02
      4.41176482e-02 2.45098043e-02 5.88235334e-02 3.43137272e-02</_>
    <_>
      2.04081628e-02 4.08163257e-02 7.65306130e-02 6.63265288e-02
      1.02040814e-02 1.02040814e-02 3.57142836e-02 8.67346898e-02
      2.55102031e-02 3.06122452e-02 8.16326514e-02 1.53061226e-02
      7.14285672e-02 8.16326514e-02 1.53061226e-02 5.10204062e-02
      9.18367356e-02 1.22448981e-01 3.06122452e-02 3.57142836e-02</_>
    <_>
      4.62633446e-02 4.62633446e-02 6.04982190e-02 7.11743757e-02
      4.27046269e-02 2.49110311e-02 2.49110311e-02 4.98220623e-02
      3.55871879e-02 5.69395013e-02 5.69395013e-02 5.69395013e-02
      6.04982190e-02 7.82918110e-02 3.20284702e-02 2.13523135e-02
      7.82918110e-02 7.47330934e-02 4.62633446e-02 3.55871879e-02</_>
    <_>
      5.69620207e-02 2.95358635e-02 1.05485231e-01 5.48523180e-02
      3.16455662e-02 1.05485227e-02 3.58649790e-02 7.80590698e-02
      1.26582272e-02 1.01265818e-01 5.48523180e-02 1.47679318e-02
      8.01687688e-02 8.22784752e-02 4.00843844e-02 2.95358635e-02
      6.75105453e-02 4.43037972e-02 3.16455662e-02 3.79746817e-02</_>
    <_>
      1.85873602e-02 7.43494416e-03 1.07806690e-01 1.22676581e-01
      1.85873602e-02 1.85873602e-02 4.83271368e-02 9.29367989e-02
      1.85873602e-02 2.60223038e-02 6.69144988e-02 1.48698883e-02
      4.46096659e-02 3.34572494e-02 2.97397766e-02 8.17843825e-02
      1.07806690e-01 7.06319660e-02 1.48698883e-02 5.57620823e-02</_>
    <_>
      5.71428537e-02 1.14285707e-01 2.44897939e-02 3.26530598e-02
      5.71428537e-02 2.04081628e-02 6.93877488e-02 4.89795879e-02
      4.08163257e-02 2.44897939e-02 4.08163257e-02 5.30612208e-02
      1.18367344e-01 2.04081628e-02 6.93877488e-02 5.30612208e-02
      2.85714269e-02 8.16326495e-03 6.93877488e-02 4.89795879e-02</_>
    <_>
      4.29447852e-02 3.68098170e-02 7.66871125e-02 3.68098170e-02
      1.22699384e-02 2.76073609e-02 1.13496929e-01 1.47239268e-01
      2.76073609e-02 9.20245424e-03 1.16564415e-01 1.22699384e-02
      9.20245349e-02 2.14723926e-02 3.98772992e-02 3.68098170e-02
      5.52147217e-02 3.06748450e-02 3.98772992e-02 2.45398767e-02</_>
    <_>
      3.00000012e-02 6.00000024e-02 4.83333357e-02 6.00000024e-02
      4.66666669e-02 4.33333330e-02 3.50000001e-02 7.83333331e-02
      4.66666669e-02 1.66666675e-02 6.66666701e-02 9.83333364e-02
      7.16666654e-02 2.66666673e-02 3.83333340e-02 5.49999997e-02
      4.16666679e-02 4.66666669e-02 3.66666690e-02 5.33333346e-02</_>
    <_>
      2.38095243e-02 9.52380989e-03 5.71428612e-02 1.19047627e-01
      1.42857153e-02 0. 1.09523810e-01 0. 5.71428612e-02 1.42857153e-02
      1.28571436e-01 0. 4.76190494e-03 5.23809530e-02 1.42857153e-02
      5.23809530e-02 1.28571436e-01 1.71428576e-01 9.52380989e-03
      3.33333351e-02</_>
    <_>
      5.66502437e-02 4.18719202e-02 5.91133013e-02 3.44827585e-02
      2.21674871e-02 2.95566507e-02 5.66502437e-02 1.15763545e-01
      4.43349741e-02 3.94088663e-02 6.65024593e-02 3.20197046e-02
      4.92610820e-02 4.18719202e-02 6.40394092e-02 5.66502437e-02
      5.66502437e-02 4.92610820e-02 3.94088663e-02 4.43349741e-02</_>
    <_>
      4.26829234e-02 3.35365832e-02 9.45121944e-02 4.26829234e-02
      1.21951215e-02 1.82926822e-02 1.06707312e-01 1.34146333e-01
      3.04878037e-02 3.65853645e-02 9.45121944e-02 2.13414617e-02
      8.53658468e-02 2.13414617e-02 3.96341458e-02 3.04878037e-02
      6.40243888e-02 3.04878037e-02 3.35365832e-02 2.74390243e-02</_>
    <_>
      2.20385678e-02 2.20385678e-02 3.85674946e-02 7.98898116e-02
      1.65289268e-02 1.92837473e-02 8.53994489e-02 7.16253445e-02
      1.37741044e-02 8.53994489e-02 1.18457302e-01 2.20385678e-02
      3.30578536e-02 1.46005511e-01 3.03030312e-02 3.30578536e-02
      7.43801668e-02 3.03030312e-02 3.58126722e-02 2.20385678e-02</_>
    <_>
      6.92307726e-02 5.38461544e-02 1.92307699e-02 1.15384618e-02
      6.15384616e-02 1.00000001e-01 2.69230772e-02 7.69230798e-02
      3.46153863e-02 5.00000007e-02 4.61538471e-02 1.26923084e-01
      8.46153870e-02 7.69230770e-03 7.69230798e-02 3.84615399e-02
      1.15384618e-02 3.84615385e-03 5.38461544e-02 4.61538471e-02</_>
    <_>
      6.03448264e-02 9.05172378e-02 9.48275849e-02 5.60344830e-02
      2.15517245e-02 2.58620679e-02 3.66379321e-02 7.11206868e-02
      3.87931019e-02 2.37068962e-02 4.95689660e-02 2.15517245e-02
      5.81896566e-02 1.29310340e-02 5.81896566e-02 8.62068981e-02
      6.68103471e-02 3.66379321e-02 1.72413792e-02 7.32758641e-02</_>
    <_>
      6.79245293e-02 5.66037744e-02 6.79245293e-02 3.39622647e-02
      1.88679248e-02 6.79245293e-02 6.03773594e-02 1.13207549e-01
      2.64150947e-02 1.88679248e-02 6.41509444e-02 3.01886797e-02
      1.09433964e-01 1.50943398e-02 6.41509444e-02 3.01886797e-02
      3.77358496e-02 2.64150947e-02 2.64150947e-02 6.41509444e-02</_>
    <_>
      5.35714291e-02 4.28571440e-02 2.14285720e-02 2.85714287e-02
      6.07142858e-02 5.00000007e-02 1.07142860e-02 4.28571440e-02
      1.14285715e-01 7.50000030e-02 9.28571448e-02 3.92857157e-02
      2.50000004e-02 3.92857157e-02 4.28571440e-02 7.50000030e-02
      3.57142873e-02 2.85714287e-02 5.35714291e-02 6.78571463e-02</_>
    <_>
      4.79041934e-02 0. 7.18562901e-02 6.58682659e-02 2.39520967e-02
      2.39520967e-02 9.58083868e-02 1.07784435e-01 0. 2.99401209e-02
      6.58682659e-02 1.19760484e-02 1.97604805e-01 5.38922176e-02
      2.99401209e-02 2.39520967e-02 4.79041934e-02 7.78443143e-02 0.
      2.39520967e-02</_>
    <_>
      4.01785746e-02 2.67857164e-02 4.46428582e-02 5.35714328e-02
      4.01785746e-02 4.46428582e-02 1.02678575e-01 4.01785746e-02
      6.25000000e-02 4.91071455e-02 6.25000000e-02 2.23214291e-02
      2.23214291e-02 8.03571492e-02 4.01785746e-02 1.78571437e-02
      9.37500075e-02 9.37500075e-02 3.12500000e-02 3.12500000e-02</_>
    <_>
      3.26797403e-02 1.96078438e-02 6.53594807e-02 6.53594807e-02
      5.88235296e-02 7.84313753e-02 2.61437912e-02 8.49673226e-02
      2.61437912e-02 9.15032700e-02 8.49673226e-02 2.61437912e-02
      5.22875823e-02 1.96078438e-02 3.92156877e-02 4.57516350e-02
      7.84313753e-02 3.92156877e-02 3.26797403e-02 3.26797403e-02</_>
    <_>
      4.68227416e-02 5.35117052e-02 9.36454833e-02 3.67892981e-02
      3.34448144e-02 2.34113708e-02 2.00668890e-02 9.03009996e-02
      5.35117052e-02 2.34113708e-02 6.68896288e-02 6.02006689e-02
      1.27090305e-01 6.68896316e-03 3.01003344e-02 6.68896288e-02
      5.35117052e-02 1.67224072e-02 2.67558526e-02 7.02341124e-02</_>
    <_>
      5.80357164e-02 3.12500000e-02 1.78571437e-02 1.78571437e-02
      6.69642910e-02 1.07142866e-01 3.57142873e-02 1.78571437e-02
      7.14285746e-02 1.07142866e-01 5.80357164e-02 5.80357164e-02
      4.91071455e-02 1.78571437e-02 4.91071455e-02 4.46428582e-02
      1.78571437e-02 1.33928582e-02 8.03571492e-02 8.03571492e-02</_>
    <_>
      5.21739163e-02 3.47826108e-02 5.21739163e-02 3.47826108e-02
      6.66666701e-02 4.63768132e-02 1.44927539e-02 7.24637732e-02
      3.47826108e-02 6.66666701e-02 7.24637732e-02 6.66666701e-02
      7.53623247e-02 1.73913054e-02 5.79710156e-02 4.63768132e-02
      2.60869581e-02 4.05797102e-02 5.79710156e-02 6.37681186e-02</_>
    <_>
      8.61423239e-02 1.49812736e-02 5.99250942e-02 2.99625471e-02
      6.74157292e-02 7.11610466e-02 2.62172297e-02 4.11985032e-02
      1.87265910e-02 5.24344593e-02 2.99625471e-02 3.37078646e-02
      4.11985032e-02 8.98876414e-02 6.74157292e-02 5.99250942e-02
      2.24719103e-02 3.37078646e-02 9.36329588e-02 5.99250942e-02</_>
    <_>
      5.98802418e-02 5.38922176e-02 5.98802418e-02 4.19161692e-02
      9.58083868e-02 2.99401209e-02 0. 1.37724549e-01 1.19760484e-02
      5.98802418e-02 1.19760484e-02 7.18562901e-02 1.01796411e-01
      5.98802418e-03 6.58682659e-02 3.59281451e-02 4.19161692e-02
      1.79640725e-02 4.79041934e-02 4.79041934e-02</_>
    <_>
      2.35934667e-02 2.90381126e-02 5.44464625e-02 4.53720503e-02
      4.90018167e-02 2.72232313e-02 7.44101629e-02 7.07803965e-02
      6.89655170e-02 7.98548087e-02 6.89655170e-02 2.90381126e-02
      5.80762252e-02 5.44464625e-02 4.17422876e-02 3.26678753e-02
      6.71506375e-02 5.08166961e-02 4.53720503e-02 2.90381126e-02</_>
    <_>
      4.38247025e-02 0. 3.58565748e-02 3.58565748e-02 5.17928302e-02
      5.57768941e-02 2.78884470e-02 9.56175327e-02 3.98406386e-02
      5.17928302e-02 6.37450218e-02 2.78884470e-02 9.56175327e-02
      6.77290857e-02 6.77290857e-02 3.98406386e-02 9.16334689e-02
      1.59362555e-02 2.78884470e-02 6.37450218e-02</_>
    <_>
      4.78468873e-02 3.82775106e-02 6.69856444e-02 5.26315756e-02
      3.82775106e-02 6.22009560e-02 4.30621989e-02 5.74162677e-02
      9.56937764e-03 1.43540669e-02 1.53110042e-01 7.65550211e-02
      7.17703328e-02 4.30621989e-02 1.91387553e-02 6.69856444e-02
      5.74162677e-02 3.34928222e-02 9.56937764e-03 3.82775106e-02</_>
    <_>
      7.81250000e-02 1.01562500e-01 5.46875000e-02 5.46875000e-02
      1.56250000e-02 7.81250000e-03 7.81250000e-03 7.81250000e-02
      3.12500000e-02 2.34375000e-02 3.12500000e-02 8.59375000e-02
      1.09375000e-01 7.81250000e-03 6.25000000e-02 7.81250000e-02
      4.68750000e-02 3.12500000e-02 3.12500000e-02 6.25000000e-02</_>
    <_>
      5.67567572e-02 5.40540554e-02 4.59459461e-02 2.16216221e-02
      2.70270277e-02 2.70270277e-03 2.16216221e-02 1.64864868e-01
      1.08108111e-02 4.32432443e-02 3.51351351e-02 4.05405425e-02
      1.75675675e-01 6.48648664e-02 4.59459461e-02 5.40540554e-02
      4.05405425e-02 2.16216221e-02 1.89189203e-02 5.40540554e-02</_>
    <_>
      8.84353742e-02 6.12244904e-02 5.44217676e-02 4.08163257e-02
      5.44217676e-02 2.04081628e-02 1.36054419e-02 1.90476179e-01
      2.04081628e-02 6.80272095e-03 1.36054419e-02 2.04081628e-02
      1.56462580e-01 0. 8.84353742e-02 4.08163257e-02 4.08163257e-02
      6.80272095e-03 4.08163257e-02 4.08163257e-02</_>
    <_>
      5.03978767e-02 6.10079579e-02 3.97877991e-02 5.57029173e-02
      3.18302363e-02 3.71352769e-02 5.03978767e-02 9.81432348e-02
      2.91777179e-02 4.50928360e-02 9.54907164e-02 4.77453582e-02
      7.95755982e-02 1.59151182e-02 5.57029173e-02 3.44827585e-02
      5.03978767e-02 5.03978767e-02 2.38726791e-02 4.77453582e-02</_>
    <_>
      4.40456793e-02 4.56769988e-02 5.87275699e-02 4.89396416e-02
      3.09951063e-02 3.42577472e-02 4.07830328e-02 7.99347460e-02
      3.09951063e-02 6.85154945e-02 3.91517133e-02 1.63132139e-02
      6.68841749e-02 4.07830328e-02 4.56769988e-02 7.01468214e-02
      7.50407875e-02 6.19902126e-02 2.93637849e-02 7.17781410e-02</_>
    <_>
      5.05617969e-02 5.33707887e-02 5.89887649e-02 4.21348326e-02
      3.65168527e-02 8.42696615e-03 6.17977530e-02 1.32022470e-01
      2.80898884e-02 3.37078646e-02 8.14606771e-02 1.12359552e-02
      1.37640446e-01 2.80898884e-02 3.08988765e-02 5.61797768e-02
      3.93258445e-02 1.68539323e-02 2.80898884e-02 6.46067411e-02</_>
    <_>
      5.54016605e-02 4.98614945e-02 3.87811624e-02 4.15512472e-02
      3.32409963e-02 2.21606642e-02 4.43213284e-02 1.44044310e-01
      4.43213284e-02 3.87811624e-02 9.14127380e-02 4.43213284e-02
      6.09418266e-02 3.04709133e-02 8.86426568e-02 3.32409963e-02
      4.70914096e-02 2.21606642e-02 1.66204982e-02 5.26315793e-02</_>
    <_>
      5.11945374e-02 4.77815680e-02 5.46075068e-02 2.38907840e-02
      3.75426598e-02 3.75426598e-02 6.14334457e-02 7.84982890e-02
      8.53242278e-02 2.38907840e-02 1.43344700e-01 2.38907840e-02
      4.09556292e-02 4.09556292e-02 4.77815680e-02 4.43685986e-02
      2.38907840e-02 3.75426598e-02 5.11945374e-02 4.43685986e-02</_>
    <_>
      4.22077924e-02 3.24675329e-02 5.19480519e-02 2.92207785e-02
      5.84415570e-02 7.46753216e-02 7.46753216e-02 7.79220760e-02
      4.87012975e-02 4.22077924e-02 6.81818202e-02 9.74025950e-02
      5.51948063e-02 3.24675329e-02 2.92207785e-02 2.92207785e-02
      4.87012975e-02 1.62337665e-02 6.81818202e-02 2.27272734e-02</_>
    <_>
      5.12048155e-02 3.61445770e-02 3.31325307e-02 2.40963846e-02
      4.51807231e-02 4.51807231e-02 9.63855386e-02 6.02409616e-02
      6.92771077e-02 1.50602404e-02 8.73493925e-02 1.20481923e-01
      1.05421685e-01 3.31325307e-02 2.40963846e-02 4.21686731e-02
      2.71084327e-02 9.03614424e-03 3.31325307e-02 4.21686731e-02</_>
    <_>
      3.87096778e-02 6.12903200e-02 5.48387095e-02 3.87096778e-02
      1.93548389e-02 1.29032256e-02 2.58064512e-02 1.00000001e-01
      2.25806441e-02 1.61290318e-02 5.48387095e-02 6.12903200e-02
      1.90322578e-01 1.61290318e-02 3.87096778e-02 5.48387095e-02
      4.83870953e-02 5.48387095e-02 1.61290318e-02 7.41935447e-02</_>
    <_>
      6.15384616e-02 3.84615399e-02 1.92307699e-02 2.30769236e-02
      6.53846189e-02 5.76923080e-02 1.53846154e-02 9.23076943e-02
      4.23076935e-02 1.42307699e-01 5.76923080e-02 6.15384616e-02
      3.07692308e-02 1.53846154e-02 5.76923080e-02 3.84615399e-02
      5.00000007e-02 1.15384618e-02 6.53846189e-02 5.38461544e-02</_>
    <_>
      7.18749985e-02 3.12500000e-02 2.81250011e-02 3.43750007e-02
      5.31250015e-02 5.31250015e-02 3.43750007e-02 7.18749985e-02
      4.37499993e-02 1.21875003e-01 3.43750007e-02 5.00000007e-02
      7.81250000e-02 3.43750007e-02 7.50000030e-02 4.68750000e-02
      3.12500000e-02 9.37500037e-03 5.62500022e-02 4.06250022e-02</_>
    <_>
      6.68604672e-02 2.61627901e-02 6.10465109e-02 2.61627901e-02
      3.77906971e-02 2.61627901e-02 5.52325584e-02 1.74418598e-01
      4.65116277e-02 3.19767445e-02 8.43023285e-02 2.32558139e-02
      1.19186044e-01 8.72093067e-03 3.77906971e-02 4.06976752e-02
      2.61627901e-02 2.61627901e-02 2.90697664e-02 5.23255803e-02</_>
    <_>
      7.44680837e-02 2.65957434e-02 5.31914867e-02 3.72340418e-02
      1.59574468e-02 0. 4.78723384e-02 2.12765947e-01 3.72340418e-02
      2.65957434e-02 7.97872320e-02 1.59574468e-02 1.43617019e-01
      5.31914877e-03 7.44680837e-02 4.78723384e-02 3.19148935e-02
      1.06382975e-02 1.59574468e-02 4.25531901e-02</_>
    <_>
      8.49056616e-02 1.41509436e-02 5.18867932e-02 2.83018872e-02
      8.01886767e-02 6.13207556e-02 3.30188684e-02 5.66037744e-02
      1.41509436e-02 9.43396240e-02 3.77358496e-02 6.13207556e-02
      8.01886767e-02 1.88679248e-02 6.13207556e-02 4.24528308e-02
      2.83018872e-02 2.83018872e-02 6.60377368e-02 5.66037744e-02</_>
    <_>
      5.43478280e-02 2.17391308e-02 4.89130430e-02 5.43478271e-03
      7.06521720e-02 1.63043484e-01 4.89130430e-02 1.57608703e-01
      3.26086953e-02 4.34782617e-02 1.63043477e-02 7.60869607e-02
      7.06521720e-02 5.43478271e-03 3.80434804e-02 2.17391308e-02
      5.43478271e-03 5.43478271e-03 8.69565234e-02 2.71739140e-02</_>
    <_>
      7.60869607e-02 7.60869607e-02 0. 5.43478271e-03 6.52173907e-02
      1.08695654e-02 5.43478271e-03 2.33695656e-01 5.43478280e-02
      6.52173907e-02 2.17391308e-02 7.06521720e-02 1.57608703e-01 0.
      7.60869607e-02 5.43478271e-03 0. 1.08695654e-02 4.89130430e-02
      1.63043477e-02</_>
    <_>
      3.34190242e-02 4.88431863e-02 1.54241640e-02 3.08483280e-02
      3.08483280e-02 4.11311053e-02 5.14138816e-03 1.61953732e-01
      5.14138816e-03 1.90231368e-01 2.57069408e-03 7.96915144e-02
      8.74035954e-02 1.00257069e-01 2.82776356e-02 1.54241640e-02
      3.59897166e-02 2.31362469e-02 3.85604128e-02 2.57069413e-02</_>
    <_>
      4.66321222e-02 3.62694301e-02 1.13989636e-01 3.10880821e-02
      5.69948182e-02 4.66321222e-02 5.18134683e-02 8.80829021e-02
      1.03626940e-02 3.10880821e-02 1.13989636e-01 3.10880821e-02
      5.69948182e-02 1.55440411e-02 4.66321222e-02 4.66321222e-02
      4.14507762e-02 6.21761642e-02 4.14507762e-02 3.10880821e-02</_>
    <_>
      2.09424086e-02 4.71204184e-02 5.23560215e-03 2.61780098e-02
      8.90052393e-02 7.85340294e-02 1.04712043e-02 8.37696344e-02
      3.14136147e-02 7.85340294e-02 4.71204184e-02 6.80628270e-02
      7.85340294e-02 4.18848172e-02 4.18848172e-02 3.14136147e-02
      4.71204184e-02 6.28272295e-02 7.32984319e-02 3.66492160e-02</_>
    <_>
      8.22368413e-02 7.23684207e-02 3.61842103e-02 1.64473690e-02
      5.26315793e-02 5.92105277e-02 2.30263155e-02 6.90789446e-02
      4.93421070e-02 7.23684207e-02 3.28947380e-02 5.92105277e-02
      4.27631587e-02 3.61842103e-02 6.57894760e-02 4.93421070e-02
      2.96052638e-02 2.96052638e-02 6.25000000e-02 5.92105277e-02</_>
    <_>
      2.61437912e-02 7.84313753e-02 1.30718956e-02 1.30718956e-02
      7.18954280e-02 1.50326803e-01 0. 1.04575165e-01 6.53594779e-03
      5.22875823e-02 1.96078438e-02 1.96078435e-01 3.92156877e-02
      3.26797403e-02 6.53594807e-02 3.26797403e-02 6.53594779e-03
      1.30718956e-02 7.18954280e-02 6.53594779e-03</_>
    <_>
      2.83018872e-02 5.66037744e-02 6.60377368e-02 6.60377368e-02
      4.24528308e-02 1.41509436e-02 3.30188684e-02 8.96226466e-02
      3.30188684e-02 8.49056616e-02 5.18867932e-02 3.77358496e-02
      3.77358496e-02 7.07547218e-02 9.43396240e-03 2.83018872e-02
      9.43396240e-02 6.60377368e-02 3.77358496e-02 5.18867932e-02</_>
    <_>
      2.25140713e-02 6.19136952e-02 3.18949334e-02 3.00187618e-02
      3.37711051e-02 4.31519710e-02 8.81801099e-02 1.05065666e-01
      1.31332083e-02 3.93996239e-02 8.06754231e-02 8.44277665e-02
      8.63039419e-02 4.87804860e-02 3.00187618e-02 3.00187618e-02
      6.56660423e-02 4.69043143e-02 3.00187618e-02 2.81425901e-02</_>
    <_>
      3.93442623e-02 3.93442623e-02 7.54098371e-02 3.93442623e-02
      5.90163916e-02 2.29508206e-02 6.55737706e-03 5.24590164e-02
      2.95081958e-02 7.86885247e-02 2.62295082e-02 2.95081958e-02
      1.31147541e-02 9.50819701e-02 6.55737668e-02 3.93442623e-02
      8.52458999e-02 1.04918033e-01 7.54098371e-02 2.29508206e-02</_>
    <_>
      3.87755074e-02 4.28571403e-02 5.10204062e-02 4.69387732e-02
      5.51020391e-02 4.08163257e-02 1.83673464e-02 5.30612208e-02
      4.08163248e-03 1.20408155e-01 1.63265299e-02 2.65306104e-02
      1.42857134e-02 1.32653058e-01 5.10204062e-02 4.28571403e-02
      8.57142806e-02 6.32653013e-02 6.32653013e-02 3.26530598e-02</_>
    <_>
      3.78214829e-02 5.14372140e-02 4.53857780e-02 3.32829021e-02
      3.78214829e-02 1.51285931e-01 2.72314660e-02 4.23600599e-02
      9.22844112e-02 4.38729189e-02 5.74886501e-02 8.92586932e-02
      3.02571841e-02 3.47957611e-02 3.78214829e-02 3.78214829e-02
      3.32829021e-02 3.32829021e-02 4.23600599e-02 4.08472009e-02</_>
    <_>
      3.60824727e-02 7.73195848e-02 3.09278332e-02 1.03092780e-02
      4.12371121e-02 3.09278332e-02 1.54639166e-02 2.01030925e-01
      4.12371121e-02 2.06185561e-02 2.06185561e-02 9.27835032e-02
      2.31958762e-01 3.09278332e-02 2.06185561e-02 1.54639166e-02
      1.54639166e-02 2.57731955e-02 2.57731955e-02 1.54639166e-02</_>
    <_>
      3.94736826e-02 5.26315793e-02 3.28947380e-02 6.57894742e-03
      3.94736826e-02 4.60526310e-02 1.31578952e-01 1.38157889e-01
      9.21052620e-02 2.63157897e-02 4.60526310e-02 4.60526310e-02
      1.64473683e-01 0. 3.28947380e-02 1.31578948e-02 6.57894742e-03
      6.57894742e-03 4.60526310e-02 3.28947380e-02</_>
    <_>
      3.30578499e-02 2.47933865e-02 2.47933865e-02 4.95867729e-02
      4.95867729e-02 1.40495867e-01 8.26446246e-03 8.26446265e-02
      8.26446246e-03 1.07438013e-01 1.65289249e-02 7.43801594e-02
      9.09090862e-02 2.47933865e-02 4.13223132e-02 4.13223132e-02
      4.95867729e-02 3.30578499e-02 4.13223132e-02 5.78512363e-02</_>
    <_>
      3.82352956e-02 3.82352956e-02 3.23529430e-02 2.05882359e-02
      5.88235296e-02 1.47058830e-01 2.64705885e-02 3.52941193e-02
      2.35294122e-02 5.00000007e-02 4.41176482e-02 1.82352945e-01
      1.76470596e-02 4.70588244e-02 2.05882359e-02 3.23529430e-02
      3.23529430e-02 5.29411770e-02 5.58823533e-02 4.41176482e-02</_>
    <_>
      1.40845068e-02 2.81690136e-02 9.85915512e-02 6.33802786e-02
      2.11267602e-02 4.22535203e-02 4.92957756e-02 4.92957756e-02
      4.92957756e-02 1.40845068e-02 7.04225302e-02 6.33802786e-02
      3.52112651e-02 5.63380271e-02 1.40845068e-02 4.22535203e-02
      1.05633803e-01 1.40845060e-01 1.40845068e-02 2.81690136e-02</_>
    <_>
      2.96610165e-02 2.54237279e-02 5.64971752e-02 6.49717525e-02
      3.95480245e-02 1.27118640e-02 5.08474559e-02 6.92090392e-02
      3.24858762e-02 7.20338970e-02 1.08757064e-01 3.24858762e-02
      2.40112990e-02 1.12994350e-01 5.50847463e-02 2.54237279e-02
      6.35593235e-02 7.20338970e-02 3.81355919e-02 1.41242938e-02</_>
    <_>
      6.23608045e-02 5.56792878e-02 8.01781788e-02 5.12249470e-02
      3.11804023e-02 1.33630298e-02 3.78619172e-02 7.57238343e-02
      3.34075727e-02 6.23608045e-02 6.68151453e-02 3.11804023e-02
      2.44988874e-02 5.34521192e-02 6.01336323e-02 6.68151453e-02
      6.01336323e-02 6.68151453e-02 2.22717151e-02 4.45434302e-02</_>
    <_>
      3.50318477e-02 7.96178356e-02 9.55414027e-02 4.14012745e-02
      1.91082805e-02 5.73248416e-02 1.59235671e-02 2.29299366e-01
      9.55414027e-03 1.27388537e-02 1.59235671e-02 8.59872624e-02
      1.43312097e-01 6.36942685e-03 2.86624208e-02 2.54777074e-02
      2.86624208e-02 2.22929940e-02 2.22929940e-02 2.54777074e-02</_>
    <_>
      2.82485876e-02 7.90960491e-02 5.64971752e-02 3.38983051e-02
      2.25988701e-02 2.82485876e-02 6.77966103e-02 6.77966103e-02 0.
      6.21468946e-02 5.64971752e-02 1.69491526e-02 1.12994350e-01
      7.90960491e-02 5.64971752e-03 6.77966103e-02 6.21468946e-02
      1.18644066e-01 5.64971752e-03 2.82485876e-02</_>
    <_>
      3.21100913e-02 7.33944923e-02 5.04587144e-02 9.17431116e-02
      4.12844010e-02 3.66972461e-02 6.42201826e-02 5.96330240e-02
      1.37614673e-02 6.42201826e-02 4.12844010e-02 9.17431153e-03
      5.96330240e-02 1.14678897e-01 2.75229346e-02 4.12844010e-02
      6.88073337e-02 5.96330240e-02 2.29357779e-02 2.75229346e-02</_>
    <_>
      4.76190448e-02 3.06122452e-02 1.02040814e-02 3.74149643e-02
      4.42176871e-02 2.10884348e-01 1.36054419e-02 3.40136066e-02
      3.74149643e-02 1.25850335e-01 3.06122452e-02 1.22448981e-01
      1.02040814e-02 5.78231290e-02 2.72108838e-02 3.74149643e-02
      3.40136066e-02 2.04081628e-02 4.08163257e-02 2.72108838e-02</_>
    <_>
      4.76190485e-02 3.57142873e-02 6.54761940e-02 4.76190485e-02
      1.78571437e-02 5.95238097e-02 6.54761940e-02 1.54761910e-01
      1.19047621e-02 2.38095243e-02 5.35714291e-02 3.57142873e-02
      1.01190478e-01 2.97619049e-02 1.78571437e-02 4.16666679e-02
      5.35714291e-02 5.95238097e-02 5.35714291e-02 2.38095243e-02</_>
    <_>
      4.39882688e-02 5.27859256e-02 9.67741907e-02 2.05278583e-02
      4.10557166e-02 1.05571851e-01 2.93255132e-02 6.45161271e-02
      3.51906158e-02 5.86510263e-02 2.63929628e-02 1.26099706e-01
      7.62463361e-02 2.93255132e-02 4.98533733e-02 2.93255132e-02
      2.63929628e-02 2.63929628e-02 2.93255132e-02 3.22580636e-02</_>
    <_>
      1.49253728e-02 7.46268639e-03 4.47761193e-02 4.10447754e-02
      2.23880596e-02 4.85074632e-02 1.86567158e-02 7.46268639e-03
      1.11940298e-02 5.59701473e-02 5.22388034e-02 2.61194017e-02
      1.11940298e-02 3.91791046e-01 7.46268639e-03 1.49253728e-02
      7.46268630e-02 1.19402982e-01 1.86567158e-02 1.11940298e-02</_>
    <_>
      4.78359945e-02 4.55580875e-02 6.15034178e-02 5.46697080e-02
      2.27790438e-02 7.06150383e-02 6.37813210e-02 6.15034178e-02
      4.10022810e-02 7.28929415e-02 5.01138978e-02 5.92255145e-02
      3.87243740e-02 6.37813210e-02 5.01138978e-02 1.59453303e-02
      6.15034178e-02 2.73348540e-02 5.23918010e-02 3.87243740e-02</_>
    <_>
      3.31753567e-02 7.10900500e-02 4.73933667e-02 0. 5.68720400e-02
      9.95260701e-02 2.84360200e-02 1.18483417e-01 1.42180100e-02
      8.53080601e-02 9.47867334e-03 1.27962083e-01 1.09004743e-01
      1.89573467e-02 4.73933667e-02 1.89573467e-02 1.42180100e-02
      1.89573467e-02 7.10900500e-02 9.47867334e-03</_>
    <_>
      3.15789506e-02 5.26315793e-02 7.36842155e-02 1.05263162e-02
      1.05263162e-02 3.15789506e-02 2.10526325e-02 2.73684233e-01 0.
      3.15789506e-02 4.21052650e-02 6.31579012e-02 1.47368431e-01
      2.10526325e-02 3.15789506e-02 4.21052650e-02 2.10526325e-02
      3.15789506e-02 2.10526325e-02 4.21052650e-02</_>
    <_>
      2.38095243e-02 1.19047621e-02 2.97619049e-02 1.19047621e-02
      2.38095243e-02 1.90476194e-01 0. 7.73809552e-02 5.95238106e-03
      4.16666679e-02 0. 2.55952388e-01 7.73809552e-02 7.14285746e-02
      3.57142873e-02 3.57142873e-02 1.19047621e-02 2.38095243e-02
      2.38095243e-02 4.76190485e-02</_>
    <_>
      5.12820520e-02 2.56410260e-02 1.15384616e-01 7.05128238e-02
      1.92307699e-02 6.41025649e-03 1.28205130e-02 8.33333358e-02 0.
      6.41025677e-02 0. 1.28205130e-02 1.28205135e-01 1.21794872e-01
      3.20512839e-02 3.20512839e-02 6.41025677e-02 1.21794872e-01
      2.56410260e-02 1.28205130e-02</_>
    <_>
      5.26315793e-02 5.26315793e-02 3.75939868e-02 5.26315793e-02
      2.25563906e-02 1.50375944e-02 4.51127812e-02 1.42857149e-01 0.
      1.50375944e-02 7.51879718e-03 2.25563906e-02 1.05263159e-01
      1.72932342e-01 9.77443606e-02 7.51879718e-03 3.75939868e-02
      6.76691756e-02 1.50375944e-02 3.00751887e-02</_>
    <_>
      7.81250000e-02 7.81250000e-02 2.34375000e-02 7.81250000e-03
      5.46875000e-02 0. 3.90625000e-02 2.10937500e-01 1.56250000e-02
      4.68750000e-02 3.12500000e-02 3.12500000e-02 1.25000000e-01
      4.68750000e-02 5.46875000e-02 3.12500000e-02 7.81250000e-03
      2.34375000e-02 5.46875000e-02 3.90625000e-02</_>
    <_>
      6.47482052e-02 6.47482052e-02 5.03597148e-02 7.19424477e-03
      5.03597148e-02 9.35251787e-02 2.15827338e-02 1.72661871e-01 0.
      5.03597148e-02 3.59712243e-02 6.47482052e-02 1.07913673e-01 0.
      5.75539581e-02 3.59712243e-02 1.43884895e-02 5.75539581e-02
      2.15827338e-02 2.87769791e-02</_>
    <_>
      2.70270258e-02 2.31660232e-02 3.86100374e-02 3.47490348e-02
      3.47490348e-02 5.01930490e-02 1.93050187e-02 1.27413124e-01
      2.31660232e-02 5.79150580e-02 3.86100374e-02 3.86100374e-02
      1.08108103e-01 5.01930490e-02 2.31660232e-02 4.63320464e-02
      6.17760606e-02 1.19691119e-01 2.70270258e-02 5.01930490e-02</_>
    <_>
      8.19672048e-02 3.27868834e-02 2.45901626e-02 8.19672085e-03
      2.45901626e-02 6.55737668e-02 6.55737668e-02 1.63934410e-01
      4.09836024e-02 0. 8.19672048e-02 3.27868834e-02 2.04918027e-01
      8.19672085e-03 8.19672048e-02 2.45901626e-02 0. 0. 2.45901626e-02
      3.27868834e-02</_>
    <_>
      6.28930777e-02 6.91823885e-02 2.51572318e-02 1.88679248e-02
      5.66037707e-02 1.13207541e-01 6.28930796e-03 1.63522005e-01
      2.51572318e-02 1.88679248e-02 0. 6.28930777e-02 1.25786155e-01
      6.28930796e-03 6.28930777e-02 5.66037707e-02 1.25786159e-02 0.
      5.66037707e-02 5.66037707e-02</_>
    <_>
      5.06329127e-02 7.59493709e-02 1.89873427e-02 1.26582282e-02
      4.43037972e-02 1.20253168e-01 6.32911408e-03 1.83544308e-01
      2.53164563e-02 6.32911408e-03 0. 6.96202517e-02 1.26582280e-01
      3.16455700e-02 5.69620281e-02 4.43037972e-02 0. 6.32911408e-03
      6.32911399e-02 5.69620281e-02</_>
    <_>
      6.66666701e-02 6.00000024e-02 1.33333337e-02 2.66666673e-02
      3.33333351e-02 1.20000005e-01 6.66666683e-03 2.00000003e-01
      4.66666669e-02 6.66666683e-03 0. 7.99999982e-02 1.13333337e-01
      6.66666683e-03 6.00000024e-02 5.33333346e-02 1.33333337e-02
      6.66666683e-03 6.00000024e-02 2.66666673e-02</_>
    <_>
      4.87804860e-02 4.26829234e-02 1.21951215e-02 2.43902430e-02
      3.65853645e-02 6.09756075e-02 0. 2.19512194e-01 3.65853645e-02
      2.43902430e-02 4.26829234e-02 7.31707290e-02 2.01219499e-01
      6.09756075e-03 3.04878037e-02 1.21951215e-02 1.21951215e-02
      5.48780486e-02 3.65853645e-02 2.43902430e-02</_>
    <_>
      3.35051529e-02 7.73195829e-03 3.60824727e-02 4.63917516e-02
      2.57731955e-02 6.18556663e-02 1.34020612e-01 5.92783503e-02
      5.67010306e-02 6.18556663e-02 8.50515440e-02 1.54639166e-02
      2.57731955e-02 1.46907210e-01 1.80412363e-02 2.57731955e-02
      5.67010306e-02 7.73195848e-02 1.80412363e-02 7.73195829e-03</_>
    <_>
      3.84615385e-03 2.69230772e-02 1.53846154e-02 4.61538471e-02
      3.84615399e-02 0. 9.23076943e-02 5.00000007e-02 3.07692308e-02
      6.15384616e-02 2.07692310e-01 1.92307699e-02 6.53846189e-02
      1.23076923e-01 7.69230770e-03 1.92307699e-02 6.15384616e-02
      7.69230798e-02 1.53846154e-02 3.84615399e-02</_>
    <_>
      2.03389823e-02 6.77966094e-03 4.74576280e-02 6.77966103e-02
      4.74576280e-02 2.03389823e-02 8.47457647e-02 3.05084735e-02
      2.37288140e-02 6.10169470e-02 9.15254205e-02 6.77966094e-03
      1.35593219e-02 1.42372876e-01 4.06779647e-02 1.69491526e-02
      1.22033894e-01 1.08474575e-01 3.05084735e-02 1.69491526e-02</_>
    <_>
      3.91061455e-02 7.26256967e-02 1.11731840e-02 3.35195512e-02
      3.91061455e-02 7.82122910e-02 1.67597756e-02 1.50837988e-01
      4.46927361e-02 4.46927361e-02 4.46927361e-02 6.70391023e-02
      1.39664799e-01 4.46927361e-02 2.79329605e-02 1.67597756e-02
      5.02793267e-02 3.35195512e-02 1.67597756e-02 2.79329605e-02</_>
    <_>
      3.52941193e-02 6.47058859e-02 0. 2.35294122e-02 2.94117648e-02
      6.47058859e-02 5.88235296e-02 1.41176477e-01 2.35294122e-02
      5.29411770e-02 3.52941193e-02 8.23529437e-02 1.41176477e-01
      3.52941193e-02 4.11764719e-02 2.94117648e-02 3.52941193e-02
      5.29411770e-02 2.35294122e-02 2.94117648e-02</_>
    <_>
      5.26315793e-02 6.43274859e-02 5.84795326e-03 1.75438598e-02
      1.16959065e-02 6.43274859e-02 9.94152054e-02 1.81286544e-01
      5.84795326e-03 5.84795326e-03 3.50877196e-02 4.67836261e-02
      2.04678357e-01 1.75438598e-02 5.26315793e-02 2.92397663e-02
      1.16959065e-02 3.50877196e-02 3.50877196e-02 2.33918130e-02</_>
    <_>
      9.34579372e-02 1.40186906e-01 1.86915882e-02 9.34579410e-03
      6.54205605e-02 1.02803737e-01 9.34579410e-03 3.73831764e-02
      2.80373823e-02 9.34579410e-03 1.86915882e-02 1.68224290e-01
      1.21495321e-01 9.34579410e-03 7.47663528e-02 2.80373823e-02
      9.34579410e-03 9.34579410e-03 3.73831764e-02 9.34579410e-03</_>
    <_>
      2.18579229e-02 4.37158458e-02 7.65027329e-02 1.63934417e-02
      2.73224041e-02 1.47540987e-01 1.63934417e-02 1.53005466e-01
      6.01092875e-02 2.73224041e-02 5.46448072e-03 8.19672123e-02
      1.14754096e-01 1.63934417e-02 3.82513665e-02 2.73224041e-02
      1.63934417e-02 3.82513665e-02 2.73224041e-02 4.37158458e-02</_>
    <_>
      1.23287670e-01 2.73972601e-02 4.10958901e-02 4.10958901e-02
      5.47945201e-02 2.73972601e-02 0. 6.84931502e-02 5.47945201e-02
      2.73972601e-02 2.73972601e-02 1.23287670e-01 6.84931502e-02
      5.47945201e-02 4.10958901e-02 6.84931502e-02 1.36986300e-02
      6.84931502e-02 6.84931502e-02 0.</_>
    <_>
      1.04166672e-01 1.04166672e-01 2.08333340e-02 0. 6.25000000e-02
      4.16666679e-02 0. 1.66666672e-01 2.08333340e-02 2.08333340e-02 0.
      2.08333340e-02 2.08333343e-01 0. 1.25000000e-01 4.16666679e-02
      2.08333340e-02 0. 2.08333340e-02 2.08333340e-02</_>
    <_>
      1.12500004e-01 5.00000007e-02 6.25000000e-02 2.50000004e-02
      5.00000007e-02 1.25000002e-02 0. 1.50000006e-01 1.37500003e-01
      5.00000007e-02 3.75000015e-02 5.00000007e-02 7.50000030e-02 0.
      3.75000015e-02 2.50000004e-02 3.75000015e-02 0. 6.25000000e-02
      2.50000004e-02</_>
    <_>
      4.06654365e-02 6.09981529e-02 2.31053606e-02 1.29390024e-02
      2.12569311e-02 1.20147876e-01 9.24214441e-03 4.52865064e-02
      4.62107211e-02 6.46950081e-02 3.23475040e-02 1.81146026e-01
      5.08317947e-02 7.30129406e-02 3.51201482e-02 3.88170071e-02
      1.66358594e-02 5.54528646e-02 3.04990765e-02 4.15896475e-02</_>
    <_>
      3.63636352e-02 4.99999970e-02 4.88636345e-02 5.11363633e-02
      3.63636352e-02 5.11363633e-02 2.27272715e-02 7.04545453e-02
      1.93181820e-02 1.19318180e-01 3.18181813e-02 5.56818172e-02
      4.31818180e-02 1.02272727e-01 5.11363633e-02 4.43181805e-02
      5.68181798e-02 4.65909094e-02 3.63636352e-02 2.61363629e-02</_>
    <_>
      3.84615399e-02 6.15384616e-02 7.69230798e-02 6.15384616e-02
      3.07692308e-02 3.84615399e-02 3.84615399e-02 1.00000001e-01
      2.30769236e-02 4.61538471e-02 5.38461544e-02 3.84615399e-02
      1.15384616e-01 2.30769236e-02 3.07692308e-02 5.38461544e-02
      3.84615399e-02 6.15384616e-02 3.84615399e-02 3.07692308e-02</_>
    <_>
      7.99999982e-02 2.22222228e-02 4.44444455e-02 4.44444455e-02
      8.88888910e-03 2.66666673e-02 6.66666701e-02 2.40000010e-01
      3.99999991e-02 6.22222237e-02 5.33333346e-02 3.11111119e-02
      7.11111128e-02 3.55555564e-02 5.77777773e-02 1.77777782e-02
      4.88888919e-02 8.88888910e-03 2.22222228e-02 1.77777782e-02</_>
    <_>
      5.70570603e-02 4.50450480e-02 4.20420431e-02 2.10210215e-02
      2.10210215e-02 1.20120123e-02 3.60360369e-02 2.55255252e-01
      3.00300308e-02 2.70270277e-02 5.70570603e-02 1.20120123e-02
      1.62162170e-01 1.50150154e-02 4.20420431e-02 3.00300308e-02
      3.00300308e-02 3.90390381e-02 2.40240246e-02 4.20420431e-02</_>
    <_>
      4.76190485e-02 6.34920672e-02 3.17460322e-03 2.53968257e-02
      8.88888910e-02 7.61904791e-02 2.53968257e-02 1.58730168e-02
      9.84127000e-02 1.20634921e-01 5.39682545e-02 8.57142881e-02
      6.66666701e-02 3.80952395e-02 7.30158761e-02 1.90476198e-02
      1.90476198e-02 9.52380989e-03 5.07936515e-02 1.90476198e-02</_>
    <_>
      5.07246405e-02 5.07246405e-02 1.44927539e-02 2.89855078e-02
      7.24637657e-02 7.97101483e-02 5.07246405e-02 7.97101483e-02
      5.07246405e-02 4.34782617e-02 5.79710156e-02 7.97101483e-02
      1.23188406e-01 0. 2.89855078e-02 3.62318829e-02 4.34782617e-02
      2.89855078e-02 6.52173907e-02 1.44927539e-02</_>
    <_>
      2.72373538e-02 7.78210117e-03 4.28015552e-02 1.55642023e-02
      3.50194536e-02 6.61478564e-02 4.28015552e-02 2.41245136e-01
      7.00389072e-02 5.44747077e-02 1.36186764e-01 2.72373538e-02
      3.89105044e-02 1.55642023e-02 2.33463030e-02 1.94552522e-02
      1.94552522e-02 6.22568093e-02 2.72373538e-02 2.72373538e-02</_>
    <_>
      8.57142881e-02 3.80952395e-02 1.90476198e-02 9.52380989e-03
      5.71428612e-02 4.76190485e-02 0. 1.52380958e-01 5.71428612e-02
      1.33333340e-01 0. 2.85714306e-02 1.71428576e-01 4.76190485e-02
      6.66666701e-02 9.52380989e-03 9.52380989e-03 0. 5.71428612e-02
      9.52380989e-03</_></support_vectors>
  <decision_functions>
    <_>
      <sv_count>42</sv_count>
      <rho>6.3549480356294481e+00</rho>
      <alpha>
        6.2500000000000000e+01 6.2500000000000000e+01
        4.9028928173638498e+01 6.2500000000000000e+01
        6.2500000000000000e+01 6.2500000000000000e+01
        6.2500000000000000e+01 6.2500000000000000e+01
        6.2500000000000000e+01 6.2500000000000000e+01
        6.2500000000000000e+01 6.2500000000000000e+01
        6.2500000000000000e+01 6.2500000000000000e+01
        6.2500000000000000e+01 6.2500000000000000e+01
        6.2500000000000000e+01 7.3000864177145175e+00
        6.2500000000000000e+01 1.1688727411728651e+01
        6.2500000000000000e+01 -6.2500000000000000e+01
        -6.2500000000000000e+01 -4.2065101057401840e+01
        -6.2500000000000000e+01 -6.2500000000000000e+01
        -6.2500000000000000e+01 -6.2500000000000000e+01
        -6.2500000000000000e+01 -6.2500000000000000e+01
        -6.2500000000000000e+01 -3.6920961115226454e+01
        -6.2500000000000000e+01 -3.5904769673565845e+01
        -1.5626910156887506e+01 -6.2500000000000000e+01
        -6.2500000000000000e+01 -6.2500000000000000e+01
        -6.2500000000000000e+01 -6.2500000000000000e+01
        -6.2500000000000000e+01 -6.2500000000000000e+01</alpha>
      <index>
        0 1 2 3 4 5 6 7 9 11 12 13 16 18 19 20 21 22 23 24 26 28 29 30
        38 46 48 49 51 52 56 58 59 61 66 69 74 77 78 79 80 81</index></_>
    <_>
      <sv_count>38</sv_count>
      <rho>2.2293957749097504e+00</rho>
      <alpha>
        6.2500000000000000e+01 2.0215073801376960e+01
        2.6215450916243640e+01 6.2500000000000000e+01
        6.2500000000000000e+01 6.2500000000000000e+01
        6.2500000000000000e+01 3.5118206168498439e+01
        6.2500000000000000e+01 6.2500000000000000e+01
        6.2500000000000000e+01 6.2500000000000000e+01
        6.2500000000000000e+01 6.2500000000000000e+01
        2.3864188953114624e+01 5.8237005340532647e+01
        1.0303070017527594e+00 6.2500000000000000e+01
        6.2500000000000000e+01 -3.8351760676870921e+00
        -6.2500000000000000e+01 -6.2500000000000000e+01
        -6.2500000000000000e+01 -6.2500000000000000e+01
        -2.0242337756895090e+01 -6.2500000000000000e+01
        -6.2500000000000000e+01 -4.6156122900434653e+01
        -6.2500000000000000e+01 -6.2500000000000000e+01
        -6.1789865028070125e+01 -6.2500000000000000e+01
        -6.2500000000000000e+01 -6.2500000000000000e+01
        -6.2500000000000000e+01 -2.7504553498215540e+01
        -2.9630228024662330e+01 -3.8021948905554233e+01</alpha>
      <index>
        1 2 3 4 5 7 9 10 12 14 15 16 18 19 21 22 23 25 26 82 85 86 89 93
        94 95 96 97 98 102 103 104 109 112 113 114 116 117</index></_>
    <_>
      <sv_count>35</sv_count>
      <rho>5.5027293178701866e+00</rho>
      <alpha>
        6.2500000000000000e+01 6.2500000000000000e+01
        5.4535682246130534e+01 4.5896307983386116e+01
        6.2500000000000000e+01 6.2500000000000000e+01
        6.2500000000000000e+01 6.2500000000000000e+01
        6.2500000000000000e+01 5.4379312494170641e+01
        6.2500000000000000e+01 5.2994780799598917e+00
        5.5001948913368210e+01 6.2500000000000000e+01
        6.2500000000000000e+01 6.2500000000000000e+01
        2.7124930118806951e+01 -8.5226308340700889e+00
        -6.2500000000000000e+01 -6.2500000000000000e+01
        -6.2500000000000000e+01 -6.2500000000000000e+01
        -4.9308760337384960e+00 -4.2798511391816039e+00
        -6.2500000000000000e+01 -6.2500000000000000e+01
        -5.0324168997189510e+01 -6.2500000000000000e+01
        -6.2500000000000000e+01 -6.2500000000000000e+01
        -6.2500000000000000e+01 -6.2500000000000000e+01
        -4.9180132831642659e+01 -6.2500000000000000e+01
        -6.2500000000000000e+01</alpha>
      <index>
        1 4 5 6 7 8 9 11 12 13 16 17 18 19 20 21 26 123 124 125 126 128
        129 131 132 134 135 137 138 139 141 142 143 146 147</index></_>
    <_>
      <sv_count>27</sv_count>
      <rho>4.3511807688348441e+00</rho>
      <alpha>
        6.2500000000000000e+01 7.3453718451153263e+00
        6.2500000000000000e+01 6.2500000000000000e+01
        6.2500000000000000e+01 2.3797080178604780e+01
        6.2500000000000000e+01 6.2500000000000000e+01
        6.2500000000000000e+01 6.2500000000000000e+01
        1.8279286734196020e+01 6.2500000000000000e+01
        9.4144894458871651e+00 6.2500000000000000e+01
        -6.2500000000000000e+01 -6.2500000000000000e+01
        -6.2500000000000000e+01 -4.0150292486683391e+01
        -5.2808935263311838e+01 -3.3399748851801707e+00
        -6.2500000000000000e+01 -6.2500000000000000e+01
        -6.2500000000000000e+01 -6.2500000000000000e+01
        -6.2500000000000000e+01 -6.2500000000000000e+01
        -2.5037025568627858e+01</alpha>
      <index>
        1 2 3 4 7 8 9 12 13 16 17 19 20 21 161 162 163 164 168 169 171
        172 173 174 177 178 179</index></_>
    <_>
      <sv_count>67</sv_count>
      <rho>5.4684373966380850e-01</rho>
      <alpha>
        6.2500000000000000e+01 6.2500000000000000e+01
        6.2500000000000000e+01 6.2500000000000000e+01
        6.2500000000000000e+01 6.2500000000000000e+01
        5.6356809221068858e+00 6.2500000000000000e+01
        6.2500000000000000e+01 6.2500000000000000e+01
        6.2500000000000000e+01 6.2500000000000000e+01
        6.2500000000000000e+01 6.2500000000000000e+01
        6.2500000000000000e+01 6.2500000000000000e+01
        6.2500000000000000e+01 6.2500000000000000e+01
        6.2500000000000000e+01 6.2500000000000000e+01
        6.2500000000000000e+01 1.8029319531621137e+01
        6.2500000000000000e+01 9.0414123535720243e+00
        6.2500000000000000e+01 6.2500000000000000e+01
        6.2500000000000000e+01 2.3731071699547876e+01
        6.2500000000000000e+01 6.2500000000000000e+01
        6.2500000000000000e+01 6.2500000000000000e+01
        6.2500000000000000e+01 6.2500000000000000e+01
        -6.2500000000000000e+01 -6.2500000000000000e+01
        -6.2500000000000000e+01 -6.2500000000000000e+01
        -6.0185100959237218e+01 -6.2500000000000000e+01
        -6.2500000000000000e+01 -6.2500000000000000e+01
        -6.2500000000000000e+01 -6.2500000000000000e+01
        -2.6192428678711856e+01 -6.2500000000000000e+01
        -6.2500000000000000e+01 -6.2500000000000000e+01
        -6.2500000000000000e+01 -6.2500000000000000e+01
        -6.2500000000000000e+01 -6.2500000000000000e+01
        -6.2500000000000000e+01 -3.6053089675930572e+01
        -6.2500000000000000e+01 -6.2500000000000000e+01
        -6.2500000000000000e+01 -6.2500000000000000e+01
        -6.2500000000000000e+01 -6.2500000000000000e+01
        -3.8326114571565782e+01 -6.2500000000000000e+01
        -6.2500000000000000e+01 -6.2500000000000000e+01
        -6.2500000000000000e+01 -2.0680750621402467e+01
        -6.2500000000000000e+01</alpha>
      <index>
        27 28 31 32 33 34 39 40 42 45 47 48 49 51 52 53 54 55 56 57 58
        60 61 62 63 67 69 70 71 72 74 77 78 80 82 83 84 85 86 87 88 89
        90 91 92 94 95 96 99 100 101 102 103 104 105 106 107 108 109 110
        111 113 115 116 117 120 121</index></_>
    <_>
      <sv_count>70</sv_count>
      <rho>1.3099222523404566e+00</rho>
      <alpha>
        1.2906884902960137e+01 6.2500000000000000e+01
        6.2500000000000000e+01 6.2500000000000000e+01
        6.2500000000000000e+01 3.3745165153066914e+01
        6.2500000000000000e+01 6.2500000000000000e+01
        6.2500000000000000e+01 4.8021793866443254e+01
        6.0999239539150658e+01 5.5536442112926451e+01
        6.2500000000000000e+01 6.2500000000000000e+01
        4.9222590937179035e+01 5.3806393906551591e+01
        2.1644639950348811e+01 6.2500000000000000e+01
        4.4224544036223506e+01 4.3197662401431728e+01
        6.2500000000000000e+01 6.2500000000000000e+01
        6.2500000000000000e+01 6.2500000000000000e+01
        6.2500000000000000e+01 6.2500000000000000e+01
        6.2500000000000000e+01 6.2500000000000000e+01
        6.2500000000000000e+01 6.2500000000000000e+01
        3.9743128848843682e+01 5.8101241612005779e+01
        6.2500000000000000e+01 4.2967095411773727e+01
        6.2500000000000000e+01 6.2500000000000000e+01
        7.6543681652454172e+00 -6.2500000000000000e+01
        -6.2500000000000000e+01 -6.2500000000000000e+01
        -6.2500000000000000e+01 -6.2500000000000000e+01
        -5.6501647080525416e+01 -6.2500000000000000e+01
        -6.2500000000000000e+01 -6.2500000000000000e+01
        -6.2500000000000000e+01 -6.2500000000000000e+01
        -6.2500000000000000e+01 -6.2500000000000000e+01
        -6.2500000000000000e+01 -2.4719696060277727e+01
        -6.2500000000000000e+01 -6.2500000000000000e+01
        -6.2500000000000000e+01 -6.2500000000000000e+01
        -6.2500000000000000e+01 -6.2500000000000000e+01
        -6.2500000000000000e+01 -6.2500000000000000e+01
        -6.2500000000000000e+01 -5.3049847703347524e+01
        -6.2500000000000000e+01 -6.2500000000000000e+01
        -6.2500000000000000e+01 -6.2500000000000000e+01
        -6.2500000000000000e+01 -6.2500000000000000e+01
        -6.2500000000000000e+01 -6.2500000000000000e+01</alpha>
      <index>
        29 32 33 34 35 36 38 39 40 41 43 44 45 46 49 50 51 52 53 57 58
        59 60 62 63 64 65 66 68 73 74 75 76 77 78 79 80 122 123 124 125
        126 127 128 129 130 131 132 133 134 135 136 137 138 139 140 141
        142 143 144 145 146 147 148 149 151 152 153 154 155</index></_>
    <_>
      <sv_count>50</sv_count>
      <rho>3.0019557040623379e+00</rho>
      <alpha>
        6.2500000000000000e+01 2.3987937136251546e+01
        6.2500000000000000e+01 6.2500000000000000e+01
        6.2500000000000000e+01 6.2500000000000000e+01
        5.4176181374664225e+01 6.2500000000000000e+01
        1.6749345344488688e+01 5.9153097736593061e+01
        6.2500000000000000e+01 6.2500000000000000e+01
        3.9395380187107286e+01 6.2500000000000000e+01
        3.4264413753472532e+01 1.1866488366351774e+01
        6.2500000000000000e+01 5.7884999167853572e+01
        6.2500000000000000e+01 1.5022156933217312e+01
        6.2500000000000000e+01 6.2500000000000000e+01
        6.2500000000000000e+01 6.2500000000000000e+01
        6.2500000000000000e+01 6.2500000000000000e+01
        6.2500000000000000e+01 -6.2500000000000000e+01
        -6.2500000000000000e+01 -6.2500000000000000e+01
        -6.2500000000000000e+01 -6.2500000000000000e+01
        -6.2500000000000000e+01 -6.2500000000000000e+01
        -6.2500000000000000e+01 -6.2500000000000000e+01
        -6.2500000000000000e+01 -6.2500000000000000e+01
        -6.2500000000000000e+01 -6.2500000000000000e+01
        -6.2500000000000000e+01 -6.2500000000000000e+01
        -6.2500000000000000e+01 -6.2500000000000000e+01
        -6.2500000000000000e+01 -6.2500000000000000e+01
        -6.2500000000000000e+01 -6.2500000000000000e+01
        -6.2500000000000000e+01 -6.2500000000000000e+01</alpha>
      <index>
        32 33 34 35 37 40 41 44 45 48 49 55 57 58 59 60 62 63 67 68 69
        73 74 75 76 77 78 157 158 159 161 162 163 164 165 166 167 168
        169 170 171 172 173 174 175 176 177 178 179 180</index></_>
    <_>
      <sv_count>43</sv_count>
      <rho>4.9429248907999601e-01</rho>
      <alpha>
        6.2500000000000000e+01 2.6395386793345626e+01
        6.2500000000000000e+01 1.7964701909468822e+01
        6.2500000000000000e+01 6.2500000000000000e+01
        2.1713001456686648e+01 3.9695284725799397e+01
        6.2500000000000000e+01 6.2500000000000000e+01
        1.2301929801781268e+00 6.2500000000000000e+01
        6.2500000000000000e+01 6.2500000000000000e+01
        3.8033816054494729e+01 6.2500000000000000e+01
        6.2500000000000000e+01 6.2500000000000000e+01
        2.0842868335022127e+00 6.2500000000000000e+01
        3.3521143554418884e+01 6.2500000000000000e+01
        4.2562323064245877e+00 6.2500000000000000e+01
        -6.2500000000000000e+01 -6.2500000000000000e+01
        -6.2500000000000000e+01 -6.2500000000000000e+01
        -6.2500000000000000e+01 -6.2500000000000000e+01
        -2.2894003211596885e+01 -6.2500000000000000e+01
        -6.2500000000000000e+01 -6.2500000000000000e+01
        -6.2500000000000000e+01 -6.2500000000000000e+01
        -6.2500000000000000e+01 -6.2500000000000000e+01
        -6.2500000000000000e+01 -6.2500000000000000e+01
        -6.2500000000000000e+01 -6.2500000000000000e+01
        -3.7000043402722142e+01</alpha>
      <index>
        85 86 87 88 89 90 92 94 95 96 99 100 101 102 105 106 108 109 111
        113 115 116 117 121 122 124 125 126 128 129 131 132 134 135 137
        138 139 142 144 145 147 153 155</index></_>
    <_>
      <sv_count>37</sv_count>
      <rho>4.0715051410580445e+00</rho>
      <alpha>
        6.2500000000000000e+01 6.2500000000000000e+01
        5.4983580044433161e+01 6.2500000000000000e+01
        6.2500000000000000e+01 5.7478053804140458e+01
        5.2504146840104525e+01 6.2500000000000000e+01
        6.2500000000000000e+01 5.9580200804030078e+01
        3.8883419459541123e+01 6.2500000000000000e+01
        5.0309523330086030e+00 2.8362225802026643e+01
        6.2500000000000000e+01 6.2500000000000000e+01
        6.2500000000000000e+01 6.2500000000000000e+01
        -6.2500000000000000e+01 -6.2500000000000000e+01
        -6.2500000000000000e+01 -6.2500000000000000e+01
        -6.2500000000000000e+01 -1.1695535163723827e+01
        -7.0070376041342461e+00 -4.6982951795050703e+00
        -4.4056922529038069e+01 -6.2500000000000000e+01
        -6.2500000000000000e+01 -6.2500000000000000e+01
        -6.2500000000000000e+01 -6.2500000000000000e+01
        -6.2500000000000000e+01 -6.2500000000000000e+01
        -6.2500000000000000e+01 -6.2500000000000000e+01
        -4.1864788610883366e+01</alpha>
      <index>
        89 90 93 94 95 101 102 106 107 111 112 113 114 115 117 118 119
        121 156 157 161 162 163 165 166 167 168 169 170 171 173 174 175
        176 177 178 179</index></_>
    <_>
      <sv_count>49</sv_count>
      <rho>9.6061659288834134e-01</rho>
      <alpha>
        6.2500000000000000e+01 3.5879399364280687e+01
        6.2500000000000000e+01 6.2500000000000000e+01
        3.9751285640648071e+01 6.2500000000000000e+01
        6.2500000000000000e+01 6.2500000000000000e+01
        6.2500000000000000e+01 6.2500000000000000e+01
        1.4780344360207662e+01 6.2500000000000000e+01
        1.1780143570042277e+01 3.9346546472264826e+01
        1.2674149697525756e+01 2.2025761219451734e+01
        6.2500000000000000e+01 6.2500000000000000e+01
        9.8632941224273942e+00 6.2500000000000000e+01
        6.3341815101628518e-01 6.2500000000000000e+01
        1.1333857144890397e+01 6.2500000000000000e+01
        6.2500000000000000e+01 6.2500000000000000e+01
        6.2500000000000000e+01 -6.2500000000000000e+01
        -6.2500000000000000e+01 -6.2500000000000000e+01
        -7.5951149105718896e+00 -6.2500000000000000e+01
        -6.2500000000000000e+01 -6.2500000000000000e+01
        -6.2500000000000000e+01 -6.2500000000000000e+01
        -2.5305487258820609e+01 -6.2500000000000000e+01
        -6.2500000000000000e+01 -6.2500000000000000e+01
        -6.2500000000000000e+01 -6.2500000000000000e+01
        -6.2500000000000000e+01 -6.2500000000000000e+01
        -6.2500000000000000e+01 -4.4306324138312846e+01
        -6.2500000000000000e+01 -6.2500000000000000e+01
        -5.8361273435049760e+01</alpha>
      <index>
        122 124 125 126 127 129 132 133 134 135 136 138 139 140 141 142
        143 144 146 147 148 149 150 152 153 154 155 157 158 159 160 161
        162 163 164 165 166 167 168 169 172 173 174 175 176 177 178 179
        180</index></_></decision_functions></opencv_ml_svm>
</opencv_storage>
